tree
version=v4
num_class=1
num_tree_per_iteration=1
label_index=0
max_feature_idx=89
objective=binary sigmoid:1
feature_names=map_name event_id stars format t1_rating t1_adr t1_kast t1_win_rate t1_ct_wr t1_t_wr t1_round_diff t1_n t2_rating t2_adr t2_kast t2_win_rate t2_ct_wr t2_t_wr t2_round_diff t2_n t1_onmap_rating t1_onmap_adr t1_onmap_kast t1_onmap_win_rate t1_onmap_ct_wr t1_onmap_t_wr t1_onmap_round_diff t1_onmap_n t2_onmap_rating t2_onmap_adr t2_onmap_kast t2_onmap_win_rate t2_onmap_ct_wr t2_onmap_t_wr t2_onmap_round_diff t2_onmap_n diff_rating diff_onmap_rating diff_adr diff_onmap_adr diff_kast diff_onmap_kast diff_win_rate diff_onmap_win_rate diff_ct_wr diff_onmap_ct_wr diff_t_wr diff_onmap_t_wr diff_round_diff diff_onmap_round_diff t1_avg_player_rating t1_avg_player_adr t1_avg_player_kast t1_onmap_avg_player_rating t1_onmap_avg_player_adr t1_roster_size_hist t1_onmap_roster_size_hist t2_avg_player_rating t2_avg_player_adr t2_avg_player_kast t2_onmap_avg_player_rating t2_onmap_avg_player_adr t2_roster_size_hist t2_onmap_roster_size_hist diff_avg_player_rating diff_avg_player_adr diff_onmap_avg_player_rating diff_onmap_avg_player_adr h2h_n h2h_t1_wr t1_rest_days t2_rest_days diff_rest_days t1_rank t2_rank t1_points t2_points diff_rank diff_points t1_is_ranked t2_is_ranked event_prize_pool_usd event_type event_has_prize event_num_attending map_picked_by t1_picks t1_bans t2_picks t2_bans
feature_infos=-1:0:5:4:1:3:2:8:6:7 [1040:8607] none -1:1:0:2 none none none [0:1] [0:1] [0.125:0.875] [-12:10] [0:10] none none none [0:1] [0:1] [0:1] [-12:11] [0:10] none none none [0:1] [0:1] [0:1] [-13:13] [0:10] none none none [0:1] [0:1] [0:1] [-12:12] [0:10] none none none none none none [-1:0.90000000000000002] [-1:1] [-0.59999999999999998:0.5641025641025641] [-0.69999999999999996:0.69230769230769229] [-0.45681818181818179:0.51485148514851486] [-0.61682242990654201:0.6310679611650486] [-14.9:14.800000000000001] [-15:17.5] [0.59499999999999997:1.514] [53.853333333333332:89.919999999999987] [44.950000000000003:85.909999999999997] [0.48499999999999999:1.8359999999999999] [44.619999999999997:98.300000000000011] [0:5] [0:5] [0.48499999999999999:1.5720000000000001] [39.926666666666662:93.825000000000003] [41.25333333333333:86.679999999999993] [0.41000000000000003:1.7133333333333332] [38.399999999999999:98] [0:5] [0:5] [-0.49430000000000018:0.64289999999999992] [-24.859000000000009:33.957333333333324] [-0.69777777777777761:0.7320000000000001] [-28.088888888888889:40.676666666666662] [0:5] [0:1] [0.03125:314.70486111111109] [0.03125:430.91262731481481] [-430.2424884259259:312.57986111111109] [1:201] [1:252] [0:1000] [0:1000] [-237:185] [-958:976] [0:1] [0:1] [5354:1250000] -1:0 [0:1] [2:217] -1:1:0 [0:4] [0:6] [0:4] [0:6]
tree_sizes=3341 3463 3462 3467 3447 3464 3452 3458 3472 3487 3465 3467 3466 3463 3465 3467 3452 3462 3480 3450 3463 3450 3464 3474 3471 3451 3462 3481 3490 3468 3470 3453 3475 3471 3479 3460 3453 3483 3494 3454 3460 3476 3473 3466 3463 3487 3442 3495 3463 3462 3459 3453 3496 3454

Tree=0
num_leaves=31
num_cat=0
split_feature=78 78 78 67 76 60 10 24 70 15 50 81 9 34 24 54 47 51 61 10 47 48 58 42 71 1 17 77 17 17
split_gain=228.754 30.6816 26.814 20.1442 19.769 19.3343 13.4811 12.6366 17.0251 12.1844 11.9679 11.259 13.4109 10.4127 10.319 10.2213 10.0167 11.1048 10.4815 9.64706 9.38366 8.99561 14.4016 9.68992 10.0752 8.95214 8.66283 8.65766 10.69 10.5473
threshold=1.0000000180025095e-35 221.50000000000003 -107.49999999999999 -4.4933333333333314 16.500000000000004 1.0474166666666669 -2.8874999999999997 0.48804761904761912 2.1996527777777781 0.5277777777777779 1.0655277777777779 7572.0000000000009 0.45049995049995056 -1.5277777777777775 0.42330316742081453 65.448333333333352 0.0015291666168130438 76.993000000000009 70.131333333333359 -1.2611111111111108 0.19024281424281428 0.72777777777777797 69.763500000000022 -0.10000000000000001 1.7048611111111114 7671.5000000000009 0.51739261947973392 -12.499999999999998 0.52467131959097568 0.47466187296695778
decision_type=8 10 10 10 8 10 8 8 10 8 8 10 10 10 10 10 8 8 10 8 8 10 10 10 10 2 10 8 10 10
left_child=2 4 6 13 -2 -3 -1 -8 16 -7 11 -6 -13 -4 -14 -12 25 18 -18 -5 21 23 -23 24 -17 -9 -11 -24 29 -29
right_child=1 5 3 19 10 9 7 8 -10 26 15 12 14 -15 -16 20 17 -19 -20 -21 -22 22 27 -25 -26 -27 -28 28 -30 -31
leaf_value=0.11023299584061468 0.17248026259547936 0.18194385682668354 0.15395766070233774 0.13653085485946878 0.15937367658003537 0.17290140176043908 0.11862158744527526 0.14481253354803092 0.11761516421034197 0.13177041894225747 0.12726390508120175 0.15859219933706203 0.15981556383057066 0.12106915179537113 0.1269583206235454 0.13850824745994647 0.13560260015029707 0.12275047683816021 0.17010916089384168 0.15451432221023217 0.17356699550079283 0.16889591340197313 0.1295473280371621 0.17504750489674439 0.17815367565082019 0.11908730292291994 0.15961576729902074 0.14181347729242341 0.12508130510222648 0.17294647201784225
leaf_weight=37.786428570747375 68.612199246883392 95.95764097571373 10.440986841917036 37.786428570747375 46.487250939011574 53.199313908815384 58.668402254581451 27.842631578445435 33.560314849019051 12.678341165184973 7.7064426690340033 26.102467104792595 9.9437969923019391 44.498491540551186 45.990061089396477 17.153049811720852 10.440986841917036 7.9550375938415518 25.605277255177498 86.262438908219337 39.526593044400215 29.582796052098274 22.870733082294464 39.526593044400215 7.4578477442264548 21.379163533449173 37.04064379632473 17.153049811720848 9.6952020674943906 20.633378759026527
leaf_count=152 276 386 42 152 187 214 236 112 135 51 31 105 40 179 185 69 42 32 103 347 159 119 92 159 30 86 149 69 39 83
internal_value=0.151029 0.162643 0.133505 0.142221 0.157906 0.172285 0.126585 0.130113 0.135636 0.163061 0.154907 0.1477 0.141054 0.127275 0.132866 0.159282 0.142401 0.152796 0.159989 0.148971 0.160601 0.157354 0.151685 0.16603 0.151144 0.133242 0.152291 0.144288 0.151668 0.158961
internal_weight=1009.54 607.317 402.227 178.988 408.441 198.876 223.238 185.452 126.783 102.918 339.829 128.524 82.0363 54.9395 55.9339 211.306 93.2231 44.0013 36.0463 124.049 203.599 164.073 99.9352 64.1375 24.6109 49.2218 49.719 70.3524 47.4816 37.7864
internal_count=4061 2443 1618 720 1643 800 898 746 510 414 1367 517 330 221 225 850 375 177 145 499 819 660 402 258 99 198 200 283 191 152
is_linear=0
shrinkage=1


Tree=1
num_leaves=31
num_cat=0
split_feature=78 64 52 78 78 67 32 76 17 75 74 47 8 71 35 24 78 50 58 76 59 34 54 51 57 15 25 47 51 72
split_gain=215.509 29.5364 26.3293 18.1729 17.4908 15.3338 14.6709 14.6289 11.9408 11.3093 10.4227 10.4624 9.51345 8.47438 12.9754 11.7608 11.9603 10.8128 9.1978 8.29242 8.23882 8.68981 8.3385 8.88338 8.39866 10.0358 8.21387 8.01555 8.93741 7.92711
threshold=1.0000000180025095e-35 0.057886363636363687 66.994616550116561 -107.49999999999999 226.50000000000003 -4.4933333333333314 0.50438630242400928 16.500000000000004 0.49809160305343519 116.50000000000001 65.500000000000014 0.12418344329205656 0.58113883113883125 1.0920138888888891 7.5000000000000009 0.49456457520973657 -263.49999999999994 1.0057447368421055 73.624500000000012 92.500000000000014 75.288500000000013 -0.64583333333333315 75.561666666666682 69.754333333333349 1.0798500000000002 0.5277777777777779 0.5979886800080858 0.1372531153458989 75.153500000000022 -1.0000000180025095e-35
decision_type=8 8 8 10 10 10 8 10 10 10 8 8 10 10 2 8 10 10 10 10 10 8 10 10 10 10 8 10 8 10
left_child=2 6 19 13 7 -5 8 -3 10 -10 11 -2 27 15 -15 17 -17 -4 -18 -1 21 -8 23 -23 -24 -26 -11 28 -9 -6
right_child=1 4 3 5 29 -7 20 12 9 26 -12 -13 -14 14 -16 16 18 -19 -20 -21 -22 22 24 -25 25 -27 -28 -29 -30 -31
leaf_value=-0.0087913352982982237 -0.021366158772323944 0.024790737612600325 -0.00069339531153843976 -0.020758426841864866 0.036110326290336794 -0.00030892885253623462 0.037666817063125226 0.00037676516975806426 -0.023179201328113488 0.01719114024919053 0.018794593666992886 0.0076619684994643821 -0.0090608200907350174 -0.0013600485786804226 -0.035699028370808371 -0.020236153016434361 -0.013135786930033845 -0.034565479267391827 0.01310751049291491 -0.04441684266944599 -0.0034981092418786522 -0.0065542611204169347 -0.021805171762463233 0.019780917008466764 0.031688861244961203 -0.0093313681061041372 -0.014455114812990845 0.027991747263134362 0.020875955941876235 0.01960337985508874
leaf_weight=7.7138593196868888 47.963881433010101 62.789230644702911 10.962871059775351 44.81752747297287 55.559392601251602 118.08658084273338 12.16993787884712 59.135917946696281 8.4497781544923765 46.683067634701729 8.6911292970180494 13.912876799702643 25.343776494264603 12.447138771414755 49.060310408473015 40.557999417185783 20.153640598058701 37.118437677621841 26.861552432179451 34.877640798687935 27.827753648161888 12.919222295284269 10.935363546013834 80.979614496231079 8.9366729259490985 10.932440698146818 7.9458032250404349 19.613854393362999 27.32996965944767 58.566665664315224
leaf_count=31 193 253 44 180 224 475 49 238 34 188 35 56 102 50 197 163 81 149 108 140 112 52 44 326 36 44 32 79 110 236
internal_value=0.000783294 0.0120694 -0.0162092 -0.0134956 0.0185682 -0.00602724 0.00531329 0.0129796 -0.00206758 0.0073562 -0.0104763 -0.0148212 0.00719203 -0.0196048 -0.0288828 -0.0152174 -0.00850876 -0.0270139 0.00181871 -0.0383143 0.0112788 0.0142867 0.0117235 0.0161267 -0.0017833 0.00975297 0.0124111 0.0111234 0.00702071 0.0278832
internal_weight=1009.34 606.686 402.658 360.066 308.339 162.904 298.348 194.213 133.647 63.0786 70.5679 61.8768 131.424 197.162 61.5074 135.655 87.5732 48.0813 47.0152 42.5915 164.701 136.873 124.703 93.8988 30.8045 19.8691 54.6289 106.08 86.4659 114.126
internal_count=4061 2443 1618 1447 1242 655 1201 782 538 254 284 249 529 792 247 545 352 193 189 171 663 551 502 378 124 80 220 427 348 460
is_linear=0
shrinkage=0.03


Tree=2
num_leaves=31
num_cat=1
split_feature=77 64 52 50 46 46 84 77 54 77 16 73 66 61 24 75 64 59 47 3 81 61 10 54 65 61 72 48 61 73
split_gain=200.234 28.7954 23.9057 15.7126 14.8586 10.2462 9.74687 9.68975 9.47304 9.35779 14.4749 9.14322 9.12189 11.8309 9.23764 10.8764 9.04046 8.94111 9.37919 8.81807 8.4591 8.38407 8.15739 8.20843 7.84887 7.75801 7.67876 11.8694 7.62001 7.56356
threshold=1.0000000180025095e-35 0.057886363636363687 66.994616550116561 1.0338500000000004 0.031053407601572745 0.020955246785182766 18.000000000000004 10.500000000000002 64.242000000000019 -23.499999999999996 0.36924989639452971 4.5000000000000009 -0.11783333333333322 70.638833333333352 0.49456457520973657 40.500000000000007 0.019506209150326862 70.525500000000022 -0.25541684186744146 0 117500.00000000001 71.497916666666683 -1.211111111111111 80.328333333333347 3.5798397129186559 76.795000000000002 0.00694444444444449 0.30000000000000021 78.215000000000018 16.500000000000004
decision_type=10 8 8 10 8 8 2 10 10 8 8 10 10 10 8 10 8 10 8 1 10 10 10 8 8 10 8 8 10 8
left_child=1 3 7 5 17 29 22 -2 -3 11 -11 -10 14 -14 -6 -16 20 21 -19 -20 -7 -4 -5 26 -13 -15 -24 -28 -21 -1
right_child=2 8 4 6 12 16 -8 -9 9 10 -12 24 13 25 15 -17 -18 18 19 28 -22 -23 23 -25 -26 -27 27 -29 -30 -31
leaf_value=0.014173417068871279 -0.007603387247987382 -0.0084436535923881877 -0.017446807829544886 0.029037590994214397 -0.038500758889442981 -0.0071091327860732401 -0.0073094862045979935 -0.044003198050459463 0.046018336280856872 -0.021765466025819333 0.016309520794184434 0.0038333869173510634 -0.014865788484138281 0.017858770508493601 -0.022444031432343279 0.019932523679478596 0.007625745698701239 -0.046428804299960866 -0.019579364461685872 0.010055717844829568 -0.04432278690368642 0.011312340226478011 0.019019360585919794 -0.012977361448469447 0.025233270545339824 -0.012832379822609144 0.015942812989684092 -0.0054005574657051388 -0.024244661135798016 -0.0085713614001051482
leaf_weight=23.588294953107834 8.7221660614013654 11.163983687758444 16.428155094385147 20.590209797024727 9.9692941755056399 9.934788256883623 27.564714655280113 33.449673727154732 16.321094438433647 8.6820817291736585 157.45836034417152 18.837711185216904 20.899303436279297 36.562912955880165 11.460758000612261 8.7175267338752729 7.695100978016856 9.9750393480062467 193.7720640450716 17.675305753946308 12.689568802714346 18.176119402050972 65.013050273060799 12.918584257364271 95.353661403059959 8.4657878130674344 46.900928989052773 45.195837393403053 7.4748714119195929 27.343307927250862
leaf_count=95 35 45 66 83 40 40 111 134 66 35 635 76 84 147 46 35 31 40 778 71 51 73 262 52 385 34 189 182 30 110
internal_value=0.000760185 0.0116235 -0.015648 0.00497478 -0.013069 -0.00623251 0.00915775 -0.0368253 0.018054 0.0190762 0.0142015 0.0251265 -0.00293063 0.00334402 -0.0163191 -0.00405957 -0.0197382 -0.0167405 -0.0188812 -0.0174207 -0.0289742 -0.00244743 0.0115647 0.00929139 0.0217669 0.0119351 0.011193 0.0055232 -0.000675972 0.00203266
internal_weight=1009 607.251 401.749 299.434 359.577 81.2511 218.183 42.1718 307.817 296.653 166.14 130.512 96.0756 65.928 30.1476 20.1783 30.3195 263.502 228.897 218.922 22.6244 34.6043 190.619 170.028 114.191 45.0287 157.11 92.0968 25.1502 50.9316
internal_count=4061 2448 1613 1206 1444 327 879 169 1242 1197 670 527 386 265 121 81 122 1058 919 879 91 139 768 685 461 181 633 371 101 205
cat_boundaries=0 1
cat_threshold=2
is_linear=0
shrinkage=0.03


Tree=3
num_leaves=31
num_cat=0
split_feature=78 78 52 60 76 78 67 72 51 47 25 25 18 46 44 44 53 42 32 48 77 71 49 61 78 1 46 73 77 67
split_gain=191.446 27.0973 23.3363 17.8646 17.2254 16.7027 14.3243 12.4637 11.8279 11.7531 10.4609 13.22 9.40041 9.32585 8.64516 10.5012 10.9031 9.0515 8.23471 10.3845 14.7945 7.95866 8.71089 10.1279 10.4362 7.97599 7.86914 9.52137 7.86678 7.77131
threshold=1.0000000180025095e-35 221.50000000000003 66.994616550116561 1.0474166666666669 16.500000000000004 -107.49999999999999 -1.6450000000000029 0.039930555555555532 70.108242424242448 0.19024281424281428 0.6237091451080593 0.47248420870468116 0.27500000000000008 0.011235972923416411 0.016504532180376955 0.037249109096287487 1.0898333333333337 -0.041666666666666678 0.54067843353557654 -0.69999999999999996 -9.4999999999999982 1.0920138888888891 -0.19999999999999982 67.553333333333342 -150.49999999999997 7439.5000000000009 0.019978991596638688 29.500000000000004 10.500000000000002 2.3650000000000024
decision_type=8 10 8 10 10 10 10 8 8 10 10 8 10 10 8 8 10 8 10 10 8 10 8 10 8 2 8 10 10 10
left_child=2 4 28 -3 12 21 26 -5 13 14 11 -8 -2 -6 18 16 -16 -17 19 20 -10 22 -4 -24 -25 -23 -7 -28 -1 -13
right_child=1 3 5 7 8 6 10 -9 9 -11 -12 29 -14 -15 15 17 -18 -19 -20 -21 -22 25 23 24 -26 -27 27 -29 -30 -31
leaf_value=-0.010133006838648028 0.021749812281453645 0.029801823224611754 -0.020767089010731935 0.023958919537896212 0.00034366126552754433 -0.022155348127050254 -0.015003874140358774 0.0027854927968167533 0.020734973498596546 0.028015428533094078 -0.026075995903466619 0.025055013958595274 -0.011329833855362485 -0.02888532093272736 0.0033979153382590489 0.029936916815958624 -0.034619258808396787 0.00077020878814549275 0.022262120619632959 0.015693028602215168 -0.019540032987436624 -0.0087656283059629695 -0.032846452676206159 -0.0078717226601309857 0.022985071366899121 -0.033887387623346844 0.012444471484690689 -0.02368702032357416 -0.042671741369542306 0.0034456738900707513
leaf_weight=9.2241368442773801 79.636211812496185 95.305290520191193 78.331251174211502 42.054750919342041 24.355975911021233 48.606211081147194 19.161763787269592 60.465642437338829 11.149833664298056 19.062760248780251 9.1988805383443815 26.105420589447021 7.9379852265119544 15.440054714679716 12.165337115526201 9.430692642927168 13.90996642410755 117.62950198352337 35.451238036155701 36.724037602543831 24.566669851541519 16.210433915257454 8.9749528318643552 36.115538835525513 12.435879498720167 45.428482666611671 15.934119060635568 9.7240919917821866 33.489090517163277 34.320211991667747
leaf_count=37 322 386 314 170 98 195 77 244 45 77 37 105 32 62 49 38 56 474 143 148 99 65 36 145 50 182 64 39 134 138
internal_value=0.000734394 0.0113962 -0.0152573 0.0204844 0.00694436 -0.0127027 -0.00554676 0.0116186 0.00368959 0.00587036 0.00258812 0.00618365 0.0186573 -0.0114267 0.00415237 -0.000439905 -0.0174121 0.00315189 0.0106146 0.00468893 -0.00674484 -0.0185528 -0.0143102 -0.00531351 0.000336245 -0.027526 -0.0151775 -0.00162373 -0.0360374 0.0130374
internal_weight=1008.55 605.286 403.26 197.826 407.46 360.547 163.051 102.52 319.886 280.09 88.7863 79.5874 87.5742 39.796 261.027 153.135 26.0753 127.06 107.892 72.4405 35.7165 197.497 135.858 57.5264 48.5514 61.6389 74.2644 25.6582 42.7132 60.4256
internal_count=4061 2443 1618 800 1643 1447 655 414 1289 1129 357 320 354 160 1052 617 105 512 435 292 144 792 545 231 195 247 298 103 171 243
is_linear=0
shrinkage=0.03


Tree=4
num_leaves=31
num_cat=0
split_feature=78 78 52 76 78 59 67 32 46 50 54 26 54 16 33 81 16 74 8 50 52 24 71 35 24 78 50 51 9 77
split_gain=180.462 25.6282 22.0049 16.2878 15.7046 15.4059 13.5993 10.4355 10.0769 9.4004 9.8555 8.31713 7.78813 8.30261 7.7782 7.66409 9.03044 8.55155 7.73665 7.59053 9.89752 9.18233 7.49033 12.0038 10.5974 10.8442 10.176 9.01223 7.41572 7.40486
threshold=1.0000000180025095e-35 221.50000000000003 66.994616550116561 16.500000000000004 -107.49999999999999 71.075000000000017 -4.4933333333333314 0.56683848797250869 0.22307553578406325 1.0421947368421056 66.190666666666687 -1.6458333333333333 75.257500000000007 0.47391107078039935 0.51123737373737377 625000.00000000012 0.50555624151129785 15.500000000000002 0.48164983164983172 1.1892000000000003 76.075000000000031 0.60736889692585905 1.0920138888888891 7.5000000000000009 0.49456457520973657 -263.49999999999994 1.0057447368421055 72.253500000000017 0.50500050005000519 10.500000000000002
decision_type=8 10 8 8 10 10 10 10 8 10 10 10 10 10 10 8 10 10 8 10 10 8 10 2 8 10 10 8 10 10
left_child=2 3 29 -2 22 11 -6 8 9 28 -11 -3 13 -9 -14 16 18 -17 -8 20 21 -7 24 -24 26 -26 -4 -27 -5 -1
right_child=1 5 4 7 6 19 15 12 -10 10 -12 -13 14 -15 -16 17 -18 -19 -20 -21 -22 -23 23 -25 25 27 -28 -29 -30 -31
leaf_value=-0.0098542663033320665 0.020030486219278193 0.003015857940514826 0.00036087358964279 -0.0041137749148062331 -0.019241395316895196 0.01499771378338143 -0.015552652362049968 -8.891653230926626e-05 0.019839870525287351 -0.02731538543564117 0.0049146507055887936 0.032184225683034473 0.020935134400165895 0.034041829305217493 -0.017714719435486685 0.014259671633554027 -0.023547422952123278 -0.005149741310804869 0.02323641282186378 0.028405400166855759 -0.02214882982172579 -0.015733196463523013 -0.00032928386595368071 -0.033240183720504683 -0.018674540729865276 -0.012507800894612751 -0.0323707242982256 0.013462397680968546 -0.027874772266170661 -0.041419708292612475
leaf_weight=9.2287174314260465 68.076459184288979 10.108395025134085 10.982517838478087 55.418944358825684 44.922699645161629 69.93131248652935 7.7152666300535229 8.6810345500707609 24.527095198631287 7.9557873010635367 187.8998319208622 80.495159730315208 7.6803514063358334 23.512520924210548 9.1846340447664243 42.766437947750092 21.148466348648071 37.567745596170425 8.951754301786421 19.759079053997993 7.9180177450180045 9.1560149639844877 12.471450030803679 49.219091713428497 40.669448837637901 20.17493449151516 37.226172685623169 26.875411152839661 14.196591272950171 33.496390342712402
leaf_count=37 276 41 44 223 180 283 31 35 99 32 758 327 31 95 37 172 85 151 36 80 32 37 50 197 163 81 149 108 57 134
internal_value=0.000711065 0.0110744 -0.0148069 0.00674543 -0.0123269 0.0199252 -0.00538773 0.00402698 0.00183679 0.000105263 0.00347334 0.0289984 0.0166784 0.025113 7.31257e-05 -3.02665e-06 -0.0109709 0.00523127 0.00541673 0.0120278 0.00802789 0.0112879 -0.017997 -0.0266983 -0.0138819 -0.00752639 -0.0250583 0.00229796 -0.00928544 -0.0349828
internal_weight=1007.92 604.501 403.417 407.133 360.691 197.368 163.072 339.057 289.998 265.471 195.856 90.6036 49.0585 32.1936 16.865 118.15 37.8155 80.3342 16.667 106.764 87.0053 79.0873 197.619 61.6905 135.928 87.7198 48.2087 47.0503 69.6155 42.7251
internal_count=4061 2443 1618 1643 1447 800 655 1367 1169 1070 790 368 198 130 68 475 152 323 67 432 352 320 792 247 545 352 193 189 280 171
is_linear=0
shrinkage=0.03


Tree=5
num_leaves=31
num_cat=0
split_feature=78 65 50 32 78 78 51 48 10 84 53 61 59 45 10 81 66 78 57 70 72 49 66 54 73 57 44 54 70 50
split_gain=157.197 23.2175 18.9721 13.2585 12.7425 12.1918 11.0303 11.1672 10.178 10.1733 9.75508 9.34231 8.70681 11.5108 8.68506 10.4889 10.2922 8.88814 9.7575 8.619 9.57933 11.2632 12.3173 9.9023 12.3546 10.9087 9.02206 9.00944 8.27611 8.92324
threshold=1.0000000180025095e-35 4.8810389610389615 0.93362777777777795 0.56543697848045682 226.50000000000003 -93.499999999999986 70.108242424242448 -0.49999999999999983 -0.89444444444444426 18.000000000000004 1.0534166666666669 74.889166666666682 70.982000000000014 -0.0023452419726812386 1.0000000180025095e-35 1125000.0000000002 -0.1433333333333334 -35.499999999999993 1.125416666666667 24.956597222222225 0.046874999999999951 -0.48333333333333323 0.02933333333333327 72.258333333333354 14.500000000000002 1.0881500000000004 0.010729043683589153 71.718333333333348 1.8767361111111114 1.0298375000000004
decision_type=8 8 8 8 10 10 10 10 8 2 8 10 10 10 10 10 10 8 10 10 10 8 10 10 10 10 10 8 8 8
left_child=2 3 -1 6 -3 10 7 -2 -7 19 -4 -11 13 -12 16 17 -10 18 -16 20 23 -22 27 25 -25 -8 -26 -23 -14 -30
right_child=1 4 5 -5 -6 8 9 -9 14 11 12 -13 28 -15 15 -17 -18 -19 -20 -21 21 22 -24 24 26 -27 -28 -29 29 -31
leaf_value=-0.039657999290325742 0.0032835677531918763 0.013271943065774817 -0.024436608333347327 0.014777251956133778 0.030829217367504009 -0.015829965867965014 0.0093619763399158239 -0.031532406572055187 -0.012434183600834805 0.00027140462597026265 0.023954880162510211 -0.030373306877245113 -0.0090329232695809045 -0.015128130494494522 0.010515944214779535 0.021233817712278193 0.028368878281370045 -0.025443991832203219 -0.02417489503283448 0.029473269949818224 0.014691381837039299 -0.041200508540656863 0.0019662490245133829 0.025857038843550881 0.019839382356326266 -0.025437382320368681 -0.021927599801371454 -0.0074514361761883214 0.0026801313587429517 -0.033359730843448752
leaf_weight=24.724490433931351 16.645227476954464 128.34646710753441 95.660110980272293 109.27396936714649 53.444812461733818 55.103883996605873 28.695868045091629 15.19144946336746 7.4872404634952572 29.197683319449425 12.219735622406008 11.90198042988777 69.78603221476078 12.970683097839354 21.888737425208095 10.183242574334143 16.39483554661274 20.908032312989235 9.712825194001196 13.334543690085409 33.19564314186573 11.139493331313135 65.552622765302658 52.062220320105553 7.4292880594730404 10.151791796088217 9.4262529611587507 18.589234411716461 7.4903626888990393 30.959739744663239
leaf_count=99 67 520 383 442 218 221 116 61 30 118 49 48 280 52 88 41 66 84 39 54 134 45 265 211 30 41 38 75 30 124
internal_value=0.00010381 0.00960497 -0.0146237 0.00579462 0.018574 -0.0128521 0.00271485 -0.0137839 -0.00587636 0.00456295 -0.017122 -0.00911361 -0.011735 0.00402158 0.000567405 -0.00531064 0.0155911 -0.0107591 -0.000560855 0.00684255 0.00544633 -9.94845e-05 -0.00535163 0.0119981 0.0187455 -0.00014205 -0.0034382 -0.0210266 -0.0154053 -0.0264489
internal_weight=1009.07 613.579 395.49 431.787 181.791 370.765 322.513 31.8367 141.679 290.677 229.087 41.0997 133.427 25.1904 86.5749 62.6928 23.8821 52.5096 31.6016 249.577 236.242 128.477 95.2814 107.765 68.9178 38.8477 16.8555 29.7287 108.236 38.4501
internal_count=4069 2483 1586 1745 738 1487 1303 128 569 1175 918 166 535 101 348 252 96 211 127 1009 955 519 385 436 279 157 68 120 434 154
is_linear=0
shrinkage=0.03


Tree=6
num_leaves=31
num_cat=0
split_feature=78 52 78 74 74 32 47 33 50 8 74 61 50 75 24 78 47 43 48 46 54 24 52 54 72 78 32 70 68 50
split_gain=148.086 19.058 18.0797 17.6034 14.7631 14.3115 13.8007 11.7647 11.2908 11.7283 12.4041 10.7154 10.666 12.0018 9.78328 10.029 9.06492 8.744 9.60806 8.4973 10.5287 9.18344 8.36183 8.50637 8.20258 9.78254 8.36034 7.5794 7.48361 7.20704
threshold=1.0000000180025095e-35 65.109000000000023 221.50000000000003 17.500000000000004 54.500000000000007 0.56683848797250869 0.0015291666168130438 0.55966726003012468 1.0421947368421056 0.51935564435564452 27.500000000000004 74.487333333333353 1.1892000000000003 587.50000000000011 0.51229590808304792 -122.49999999999999 0.14351457721022939 0.30714285714285722 0.59999999999999998 0.02501239982684306 73.731666666666669 0.50675799086758 72.597500000000011 71.074666666666687 0.27083333333333337 -233.99999999999997 0.48130677847658981 0.96006944444444453 2.5000000000000004 1.1448958333333337
decision_type=8 8 8 10 10 10 8 10 10 10 10 10 10 8 10 10 10 10 10 10 10 8 10 10 10 10 10 10 2 10
left_child=1 -1 4 12 5 8 14 -5 19 16 17 -9 13 -4 -3 -16 -10 18 -11 20 21 -2 23 -7 25 26 -8 -17 -20 -26
right_child=2 6 3 7 -6 22 24 11 9 10 -12 -13 -14 -15 15 27 -18 -19 28 -21 -22 -23 -24 -25 29 -27 -28 -29 -30 -31
leaf_value=-0.041644614013732331 -0.0045572898561613735 -0.023204182115926529 0.016532735257388624 0.028231524170427416 0.01701579781708671 0.027220365664616566 -0.038977568381832535 -0.024236996043192238 0.0069898843127216975 0.016317868924400042 -0.015969157325471422 0.020921401377576816 0.027330545266527159 -0.0060759531620072178 -0.018131623673240872 -0.020919055852758828 0.033122573712087364 0.02371287716172767 -0.019115258876851223 -0.025622614430847672 -0.030240139715198882 0.030363793494973861 0.030238846572899221 -0.0077247334940415847 -0.010511720067794373 0.0039312026506601663 -0.004647172187542006 0.012011006600406857 0.0094532915410947618 -0.039537606474618833
leaf_weight=20.710694327950478 23.345659434795383 122.57931692898273 33.515443965792656 97.995126411318779 78.204221174120903 8.8811471462249774 8.7448776215314883 7.3874227106571224 78.499629661440849 17.578936025500298 42.107006296515465 9.8461964875459653 18.436688020825386 53.592786744236946 46.197300747036934 7.4676077365875271 13.306676104664801 15.339091271162031 24.78987418115139 22.426395729184151 8.6994406729936582 8.4361291676759702 22.705724373459816 16.309166684746742 56.579981327056885 81.917699813842773 19.462128758430481 23.654474318027496 11.40074363350868 8.2274747639894468
leaf_count=83 94 491 136 400 318 36 35 30 317 71 170 40 75 217 185 30 54 62 100 90 35 34 92 66 227 329 78 95 46 33
internal_value=9.8002e-05 -0.0141915 0.00932943 0.0161812 0.00543947 0.0025098 -0.0125678 0.0242489 -0.00023206 0.00321557 -0.00332859 0.00129605 0.00722838 0.0027118 -0.017941 -0.00940729 0.0110937 0.00449108 -0.00132526 -0.0112348 -0.00283854 0.00535561 0.0174266 0.00516449 -0.00636071 -0.00134044 -0.0162606 0.00370433 -0.0101034 -0.0147414
internal_weight=1008.35 395.542 612.804 220.774 392.03 313.826 374.831 115.229 265.93 203.022 111.216 17.2336 105.545 87.1082 199.899 77.3194 91.8063 69.1086 53.7696 62.9076 40.4812 31.7818 47.896 25.1903 174.932 110.125 28.207 31.1221 36.1906 64.8075
internal_count=4069 1586 2483 898 1585 1267 1503 470 1073 820 449 70 428 353 801 310 371 279 217 253 163 128 194 102 702 442 113 125 146 260
is_linear=0
shrinkage=0.03


Tree=7
num_leaves=31
num_cat=0
split_feature=78 64 52 47 73 64 61 32 84 67 25 9 77 74 8 58 60 58 72 78 44 32 71 77 25 76 71 53 64 64
split_gain=139.675 22.7852 18.0547 12.9622 12.0547 11.6864 13.2921 11.2611 11.0673 11.8738 11.4254 11.0358 9.78755 9.2751 9.13004 10.5125 9.04168 7.9089 7.72523 9.38898 11.2553 7.87986 9.73885 7.68237 7.44237 7.39869 7.289 7.6998 6.97047 6.88749
threshold=1.0000000180025095e-35 0.13829861111111111 65.109000000000023 0.0015291666168130438 4.5000000000000009 0.028930769230769208 74.098333333333343 0.56543697848045682 18.000000000000004 -2.0962499999999973 0.55110075526273505 0.49519186315302827 -20.499999999999996 27.500000000000004 0.56343617259110224 72.318500000000014 1.0415000000000003 70.477000000000018 0.27083333333333337 -91.499999999999986 -0.073099971695995455 0.50952467343976793 0.96701388888888895 -6.4999999999999991 0.42136968928344964 558.00000000000011 0.89409722222222243 1.1681666666666668 0.047250000000000021 -0.056049999999999926
decision_type=8 8 8 8 10 10 10 8 2 10 8 10 8 10 10 10 10 10 10 10 10 10 10 8 10 10 10 10 8 10
left_child=2 7 -1 5 -3 -4 -7 8 9 10 14 -10 -11 23 15 17 -13 -2 19 20 -5 -21 -23 26 -6 -22 -14 -28 -12 -9
right_child=1 4 3 18 24 6 -8 29 11 12 28 16 13 -15 -16 -17 -18 -19 -20 21 25 22 -24 -25 -26 -27 27 -29 -30 -31
leaf_value=-0.040523248918433417 0.010979861795302555 0.041660817026405624 -0.020637755295174056 -0.025806105252672878 -0.0032410520878885575 -0.017543140853179894 0.019460690567503741 -0.00037934825611667247 -0.025992831440513738 0.021652226473303775 -0.035292067122542972 0.018690432592640249 0.031651121668172286 -0.011337098587214586 -0.021932092058544288 0.017327708602349962 -0.01505386753881059 -0.02477630682578566 -0.014314749441550451 0.021264971395385742 0.0075731692479461031 0.018055181811198875 -0.024066622059414945 0.0020196810283013198 0.019086193052895134 -0.017583920252677882 0.01697439818495523 -0.0059914970265341674 -0.00042124047498186452 0.017497113580683721
leaf_weight=20.673489719629288 9.1504963487386721 19.217691108584404 166.5322542488575 20.957477509975433 15.254919320344923 18.705441758036613 14.698322281241415 24.192107304930687 20.604473561048508 43.451138868927956 13.144975677132605 14.059448242187502 17.740892052650452 23.572433054447174 10.64709362387657 34.133166506886482 12.624011144042013 11.650123283267019 64.840158104896545 22.879134595394135 34.374887838959694 8.2131876349449175 9.7095875442028028 81.381783664226532 97.342286735773087 13.97567695379257 41.136692509055138 18.478309124708176 8.1597126573324221 96.020292937755585
leaf_count=83 37 79 667 84 62 75 59 98 83 177 53 57 72 95 43 138 51 47 260 92 138 33 39 329 397 56 167 75 33 390
internal_value=9.47563e-05 0.0090702 -0.0137788 -0.0122001 0.0200774 -0.017407 -0.00116834 0.00601294 0.0033388 0.00538911 -0.00400184 -0.0100478 0.00900499 0.00588901 0.00227332 0.00727297 0.00275882 -0.00926452 -0.00618449 -0.0013111 -0.00799436 0.00996106 -0.00483004 0.00850204 0.0160593 9.25806e-05 0.015209 0.00987447 -0.0225542 0.0139261
internal_weight=1007.52 611.962 395.56 374.886 131.815 199.936 33.4038 480.147 359.935 312.647 86.8856 47.2879 225.761 182.31 65.5809 54.9338 26.6835 20.8006 174.95 110.11 69.308 40.8019 17.9228 158.738 112.597 48.3506 77.3559 59.615 21.3047 120.212
internal_count=4069 2483 1586 1503 538 801 134 1945 1457 1266 351 191 915 738 265 222 108 84 702 442 278 164 72 643 459 194 314 242 86 488
is_linear=0
shrinkage=0.03


Tree=8
num_leaves=31
num_cat=0
split_feature=78 64 52 47 73 64 32 60 67 46 50 47 50 64 16 60 57 44 65 70 52 50 25 77 52 64 53 64 32 53
split_gain=131.623 21.5935 17.1361 12.1865 11.5548 11.0082 10.6363 10.3216 10.2724 15.7753 8.87518 8.49838 7.34177 8.23158 11.7258 9.00821 9.01235 8.87029 7.56079 9.13463 11.2466 8.15352 7.04137 6.93245 6.90331 6.50999 6.5026 6.41687 6.38561 6.13575
threshold=1.0000000180025095e-35 0.13829861111111111 65.109000000000023 0.0015291666168130438 4.5000000000000009 0.030900000000000042 0.56543697848045682 1.0575000000000003 -2.0962499999999973 0.014187982859787509 1.0198285714285718 -0.040945382114362404 1.1726833333333337 0.0093371031746030137 0.47849213691026832 1.073466666666667 1.049838888888889 -0.069271876046770722 0.3349999999999938 1.1163194444444446 71.942500000000024 1.0376355263157897 0.42136968928344964 -3.4999999999999996 71.868500000000026 -0.056049999999999926 1.090916666666667 0.022456140350877177 0.52193151212004629 1.217166666666667
decision_type=8 8 8 8 10 10 8 10 10 10 10 8 10 10 10 8 10 8 10 8 10 10 10 8 10 10 10 8 8 10
left_child=2 6 -1 5 -3 -4 8 -7 9 -2 -10 -11 13 17 -15 16 -16 -5 19 24 21 28 -6 29 -19 -8 -25 -13 -21 -12
right_child=1 4 3 12 22 7 25 -9 10 11 23 27 -14 14 15 -17 -18 18 -20 20 -22 -23 -24 26 -26 -27 -28 -29 -30 -31
leaf_value=-0.039461953828916096 0.0070516802879399309 0.040754500326736172 -0.019922430653767486 -0.020623427839767835 -0.0031486341213788115 -0.023337087215172806 -0.00036840540757556957 0.011536902757111299 -0.0097758302157693062 -0.00044322753014496089 0.013284989150152651 -0.042492830241151795 -0.025599893437491434 -0.013397439447204897 0.021838290178642195 0.035324173264258643 -0.019397629281309812 0.0025628942408647605 -0.023374261493587203 0.0065699745741692852 -0.033908734914091646 0.026706131502163805 0.018569276087256604 -0.017810229232267143 0.032513101488366357 0.017014722557776248 0.0053927675361041781 -0.014121821867394552 -0.026415338531737196 -0.0017814684334286604
leaf_weight=20.620271757245064 49.743201151490211 19.080021545290947 168.29755134880543 35.427120104432106 15.260859474539755 10.720207601785662 24.193101093173027 20.932465076446533 26.578384026885033 18.819621726870537 154.79061844944954 11.937277242541311 14.711405545473097 16.429949909448624 9.207550331950193 12.938914999365805 7.969069391489028 18.677602306008342 12.218766346573828 11.223247334361082 9.9830292612314206 7.4827839434146872 97.082265749573708 14.608440473675726 10.190879806876181 95.811854541301727 34.864566579461098 19.793997019529346 8.4870082437992078 28.568061888217926
leaf_count=83 201 79 674 142 62 43 98 84 107 76 629 48 59 66 37 52 32 75 49 45 40 30 397 59 41 390 141 80 34 116
internal_value=9.11731e-05 0.00881326 -0.013374 -0.0118379 0.0195469 -0.0168863 0.00583807 -0.000627293 0.00323941 -0.00488035 0.00638539 -0.0165308 -0.00600483 -0.00405817 0.00647382 0.017397 0.00269229 -0.00838887 -0.00266039 0.00146332 -0.00828201 0.00199504 0.0156173 0.00826416 0.0138702 0.0135362 -0.00167576 -0.0257671 -0.00822279 0.0109406
internal_weight=1006.65 611.132 395.518 374.898 131.423 199.95 479.709 31.6527 359.704 100.294 259.41 50.5509 174.947 160.236 46.5455 30.1155 17.1766 113.69 78.2633 66.0446 37.1761 27.193 112.343 232.832 28.8685 120.005 49.473 31.7313 19.7103 183.359
internal_count=4069 2483 1586 1503 538 801 1945 127 1457 405 1052 204 702 643 187 121 69 456 314 265 149 109 459 945 116 488 200 128 79 745
is_linear=0
shrinkage=0.03


Tree=9
num_leaves=31
num_cat=1
split_feature=78 64 50 73 47 50 64 61 35 46 32 67 70 26 15 58 9 33 0 47 59 26 76 72 78 60 72 78 43 32
split_gain=124.04 20.4802 15.9149 11.091 10.7912 10.1453 10.0745 12.2424 9.49224 9.14566 8.82762 12.1873 8.82044 8.38068 8.36006 8.24346 9.01153 9.22481 9.33133 14.9676 9.40858 8.03193 7.86481 8.32987 9.28839 7.50672 7.26825 8.42181 9.90676 9.48986
threshold=1.0000000180025095e-35 0.13829861111111111 0.93362777777777795 4.5000000000000009 0.0015291666168130438 1.0283738095238097 0.028930769230769208 74.098333333333343 3.5000000000000004 -0.05227314404874802 0.56683848797250869 -2.0962499999999973 1.0017361111111114 -1.5777777777777777 0.58571428571428574 72.389611111111122 0.48660607510165038 0.44586453923803326 0 0.048122051143992213 72.517500000000027 -1.8166666666666664 59.500000000000007 -0.15277777777777771 149.50000000000003 1.0188333333333335 0.27083333333333337 -162.49999999999997 -0.048809523809523823 0.47806848787995387
decision_type=8 8 8 10 8 10 10 10 2 8 8 10 10 8 10 10 10 10 1 8 10 10 10 10 10 10 10 10 8 10
left_child=2 5 -1 -3 6 8 -4 -8 -2 14 11 13 -10 -11 -7 22 -17 -18 19 -19 -20 -5 23 24 -13 -14 27 29 -29 -6
right_child=1 3 4 21 26 9 7 -9 12 10 -12 15 25 -15 -16 16 17 18 20 -21 -22 -23 -24 -25 -26 -27 -28 28 -30 -31
leaf_value=-0.035985710407360212 0.0065819987185233965 0.039893377623716655 -0.019195744013050634 -0.0022684707100733108 -0.034604192052464788 0.036303617278456587 -0.016798404059143863 0.018722441064210466 0.0023613517821820165 0.010404308074881255 0.014013174508625726 -0.0030338170433251003 -0.0047167944545338627 -0.01414662888390047 0.010602348285308604 -0.024793564295546161 0.021877992402877577 0.028965616121303453 -0.035694398008525384 -0.013178433094087961 -0.0016954940848104925 0.018829020715800344 0.01972091764378495 -0.011137024460129191 0.028804770165825586 -0.039302366303539747 -0.013817671991348049 -0.022235479355409527 0.0093280464620645043 -0.0024125285195300541
leaf_weight=24.557719513773918 37.338812127709389 18.930953204631805 164.04003667831421 19.403544634580612 10.983043938875197 16.440919652581215 18.714720353484154 14.67943789064884 16.866154998540878 15.824081525206564 86.809838175773621 16.070248618721966 9.6847602277994174 49.533103093504906 36.765168607234955 10.627573847770689 17.713238462805748 16.990097910165787 11.601770803332331 12.325516775250437 17.749045491218567 92.676439091563225 57.522452816367149 20.188722789287567 15.574380889534948 13.65818667411804 63.867161244153976 9.4594252705574018 62.162690877914429 26.936800226569176
leaf_count=99 151 79 657 79 44 67 75 59 68 64 354 65 39 200 149 43 72 69 47 50 72 380 234 82 64 55 256 38 250 108
internal_value=8.597e-05 0.00856167 -0.0129847 0.0190338 -0.0113689 0.00566548 -0.0161549 -0.00109375 -0.00422627 0.00758066 0.00577758 0.00300298 -0.0141792 -0.00813522 0.0190674 0.00673263 -0.000170413 0.00353182 -0.00228129 0.0085695 -0.0119354 0.0151888 0.0121767 0.00358966 0.0130384 -0.0257364 -0.00585841 -0.00113484 0.00491055 -0.012386
internal_weight=1005.7 610.295 395.401 131.011 370.843 479.284 197.434 33.3942 77.5479 401.736 348.53 261.72 40.2091 65.3572 53.2061 196.363 87.0072 76.3797 58.6664 29.3156 29.3508 112.08 109.356 51.8334 31.6446 23.3429 173.409 109.542 71.6221 37.9198
internal_count=4069 2483 1586 538 1487 1945 791 134 313 1632 1416 1062 162 264 216 798 353 310 238 119 119 459 445 211 129 94 696 440 288 152
cat_boundaries=0 1
cat_threshold=308
is_linear=0
shrinkage=0.03


Tree=10
num_leaves=31
num_cat=0
split_feature=78 64 78 52 54 78 47 26 59 9 10 50 71 24 33 45 46 45 24 72 47 60 44 67 50 78 72 23 59 31
split_gain=125.232 23.6418 19.5714 16.3475 14.456 13.4481 13.3277 12.0038 10.2518 10.5037 10.1768 9.94368 9.47723 10.3781 12.3276 10.7841 7.80494 7.72401 7.65357 7.68385 7.41875 9.43032 8.8033 8.5525 10.2174 7.32453 7.1654 8.7367 10.5644 7.89486
threshold=1.0000000180025095e-35 0.12897972136222904 -101.49999999999999 66.662500000000009 64.242000000000019 221.50000000000003 -0.12268635540842447 -2.5857142857142854 70.982000000000014 0.52888588684043236 -0.84444444444444433 1.0629357142857145 1.0711805555555558 0.49456457520973657 0.62755527743012107 0.028969966204008716 -0.068168506462680536 -0.063185876701557384 0.46697819314641748 0.04861111111111114 0.10991989040769533 1.032788888888889 0.027060321882938557 -5.4183333333333357 1.0298375000000004 226.50000000000003 0.14756944444444439 0.5634920634920636 70.755499999999998 0.64583333333333337
decision_type=8 8 10 8 10 10 8 8 10 10 10 10 10 8 8 10 8 10 10 8 8 10 10 10 10 10 10 8 8 10
left_child=2 5 3 -1 -3 7 -4 -2 9 17 -7 20 13 -10 15 -15 -13 -5 19 -12 22 -22 23 -9 -25 -6 27 28 -8 -28
right_child=1 4 6 8 25 10 26 11 12 -11 18 16 -14 14 -16 -17 -18 -19 -20 -21 21 -23 -24 24 -26 -27 29 -29 -30 -31
leaf_value=-0.040544018506696013 0.018268174353727181 -0.017388135679507557 -0.024635726341194212 0.0083933451282389333 0.01603140057753254 0.034606518590572871 0.018380034778277137 0.01474627124475422 -0.025309473223723958 0.02811834459782165 0.014093170368225433 0.024950487002177325 -0.0291706661889931 0.0082268200920912905 -0.03397146756776033 -0.016243303102207049 0.0019454485210587808 -0.023428641165192259 0.012634411091375763 -0.022259374722592668 0.014127629130383328 -0.019233801737748323 -0.028940902506408402 -0.027783328950023313 0.003579435531396823 0.030826014305321395 -0.013855710680722689 0.014637469233439341 -0.016324699041187447 0.010784504912389315
leaf_weight=26.449441328644753 33.370642438530922 8.6046336591243726 25.445413634181023 11.468023687601091 94.782069131731987 15.838968336582182 10.455490231513975 12.348940953612326 43.425030395388603 7.7320383638143531 8.0844870060682279 13.523487985134123 52.642157688736916 39.157359108328819 11.735533729195593 26.192455902695656 157.09573704004288 14.726434990763662 113.52850891649723 11.561779588460924 23.238933116197586 10.151735380291937 21.375511944293976 19.151576370000839 17.059408888220787 47.383398965001106 52.132273435592651 38.782744243741035 24.674134612083435 14.202252373099325
leaf_count=107 135 35 102 46 388 65 42 50 174 31 33 55 211 157 47 105 637 59 464 47 94 41 86 77 69 198 209 156 99 57
internal_value=3.62655e-06 0.00858074 -0.0130285 -0.0186088 0.0188442 0.00515595 -0.00509916 0.00155625 -0.0156258 -0.000523102 0.0125199 -0.000538551 -0.0185649 -0.0137301 -0.00696639 -0.00167789 0.00390361 -0.00970053 0.00965466 -0.00734216 -0.00784087 0.00372044 -0.0133354 -0.00602076 -0.0133088 0.0211433 -0.00140526 0.00498914 -0.00577283 -0.00849841
internal_weight=1006.32 607.1 399.221 233.528 150.77 456.33 165.692 307.316 207.079 33.9265 149.014 273.945 173.153 120.51 77.0853 65.3498 170.619 26.1945 133.175 19.6463 103.326 33.3907 69.9354 48.5599 36.211 142.165 140.247 73.9124 35.1296 66.3345
internal_count=4076 2474 1602 937 621 1853 665 1244 830 136 609 1109 694 483 309 262 692 105 544 80 417 135 282 196 146 586 563 297 141 266
is_linear=0
shrinkage=0.03


Tree=11
num_leaves=31
num_cat=0
split_feature=77 64 78 78 47 53 26 26 53 51 10 70 76 8 17 67 76 25 64 78 9 25 58 46 17 78 26 33 65 81
split_gain=118.143 22.453 18.3685 12.7447 12.5651 11.0106 10.6665 10.5329 13.0123 9.79286 9.71174 9.13366 10.7023 9.59127 9.02822 12.9639 11.3634 10.8623 10.8226 10.2452 9.95484 9.48565 9.23679 9.18819 8.44533 8.43443 7.51589 7.35855 8.33354 7.29362
threshold=1.0000000180025095e-35 0.12897972136222904 -101.49999999999999 221.50000000000003 -0.12268635540842447 1.0511250000000001 -2.5857142857142854 2.183333333333334 1.2025000000000003 71.410789473684233 -0.84444444444444433 1.8953240740740742 564.00000000000011 0.49519186315302827 0.47466187296695778 7.2158333333333298 10.500000000000002 0.48896999188969997 0.022024999999999965 97.500000000000014 0.47716847372810683 0.53962544250314048 70.916087912087917 -0.034714930056617875 0.52467131959097568 76.500000000000014 1.1833333333333336 0.59331346619482217 -0.58400000000001728 225000.00000000003
decision_type=10 8 10 10 8 10 8 10 8 10 10 10 10 10 10 10 10 8 10 8 10 8 10 8 10 8 10 8 10 10
left_child=1 3 5 6 -4 -2 -1 8 25 -7 -5 12 13 -11 15 16 -8 -18 20 -17 -19 22 -16 -23 -25 -3 -15 28 -14 -26
right_child=2 7 4 10 -6 9 14 -9 -10 11 -12 -13 27 26 21 19 17 18 -20 -21 -22 23 -24 24 29 -27 -28 -29 -30 -31
leaf_value=0.017208874176606454 -0.0246469660544393 -0.0088219746015515133 -0.023931279432825733 0.033813020327108909 -0.0013594544198987121 0.0030493492314170563 0.018889521724145378 0.028945683809421582 -0.016756528860235778 -0.022050691663338461 0.0093798738580443148 -0.029833772448918668 0.0081822488334801075 -0.0059682425220508525 -0.0093123156394184173 0.034785557547231123 -0.031630933660251721 0.0010416772993402617 0.0036920972506984586 -0.0043897109430231784 -0.041436558932340072 -0.020432591305730961 0.014334953659043173 0.011803212251602286 0.0078581685266022883 0.019698275902976844 0.028041355929537284 -0.043716787109583335 -0.032083441533632247 -0.029051215181113865
leaf_weight=33.558794558048248 115.87323185801506 10.058287471532823 25.438127145171165 15.749168783426283 139.22598712146282 30.656971886754036 8.3587013781070691 53.730697885155678 11.450345888733862 8.9759492129087466 132.98217549920082 29.664586201310158 9.4850810915231722 9.9725953787565249 17.543576210737228 9.3822514116764051 26.29541003704071 8.1905927956104296 29.634329080581665 13.801001474261286 11.424293845891951 21.258567407727242 78.666519433259964 32.064884811639786 7.8998169153928783 75.008166298270226 12.197882518172262 8.9873199909925443 7.4817257821559933 10.112359896302221
leaf_count=136 466 41 102 65 559 123 34 223 47 36 544 119 38 40 71 38 106 33 120 56 46 86 319 130 32 310 49 36 30 41
internal_value=1.8738e-06 0.00832401 -0.0126843 0.00499462 -0.00496987 -0.0180849 0.00150092 0.0183492 0.0122138 -0.0114559 0.0121756 -0.0165574 -0.00926535 0.00263242 -0.000473988 -0.00724011 -0.0127055 -0.0164025 -0.00780393 0.0122473 -0.0245088 0.00386787 0.00997152 -0.00438815 0.00268967 0.0162627 0.013146 -0.0231113 -0.0103709 -0.0133015
internal_weight=1005.13 607.17 397.959 456.922 164.664 233.295 308.191 150.247 96.5168 117.422 148.731 86.7651 57.1006 31.1464 274.632 107.087 83.9033 75.5446 49.2492 23.1833 19.6149 167.546 96.2101 71.3356 50.0771 85.0665 22.1705 25.9541 16.9668 18.0122
internal_count=4076 2478 1598 1857 661 937 1248 621 398 471 609 348 229 125 1112 433 339 305 199 94 79 679 390 289 203 351 89 104 68 73
is_linear=0
shrinkage=0.03


Tree=12
num_leaves=31
num_cat=0
split_feature=78 64 78 52 54 78 48 81 45 26 71 59 9 10 50 71 16 47 31 69 49 59 9 52 45 78 32 18 47 60
split_gain=111.388 21.2105 17.4674 15.5587 13.1719 12.0152 11.8785 14.8245 12.8109 10.7351 10.5005 9.64947 9.92378 9.27497 9.10721 8.74131 8.19126 8.21635 7.39045 8.17327 8.68526 8.17141 7.63222 8.52484 7.38755 7.02669 6.99068 7.65117 6.9507 8.72151
threshold=1.0000000180025095e-35 0.12897972136222904 -101.49999999999999 66.662500000000009 64.242000000000019 221.50000000000003 -0.19999999999999996 1125000.0000000002 0.053196102751775283 -2.5857142857142854 4.0451388888888902 70.982000000000014 0.52888588684043236 -0.84444444444444433 1.0629357142857145 1.0711805555555558 0.50555624151129785 -0.07578662363717921 0.5277777777777779 1.0000000180025095e-35 1.3166666666666669 72.517500000000027 0.51171946529939583 72.709000000000017 -0.063185876701557384 226.50000000000003 0.48790243902439029 1.3166666666666669 0.10991989040769533 1.032788888888889
decision_type=8 8 10 8 10 10 8 10 8 8 10 10 10 10 10 10 10 8 8 10 8 8 10 10 10 10 8 10 8 10
left_child=2 5 3 -1 -3 9 7 8 -4 -2 -8 12 24 -7 28 -13 18 -18 21 20 -20 22 -16 -24 -5 -6 -19 -28 -11 -30
right_child=1 4 6 11 25 13 10 -9 -10 14 -12 15 -14 -15 16 -17 17 26 19 -21 -22 -23 23 -25 -26 -27 27 -29 29 -31
leaf_value=-0.039042122345390999 0.017299613722539017 -0.01665774795462107 -0.023504692490205932 0.0086926216751949427 0.015081753529283681 0.033051519282216446 0.0092503851393622837 0.024612116878997978 0.0033100462454313437 -0.012818084570118035 -0.017517498392728908 -0.012889468054260342 0.027796856536234447 0.0091131164004532219 -0.016149218239779606 -0.027723328679379763 0.03176673968055152 -0.0079524196460898124 0.014935987114601208 -0.0302340841949215 -0.02294561608665056 0.026418220702139072 0.025501331466778666 -0.0078310238430256574 -0.022413041805034721 0.029612776381873544 0.025389077172728876 0.0014728169122089248 0.013717634681852293 -0.018358968773485758
leaf_weight=26.259692683815956 33.245668858289719 8.6294282227754575 58.090515300631523 11.468045204877855 94.25383548438549 15.653158619999884 62.196829199790955 7.9725388139486304 21.697287291288376 69.959328532218933 15.698329463601111 120.39357812702656 7.7291036695241919 132.80062173306942 18.031410381197929 52.514091566205025 12.762483075261114 21.000492006540298 12.050751224160194 13.82576075196266 8.3510681241750717 10.826753228902815 12.562062561511995 13.343403726816176 14.71323950588703 46.841648951172829 21.369211599230766 26.353545352816582 23.197940349578857 10.168788030743597
leaf_count=107 135 35 233 46 388 65 250 32 87 282 63 483 31 544 73 211 52 85 49 56 34 44 51 54 59 198 87 107 94 41
internal_value=-9.5097e-07 0.00810526 -0.0122947 -0.0175742 0.0178664 0.00486463 -0.00480548 -0.0123134 -0.0162621 0.00146393 0.00370215 -0.0146736 -3.32237e-05 0.0118415 -0.000514827 -0.0175282 0.00373925 0.0105528 -0.00254755 -0.0132817 -0.000917687 0.00427925 -0.00164264 0.00867954 -0.00896946 0.0200803 0.00621404 0.0124833 -0.00750217 0.00369227
internal_weight=1003.96 605.227 398.733 233.078 149.725 455.502 165.656 87.7603 79.7878 307.049 77.8952 206.818 33.9104 148.454 273.803 172.908 170.477 81.4857 88.9912 34.2276 20.4018 54.7636 43.9369 25.9055 26.1813 141.095 68.7232 47.7228 103.326 33.3667
internal_count=4076 2474 1602 937 621 1853 665 352 320 1244 313 830 136 609 1109 694 692 331 361 139 83 222 178 105 105 586 279 194 417 135
is_linear=0
shrinkage=0.03


Tree=13
num_leaves=31
num_cat=0
split_feature=77 64 78 52 54 47 78 26 59 9 50 58 71 24 33 45 44 43 24 24 77 43 78 58 48 43 45 26 70 53
split_gain=105.095 20.139 16.3795 14.8626 12.4886 11.5823 11.3762 9.50472 9.10744 9.40242 8.77051 8.39409 8.28113 9.63383 11.3129 10.3352 8.26492 10.1767 7.60229 8.79654 7.52762 7.36497 11.0284 7.72149 7.20964 8.68351 6.98507 6.98404 7.77484 8.66672
threshold=1.0000000180025095e-35 0.12897972136222904 -101.49999999999999 66.662500000000009 64.242000000000019 -0.12268635540842447 221.50000000000003 -2.5857142857142854 70.982000000000014 0.52888588684043236 1.0164500000000001 70.582916666666691 1.0711805555555558 0.49456457520973657 0.62755527743012107 0.028969966204008716 0.020884146341463437 0.40238095238095245 0.46697819314641748 0.44136745607333844 -31.499999999999996 0.32678571428571435 94.500000000000014 69.137142857142877 1.0928571428571432 -0.20416666666666669 -0.063185876701557384 2.183333333333334 7.0785474537037043 1.1577500000000003
decision_type=10 8 10 8 10 8 10 8 10 10 10 10 10 8 8 10 8 8 10 8 10 8 8 10 8 10 10 10 10 10
left_child=1 6 3 -2 -3 -4 7 -1 9 26 20 -8 13 -10 15 24 17 -12 19 -13 -9 23 -23 -18 25 -15 -5 28 29 -6
right_child=2 4 5 8 27 -7 11 10 12 -11 16 18 -14 14 -16 -17 21 -19 -20 -21 -22 22 -24 -25 -26 -27 -28 -29 -30 -31
leaf_value=0.016276218189782532 -0.03811782857711371 -0.016185148893958296 -0.022903742485764524 0.008454055220539887 0.012401199395418642 -0.0012212977263040372 0.026320946710137409 0.011249798267527538 -0.023678881074989486 0.02708102868003252 0.011897779436661638 0.0094862875986351201 -0.026954840512973758 0.03717272213185633 -0.031903923585893224 -0.015224245014379406 0.012874745118057364 -0.011800845387023024 0.011319297906227755 -0.028882251167401458 -0.019483058360618335 0.028428444136352305 -0.0038806873523826398 -0.012551741812033643 -0.015810484786267415 0.0039594934334034118 -0.021797987846607761 0.028192654225689121 0.028397521641726219 -0.020620614636964355
leaf_weight=33.427434280514717 26.115960985422134 8.6439339667558652 25.403501197695732 11.466160967946054 56.476137652993202 139.21076400578022 27.194928899407387 8.4065520316362363 43.30750547349453 7.7219390273094168 91.280526116490364 10.73024043440819 52.420839086174965 9.728204205632208 11.711760476231573 26.191864728927612 11.846000343561171 18.965334877371788 101.14800058305264 9.0974706411361677 32.606708198785782 13.043400973081587 28.839548707008362 69.4858458340168 7.7355156093835822 21.692243278026584 14.702904060482977 52.947443217039108 23.852195546030998 7.252773866057395
leaf_count=136 107 35 102 46 234 559 113 34 174 31 371 44 211 39 47 105 48 77 415 37 131 53 117 281 31 87 59 222 100 30
internal_value=6.22175e-07 0.00786647 -0.0119686 -0.0170765 0.0174011 -0.00468545 0.00471662 0.0014174 -0.014247 -2.0149e-05 -0.000444729 0.011517 -0.0170213 -0.0125087 -0.00600819 -0.000956203 0.00181876 0.00775153 0.00800063 -0.00865968 -0.0130659 -0.00350922 0.00660948 -0.00873697 0.0087293 0.0150722 -0.00871955 0.0195668 0.0140926 0.00838259
internal_weight=1002.65 605.244 397.409 232.795 149.172 164.614 456.072 307.901 206.679 33.891 274.474 148.171 172.788 120.367 77.0596 65.3478 233.461 110.246 120.976 19.8277 41.0133 123.215 41.8829 81.3318 39.156 31.4204 26.1691 140.529 87.5811 63.7289
internal_count=4076 2478 1598 937 621 661 1857 1248 830 136 1112 609 694 483 309 262 947 448 496 81 165 499 170 329 157 126 105 586 364 264
is_linear=0
shrinkage=0.03


Tree=14
num_leaves=31
num_cat=0
split_feature=77 64 78 52 54 45 78 46 54 26 59 50 16 31 74 47 58 45 76 18 45 18 24 24 32 18 49 78 70 24
split_gain=99.1571 19.0841 15.4913 14.2018 11.8419 11.1794 10.738 10.3306 9.15121 8.97561 8.61746 8.43365 9.95856 9.89492 8.90722 8.46219 7.99741 7.60915 7.53552 7.40002 7.33116 8.96028 7.18788 8.30183 6.77252 11.5197 9.30555 6.72511 6.66138 9.93141
threshold=1.0000000180025095e-35 0.12897972136222904 -101.49999999999999 66.662500000000009 64.242000000000019 -0.079792009049697896 221.50000000000003 0.0062478158560937145 74.461666666666687 -2.5857142857142854 70.525500000000022 1.0384375000000003 0.50555624151129785 0.5277777777777779 49.500000000000007 -0.07578662363717921 70.582916666666691 0.055204882350159558 95.500000000000014 -3.1055555555555552 -0.04200533064027933 -2.7388888888888885 0.46697819314641748 0.44136745607333844 0.48790243902439029 1.3166666666666669 2.2071428571428577 226.50000000000003 2.7118055555555558 0.48019607843137263
decision_type=10 8 10 8 10 8 10 8 10 8 10 10 10 8 10 8 10 10 10 10 8 10 10 8 8 10 10 10 8 8
left_child=1 6 3 -2 -3 8 9 17 -4 -1 -5 14 13 19 -11 -14 -8 -7 -9 -13 -15 -22 23 -18 26 -26 -17 -6 29 -12
right_child=2 4 5 10 27 7 16 18 -10 11 28 12 15 20 -16 24 22 -19 -20 -21 21 -23 -24 -25 25 -27 -28 -29 -30 -31
leaf_value=0.015834079499931032 -0.037236948076219592 -0.015728430367058 -0.02738843691798705 0.0037911661241934094 0.014186221921288733 -0.01434259734046596 0.025689026759659481 -0.012701775907401678 0.0081688958845601446 -0.014770539346042014 -0.023869224698907402 -0.015480193627067646 0.029844906343768095 0.0034556666557179678 0.014093242126167091 -0.029690909425722698 0.0092382624953744434 0.0073272162277333705 0.013750958932675405 0.0082793335124170409 0.0025746578748203565 -0.032872713928820581 0.011002603876449833 -0.028018144516325831 0.025779713783097492 -0.0011300342966266406 0.0072154135062939308 0.028449887749803834 -0.025210093275413917 -0.0064613368429886214
leaf_weight=33.3589788377285 25.957789972424507 8.65692090988159 27.13225282728672 21.915970519185066 93.70665667951107 50.109814375638962 27.054708018898964 11.215988829731939 7.9698205292224875 53.957946836948395 43.69252946972847 13.846611201763151 14.659230291843413 13.778627872467039 10.832003951072691 9.1707981079816836 10.714855402708055 19.684979990124702 48.483350649476051 56.955896556377411 8.8583842068910581 21.052378445863727 100.96914651989937 9.1270777434110624 25.454424694180489 31.032210141420364 14.806493356823919 46.252548292279243 50.683769688010216 90.160586923360825
leaf_count=136 107 35 109 88 388 201 113 45 32 217 176 56 60 56 44 37 44 79 195 231 36 85 415 37 104 126 60 198 204 362
internal_value=-2.64614e-07 0.0076479 -0.0116308 -0.0166046 0.0169499 -0.0045498 0.00458334 -0.000430712 -0.0193126 0.00137899 -0.0138435 -0.000429406 0.00250099 -0.00345013 -0.00980404 0.00962524 0.0111987 -0.00821366 0.00865378 0.00348188 -0.0145106 -0.0226309 0.00776948 -0.00842134 0.0056204 0.0112337 -0.00752403 0.0190683 -0.015947 -0.0122785
internal_weight=1001.25 604.246 397.007 232.411 148.616 164.596 455.63 129.494 35.1021 307.764 206.453 274.405 209.615 114.492 64.79 95.1232 147.866 69.7948 59.6993 70.8025 43.6894 29.9108 120.811 19.8419 80.4639 56.4866 23.9773 139.959 184.537 133.853
internal_count=4076 2478 1598 937 621 661 1857 520 141 1248 830 1112 851 464 261 387 609 280 240 287 177 121 496 81 327 230 97 586 742 538
is_linear=0
shrinkage=0.03


Tree=15
num_leaves=31
num_cat=1
split_feature=64 52 73 74 76 73 46 75 51 0 35 32 24 67 31 60 53 49 70 26 74 65 67 15 52 24 52 65 57 42
split_gain=74.8265 29.9026 16.721 15.9169 15.7579 17.9158 14.9637 13.8116 11.9842 11.1162 10.9129 10.5531 9.02271 8.91775 8.84922 8.41863 8.2729 8.88116 8.17378 9.37192 8.10218 10.6662 8.57921 8.09231 8.71805 14.5915 7.9276 7.54306 8.52952 7.3227
threshold=0.022456140350877177 66.662500000000009 44.500000000000007 6.5000000000000009 403.00000000000006 16.500000000000004 0.012947724416293523 317.50000000000006 75.691500000000005 0 1.5000000000000002 0.54587542087542096 0.45273088381330689 5.0833333333333366 0.64583333333333337 1.1795000000000002 1.099116666666667 2.5071428571428576 11.07465277777778 -1.8944444444444442 21.500000000000004 -0.62700292397660451 -0.053333333333334558 0.58571428571428574 74.157500000000013 0.54334406870638763 75.243090909090924 7.2727063492063531 1.1020166666666669 -0.10000000000000001
decision_type=8 10 10 8 10 8 10 10 10 1 2 10 8 10 10 8 10 10 8 10 8 8 8 10 10 10 10 8 10 8
left_child=1 -1 3 14 5 6 8 10 13 16 18 12 -8 20 -2 -11 -7 29 19 -5 22 -22 -3 26 -25 -26 -9 28 -12 -18
right_child=2 4 -4 7 -6 9 11 23 -10 15 27 -13 -14 -15 -16 -17 17 -19 -20 -21 21 -23 -24 24 25 -27 -28 -29 -30 -31
leaf_value=-0.030876654974624013 -0.018300252624426961 0.0014627121727429117 -0.021857839710664427 -0.0078427330987608408 -0.016941732309686184 -0.022676481309786219 -0.042102455886807708 0.017640285923854141 -0.02148635174057948 0.0030727418064990758 -0.00067806367009423218 0.01005806165735596 -0.008720948040390265 -0.010161641238771802 0.0089963128373338405 -0.017913380549595143 -0.014581152610253008 -0.028869659311376063 0.033306983948757495 0.016416581503444359 0.041357391920637275 0.0034923116593199516 0.023303577797598306 0.02762913592793349 -0.029030893940660361 0.014655408323164042 0.037258976669789251 0.01900508105564902 0.027380266774128765 0.021332063781171227
leaf_weight=45.774980485439301 26.419290021061897 42.327377960085869 14.94786277413368 17.606126829981804 90.115949556231499 71.096381619572639 8.1911503970622999 58.968595907092094 9.1327536851167661 80.291428878903389 157.78360806405544 20.621640115976334 39.484278663992882 12.810556590557097 16.730702340602875 20.828643098473549 7.4672570377588272 7.4761168658733359 18.166549265384674 65.636153295636177 19.304271623492241 10.284349158406259 25.355922818183899 12.579679042100905 9.9805779606103915 17.441205129027367 29.181348487734795 23.121041089296341 9.3904333561658841 12.163767412304884
leaf_count=188 107 172 60 72 363 286 33 247 37 323 641 84 160 52 68 84 30 30 75 272 79 42 103 52 41 72 124 95 38 49
internal_value=-0.000135223 -0.00797231 0.00843477 0.00945775 -0.00571408 -0.00306159 0.00358645 0.0112407 0.00997086 -0.00930237 0.00759008 -0.00754086 -0.0152034 0.0127506 -0.00775241 -0.0012597 -0.015771 -0.00310792 0.0154908 0.0112534 0.0158408 0.0287408 0.00986503 0.0194274 0.00796757 -0.00170688 0.02448 0.00332078 0.00105146 0.00762676
internal_weight=1000.68 522.727 477.953 463.005 476.952 386.836 187.512 419.855 119.215 199.324 291.704 68.2971 47.6754 110.082 43.15 101.12 98.2035 27.1071 101.409 83.2423 97.2719 29.5886 67.6833 128.151 40.0015 27.4218 88.1499 190.295 167.174 19.631
internal_count=4079 2115 1964 1904 1927 1564 762 1729 485 802 1193 277 193 448 175 407 395 109 419 344 396 121 275 536 165 113 371 774 679 79
cat_boundaries=0 1
cat_threshold=282
is_linear=0
shrinkage=0.03


Tree=16
num_leaves=31
num_cat=2
split_feature=78 50 78 42 54 1 65 76 73 24 44 70 3 35 31 19 53 57 85 75 43 53 64 67 67 48 33 59 66 51
split_gain=95.6878 22.777 14.4289 11.7126 10.6956 9.73756 8.97773 8.32822 10.6361 8.32462 8.23501 8.04022 7.94051 9.74011 8.03625 7.84433 9.98784 9.65995 9.2791 8.48536 8.46591 7.73068 8.06043 7.47144 8.77135 10.4829 7.33579 7.26848 7.06549 6.86736
threshold=43.500000000000007 0.97423181818181825 -93.499999999999986 0.45357142857142857 64.242000000000019 7440.5000000000009 -3.6586666666666683 365.50000000000006 6.5000000000000009 0.48164983164983172 0.07784425451092121 31.104166666666671 0 9.5000000000000018 0.73214285714285732 6.5000000000000009 1.1395833333333336 1.05135 1 410.50000000000006 -0.051785714285714289 1.2090833333333337 -0.040116666666666793 3.7566666666666682 -0.29366666666665248 -1.2666666666666664 0.49114974937343364 74.96516666666669 -0.12815000000000007 71.795500000000018
decision_type=8 8 10 10 10 2 10 10 8 8 10 10 1 2 10 2 10 8 9 8 8 10 10 8 10 10 10 10 10 10
left_child=1 11 12 4 -2 -4 -7 8 27 -5 23 -1 13 -3 -14 16 -10 -18 21 20 26 22 -17 24 25 28 -20 -6 -8 -26
right_child=3 2 5 9 7 6 10 -9 15 -11 -12 -13 14 -15 -16 18 17 -19 19 -21 -22 -23 -24 -25 29 -27 -28 -29 -30 -31
leaf_value=-0.030626851568944385 -0.01567866924515177 -0.0044996156805887132 0.013541082743020544 -0.00045113125528769773 0.018705517508963009 -0.022307226786593509 0.0042899176552980379 -0.0067968863190965133 0.020718764939399125 0.02854822853141609 -0.018029383233682788 0.0024424918501547064 0.017260834987450027 -0.019397512340070668 -0.017478787434350631 -0.0056178915877096881 -0.027258926868867051 0.011064991529900101 0.034450683892501721 -0.02955405429974018 -0.0050978256877483637 -0.011021983431032865 0.019726490959338146 -0.010139607903044289 -0.0050280358142652578 0.0095494534454145328 0.0046010617161442377 -0.0037942553075739137 -0.030483815592481638 0.026468758026786179
leaf_weight=55.232631906867027 17.038355216383934 57.680274873971939 31.492601618170738 11.400860279798506 114.59910769760609 20.930195987224579 8.1803410500288027 31.525663733482361 56.409369081258774 39.263614997267723 22.112638473510742 7.3391223549842826 14.15278419852257 129.57075569033623 8.94302850961685 13.5919943600893 8.0086721479892748 16.28729821741581 8.3234007954597455 8.1370230317115766 89.018029823899269 11.501168221235273 56.279006019234657 34.002814382314682 7.9712164700031307 31.731778830289841 38.208629801869392 14.204756960272787 12.687476322054861 23.518152073025703
leaf_count=226 69 232 127 47 479 84 33 129 234 165 89 30 57 522 36 55 33 68 34 33 363 47 230 137 32 128 156 58 51 95
internal_value=-0.000130513 -0.0100594 -0.00740469 0.00853147 0.00706159 -0.00145782 -0.00445469 0.00792466 0.00900578 0.0221402 -0.00165049 -0.0267707 -0.0128179 -0.0148567 0.00364203 0.00592632 0.0138934 -0.00214591 0.00302052 -0.00157121 0.000312725 0.0110492 0.0147865 0.00154208 0.00632943 -0.00121816 0.0105529 0.0162141 -0.0172794 0.0185863
internal_weight=999.343 465.546 402.974 533.797 483.132 192.627 161.135 466.094 434.568 50.6645 140.204 62.5718 210.347 187.251 23.0958 305.765 80.7053 24.296 225.059 143.687 135.55 81.3722 69.871 118.092 84.089 52.5996 46.532 128.804 20.8678 31.4894
internal_count=4079 1879 1623 2200 1988 776 649 1919 1790 212 565 256 847 754 93 1253 335 101 918 586 553 332 285 476 339 212 190 537 84 127
cat_boundaries=0 1 2
cat_threshold=2 1
is_linear=0
shrinkage=0.03


Tree=17
num_leaves=31
num_cat=0
split_feature=78 52 78 64 78 70 57 57 1 64 32 60 75 70 33 25 44 25 81 51 66 75 66 66 54 33 43 54 26 71
split_gain=90.334 23.0199 13.1535 12.4205 8.32423 8.55052 8.03705 8.61615 9.88421 8.75418 7.87442 7.95188 8.70301 7.61721 11.4992 8.11395 7.50517 8.46204 7.20813 7.03553 8.34707 7.63022 7.00561 9.59069 6.88635 7.55394 6.81237 6.69497 8.8712 6.34474
threshold=56.500000000000007 66.662500000000009 -107.49999999999999 0.13829861111111111 689.00000000000011 31.104166666666671 1.125416666666667 1.109765384615385 7462.0000000000009 -0.075250000000000081 0.541917670682731 1.1435000000000002 75.500000000000014 0.99131944444444453 0.51739261947973392 0.59513970877607247 0.07784425451092121 0.49114974937343364 462500.00000000006 69.887500000000017 0.23227777777777789 121.50000000000001 -0.0085000000000000613 0.039000000000000042 72.411000000000016 0.52047805423539295 0.48333333333333334 69.851666666666674 -2.5277777777777772 13.767361111111112
decision_type=8 8 10 10 10 10 10 8 2 8 8 8 10 8 10 8 8 8 8 10 8 10 8 8 10 10 10 10 10 10
left_child=1 -1 10 4 5 13 7 8 -4 -10 18 -12 -13 14 26 27 19 -18 24 -11 21 -21 -20 -24 25 -3 -2 28 -15 -17
right_child=3 2 6 -5 -6 -7 -8 -9 9 16 11 12 -14 15 -16 29 17 -19 22 20 -22 -23 23 -25 -26 -27 -28 -29 -30 -31
leaf_value=-0.029827425307937236 0.020619535728098791 -0.035421865981023433 0.014340119924864073 0.018608472952097145 0.02374823170354837 0.024635745599796883 -0.012318110226895261 0.019298635962104842 -0.031796265418344669 -0.019512457456114508 0.0079310827095399935 0.010207743552799782 -0.018684033500787962 0.015413467807392847 -0.0028292973224396138 -0.0040414128517925621 -0.037426735610939378 -0.0031500228461424245 -0.033073468312796311 0.01391031563558272 -0.020422333791574838 -0.0042928562362309821 0.011292833817348313 -0.021924140154525779 0.0062682426333636101 0.0016794183462595152 -0.005719483304230207 0.0066173612445753109 -0.015089739055937702 -0.031377397232886454
leaf_weight=44.17064855992794 67.99224978685379 10.181321233510973 27.494929224252701 91.520687684416771 22.67918336391449 18.800444051623344 58.599524319171906 18.334345474839211 9.2054774165153486 12.702023938298224 25.309203058481216 11.406964167952536 40.678957104682922 10.96478697657585 37.443497747182846 40.454097181558609 9.9416418075561541 16.409027799963951 35.374202281236649 50.858984127640724 10.646826922893522 33.889176264405251 9.4315983057022077 33.509663611650467 17.927962079644203 8.6914592385292035 9.7005298435688001 175.1582837998867 29.945676922798157 8.5412533432245237
leaf_count=183 280 41 111 388 95 78 236 74 37 51 102 46 164 45 153 165 40 66 143 205 43 137 38 135 72 35 40 719 122 35
internal_value=-0.00012803 -0.00940492 -0.0072946 0.00863607 0.00643277 0.00539165 -0.00270941 0.000311249 -0.00182308 -0.00499443 -0.0131588 -0.00565626 -0.0122836 0.00437792 0.0107858 0.00156446 -0.00293814 -0.0169776 -0.0181108 0.000608496 0.00346227 0.00666604 -0.0232214 -0.0145374 -0.00690839 -0.0191109 0.0173 0.00406857 -0.00674159 -0.00933912
internal_weight=997.965 484.764 440.593 513.201 421.68 399.001 248.082 189.482 171.148 143.653 192.511 77.3951 52.0859 380.2 115.136 265.064 134.448 26.3507 115.116 108.097 95.395 84.7482 78.3155 42.9413 36.8007 18.8728 77.6928 216.069 40.9105 48.9954
internal_count=4079 1959 1776 2120 1732 1637 1000 764 690 579 776 312 210 1559 473 1086 542 106 464 436 385 342 316 173 148 76 320 886 167 200
is_linear=0
shrinkage=0.03


Tree=18
num_leaves=31
num_cat=1
split_feature=78 52 78 42 54 43 54 76 73 59 32 59 33 70 53 1 54 65 24 44 0 51 81 50 51 16 81 9 58 32
split_gain=85.3163 22.176 12.8039 11.3535 11.3451 9.55799 8.05845 7.74229 8.24476 7.91466 7.45446 11.6692 7.49007 9.62287 8.65473 7.37916 8.53878 7.93185 10.5769 7.33194 8.27998 8.63778 8.30899 7.41187 6.97771 6.81452 6.80339 6.70881 6.64418 6.55372
threshold=63.500000000000007 66.662500000000009 -107.49999999999999 0.45357142857142857 64.242000000000019 0.33630952380952389 74.753333333333345 365.50000000000006 6.5000000000000009 74.96516666666669 0.541917670682731 70.982000000000014 0.60829037800687291 2.1267361111111116 1.1148333333333336 7274.5000000000009 80.615000000000009 -3.4242142857142777 0.37075219549446359 0.07392956376074554 0 73.894500000000008 885000.00000000012 1.0260500000000004 73.770000000000024 0.51031037414965996 462500.00000000006 0.47387914230019496 70.243833333333342 0.49822695035461001
decision_type=8 8 10 10 10 10 10 10 8 10 8 10 8 8 8 2 10 10 10 8 1 10 8 10 10 10 8 10 10 8
left_child=1 -1 10 4 27 15 -7 8 9 -6 26 -12 13 14 -13 -4 17 18 -17 20 21 -19 -23 -22 -8 -9 -3 -2 -21 -10
right_child=3 2 5 -5 7 6 24 25 29 -11 11 12 -14 -15 -16 16 -18 19 -20 28 23 22 -24 -25 -26 -27 -28 -29 -30 -31
leaf_value=-0.029094040251070895 0.004265138425850727 -0.0067272586777100685 0.014817235218679859 0.022047531791081945 0.017945517881758102 0.033940034693378772 -0.017641836419253633 -0.022310931474236264 0.00071886466011014043 -0.0058114953357817798 0.027395048500506523 -0.0075934497648551171 -0.025851244580435511 -0.02317244982422231 0.020938888443348933 0.0087572895746239349 0.022877214665482922 0.012253536829780308 -0.026321650315944078 8.5047056341055438e-05 -0.030660243541106708 -0.024909110997403741 0.0062815984929315014 -0.0046513419883841408 0.019934572723710433 0.0053453896024131401 -0.022584317679658898 -0.032998713182695205 -0.028940052446259055 0.010042847137979009
leaf_weight=43.954046443104744 7.3738688081502941 36.778487965464592 15.597397357225416 49.752346053719521 113.88437873125076 10.122734427452089 8.1912641078233701 12.742303088307382 116.98937188088894 13.704750075936316 7.7072981446981421 21.574524313211441 17.549044162034988 14.842682391405104 15.684682428836821 9.4492748230695707 7.9151907563209525 53.862001404166222 33.295300722122192 11.633520826697351 12.205639794468878 12.85029521584511 16.574589818716049 40.875093206763268 7.6183996796607962 18.54037843644619 78.167252629995346 8.9254781156778318 17.182844296097755 161.05775624513626
leaf_count=183 30 148 63 210 479 41 33 52 478 56 31 87 71 60 63 38 32 217 134 47 49 52 67 165 31 76 316 36 69 665
internal_value=-0.000128207 -0.00897929 -0.00695297 0.00855911 0.00703313 -0.00255951 0.0143752 0.00796127 0.00907087 0.0153684 -0.0127894 -0.00548956 -0.00946469 -0.00356246 0.00465091 -0.00451069 -0.00596926 -0.0071716 -0.018544 -0.00413488 -0.0011794 0.0046417 -0.00771086 -0.00935794 0.000574273 -0.00626195 -0.0176124 -0.0168684 -0.0176124 0.00613638
internal_weight=996.602 493.632 449.678 502.971 453.218 257.374 25.9324 436.919 405.636 127.589 192.304 77.3582 69.6509 52.1019 37.2592 231.441 215.844 207.929 42.7446 165.184 136.368 83.2869 29.4249 53.0807 15.8097 31.2827 114.946 16.2993 28.8164 278.047
internal_count=4079 1997 1814 2082 1872 1038 105 1806 1678 535 776 312 281 210 150 933 870 838 172 666 550 336 119 214 64 128 464 66 116 1143
cat_boundaries=0 1
cat_threshold=45
is_linear=0
shrinkage=0.03


Tree=19
num_leaves=31
num_cat=2
split_feature=78 52 57 0 53 42 54 60 58 78 78 60 61 15 78 48 81 74 68 61 72 47 52 69 33 52 60 53 3 53
split_gain=80.5088 21.6679 12.3135 10.8621 13.0114 10.307 9.5822 9.39179 8.84176 8.44616 8.32178 10.9517 12.3325 9.67228 8.70111 13.0631 13.7659 8.23019 7.63464 7.35621 9.57132 8.25447 7.21296 10.1251 7.11927 6.97762 10.8886 7.04785 6.86669 12.066
threshold=43.500000000000007 66.662500000000009 1.1399000000000001 0 1.099116666666667 0.45357142857142857 64.242000000000019 1.1185833333333337 77.722500000000011 -103.49999999999999 226.50000000000003 1.0368333333333337 74.27200000000002 0.5634920634920636 145.50000000000003 0.32222222222222213 412500.00000000006 24.500000000000004 1.0000000180025095e-35 69.718333333333348 0.08333333333333344 0.015812510492310975 73.297500000000014 0.22500000000000003 0.49825174825174828 73.127666666666684 1.1811250000000002 1.0064166666666667 1 1.1385833333333337
decision_type=8 8 10 1 8 10 10 10 10 10 10 10 10 10 10 10 8 8 2 8 10 10 8 10 8 8 8 10 1 8
left_child=1 -1 3 4 7 6 -2 -3 10 -6 14 -12 13 -13 -8 16 -16 -10 -17 20 -5 24 23 -11 -21 26 27 -26 -4 -30
right_child=5 2 28 19 9 -7 8 -9 17 22 11 12 -14 -15 15 18 -18 -19 -20 21 -22 -23 -24 -25 25 -27 -28 -29 29 -31
leaf_value=-0.029241518070958171 -0.015042900961371886 -0.011587772107004223 -0.019612631908008219 0.007322508284362113 -0.013622019576828836 0.020694081729352297 0.0081328773283318983 -0.03454140328929408 -0.033462315143390271 -0.017532286626060052 0.022932021849515698 0.0082246509625107968 0.015791522183633496 -0.021003513427088429 -0.01750504872114449 0.00087667755506521782 0.027277747094426628 0.0079833478498723808 -0.022443034716064469 -0.016535674717644805 -0.023871353893105705 0.013150559295663529 0.028047675339961744 0.022595544038499161 0.019428979819518109 0.016869855433902743 -0.020628391522999546 -0.0053855841885560212 0.021766126716326363 -0.025959015102578812
leaf_weight=43.245044827461243 17.052649214863777 49.811125993728638 84.917014241218567 14.146636277437208 23.587910369038582 50.0121690928936 210.71835187077522 23.984210789203644 8.1478452086448634 12.635181933641435 65.158996716141701 20.307222440838814 56.428294703364372 18.67884749174118 8.2881508767604846 21.955656722187996 18.208268225193024 7.5645647346973428 28.534098148345947 21.127372607588768 21.085441544651985 51.831356316804886 11.097183674573897 8.675809517502783 18.336910992860794 21.520024642348289 19.30696177482605 21.333193689584732 9.9327906817197817 7.4561292827129355
leaf_count=181 69 201 343 57 95 212 864 97 33 51 279 85 235 77 34 90 75 31 116 85 85 209 45 35 74 87 78 86 40 30
internal_value=-0.000126888 -0.00924508 -0.00712554 -0.0041907 -0.0104257 0.00784289 0.00646664 -0.01941 0.00728781 -0.000281859 0.00807184 0.0135292 0.00693672 -0.00595409 0.00498966 -0.00360758 0.0131424 -0.014225 -0.0124823 0.000646016 -0.0114898 0.00353046 0.00954473 -0.000915501 -0.0014564 0.00265566 -0.00272572 0.00628027 -0.0161327 0.00100342
internal_weight=995.085 464.03 420.785 318.479 129.791 531.055 481.043 73.7953 463.99 55.9961 448.278 160.573 95.4144 38.9861 287.705 76.9862 26.4964 15.7124 50.4898 188.688 35.2321 153.456 32.4082 21.311 101.624 80.4971 58.9771 39.6701 102.306 17.3889
internal_count=4079 1879 1698 1285 524 2200 1988 298 1919 226 1855 676 397 162 1179 315 109 64 206 761 142 619 131 86 410 325 238 160 413 70
cat_boundaries=0 1 2
cat_threshold=26 2
is_linear=0
shrinkage=0.03


Tree=20
num_leaves=31
num_cat=2
split_feature=78 64 50 72 10 75 46 75 0 65 48 73 48 84 8 77 47 61 24 48 72 45 61 57 32 9 9 33 3 31
split_gain=72.9835 16.1486 11.1964 10.0493 9.49614 10.6572 9.61997 8.70407 8.21269 11.462 8.02359 7.95909 8.97307 7.84612 7.83604 7.5389 6.72132 8.78032 7.13842 10.1535 6.73022 6.79816 6.58682 9.13758 12.4248 9.05263 9.14692 6.8543 8.40698 8.19436
threshold=-58.499999999999993 0.057886363636363687 1.0360500000000001 0.04861111111111114 0.45000000000000007 188.50000000000003 0.037749242040286825 337.50000000000006 0 -1.4924999999999924 -5.5499999999999989 4.5000000000000009 -0.60000000000000009 15.500000000000002 0.44018348623853215 -56.499999999999993 -0.079452396913653259 66.798000000000016 0.54852983157293755 -1.1666666666666663 0.13541666666666669 -1.0000000180025095e-35 67.464166666666685 1.1367500000000001 0.55505050505050513 0.52230514096185743 0.52788888888888896 0.62375456249383465 1 0.78888888888888908
decision_type=8 8 10 8 10 10 10 8 1 10 8 10 10 2 10 8 8 8 10 10 10 10 8 10 10 8 10 10 1 8
left_child=10 2 3 8 5 6 13 -5 14 -10 -1 12 -7 -4 -2 -3 20 -18 19 -19 21 -6 -12 24 25 -24 -27 28 -25 -30
right_child=1 15 4 7 16 11 -8 -9 9 -11 22 -13 -14 -15 -16 -17 17 18 -20 -21 -22 -23 23 27 -26 26 -28 -29 29 -31
leaf_value=-0.027648972981492988 0.028237611601507808 0.021519005022320421 0.017011983134561971 -0.020862768936669201 0.018565580960743958 0.021512496637540755 0.025728308303756126 0.010387994140043703 0.0040178343034699216 -0.033629424339125975 -0.026681923935146581 0.025120623734040625 -0.02207454093356909 -0.013978053391167969 0.00036157223824254272 0.0086942699628260421 0.022999782797960285 -0.03539943147947857 0.0050018169542916276 -0.0057026395094051299 0.035681306302645835 -0.017015350535921618 -0.01420475370540761 0.011757699080777803 0.0097197480208963943 0.028491703673906809 -0.0048526705347036372 -0.035115828681213636 -0.022517517243832406 0.0063795775050943604
leaf_weight=25.808991834521294 15.318964451551436 48.913586765527725 8.8717536181211454 44.810123756527901 9.9881975054740941 7.6982843577861786 9.7715227305889112 9.081417649984358 17.278890088200573 11.347004830837248 19.758787423372269 49.488271161913872 7.3136455267667753 28.456797182559967 20.506390497088432 262.17619958519936 9.7734658122062665 11.585420295596121 38.640546262264252 62.077606603503227 7.5496605187654486 7.6494289338588723 98.462188437581062 9.9676723033189774 38.814066827297211 8.4369784593582136 33.477397829294205 14.982530921697615 46.271604314446449 10.39235760271549
leaf_count=108 62 209 36 181 41 32 40 37 70 46 80 204 30 115 83 1093 40 47 158 253 31 31 400 40 157 34 135 61 187 42
internal_value=0.000303828 0.00572463 0.00154347 -0.00606821 0.0050332 0.0115916 0.000692774 -0.0155033 0.00193737 -0.0086252 -0.0118536 0.0194182 0.000224951 -0.00636107 0.0100071 0.0107732 1.84051e-05 -0.0029182 -0.00535686 -0.0107848 0.0138194 0.00304917 -0.0103075 -0.00896978 -0.00512948 -0.009275 0.00236676 -0.0172373 -0.0127574 -0.017199
internal_weight=994.67 688.297 377.207 118.343 258.865 111.6 47.1001 53.8915 64.4512 28.6259 306.373 64.5002 15.0119 37.3286 35.8254 311.09 147.264 122.077 112.304 73.663 25.1873 17.6376 280.564 260.805 179.191 140.377 41.9144 81.6142 66.6316 56.664
internal_count=4083 2839 1537 479 1058 457 191 218 261 116 1244 266 62 151 145 1302 601 498 458 300 103 72 1136 1056 726 569 169 330 269 229
cat_boundaries=0 1 2
cat_threshold=45 4
is_linear=0
shrinkage=0.03


Tree=21
num_leaves=31
num_cat=0
split_feature=78 51 72 64 75 52 26 10 25 24 25 25 47 34 70 68 35 45 69 33 59 32 17 1 66 75 65 70 66 78
split_gain=68.8665 15.9695 19.8166 10.8465 10.7385 10.5404 9.70209 8.39683 9.93402 12.2988 9.37132 9.06268 10.1437 8.37742 8.02788 7.90187 8.38421 8.14439 7.46915 7.17507 7.1728 11.5751 13.5379 7.20693 7.12316 9.43439 10.9402 6.91053 6.7097 6.67749
threshold=-58.499999999999993 71.581000000000017 0.11805555555555554 0.18011250000000004 93.500000000000014 65.516089285714301 2.0500000000000003 1.1714285714285715 0.46836121836121841 0.54459865629420101 0.6237091451080593 0.43643578643578645 -0.12047292047292045 2.2111111111111117 2.151041666666667 3.5000000000000004 6.5000000000000009 -0.086216677229798991 0.77500000000000013 0.47391107078039935 73.242000000000019 0.55829054666263978 0.50177304964539016 7362.0000000000009 -0.0065833333333333846 306.50000000000006 3.189833333333326 23.380208333333339 0.031933333333333265 104.50000000000001
decision_type=8 10 10 8 8 8 10 10 8 10 10 10 8 8 10 2 2 8 10 10 10 8 10 2 8 10 10 8 8 10
left_child=5 2 -2 7 -4 -1 14 10 -9 15 11 -3 -13 28 -5 16 -10 -18 20 -6 21 22 27 -24 -11 26 -26 -7 29 -14
right_child=1 3 4 6 19 18 -8 8 9 24 -12 12 13 -15 -16 -17 17 -19 -20 -21 -22 -23 23 -25 25 -27 -28 -29 -30 -31
leaf_value=-0.0328352118942212 0.0045539473548562 5.9675679152135911e-05 -0.037641875130741208 -0.0024064482791436412 0.0072805192707897457 -0.028291558568346128 0.032205581937011264 0.01593731401301773 -0.0011503033752053914 -0.010798349768277605 -0.012516199263007424 -0.013040988950842098 -0.0057479886382733776 0.029584535866364933 0.022929496919775125 0.010973911462530355 0.0064694830391327967 -0.02651760603776936 0.0036864498421221633 -0.019308342240314476 -0.016958660966544203 0.01157228761224355 0.024137788891346025 -0.0053694631446784538 0.017278282572361615 0.018412798942288144 -0.022823709296768878 -0.0018334807637797551 0.018788196238890661 0.015242688318468449
leaf_weight=18.747233867645264 109.28922085464001 46.376388758420944 15.850128799676893 23.47147998213768 15.012677893042563 38.479029804468155 28.46439103782177 37.708024650812149 35.850759118795395 15.334602206945418 14.396819353103636 10.210699886083601 26.68517704308033 35.688418567180634 20.328632533550262 15.350796192884443 7.8091195821762085 36.107660204172134 31.402437657117844 20.780105501413345 122.04271383583546 24.27257864177227 7.6792289465665808 51.667747497558594 10.303290963172914 49.639295101165771 12.420631945133207 11.651697441935537 74.197649493813515 26.078433573246002
leaf_count=81 447 190 64 99 61 156 124 156 148 63 59 42 108 148 88 63 32 148 127 84 495 98 31 209 42 208 51 47 306 108
internal_value=0.000295959 0.00556519 -0.00269234 0.00808991 -0.0178225 -0.0115219 0.0188233 0.00634443 0.00213045 -0.000788592 0.0102959 0.011844 0.014987 0.0168155 0.00960188 -0.00821876 -0.0120024 -0.0206385 -0.0100215 -0.00826132 -0.0117122 -0.00683456 -0.0109834 -0.00121464 0.00727208 0.0111964 -0.00467912 -0.0222981 0.013023 0.00471721
internal_weight=993.297 687.354 160.932 526.422 51.6429 305.943 72.2645 454.158 220.524 182.816 233.634 219.237 172.86 162.65 43.8001 95.1183 79.7675 43.9168 287.195 35.7928 255.793 133.75 109.478 59.347 87.6978 72.3632 22.7239 50.1307 126.961 52.7636
internal_count=4083 2839 656 2183 209 1244 311 1872 911 755 961 902 712 670 187 391 328 180 1163 145 1036 541 443 240 364 301 93 203 522 216
is_linear=0
shrinkage=0.03


Tree=22
num_leaves=31
num_cat=0
split_feature=78 51 72 64 75 52 26 60 53 51 32 69 58 46 59 34 17 45 61 77 17 44 24 26 32 60 52 59 8 8
split_gain=64.9523 15.1001 18.7079 10.3389 10.1937 10.1248 9.30439 7.83552 7.79872 7.66149 7.40975 7.0442 6.8899 7.59803 6.77441 10.9324 10.7748 8.29652 6.37141 6.32694 5.79309 5.74658 5.6479 8.29323 10.4741 12.5439 9.59344 8.49092 6.9327 9.82051
threshold=-58.499999999999993 71.581000000000017 0.11805555555555554 0.18011250000000004 93.500000000000014 65.516089285714301 2.0500000000000003 1.0787083333333334 1.1211805555555558 71.827000000000012 0.46190130624092895 0.77500000000000013 78.274500000000003 -0.068168506462680536 73.242000000000019 2.1055555555555561 0.50177304964539016 -0.1666371690746021 70.573333333333352 -27.499999999999996 0.47542864042501815 -0.00082548380908456498 0.54852983157293755 1.9500000000000002 0.55273855370132663 1.1225000000000003 72.665000000000006 73.384500000000017 0.55093393289519199 0.45019083969465651
decision_type=8 10 10 8 8 8 10 10 8 10 8 10 10 8 10 8 10 10 10 8 10 10 10 8 8 10 10 10 10 10
left_child=5 2 -2 9 -4 -1 8 10 -5 18 -6 14 13 -11 15 16 17 -7 -3 -10 -16 -17 23 24 25 26 28 -25 29 -15
right_child=1 3 4 6 7 11 -8 -9 19 12 -12 -13 -14 22 20 21 -18 -19 -20 -21 -22 -23 -24 27 -26 -27 -28 -29 -30 -31
leaf_value=-0.032179238502762601 0.0044206072113494414 0.0030368225197110847 -0.036667242787997427 0.017941815677098197 -0.012244571828037584 0.0029513034005427879 0.031555598103012304 -0.023725565702292391 -0.0269139907265331 0.018436064955156109 0.022157145348436873 0.0035787844667912339 -0.019173227124756307 -0.0088715995840088213 0.0071957808307214488 -0.0015232932744087544 -0.0020560459634038882 -0.02751466340729666 0.039660689780620734 0.010835440790616017 -0.018226165176936718 0.024624027202862005 0.009686481350714933 -0.0015009713857319956 0.015972623700492388 -0.016568004061069876 -0.0031061068471320381 -0.028524783680464693 -0.0080324384977115276 0.025403500542517627
leaf_weight=18.578462705016136 109.23911044001579 7.2856473922729519 15.810453265905378 29.511600866913795 11.080528512597086 9.861209958791731 28.203741207718849 15.11301903426647 7.0738406181335449 38.735900923609734 9.6068844497203809 31.406762152910233 9.1259664446115476 8.826592877507208 8.1619075089693052 18.543176844716076 54.898771047592163 38.698368102312088 9.9958895891904813 7.1016586422920209 113.69894324243069 11.653094097971914 130.67167387902737 43.533197715878487 54.613068178296089 29.251662060618401 61.441305100917816 12.827262997627257 10.035614669322966 37.240246087312698
leaf_count=81 447 30 64 127 45 40 124 61 30 160 39 127 37 36 33 75 222 157 41 30 462 47 543 180 227 119 253 52 41 153
internal_value=0.000287872 0.0054091 -0.00262133 0.00786755 -0.0173269 -0.0111974 0.0183763 -0.00802146 0.00935212 0.00616522 0.00401603 -0.00973173 0.00535406 0.0059216 -0.0113754 -0.00663448 -0.0112501 -0.0213931 0.0252313 -0.00853443 -0.0164788 0.00903314 0.0046295 0.00203842 0.00488489 0.0006797 0.00507548 -0.00804148 0.0139331 0.0187873
internal_weight=991.826 686.325 160.85 525.475 51.6109 305.501 71.8908 35.8004 43.6871 453.584 20.6874 286.922 436.302 427.177 255.515 133.655 103.458 48.5596 17.2815 14.1755 121.861 30.1963 388.441 257.769 201.408 146.795 117.544 56.3605 56.1025 46.0668
internal_count=4083 2839 656 2183 209 1244 311 145 187 1872 84 1163 1801 1764 1036 541 419 197 71 60 495 122 1604 1061 829 602 483 232 230 189
is_linear=0
shrinkage=0.03


Tree=23
num_leaves=31
num_cat=1
split_feature=78 64 52 50 10 75 46 73 54 84 76 31 23 33 53 66 77 44 53 3 70 66 26 24 16 32 26 16 74 70
split_gain=61.2517 14.3349 9.72952 9.67462 8.72585 9.87178 9.06087 7.51172 7.46764 7.36394 7.17027 12.1225 9.0513 7.2081 7.2755 8.83019 6.93123 6.88316 12.0228 6.58829 6.26595 5.96348 5.95444 7.33258 9.47184 7.03273 6.24098 5.84838 7.69867 6.86181
threshold=-58.499999999999993 0.057886363636363687 65.516089285714301 1.0360500000000001 0.45000000000000007 188.50000000000003 0.037749242040286825 4.5000000000000009 63.865000000000002 15.500000000000002 553.50000000000011 0.64583333333333337 0.10555555555555557 0.5967064245052861 1.0018333333333336 -0.11516666666666663 -56.499999999999993 -0.080372643396389484 1.0557333333333336 0 12.84027777777778 -0.0039999999999998917 -1.7071428571428569 0.54852983157293755 0.578045515394913 0.49568933481976968 1.8166666666666669 0.57924641148325373 44.500000000000007 1.0642361111111114
decision_type=8 8 8 10 10 10 10 10 10 2 10 8 8 8 8 10 8 8 10 1 10 8 8 10 8 8 8 8 10 10
left_child=2 3 -1 8 5 6 9 -7 -2 -5 11 19 -13 14 -12 -16 -3 -14 -19 -4 22 -11 -6 24 25 -24 -27 28 29 -10
right_child=1 16 10 4 20 7 -8 -9 27 21 13 12 17 -15 15 -17 -18 18 -20 -21 -22 -23 23 -25 -26 26 -28 -29 -30 -31
leaf_value=-0.031545701965006605 0.01803322524524412 0.020401301969138735 -0.013279569405091821 0.016256737158121103 0.016912111398597187 -0.00020713525104381359 0.024766663380016558 0.024010590711104049 -0.00193902275960194 -0.026731674354637316 -0.035831737048704036 -0.022592555301978644 0.02614682827749569 -0.030303787064636829 0.022566278074535435 -0.011581613984243441 0.0080406664447926005 -0.016228766571101626 0.015587944511499566 0.0088417725827924544 0.020408534113679089 0.00027471566403650187 -0.017067418277195053 0.0050246569278588026 -0.031186065077805372 0.010738656379798373 -0.015793258046593522 0.015851547511799405 0.011376839550346367 -0.019362376344568315
leaf_weight=18.405736729502678 9.8900568783283216 48.297492101788521 133.50063137710094 8.8414308130741102 12.452025994658468 14.949327245354651 9.715590834617613 49.102376967668533 31.923660963773727 14.368266984820364 7.5496970713138571 8.7573819011449796 14.021779760718344 24.952477842569351 7.4017421156167975 35.776880756020546 260.80390922725201 17.301780834794044 24.730064451694489 12.631431460380552 11.150965765118597 14.081294730305673 23.593418017029762 47.805020362138748 14.103459894657133 27.815287202596672 10.066584080457678 7.6271702051162711 12.446568027138708 56.276503667235374
leaf_count=81 40 209 541 36 51 62 40 204 129 58 31 36 57 102 30 145 1093 70 100 51 46 57 96 196 57 114 41 31 51 228
internal_value=0.000278982 0.00525575 -0.010883 0.00131562 0.00456676 0.0108728 0.000389583 0.018442 -0.00576292 -0.00644243 -0.00945103 -0.00655456 0.00419977 -0.0173335 -0.0104912 -0.00534964 0.0100316 0.00870822 0.00241829 -0.0113203 -0.00023914 -0.0138093 -0.0020709 -0.00410725 -0.00987354 -0.00456318 0.00346331 -0.00808167 -0.0100335 -0.0131485
internal_weight=990.34 685.31 305.03 376.209 258.045 111.058 47.0066 64.0517 118.164 37.291 286.624 210.943 64.811 75.6808 50.7283 43.1786 309.101 56.0536 42.0318 146.132 146.987 28.4496 135.836 123.384 75.5787 61.4753 37.8819 108.274 100.647 88.2002
internal_count=4083 2839 1244 1537 1058 457 191 266 479 151 1163 855 263 308 206 175 1302 227 170 592 601 115 555 504 308 251 155 439 408 357
cat_boundaries=0 1
cat_threshold=2
is_linear=0
shrinkage=0.03


Tree=24
num_leaves=31
num_cat=1
split_feature=77 77 57 64 32 52 75 52 25 32 1 58 8 67 76 15 17 65 65 75 71 23 17 85 9 24 24 45 52 50
split_gain=53.3131 16.7034 11.5997 9.33385 9.2766 10.4365 10.4489 9.04217 9.28225 8.61613 8.51253 8.15266 10.3305 7.96608 8.36989 7.62051 9.08956 8.62237 7.51815 11.3239 7.33916 7.17082 9.62648 7.69521 7.69544 7.10368 6.96915 6.62866 6.62673 6.48723
threshold=-6.4999999999999991 10.500000000000002 1.1429343434343437 0.059384210526315824 0.47806848787995387 66.662500000000009 72.500000000000014 75.662421052631586 0.54067843353557654 0.50463002657978229 7671.5000000000009 74.746500000000012 0.46798750731992983 -8.2820000000000018 137.50000000000003 0.58571428571428574 0.51980392156862754 -2.6191538461538424 -0.97099999999998932 226.50000000000003 1.0329861111111114 0.73214285714285732 0.51630627437079057 0 0.45813862928348914 0.50840395480225997 0.48896999188969997 -0.13265307774878313 70.117500000000021 1.0537000000000003
decision_type=10 10 10 8 8 10 10 10 8 8 2 8 10 10 10 8 10 10 10 8 10 10 10 9 10 8 8 8 10 10
left_child=3 2 11 9 -3 -6 20 -4 -9 21 -8 13 -13 14 -2 18 -17 -18 -11 25 26 22 23 29 -25 -20 28 -15 -7 -1
right_child=1 4 7 -5 5 6 10 8 -10 15 -12 12 -14 27 -16 16 17 -19 19 -21 -22 -23 -24 24 -26 -27 -28 -29 -30 -31
leaf_value=0.026338811187586252 0.0045227796861905516 -0.024609132849961669 -0.016718229381354484 0.012208401186697455 -0.026174476726369522 0.0080078093792412958 -0.0080205556731729154 0.028924135955441965 -0.01186509406693087 0.031640399373076118 -0.040360557956707774 -0.012658857152612763 0.019101623185718054 0.020393539827631094 -0.030714664940181324 -0.015066762180356148 -0.0074852897166409922 0.025053748628603004 -0.028032968587123203 0.025176341902798167 -0.013396776524747312 -0.023200615768203574 0.015257135292270867 0.0044351010647838461 -0.024340002035852536 0.010620441056813305 0.017409904983385342 -0.0011113096665996381 -0.022132328449265961 -0.0093839001178433797
leaf_weight=8.5320542007684725 9.3910646289587039 47.250511139631271 68.81039072573185 238.01056231558323 25.043897807598114 15.758052155375482 23.864402145147324 8.0939136296510714 10.337074950337408 19.324200496077538 10.034003749489782 11.324287891387938 37.729414358735085 12.741630896925924 15.031098470091818 18.7662692964077 12.183467373251917 16.104522898793221 8.0884219259023666 15.462895482778547 20.596499383449554 12.96324937045574 24.684065356850624 12.204698905348776 23.826430052518845 7.3211920559406289 27.811168640851974 209.69448530673981 9.8393438309431058 8.0465687662363035
leaf_count=35 38 194 280 1013 108 64 97 33 42 80 41 46 154 52 61 77 50 67 33 65 84 53 102 50 97 30 112 852 40 33
internal_value=0.00027084 -0.005779 -0.00222334 0.0082751 -0.0132854 -0.00910715 -0.00494193 -0.0117699 0.00661408 0.00324414 -0.0184755 0.000621341 0.0116631 -0.001611 -0.0175199 0.00939611 0.000666677 0.0112623 0.0174062 0.00778335 0.00142086 -0.00341487 0.000157419 -0.00707969 -0.0147366 -0.0101404 0.00727634 0.000206295 -0.00397425 0.00945301
internal_weight=988.87 563.351 383.153 425.519 180.198 132.947 107.903 87.2414 18.431 187.508 33.8984 295.912 49.0537 246.858 24.4222 97.251 47.0543 28.288 50.1967 30.8725 74.0051 90.2571 77.2938 52.6098 36.0311 15.4096 53.4086 222.436 25.5974 16.5786
internal_count=4083 2298 1558 1785 740 546 438 355 75 772 138 1203 200 1003 99 402 194 117 208 128 300 370 317 215 147 63 216 904 104 68
cat_boundaries=0 1
cat_threshold=1
is_linear=0
shrinkage=0.03


Tree=25
num_leaves=31
num_cat=3
split_feature=78 65 77 1 61 8 23 74 72 33 49 85 46 78 8 26 17 68 77 66 58 85 65 64 74 45 45 0 31 61
split_gain=51.2268 14.5311 11.8779 10.0385 10.5908 9.79266 9.39111 8.66517 8.48529 7.79315 8.55343 8.73803 7.49409 8.31452 11.5367 9.82865 9.893 9.76097 9.0073 9.55451 8.03585 9.22307 8.03019 7.68108 10.6255 7.67459 7.57202 7.45596 7.97394 7.31026
threshold=56.500000000000007 -1.8150000000000046 -56.499999999999993 7762.0000000000009 67.464166666666685 0.45176799007444174 0.43650793650793657 19.500000000000004 -0.012511574074074048 0.57021168624039442 2.6111111111111116 0 0.19873088412764359 226.50000000000003 0.52487623762376245 1.8166666666666669 0.49130369026013315 2.5000000000000004 -11.499999999999998 -0.10327083333333324 73.551000000000016 1 0.51978787878787369 0.062649999999999997 28.500000000000004 0.02270066024292056 0.029979195561719855 2 0.23611111111111113 71.03166666666668
decision_type=8 8 8 2 10 10 8 10 10 10 8 9 10 10 10 8 8 2 10 10 8 9 10 10 10 8 10 1 10 10
left_child=1 3 5 4 -1 -2 7 -6 -5 10 11 -8 13 14 20 16 23 -17 -15 -20 21 26 -23 -16 -25 -24 -4 -3 -29 -30
right_child=2 27 12 8 6 -7 9 -9 -10 -11 -12 -13 -14 18 15 17 -18 -19 19 -21 -22 22 25 24 -26 -27 -28 28 29 -31
leaf_value=-0.037195727047683771 -0.0075066680713790513 0.004266899933233757 0.02448527647360698 -0.0004549298896497771 -0.022160782459270577 0.023787331428462802 -0.0070329980841119244 0.0076614136930693681 -0.024134915990911523 -0.013711544735605522 -0.0052636749102617127 0.030175946826849983 0.0255443803812417 0.015330497006503989 -0.026884097794815157 -0.024098823213110705 0.012064928267210898 0.010233808769666355 -0.022106703641878604 0.0063268807214571544 0.017051545730901795 -0.020520656722976094 0.017880230573877498 0.027567400250979202 -0.016392565728010025 -0.0072478192250601519 -0.0025102768219808585 0.010287851767710084 -0.017759888984025026 -0.0039277985252881226
leaf_weight=8.4600531756877881 10.255915656685827 96.834660455584526 21.758152469992638 16.552070006728172 32.755642622709274 54.372285634279251 7.3602264523506165 11.273556903004645 76.88909050822258 16.77553129196167 19.90793277323246 19.820237249135975 14.563321158289908 97.551336511969566 13.806194752454756 35.324004754424095 33.999645903706551 8.768513008952139 11.94897238910198 58.613508328795433 43.545045331120491 19.736092567443848 16.265037626028061 7.4968708008527782 10.86181718111038 28.901126191020012 15.583389654755591 22.835007697343826 49.858833253383636 108.7177232503891
leaf_count=35 43 392 90 67 136 236 30 46 317 69 82 80 63 420 56 145 140 36 49 245 180 80 67 31 45 119 64 93 202 441
internal_value=0.000156512 -0.00676201 0.0068647 -0.0127045 -0.00673354 0.0187825 -0.00402531 -0.0145243 -0.0199895 0.00332527 0.00955366 0.0202081 0.00507036 0.00430897 0.000895757 -0.0063941 0.000953004 -0.0171957 0.00947143 0.00127034 0.00641492 0.00176357 -0.00506103 -0.0108024 0.00205546 0.00199247 0.0134478 -0.00225201 -0.00565967 -0.00836085
internal_weight=991.392 488.041 503.351 209.794 116.353 64.6282 107.893 44.0292 93.4412 63.8639 47.0884 27.1805 438.723 424.16 256.046 110.257 66.1645 44.0925 168.114 70.5625 145.789 102.244 64.9023 32.1649 18.3587 45.1662 37.3415 278.246 181.412 158.577
internal_count=4099 1990 2109 862 478 279 443 182 384 261 192 110 1830 1767 1053 453 272 181 714 294 600 420 266 132 76 186 154 1128 736 643
cat_boundaries=0 1 2 3
cat_threshold=2 1 261
is_linear=0
shrinkage=0.03


Tree=26
num_leaves=31
num_cat=0
split_feature=78 65 77 8 44 54 47 31 33 8 45 54 77 70 47 25 69 9 51 75 46 72 8 52 44 35 47 60 58 51
split_gain=48.319 13.761 11.2805 9.32013 8.27442 7.80688 7.71123 10.0809 9.1735 8.05041 7.68896 7.55496 8.34542 7.5333 8.08843 11.069 7.38647 10.3581 10.1692 8.09502 8.94914 8.23844 8.01972 9.46653 8.81403 7.9723 10.1724 7.67328 7.43294 7.26948
threshold=56.500000000000007 -1.8150000000000046 -56.499999999999993 0.45176799007444174 0.090414755761290447 80.75500000000001 -0.12047292047292045 0.41428571428571431 0.52581763242090307 0.40313356368402248 -0.10029756665912272 75.50500000000001 7.5000000000000009 31.104166666666671 0.19563588054154094 0.63349834983498365 0.55000000000000016 0.56485015549901052 70.486500000000007 188.50000000000003 0.034419156191616292 -0.092013888888888937 0.51595925297113765 75.122000000000028 -0.003737959661540113 7.5000000000000009 0.01081765422174283 1.0434166666666671 73.339500000000015 73.960000000000022
decision_type=8 8 8 10 10 8 8 10 10 8 8 10 10 10 10 10 8 10 10 10 8 10 10 10 10 2 10 10 10 10
left_child=1 6 3 -2 10 13 -1 -8 9 -9 -3 12 -10 14 15 16 17 -4 -18 20 28 -22 -21 24 -24 26 29 -25 -20 -26
right_child=2 4 5 -5 -6 -7 7 8 11 -11 -12 -13 -14 -15 -16 -17 18 -19 19 22 21 -23 23 27 25 -27 -28 -29 -30 -31
leaf_value=-0.022263011896670185 -0.0072915027323536804 -0.015366866759154794 0.0030754008357796046 0.023237612972491259 -0.015639643623580342 -0.0088124079883070937 -0.018759337179344349 -0.021558105782563751 0.01338461519156905 0.011252229200876377 0.0016616716260753027 -0.032175212430190649 -0.015101215227096747 0.024434938598755816 0.019656379024484201 -0.019759090719784721 -0.0088562227723212612 -0.023822015933776995 -0.018885749966756311 0.020984081486414372 0.01669125698484079 -0.014721707239240371 -0.020683703181707116 0.040045113844345732 0.021386548056244393 -0.0037542032971973035 0.039834371729811045 0.0091704348062633268 0.011881218944576921 -0.016733692694004647
leaf_weight=52.40132275223732 10.271075680851935 25.789776131510735 48.056179866194725 54.017852067947388 34.836049601435661 33.469961553812027 57.953621402382851 7.0400677025318137 13.321631759405134 41.659253031015396 217.57600866258144 11.568495288491247 25.43384613096714 18.254091888666153 30.843358024954796 16.064610153436661 30.853283911943436 16.517202615737915 24.235706359148026 65.789067715406418 33.875568047165871 8.7408830374479276 12.37546022236347 11.040056914091112 8.0689727962017113 32.188553899526596 10.400096654891966 20.294396087527275 9.0325031429529172 7.9583029597997657
leaf_count=218 43 105 198 236 141 139 238 30 54 169 882 47 106 78 131 67 126 68 99 277 142 36 51 49 34 134 44 86 37 34
internal_value=0.000152829 -0.0065679 0.00667609 0.0183232 -0.00218099 0.00492893 -0.0123587 -0.00893254 -0.00305134 0.00617077 -0.000198364 -0.0119221 -0.00521925 0.00608462 0.00515673 0.0038471 0.00501911 -0.00406305 0.00715984 0.00921293 0.00105766 0.0100585 0.0128661 0.00749414 0.00134618 0.00626624 0.018163 0.0209505 -0.0104294 0.00258694
internal_weight=989.927 487.58 502.347 64.2889 278.202 438.058 209.378 156.977 99.0233 48.6993 243.366 50.324 38.7555 404.588 386.334 355.491 339.426 64.5734 274.853 244 75.8847 42.6165 168.115 102.326 70.9914 58.6159 26.4274 31.3345 33.2682 16.0273
internal_count=4099 1990 2109 279 1128 1830 862 644 406 199 987 207 160 1691 1613 1482 1415 266 1149 1023 314 178 709 432 297 246 112 135 136 68
is_linear=0
shrinkage=0.03


Tree=27
num_leaves=31
num_cat=1
split_feature=78 65 74 1 61 23 74 44 70 54 54 78 60 68 16 32 53 33 47 70 45 33 49 85 61 64 64 64 78 48
split_gain=45.6252 13.0176 10.787 9.46718 9.9867 8.78364 8.2111 7.79736 7.53732 7.25598 8.05048 7.83587 12.3927 11.5006 9.81182 9.45488 8.75565 8.33192 10.6428 7.61997 7.25357 7.16585 7.93387 8.20464 7.05109 6.96724 14.1394 6.80573 7.36087 7.79551
threshold=56.500000000000007 -1.8150000000000046 61.500000000000007 7762.0000000000009 67.464166666666685 0.43650793650793657 19.500000000000004 0.090414755761290447 54.166666666666679 64.242000000000019 67.841666666666683 226.50000000000003 1.0474166666666669 2.5000000000000004 0.50193798449612415 0.47844667409884806 1.0748333333333335 0.40329357549471406 0.020942982456140322 1.0017361111111114 -0.10029756665912272 0.57021168624039442 2.6111111111111116 0 74.27200000000002 0.11861785714285723 0.059384210526315824 -0.035664285714285808 118.50000000000001 1.0208333333333337
decision_type=8 8 10 2 10 8 10 10 8 10 10 10 10 2 10 8 10 8 10 10 8 10 8 9 10 10 10 8 10 8
left_child=1 3 9 4 -1 6 -6 20 -5 -2 -11 13 16 17 15 -14 -13 -12 27 -20 -3 22 23 -7 -16 26 -22 -19 -29 -30
right_child=2 7 -4 8 5 21 -8 -9 -10 10 11 12 14 -15 24 -17 -18 18 19 -21 25 -23 -24 -25 -26 -27 -28 28 29 -31
leaf_value=-0.035881812263728469 -0.013947557267738999 -0.014931372005840292 0.016785359362114092 -0.021757496746056225 -0.021256149529207968 -0.0067010275665133033 0.0077859186462433368 -0.015183893138981532 0.0075232517885547865 0.023695693831605066 0.014721623694168575 0.00084914926549076565 -0.012046002553548332 0.015800418445304575 -0.019275708088796306 0.021978300091578789 0.025528884536974623 -0.012723687735057915 0.00055201746814995643 -0.021452568618434337 -0.00057174777390713494 -0.012873353305061272 -0.0048223938065306646 0.029381565280946657 0.002642700156415205 -0.020549724871072466 0.020572146977130275 0.013051693408403642 0.016705845513751885 -0.013441272107516078
leaf_weight=8.4082955420017225 17.247270986437798 25.775098010897636 76.674822598695755 84.785805016756058 32.54138346016407 7.3502717763185501 11.266801387071608 34.835233718156815 8.2305304408073408 19.650849089026451 22.21446593105793 17.463882923126221 9.016915410757063 37.588197991251945 20.500122651457787 29.027587115764618 49.704695552587509 23.013861939311028 21.156031429767609 41.552094981074333 173.45461693406105 16.703067362308502 19.872574970126152 19.825554147362713 33.72837221622467 11.077851742506025 33.04097743332386 47.189586862921715 9.9063443988561612 25.714764833450317
leaf_count=35 70 105 333 350 136 30 46 141 34 82 92 76 38 155 85 124 219 94 87 170 703 69 82 80 141 45 134 196 41 106
internal_value=0.000148054 -0.00638357 0.00649499 -0.0120233 -0.00622103 -0.00359318 -0.0137799 -0.00211886 -0.0191141 0.004602 0.00541947 0.00443474 0.00951593 0.000860631 0.00232262 0.0138122 0.0192187 -0.00215042 -0.00444806 -0.0141367 -0.000194122 0.00351156 0.00947537 0.0197308 -0.00584215 0.00161207 0.00289429 0.00137169 0.005394 -0.00483002
internal_weight=988.518 487.168 501.35 208.984 115.968 107.56 43.8082 278.184 93.0163 424.675 407.428 387.777 159.442 228.335 92.273 38.0445 67.1686 190.747 168.533 62.7081 243.349 63.7515 47.0484 27.1758 54.2285 217.573 206.496 105.825 82.8107 35.6211
internal_count=4099 1990 2109 862 478 443 182 1128 384 1776 1706 1624 683 941 388 162 295 786 694 257 987 261 192 110 226 882 837 437 343 147
cat_boundaries=0 1
cat_threshold=2
is_linear=0
shrinkage=0.03


Tree=28
num_leaves=31
num_cat=1
