tree
version=v4
num_class=1
num_tree_per_iteration=1
label_index=0
max_feature_idx=55
objective=binary sigmoid:1
feature_names=event_id stars format veto_n t1_rating t1_adr t1_kast t1_win_rate t1_ct_wr t1_t_wr t1_round_diff t1_n t2_rating t2_adr t2_kast t2_win_rate t2_ct_wr t2_t_wr t2_round_diff t2_n diff_rating diff_adr diff_kast diff_win_rate diff_ct_wr diff_t_wr diff_round_diff t1_avg_player_rating t1_avg_player_adr t1_roster_size_hist t2_avg_player_rating t2_avg_player_adr t2_roster_size_hist diff_avg_player_rating diff_avg_player_adr h2h_n h2h_t1_wr t1_rest_days t2_rest_days diff_rest_days t1_rank t2_rank t1_points t2_points diff_rank diff_points t1_is_ranked t2_is_ranked event_prize_pool_usd event_type event_has_prize event_num_attending t1_picks t1_bans t2_picks t2_bans
feature_infos=[1040:8571] none -1:1:0:2 none none none none [0:1] [0:1] [0.125:0.875] [-12:10] [0:10] none none none [0:1] [0:1] [0:1] [-12:11] [0:10] none none none [-1:0.90000000000000002] [-0.59999999999999998:0.5641025641025641] [-0.45681818181818179:0.51485148514851486] [-14.9:14.800000000000001] [0.59499999999999997:1.514] [53.853333333333332:89.919999999999987] [0:5] [0.48499999999999999:1.5720000000000001] [39.926666666666662:93.825000000000003] [0:5] [-0.49430000000000018:0.64289999999999992] [-24.859000000000009:33.957333333333324] [0:5] [0:1] [0.03125:314.70486111111109] [0.03125:430.91262731481481] [-430.2424884259259:312.57986111111109] [1:201] [1:252] [0:1000] [0:1000] [-237:185] [-958:976] [0:1] [0:1] [5354:1250000] -1:0 [0:1] [2:217] [0:4] [0:6] [0:4] [0:6]
tree_sizes=3322 3429 3425 3441 3440 3422 3447 3435 3459 3451 3430 3436

Tree=0
num_leaves=31
num_cat=0
split_feature=45 45 41 45 27 24 0 23 28 43 34 24 45 10 24 17 27 41 40 8 8 25 34 17 45 35 15 34 48 35
split_gain=171.052 19.3772 22.216 17.3211 12.1691 14.2455 11.9237 11.5663 11.0961 9.92933 9.03838 8.97079 8.90053 8.14699 7.85302 7.73236 7.4601 7.41628 7.28583 6.95347 6.00179 5.87454 5.70396 5.57058 5.54383 5.44625 5.22872 4.84453 4.57524 4.54201
threshold=1.0000000180025095e-35 227.50000000000003 56.500000000000007 -106.49999999999999 1.0296205882352945 0.02333199321501048 7439.5000000000009 -1.0000000180025095e-35 76.410166666666683 95.500000000000014 4.700348290598293 0.035857998471772741 -236.49999999999997 -1.7071428571428569 0.054526683794976501 0.48678388448998605 1.0198285714285718 17.500000000000004 4.5000000000000009 0.50952467343976793 0.51562669560499197 0.17136206752828462 0.52587499999999932 0.47637648809523814 -37.499999999999993 2.5000000000000004 0.68333333333333346 1.8689999999999929 225000.00000000003 2.5000000000000004
decision_type=8 8 10 10 10 8 2 8 10 10 8 10 8 10 10 10 10 10 10 10 10 8 10 10 8 2 10 10 10 2
left_child=3 2 4 6 13 15 12 25 -8 -9 17 20 -1 23 28 27 -11 18 22 -16 -7 29 -3 -2 -18 -5 -17 -6 -13 -21
right_child=1 10 -4 7 5 11 8 9 -10 16 -12 14 -14 -15 19 26 24 -19 -20 21 -22 -23 -24 -25 -26 -27 -28 -29 -30 -31
leaf_value=0.19623097763255742 0.20675046450544124 0.20882786258945224 0.25400724258204477 0.19579834715212788 0.21366110529236829 0.22716475643423928 0.18429402347542195 0.19820909862024175 0.23003978752099272 0.20757129132234645 0.26261209727763801 0.26697972736717662 0.23098947960684885 0.19153747310090619 0.24594529134145657 0.26168299370978765 0.25190371815442586 0.25298585909443683 0.25471365687475667 0.20733549679770527 0.18663315258890928 0.24519918564703361 0.23603525332842062 0.24085114084878304 0.21970396695853986 0.22233151591985464 0.23674597304095313 0.24511520983143961 0.22917564052746012 0.23553058616624292
leaf_weight=13.329660147428511 7.1585211902856853 10.367513447999956 37.520524859428406 29.37462143599987 9.3801312148571032 5.1837567239999753 66.648300737142563 8.1459034234285337 4.936911165714263 6.4179845154285458 34.064687043428421 5.6774478405714017 11.848586797714235 10.861204564571379 8.6395945399999601 20.488181337714195 15.057579055428503 36.039451509714127 9.6269767731428129 25.918783619999896 7.6522123068571091 4.9369111657142559 16.785497963428497 8.1459034234285337 6.4179845154285458 9.3801312148570997 13.576505705714224 6.6648300737142554 5.4306022822856903 5.6774478405714026
leaf_count=54 29 42 152 119 38 21 270 33 20 26 138 23 48 44 35 83 61 146 39 105 31 20 68 33 26 38 55 27 22 23
internal_value=0.225709 0.23975 0.233746 0.202046 0.22836 0.23244 0.193691 0.213135 0.187466 0.225448 0.249853 0.223588 0.212169 0.2102 0.228854 0.244451 0.234075 0.243463 0.233655 0.223155 0.201931 0.217367 0.22542 0.224722 0.242446 0.201976 0.252345 0.227104 0.250319 0.212551
internal_weight=461.354 289.797 182.913 171.558 145.392 119.226 96.7635 74.7942 71.5852 36.0395 106.884 69.1168 25.1782 26.1656 56.2808 50.1096 27.8935 72.8194 36.78 45.1727 12.836 36.5331 27.153 15.3044 21.4756 38.7548 34.0647 16.045 11.1081 31.5962
internal_count=1869 1174 741 695 589 483 392 303 290 146 433 280 102 106 228 203 113 295 149 183 52 148 110 62 87 157 138 65 45 128
is_linear=0
shrinkage=1


Tree=1
num_leaves=31
num_cat=0
split_feature=44 33 33 27 51 44 9 27 24 39 42 43 43 27 30 48 43 42 18 18 37 38 0 39 8 30 33 33 36 42
split_gain=159.903 17.2454 15.7418 13.9763 12.7984 11.039 10.8342 7.65979 7.55096 8.8832 6.97449 6.76095 6.45999 6.59287 8.28589 6.97677 6.01698 8.31828 6.23574 6.48549 5.99517 6.01233 5.80727 6.32028 5.6012 5.48698 5.38796 5.24111 5.52852 5.0409
threshold=1.0000000180025095e-35 0.1284000000000001 0.026200000000000005 1.0282238095238097 18.000000000000004 7.5000000000000009 0.46499649964996509 1.0684346153846156 0.021202665472614571 0.046874999999999951 436.50000000000006 311.00000000000006 490.50000000000006 1.0960500000000002 1.1104500000000002 625000.00000000012 15.500000000000002 335.50000000000006 -5.9499999999999993 -1.9499999999999997 7.7708333333333348 1.7934027777777779 7439.5000000000009 44.947916666666679 0.49099025974025978 1.0608500000000001 0.00096176470588238427 0.038472222222222137 0.45000000000000007 319.00000000000006
decision_type=10 8 8 10 2 10 10 10 8 8 8 8 10 10 10 10 10 8 10 8 10 8 2 8 10 10 10 8 10 8
left_child=1 3 5 6 8 12 -1 -6 11 10 -10 -5 13 14 15 -2 -3 18 -18 -20 21 29 -7 -24 -16 -9 -13 -4 -29 -11
right_child=2 16 27 4 7 22 -8 25 9 20 -12 26 -14 -15 24 -17 17 -19 19 -21 -22 -23 23 -25 -26 -27 -28 28 -30 -31
leaf_value=0.0074067705051646428 -0.02741755542279643 0.037304335444184093 0.019272524065580034 0.025728325232739026 -0.032652638932964231 -0.015917584826185861 -0.025662283895026221 -0.013457901251667253 0.010604723483365684 -0.014944635847174622 0.038499922444499186 -0.020943549217023717 -0.034628451422498929 -0.033245048927933327 -0.0050756242241092684 0.0069215320877678409 -0.01288101607515499 0.034157380429915563 0.026576858121743447 -0.0062095713512080085 0.020558445921316264 -0.03206516261939709 -0.040439458950916406 -0.007345984972252583 0.036476322651993208 0.02115430021959868 0.019485682019414891 -0.01765228675648628 0.009885791001165059 0.010965628949963334
leaf_weight=18.25427782535553 12.122348487377172 26.810354098677635 5.6861675828695297 65.756244078278542 6.9070268869400051 15.576522648334501 15.817977264523504 7.3950376659631711 30.824873626232147 11.106181696057325 10.588841915130613 4.9342017918825132 11.38436698913574 7.1661568880081168 4.9490725547075254 8.4004853814840299 7.8948154896497753 19.175417438149452 16.511187255382538 7.3983726948499706 7.8850377500057212 5.918121561408042 64.159171029925346 6.1856356114149085 5.4366204738616943 7.1428278982639313 4.934072345495224 22.253523692488674 8.3920620381832105 14.298364922404287
leaf_count=74 49 109 23 267 28 63 64 30 125 45 43 20 46 29 20 34 32 78 67 30 32 24 259 25 22 29 20 90 34 58
internal_value=0.000101005 0.0136896 -0.0227597 0.00917601 0.0125429 -0.0274388 -0.00823944 -0.00886211 0.0155184 0.00896001 0.0184767 0.0223019 -0.0156654 -0.00925439 -0.00282457 -0.0136932 0.0257044 0.0190037 0.00910451 0.0165897 -0.0013016 -0.00727035 -0.0339577 -0.0376732 0.017969 0.00381495 -0.000796244 -0.00505657 -0.0100371 -0.000498637
internal_weight=461.265 289.553 171.712 211.763 177.691 135.38 34.0723 21.4449 156.246 80.6214 41.4137 75.6245 49.4591 38.0747 30.9085 20.5228 77.7901 50.9798 31.8044 23.9096 39.2077 31.3227 85.9213 70.3448 10.3857 14.5379 9.86827 36.3318 30.6456 25.4045
internal_count=1869 1175 694 859 721 547 138 87 634 327 168 307 200 154 125 83 316 207 129 97 159 127 347 284 42 59 40 147 124 103
is_linear=0
shrinkage=0.03


Tree=2
num_leaves=31
num_cat=0
split_feature=45 45 41 45 39 27 8 0 23 28 43 45 10 51 27 33 16 33 39 42 8 43 45 10 8 35 9 41 42 26
split_gain=151.835 17.728 20.4958 15.5142 12.3933 10.9607 13.024 10.6808 10.6397 10.0379 9.3203 8.35882 7.40141 7.10408 6.95508 6.68284 6.45395 6.31531 6.26093 7.84208 6.19522 7.89738 6.23604 5.46865 5.43819 4.98282 4.69133 7.41596 6.566 5.42743
threshold=1.0000000180025095e-35 227.50000000000003 56.500000000000007 -106.49999999999999 0.052083333333333363 1.0296205882352945 0.51255252100840343 7439.5000000000009 -1.0000000180025095e-35 76.410166666666683 95.500000000000014 -236.49999999999997 -1.7071428571428569 18.000000000000004 1.0198285714285718 0.12172777777777789 0.49114974937343364 0.017300000000000097 -0.26041666666666657 123.00000000000001 0.53879598662207362 121.50000000000001 130.50000000000003 1.828571428571429 0.48584779706275039 2.5000000000000004 0.52788888888888896 15.500000000000002 920.00000000000011 -0.80000000000000038
decision_type=8 8 10 10 10 10 10 2 8 10 10 8 10 2 10 10 10 8 10 10 10 10 10 10 8 2 10 10 10 8
left_child=3 2 5 7 17 12 13 11 25 -9 -10 -1 18 -7 -12 26 -8 24 -2 -20 21 -18 -22 -16 -3 -5 29 28 -28 -6
right_child=1 4 -4 8 15 6 16 9 10 -11 14 -13 -14 -15 23 -17 20 -19 19 -21 22 -23 -24 -25 -26 -27 27 -29 -30 -31
leaf_value=-0.027940524879207441 -0.025788769603806386 0.034087678229891789 0.027166987150015736 -0.02819138870381159 0.03710966589239538 0.021655845900341628 -0.011682915010753168 -0.038856923540388735 -0.026166686507780378 0.0045693128991439128 -0.017028393749165691 0.0056732390919952188 -0.032463026192875666 -0.0098093043296415463 0.026027774918169374 0.032873104149190591 0.0138033053068824 0.037424130902722876 -0.012875858990641876 0.035369691862431323 0.027496142816613615 -0.032300752609132372 -0.0047018166708167226 -0.0059537397678821533 -0.0035836344476308144 -0.0028732539062884806 -0.032045636911321021 0.017488030790123055 0.0092167063315342808 0.0030883351472978326
leaf_weight=13.392552763223646 4.9382633566856375 4.9170418828725788 37.29439377784729 29.521449431777 6.1378304809331894 45.471314162015915 33.097354337573051 67.108954727649689 8.180522680282591 4.939541667699813 6.4418643414974239 11.862030416727068 10.917659178376196 6.9081062376499167 15.036864161491396 9.3063569962978345 5.6585911810398084 45.830744057893753 5.1855801641941088 5.1792426854372025 13.78347432613373 5.9118690490722656 8.1353057920932752 6.415312096476554 7.8661369532346734 9.393470421433447 8.3786471933126467 8.1035422682762128 4.9300670921802512 10.822298422455789
leaf_count=54 20 20 152 119 25 185 134 270 33 20 26 48 44 28 61 38 23 187 21 21 56 24 33 26 32 38 34 33 20 44
internal_value=9.81975e-05 0.0133825 0.00764039 -0.0221159 0.0230774 0.00247303 0.00635708 -0.0299943 -0.0116331 -0.0358579 0.000170149 -0.0125375 -0.0147355 0.0174 0.00853228 0.0113707 -0.0024586 0.0322496 -0.000872672 0.0122231 0.00673219 -0.0104489 0.0158619 0.0166244 0.0123284 -0.0223051 0.00545326 -0.00386779 -0.0171846 0.0167813
internal_weight=461.066 288.774 182.481 172.293 106.293 145.187 118.966 97.3031 74.9895 72.0485 36.0746 25.2546 26.2207 52.3794 27.894 47.6787 66.5866 58.6139 15.3031 10.3648 33.4892 11.5705 21.9188 21.4522 12.7832 38.9149 38.3724 21.4123 13.3087 16.9601
internal_count=1869 1174 741 695 433 589 483 392 303 290 146 102 106 213 113 194 270 239 62 42 136 47 89 87 52 157 156 87 54 69
is_linear=0
shrinkage=0.03


Tree=3
num_leaves=31
num_cat=0
split_feature=45 45 41 45 27 8 0 23 33 43 45 34 41 10 37 27 51 36 43 18 24 42 8 50 45 45 42 34 35 9
split_gain=143.121 16.8877 21.0375 14.5257 10.1729 11.6045 9.98647 9.98615 9.50409 8.80525 7.8779 6.98213 6.96473 6.71209 6.61054 6.59013 6.41428 6.14046 8.59194 7.74279 6.81066 7.43165 8.52564 6.818 5.73647 5.20706 5.18268 4.8499 4.67583 4.61446
threshold=1.0000000180025095e-35 227.50000000000003 56.500000000000007 -106.49999999999999 1.0296205882352945 0.51255252100840343 7439.5000000000009 -1.0000000180025095e-35 0.026200000000000005 95.500000000000014 -236.49999999999997 4.700348290598293 17.500000000000004 -1.9499999999999997 0.99826388888888895 1.0198285714285718 18.000000000000004 0.55000000000000016 24.500000000000004 0.21111111111111114 0.097674109516214788 183.50000000000003 0.55278637770897843 1.0000000180025095e-35 172.50000000000003 -37.499999999999993 100.50000000000001 -0.8258947368421089 2.5000000000000004 0.54298029556650251
decision_type=8 10 8 10 8 10 2 8 10 10 8 10 10 10 10 10 2 8 10 8 8 10 10 2 8 8 10 8 2 10
left_child=3 2 4 6 13 16 10 28 -8 -9 -1 12 29 27 -15 -11 24 19 -19 -7 21 -20 -23 -22 -6 -17 -4 -2 -5 -3
right_child=1 11 26 7 5 17 8 9 -10 15 -12 -13 -14 14 -16 25 -18 18 20 -21 23 22 -24 -25 -26 -27 -28 -29 -30 -31
leaf_value=-0.027101699554726397 0.014838458748219012 0.016733325814745174 0.0038750919043614479 -0.027312709716472587 0.025331139267405871 -0.036708130425652741 -0.039131337393561998 -0.025416053816836686 -0.0073745840772943463 -0.016563872237160521 0.0055194512783873296 0.036928901725971422 0.026178580618598023 -0.0015029664260440552 -0.044286105232347939 0.025386390513433239 -0.009543032682464276 -0.026821852420507619 0.034167579564857269 0.0047793532997201524 -0.025956291637576359 -0.014932564574079195 0.026841000947974997 0.0097476235237862162 -0.0013452759809757611 -0.0058267825655121458 0.030170653754712853 -0.019160076072478015 -0.0027945812212688509 -0.0058775804443815301
leaf_weight=13.423315092921255 8.1276160031557065 17.90622736513615 8.5988352000713331 29.588159576058388 37.240347012877464 8.1592528820037824 61.801691174507141 8.198706850409506 10.416643559932707 6.4517362117767361 11.854739278554918 24.840296655893326 40.09331339597702 5.2171037942171079 7.9515549689531326 14.989144921302794 6.9156171828508368 6.6786900907754889 11.300283566117292 6.8872215300798407 7.9076683372259113 9.3737479150295275 6.6463835835456839 9.6409746110439301 8.8330418914556486 6.4188602119684246 36.884974524378777 5.442443415522578 9.3962851911783201 13.540762409567831
leaf_count=54 33 73 35 119 152 33 248 33 42 26 48 102 164 21 32 61 28 27 46 28 32 38 27 39 36 26 151 22 38 55
internal_value=9.78929e-05 0.0130224 0.00780567 -0.0214401 0.00220448 0.00595887 -0.0290534 -0.0112968 -0.0347141 0.000147177 -0.0121754 0.0232173 0.0180129 -0.0141957 -0.0286388 0.00829006 0.0162978 -0.00238726 0.00261017 -0.0186037 0.00748032 0.016617 0.00295708 -0.00687305 0.0202969 0.0161852 0.0253897 0.000823747 -0.0216209 0.00711621
internal_weight=460.726 288.186 191.806 172.539 146.322 119.583 97.4964 75.0429 72.2183 36.0584 25.2781 96.3806 71.5403 26.7387 13.1687 27.8597 52.989 66.5942 51.5477 15.0465 44.8691 27.3204 16.0201 17.5486 46.0734 21.408 45.4838 13.5701 38.9844 31.447
internal_count=1869 1174 780 695 594 486 392 303 290 146 102 394 292 108 53 113 216 270 209 61 182 111 65 71 188 87 186 55 157 128
is_linear=0
shrinkage=0.03


Tree=4
num_leaves=31
num_cat=0
split_feature=45 45 41 45 39 27 24 48 24 0 28 17 24 39 10 44 45 16 27 43 39 42 30 27 45 18 0 39 25 24
split_gain=134.906 16.0534 18.409 13.7699 11.5886 9.81716 12.1404 8.97318 8.28252 7.36099 8.33922 7.33369 6.96607 6.90423 6.63019 6.25341 7.24274 10.7528 6.14898 7.04292 5.87133 7.36771 5.77433 5.69 5.62907 5.38713 5.36385 5.10878 5.10598 4.89922
threshold=1.0000000180025095e-35 227.50000000000003 56.500000000000007 -93.499999999999986 0.052083333333333363 1.0296205882352945 0.02333199321501048 1125000.0000000002 0.035857998471772741 7436.5000000000009 76.410166666666683 0.48678388448998605 0.054526683794976501 34.109375000000007 -1.7071428571428569 10.500000000000002 -37.499999999999993 0.56561516807418455 1.2124000000000004 329.50000000000006 -0.26041666666666657 123.00000000000001 1.0505500000000001 1.0516000000000003 -236.49999999999997 -2.464285714285714 7728.0000000000009 -0.10416666666666656 -0.0082825153717564475 -0.028939159088644636
decision_type=8 8 8 10 10 10 8 10 10 2 10 10 10 8 10 10 8 8 10 8 10 10 10 10 8 10 2 10 10 10
left_child=3 2 5 9 23 14 11 13 22 24 27 -7 -10 15 20 16 17 28 19 -6 -2 -22 -8 -3 -1 -14 29 -11 -5 -18
right_child=1 4 -4 7 18 6 8 -9 12 10 -12 -13 25 -15 -16 -17 26 -19 -20 -21 21 -23 -24 -25 -26 -27 -28 -29 -30 -31
leaf_value=-0.026142434389587795 -0.024896824452252386 0.0078937774544461537 0.025792847769444554 -0.0043140945032912152 0.012137347566174385 0.00029328670823606227 -0.0036830274745080784 0.020606993089515802 0.02322523434195313 -0.011477523651442412 0.0039592242444620798 0.024884289836450947 0.0093356163637824188 0.017050615420480981 -0.030686387176979121 -0.037958437014558082 0.012932304721121363 -0.031843941078388407 0.038805032002468216 -0.018128560683553948 -0.012387849708786008 0.034417273679648822 -0.043005476633513257 0.034822397172405109 0.0035516607554460589 -0.011168377088718462 -0.03635878985082102 -0.036507540119459649 0.028477380515704202 -0.024216723891606742
leaf_weight=10.210385307669638 4.9542694836854926 9.0240180939435941 36.992370963096619 7.4431532770395288 34.696140572428703 15.951896339654921 7.1656007170677167 6.9061983674764624 11.018122866749762 9.4641165137290937 5.4376106560230246 33.730965971946716 19.203494638204571 5.1987179219722739 10.96327558159828 9.4527328163385373 5.2144627869129181 5.4635443091392508 5.1261818110942832 7.6505245566368094 5.1951161026954669 5.1496640294790268 5.6937981247901917 49.075547084212303 11.357607975602152 25.945724517107013 11.670527711510656 70.81979900598526 8.356559544801712 5.7117139697074908
leaf_count=41 20 37 152 30 142 65 29 28 45 38 22 138 78 21 44 38 21 22 21 31 21 21 23 202 46 105 47 284 34 23
internal_value=9.11583e-05 0.012666 0.00720123 -0.0207969 0.0219291 0.00231303 0.00599851 -0.00973848 -0.00215844 -0.0273873 -0.0313253 0.0171503 0.00291768 -0.0136063 -0.0139548 -0.0168547 -0.0115616 0.00108704 0.0106072 0.00637731 -0.000817956 0.0118919 -0.0229407 0.0308442 -0.0110412 -0.00243402 -0.0230055 -0.0337344 0.0136922 -0.00688975
internal_weight=460.244 287.537 181.964 172.707 105.572 144.972 118.71 65.4176 69.0267 107.29 85.7215 49.6829 56.1673 58.5114 26.2623 53.3127 43.86 21.2633 47.4728 42.3467 15.299 10.3448 12.8594 58.0996 21.568 45.1492 22.5967 80.2839 15.7997 10.9262
internal_count=1869 1174 741 695 433 589 483 264 280 431 344 203 228 236 106 215 177 86 194 173 62 42 52 239 87 183 91 322 64 44
is_linear=0
shrinkage=0.03


Tree=5
num_leaves=31
num_cat=1
split_feature=44 33 45 51 26 45 44 39 39 38 36 45 30 33 2 31 45 48 8 34 45 39 9 48 9 39 28 28 43 39
split_gain=115.939 21.9904 17.2572 12.003 11.7622 9.86349 11.1275 9.51781 8.91541 7.83712 10.033 9.06882 7.87303 7.80012 7.40773 7.33757 6.95188 6.50233 6.22674 6.09995 6.53868 5.96366 5.2534 5.22017 4.99714 4.74979 4.47007 4.37462 4.27331 4.18481
threshold=1.0000000180025095e-35 0.1284000000000001 -93.499999999999986 15.500000000000002 0.65000000000000002 227.50000000000003 -11.499999999999998 0.14583333333333337 16.885416666666671 2.0225694444444451 inf 68.500000000000014 1.0744500000000003 0.03008333333333341 0 70.30423214285716 83.500000000000014 1125000.0000000002 0.5511512297226584 1.9003333333333361 293.00000000000006 0.046874999999999951 0.50187969924812037 625000.00000000012 0.51980392156862754 0.052083333333333363 72.589000000000013 75.244833333333347 34.500000000000007 0.12326388888888885
decision_type=10 8 10 2 10 10 10 10 8 10 8 10 10 10 1 10 8 10 10 10 10 8 8 8 10 8 10 10 8 10
left_child=1 5 3 4 14 9 25 17 -9 12 11 -11 15 26 -2 23 -3 18 22 20 -8 -17 -4 -1 -23 -7 28 -27 -12 -21
right_child=2 16 7 -5 -6 6 19 8 -10 10 13 -13 -14 -15 -16 21 -18 -19 -20 29 -22 24 -24 -25 -26 27 -28 -29 -30 -31
leaf_value=-0.0060882828978237559 -0.031243276338010564 -0.00054853079704796927 -0.0068447921060867242 -0.033524816385224185 0.017850001169281978 0.03413523427644824 0.014308085824480194 -0.028695066519184437 0.01057818750523202 0.0055820714481367561 0.001049904562393436 -0.032977838339733216 0.017824559629751536 0.018907445928917629 0.007375882410832456 0.0045808216875552615 0.028390600989262525 0.030988365539404008 -0.029845645942150272 0.031742157099261849 -0.024719683904017669 -0.03344584151068284 0.021327114881974956 0.028255930907166209 0.00032276033492562847 0.024114472878568768 0.011461954191473273 -0.0062940731167402467 -0.034321895423109872 -0.0012469618219612677
leaf_weight=5.9060179293155644 17.199838906526566 8.352798178791998 14.163008332252508 76.27711945772171 8.4279046654701215 23.473193377256393 5.1284196674823788 21.332395657896996 6.2048980593681362 7.6193642318248775 5.1578438282012948 16.512859165668488 36.276424616575241 15.454568609595297 5.4847899824380937 14.763161808252335 66.874991044402122 5.4090105593204489 4.9518596678972235 6.0842058062553388 10.073424145579336 9.8725203573703784 8.8775306791067106 9.5702366828918457 6.1593421697616568 9.5091431736946124 5.3811342120170584 6.5860522687435141 6.4029896408319482 6.6242831349372864
leaf_count=24 69 34 57 306 34 97 21 86 25 31 21 67 148 63 22 60 276 22 20 25 41 40 36 39 25 39 22 27 26 27
internal_value=-0.000329314 0.0114272 -0.0199611 -0.0271539 -0.0109771 0.00630936 0.015631 -0.00705174 -0.0197852 0.0017073 -0.00682768 -0.0210655 0.00756383 0.00409128 -0.0219886 -0.000687426 0.0252123 0.00371611 -0.00244083 0.001014 -0.011483 -0.0090933 0.00444547 0.0155755 -0.0212149 0.0256622 -0.00972464 0.0120312 -0.0197136 0.01571
internal_weight=450.111 281.783 168.328 107.39 31.1125 206.555 67.4787 60.9387 27.5373 139.076 56.5288 24.1322 82.5477 32.3965 22.6846 46.2713 75.2278 33.4014 27.9924 27.9103 15.2018 30.795 23.0405 15.4763 16.0319 39.5684 16.942 16.0952 11.5608 12.7085
internal_count=1830 1153 677 431 125 843 277 246 111 566 230 98 336 132 91 188 310 135 113 114 62 125 93 63 65 163 69 66 47 52
cat_boundaries=0 1
cat_threshold=2
is_linear=0
shrinkage=0.03


Tree=6
num_leaves=31
num_cat=1
split_feature=44 33 45 51 23 45 44 39 39 38 35 45 30 33 31 45 2 48 8 23 27 34 45 39 48 39 18 28 41 39
split_gain=109.247 20.854 16.2274 11.2693 13.8228 9.3695 10.561 8.96654 8.40443 7.39914 9.44085 8.52695 7.44658 7.38979 6.94936 6.60992 6.34423 6.20164 5.90655 7.7452 6.20838 5.7825 6.18279 5.62797 4.96643 4.53612 5.14104 4.23643 4.20087 4.15822
threshold=1.0000000180025095e-35 0.1284000000000001 -93.499999999999986 15.500000000000002 -0.092857142857142846 227.50000000000003 -11.499999999999998 0.14583333333333337 16.885416666666671 2.0225694444444451 1.0000000180025095e-35 68.500000000000014 1.0744500000000003 0.03008333333333341 70.30423214285716 83.500000000000014 0 1125000.0000000002 0.5511512297226584 -0.092857142857142846 1.0198285714285718 1.9003333333333361 293.00000000000006 0.046874999999999951 625000.00000000012 0.052083333333333363 -0.18333333333333332 72.589000000000013 15.500000000000002 -0.11111111111111098
decision_type=10 8 10 2 8 10 10 10 8 10 2 10 10 10 10 8 1 10 10 8 10 10 10 8 8 8 8 10 10 10
left_child=1 5 3 4 16 9 25 17 28 12 13 -12 14 27 24 -3 -2 18 19 -4 -21 22 -8 29 -1 -7 -27 -11 -9 -16
right_child=2 15 7 -5 -6 6 21 8 -10 10 11 -13 -14 -15 23 -17 -18 -19 -20 20 -22 -23 -24 -25 -26 26 -28 -29 -30 -31
leaf_value=-0.0059284805001817119 -0.034755337687249865 -0.00053380043081764519 -0.013314162996464519 -0.032495922474268392 0.014834097409940964 0.033359240152146356 0.013974934910355502 -0.011445784666296721 0.010312431820524607 -0.019166732724436884 0.0054373946020508344 -0.031940387229008466 0.017345989232079504 0.018419579166434687 -0.016068194030458945 0.027691627650084819 0.003425487439735044 0.030310435940261189 -0.029038715588418942 -0.0036065592778188288 0.037704021925842157 0.015341502924227748 -0.023978295516240384 -0.020597120262839441 0.027586442726430554 0.029659920706573147 -0.0030937424964450769 0.011187825889550531 -0.039368391163359578 0.015270001190901774
leaf_weight=5.910149306058881 14.72562852501869 8.353381544351576 10.954376697540281 76.361699521541595 11.399051874876024 23.324162200093269 5.1171672642231014 9.665874123573305 6.1997061669826534 11.583101183176042 7.61412385106087 16.569318681955338 36.187901958823204 15.415074005722998 4.9246889054775247 66.536499559879303 4.9917877167463329 5.386790618300437 4.9643682539463034 5.4695488959550911 6.6013840138912201 12.677278250455855 10.103781461715696 16.06389082968235 9.5332471579313278 6.8140913099050522 9.2503068596124667 5.3722339272499076 11.709865763783453 9.8303214907646161
leaf_count=24 59 34 44 306 46 97 21 39 25 47 31 67 148 63 20 276 20 22 20 22 27 52 41 65 39 28 38 22 47 40
internal_value=-0.000316143 0.011118 -0.0193575 -0.0263282 -0.0106517 0.00613669 0.015238 -0.00683923 -0.0191843 0.00165369 -0.00663482 -0.0204234 0.00735028 0.00396978 -0.000670279 0.0245778 -0.0253905 0.00362155 -0.00238327 0.00433324 0.0201416 0.00100585 -0.0111438 -0.00884025 0.0151798 0.025044 0.0117234 -0.00946156 -0.0278179 0.00445445
internal_weight=449.611 281.181 168.43 107.478 31.1165 206.291 67.2868 60.9519 27.5754 139.004 56.5539 24.1834 82.4502 32.3704 46.2623 74.8899 19.7174 33.3765 27.9897 23.0253 12.0709 27.8982 15.2209 30.8189 15.4434 39.3886 16.0644 16.9553 21.3757 14.755
internal_count=1830 1153 677 431 125 843 277 246 111 566 230 98 336 132 188 310 79 135 113 93 49 114 62 125 63 163 66 69 86 60
cat_boundaries=0 1
cat_threshold=2
is_linear=0
shrinkage=0.03


Tree=7
num_leaves=31
num_cat=0
split_feature=44 33 43 40 42 35 39 31 42 39 39 26 16 40 48 43 27 44 31 40 28 44 33 44 41 31 35 25 51 39
split_gain=103.027 19.7772 11.8691 14.95 9.10533 8.58179 8.39026 7.38285 7.3069 6.53966 7.53474 7.50816 6.90289 7.90168 6.43178 6.0286 8.3599 5.89026 9.06398 5.35714 5.0827 6.62537 4.96052 4.76639 4.74424 5.58079 4.70514 4.4635 4.24584 4.22454
threshold=1.0000000180025095e-35 0.1284000000000001 558.00000000000011 61.500000000000007 107.50000000000001 1.0000000180025095e-35 0.16145833333333334 72.657000000000011 578.50000000000011 -8.9774305555555536 0.052083333333333363 0.59999999999999998 0.55869104398516167 14.500000000000002 117500.00000000001 117.50000000000001 1.0859500000000002 -52.499999999999993 64.172500000000014 10.500000000000002 71.237500000000026 -7.4999999999999991 0.043922222222222203 -6.4999999999999991 28.500000000000004 69.345681818181831 3.5000000000000004 0.03921568627450981 23.000000000000004 0.15798611111111108
decision_type=10 8 10 10 10 2 10 10 10 10 10 10 10 10 8 10 10 10 8 10 10 10 10 10 10 10 2 10 2 10
left_child=1 4 3 6 -1 15 26 -8 -4 19 12 20 13 -11 -9 28 -17 -3 -19 -7 -12 -22 -13 24 -20 -26 -2 -18 -6 -24
right_child=2 17 8 -5 5 9 7 14 -10 10 11 22 -14 -15 -16 16 27 18 23 -21 21 -23 29 -25 25 -27 -28 -29 -30 -31
leaf_value=-0.010566777065029316 -0.0069881395516075409 0.035039833188900832 -0.0411639402810898 -0.041167341281356767 0.023598298754258191 0.0028601728658397517 -0.0061070688020757342 -0.0068857316191610679 -0.0027210997079822321 0.029229449628468039 -0.014654008766841061 -0.028407032972624594 -0.010083948805157103 -0.0072278441250577937 -0.038333215744415963 -0.025339142598283206 -0.00086008181898048115 -0.019096569228536021 0.038684019676798756 -0.036827125546883548 -0.0094468305184482824 0.025897190713859392 0.016114143652369389 -0.003249777400088786 0.025516384290241285 -0.0055254475166118516 0.01558307134186891 0.033743539854907682 -0.00072325982925979676 -0.012448672392953873
leaf_weight=25.366996973752975 60.835141688585281 27.434883579611778 26.975657105445862 15.977658316493033 50.772095143795013 5.5713159441947919 21.14757938683033 8.7124805450439471 5.4671952277421942 24.033451989293102 5.4201933890581158 9.8446831554174441 7.068714663386344 6.365324690937995 20.683908820152283 6.1432123780250576 7.3221527189016324 4.842364862561225 14.1267212331295 5.45036481320858 6.119420632719998 15.426175817847248 6.1286174356937435 5.8586705178022376 15.000240385532381 7.2743334621191016 8.6441523432731611 5.1174409091472626 7.3140229135751715 12.532261252403258
leaf_count=103 245 115 108 64 209 23 85 35 22 99 22 40 29 26 83 25 30 20 59 22 25 63 25 24 62 30 35 21 30 51
internal_value=-0.000304344 0.0108205 -0.0187867 -0.0147014 0.00597176 0.00833976 -0.0108671 -0.0200479 -0.0349607 0.00267494 0.00531746 -0.00172828 0.0155226 0.0216084 -0.029546 0.0158877 0.000932629 0.0239644 0.0169192 -0.0181966 0.00944205 0.015885 -0.0122571 0.0213921 0.025339 0.015577 -0.00399872 0.0148268 0.0205754 -0.00272557
internal_weight=448.977 280.534 168.444 136.001 205.996 180.629 120.023 50.544 32.4429 103.961 92.9388 55.4714 37.4675 30.3988 29.3964 76.6689 18.5828 74.5372 47.1023 11.0217 26.9658 21.5456 28.5056 42.26 36.4013 22.2746 69.4793 12.4396 58.0861 18.6609
internal_count=1830 1153 677 547 843 740 483 203 130 425 380 226 154 125 118 315 76 310 195 45 110 88 116 175 151 92 280 51 239 76
is_linear=0
shrinkage=0.03


Tree=8
num_leaves=31
num_cat=1
split_feature=44 33 45 51 23 45 41 39 39 38 35 45 30 33 31 45 48 2 39 48 9 39 41 34 42 42 33 10 39 23
split_gain=97.2013 18.8366 14.7446 10.4787 12.9992 8.70041 9.9661 8.12725 7.87126 6.86203 8.56461 7.94525 7.01121 6.91077 6.62659 6.13829 5.86158 5.76524 5.18208 4.73814 4.6594 4.45347 4.79519 4.4023 4.35119 5.15481 5.28096 4.43922 4.22256 4.993
threshold=1.0000000180025095e-35 0.1284000000000001 -93.499999999999986 15.500000000000002 -0.077380952380952342 227.50000000000003 17.500000000000004 0.14583333333333337 16.885416666666671 2.0225694444444451 1.0000000180025095e-35 68.500000000000014 1.0744500000000003 0.03008333333333341 70.30423214285716 83.500000000000014 1125000.0000000002 0 0.046874999999999951 625000.00000000012 0.51980392156862754 -0.18923611111111108 34.500000000000007 -3.1437499999999967 938.50000000000011 594.00000000000011 0.069281818181818014 1.1214285714285717 -0.16666666666666669 -0.092857142857142846
decision_type=10 8 10 2 10 10 10 10 10 10 2 10 10 10 10 8 10 1 8 8 10 8 10 8 8 10 8 10 8 8
left_child=1 5 3 4 17 9 24 16 -9 12 13 -12 14 -11 19 -3 28 23 -16 -1 -20 -8 -23 -2 25 27 -27 -7 -4 -30
right_child=2 15 7 -5 -6 6 21 8 -10 10 11 -13 -14 -15 18 -17 -18 -19 20 -21 -22 22 -24 -25 -26 26 -28 -29 29 -31
leaf_value=-0.0058852546943771204 -0.048127864561266699 -0.00078146495446223575 -0.021273034096374131 -0.030827534777937166 0.015700093283998493 0.028925291678961629 0.037070774604504031 -0.026399787562132203 0.010444486089377029 -0.0093412443333449422 0.0053626454046367799 -0.030696363998408544 0.01669933186813452 0.017649529757241489 0.0040246423193674025 0.026420767664254653 0.029655949776900333 0.0038406510370266197 -0.031802513259273114 0.02686979743702193 0.00070325144295371234 0.022513625008830133 -0.0098858422267220445 -0.014209228849514794 0.024706935008417828 -0.028969627871410223 0.0061154606287210575 -0.0061479691796400664 -0.011769399353218683 0.016369983778865737
leaf_weight=5.9076474905014011 7.2435191720724106 8.3412812948226911 6.7002531290054321 76.391371548175812 10.900626227259634 5.3263325244188362 15.455932617187498 21.420650765299801 6.201056793332099 16.950621992349625 7.6101613193750408 16.620551466941833 36.047836929559708 15.345288679003714 14.723004207015038 65.824286684393883 5.3620506525039664 4.9934912025928524 9.9219390004873294 9.4878165423870087 6.1672469824552527 15.686757892370226 4.8121092319488517 7.9838158339262026 5.1434260904788962 8.3578449636697716 6.0705743581056621 6.087866798043251 8.9690404087305051 12.309187024831777
leaf_count=24 29 34 27 306 44 22 65 86 25 69 31 67 148 63 60 276 22 20 40 39 25 65 20 32 21 34 25 25 36 50
internal_value=-0.000300112 0.0105264 -0.0182422 -0.0248848 -0.00979209 0.00579759 0.0145951 -0.00631486 -0.0180523 0.00148011 -0.00649974 -0.0196076 0.00697613 0.00362824 -0.000802264 0.0233917 0.00365185 -0.0236267 -0.00877102 0.0147085 -0.0200305 0.0251187 0.0148018 -0.0323156 0.00198045 -0.0032947 -0.0147684 0.0112303 -0.00218321 0.004513
internal_weight=448.364 279.889 168.475 107.513 31.1215 205.723 66.9408 60.9622 27.6217 138.782 56.5266 24.2307 82.2555 32.2959 46.2077 74.1656 33.3405 20.2208 30.8122 15.3955 16.0892 35.9548 20.4989 15.2273 30.986 25.8426 14.4284 11.4142 27.9785 21.2782
internal_count=1830 1153 677 431 125 843 277 246 111 566 230 98 336 132 188 310 135 81 125 63 65 150 85 61 127 106 59 47 113 86
cat_boundaries=0 1
cat_threshold=2
is_linear=0
shrinkage=0.03


Tree=9
num_leaves=31
num_cat=1
split_feature=45 33 45 51 23 45 41 39 39 27 48 38 35 45 37 30 39 31 43 45 2 30 45 42 42 33 33 39 43 15
split_gain=91.7078 17.9341 13.8144 9.82508 12.3168 8.30361 9.47104 7.12189 9.57089 6.90737 6.53169 6.42564 8.07394 7.48392 6.68723 6.06135 6.2471 6.97625 6.01987 5.84327 5.47112 5.39914 5.21122 4.48798 6.03697 4.38006 4.33729 4.28989 6.99854 4.28139
threshold=-1.4999999999999998 0.1284000000000001 -93.499999999999986 15.500000000000002 -0.077380952380952342 227.50000000000003 17.500000000000004 26.357638888888893 0.14583333333333337 1.0392500000000002 1125000.0000000002 2.0225694444444451 1.0000000180025095e-35 68.500000000000014 1.1232638888888891 1.0744500000000003 0.31597222222222232 70.30423214285716 153.50000000000003 83.500000000000014 0 1.049738888888889 -26.499999999999996 594.00000000000011 938.50000000000011 0.077350000000000044 0.069281818181818014 -0.18923611111111108 35.500000000000007 0.64583333333333337
decision_type=8 8 10 2 10 10 10 8 10 10 10 10 2 10 10 10 10 8 10 8 1 10 10 10 10 8 8 8 10 10
left_child=2 5 3 4 20 11 18 8 10 -10 -4 15 14 -14 -13 16 17 -2 -7 -3 -1 -16 -11 -20 26 -19 -25 -8 -29 -17
right_child=1 19 7 -5 -6 6 27 -9 9 22 -12 12 13 -15 21 29 -18 25 23 -21 -22 -23 -24 24 -26 -27 -28 28 -30 -31
leaf_value=-0.031480006060858046 0.023330840289457262 -0.00076045970803053059 -0.0049483362148733459 -0.029924629443596716 0.015287409161160241 -0.024975473450183264 0.036319145882252768 0.023351907881266336 -0.041559510936459078 0.0041367326321272279 0.029025471264877301 0.028833655748280115 0.0052236504935299823 -0.029768466880008466 0.008963833306108086 0.023688772959142349 -0.022800413565619699 -0.01034499551467484 0.025319941362086734 0.025787407293584991 0.0037449494828250746 -0.017509529736847322 -0.031096552977421098 -0.024750705583360379 0.024158691741308344 0.01677798871761367 0.008811824331259684 -0.015005387359694335 0.02383320985084313 0.0025101851862681067
leaf_weight=15.217937275767328 11.414008840918539 8.3421381264924985 25.025414288043979 76.365886092185974 10.886255621910093 5.1187379658222225 15.325195029377936 5.6640202999114981 9.7347071021795291 9.6935910582542402 5.3362780511379233 6.3412393033504477 7.6049671918153789 16.655079811811447 13.91352452337742 22.118091657757759 8.1616467088460904 20.70584657788277 7.9745284467935589 65.448050290346146 4.9930279403924969 12.016492456197737 4.9921629279851905 7.6447938531637147 5.1253112107515326 6.1477294713258734 5.1038386374712053 4.8130148500204113 15.628232628107069 14.085200309753416
leaf_count=61 47 34 101 306 44 21 65 23 39 39 22 26 31 67 57 91 33 84 33 276 20 49 20 31 21 25 21 20 65 58
internal_value=-0.000289635 0.0102216 -0.0177552 -0.0241698 -0.0095456 0.00561952 0.0142353 -0.00614326 -0.00955677 -0.02314 0.00175791 0.00141586 -0.00631258 -0.0190267 0.00352991 0.00671537 -0.000503538 0.00471144 0.00194627 0.0228161 -0.0230115 -0.00349908 -0.00905912 0.00800922 -0.000646356 -0.00375616 -0.0116505 0.0245331 0.0144151 0.015738
internal_weight=447.597 279.688 167.909 107.463 31.0972 205.897 66.7337 60.4462 54.7822 24.4205 30.3617 139.164 56.5313 24.26 32.2713 82.6325 46.4292 38.2676 30.9672 73.7902 20.211 25.93 14.6858 25.8485 17.8739 26.8536 12.7486 35.7664 20.4412 36.2033
internal_count=1830 1155 675 431 125 845 277 244 221 98 123 568 230 98 132 338 189 156 127 310 81 106 59 106 73 109 52 150 85 149
cat_boundaries=0 1
cat_threshold=2
is_linear=0
shrinkage=0.03


Tree=10
num_leaves=31
num_cat=0
split_feature=45 27 43 41 42 45 33 17 33 42 37 39 24 28 0 0 48 39 0 34 35 39 16 27 17 16 28 28 25 35
split_gain=89.7711 18.2157 14.7169 11.1949 11.5514 7.67381 7.58147 11.4487 11.3146 10.6285 9.33899 7.58894 7.5061 10.2633 10.4072 8.88101 7.73522 9.62222 7.77488 6.72156 6.32179 6.04406 6.16917 5.96767 5.55916 4.74719 5.38233 5.7573 7.0575 7.38175
threshold=56.500000000000007 0.97786666666666677 547.00000000000011 61.500000000000007 107.50000000000001 682.50000000000011 0.070244444444444679 0.47391107078039935 0.021950000000000029 637.00000000000011 1.0260416666666667 0.04861111111111114 0.099755579987705137 73.013500000000008 7438.5000000000009 8036.5000000000009 142500.00000000003 0.86805555555555569 7826.5000000000009 3.1739999999999999 1.5000000000000002 0.036458333333333377 0.55779352226720658 1.0276000000000003 0.51600102406554027 0.44267283349561831 69.766500000000008 70.902000000000015 0.052470338547636143 1.0000000180025095e-35
decision_type=8 8 10 10 10 8 10 10 8 10 8 8 10 10 2 2 10 10 2 10 2 10 10 10 10 10 10 10 8 2
left_child=1 -1 12 4 -2 6 7 8 -6 19 -10 -12 13 14 23 16 18 -18 -15 21 -5 22 24 -3 -9 -16 -27 -28 29 -29
right_child=3 2 -4 20 5 -7 -8 9 10 -11 11 -13 -14 15 25 -17 17 -19 -20 -21 -22 -23 -24 -25 -26 26 27 28 -30 -31
leaf_value=-0.034338590707830643 -0.016248439242361575 0.030282306305939515 -0.028847135313141509 0.031656013110981526 -0.030046230313399307 0.029987766792205987 0.017113318534527213 0.0007468083422014942 0.031994495318601081 -0.016347685378590462 0.016004490121644184 -0.030033844351984831 -0.027949526801508508 0.026865725188551098 0.0049145895932593405 0.026989833099106991 -0.00092021195661078667 -0.045205493882965124 -0.014727065199304444 -0.011909100876471474 -0.003778652951131934 0.026907636130935324 -0.017894334007230877 -0.0069880561480700262 0.030313810773003533 -0.036219943932989065 0.001872223767354884 -0.044504119391942043 0.011278360470785495 -0.012924142597101071
leaf_weight=33.36842305958271 13.782091990113257 6.9464486539363843 30.881388172507286 33.297763839364052 13.776078864932058 17.299723237752914 68.985599711537361 12.152651131153112 6.2889276146888795 10.52855211496353 4.7775247991085008 6.5573646873235729 12.146509498357771 11.567848652601244 8.6953958421945554 12.782310232520102 17.005316823720936 4.9850402921438208 5.196193814277648 6.8082109689712516 4.9907829016447058 32.086356192827225 5.8109691739082328 6.9372697770595551 9.9057185202836973 11.457120627164839 15.160933658480642 10.71888332068921 4.9182071387767712 18.362445428967476
leaf_count=134 56 28 124 141 56 73 287 50 26 43 20 27 49 47 35 52 69 20 21 28 21 132 24 28 41 46 61 43 20 74
internal_value=4.84744e-05 -0.0142799 -0.0103436 0.0123018 0.00947921 0.0113714 0.00940114 0.00439493 -0.0106565 0.0105676 0.00529941 -0.0109049 -0.00628444 -0.00413976 -0.0106079 0.0063051 -0.00102461 -0.0124889 0.0138703 0.0149907 0.0270586 0.0181905 0.00756992 0.0124412 0.0147632 -0.0153361 -0.0182736 -0.0134524 -0.0201441 -0.0256565
internal_weight=458.178 211.13 177.761 247.048 208.76 194.978 177.678 108.692 31.3999 77.2925 17.6238 11.3349 146.88 134.733 83.1967 51.5367 38.7544 21.9904 16.764 66.7639 38.2885 59.9557 27.8693 13.8837 22.0584 69.313 60.6176 49.1605 33.9995 29.0813
internal_count=1876 851 717 1025 863 807 734 447 129 318 73 47 593 544 335 209 157 89 68 275 162 247 115 56 91 279 244 198 137 117
is_linear=0
shrinkage=0.03


Tree=11
num_leaves=31
num_cat=0
split_feature=45 27 43 34 24 28 42 25 9 27 25 35 38 24 23 25 48 0 0 48 39 44 34 0 0 27 39 9 17 17
split_gain=84.7948 17.167 13.8744 10.6809 7.07417 9.69696 6.00754 6.25744 6.87964 6.8589 6.16796 5.71853 6.36003 11.7163 8.90326 5.98684 5.63963 5.62765 8.56808 8.70299 5.32548 5.30265 6.01911 5.05029 4.91356 6.52425 4.91909 5.25273 5.24432 6.29543
threshold=56.500000000000007 0.97786666666666677 547.00000000000011 4.7834999999999974 0.099755579987705137 72.269500000000008 107.50000000000001 0.16428730428185254 0.45886599488644914 1.0350500000000002 0.015701535331113573 1.0000000180025095e-35 1.9600694444444446 -0.037600574712643657 0.25277777777777782 -0.014896628093923446 760000.00000000012 8040.0000000000009 7841.0000000000009 142500.00000000003 0.12326388888888885 -16.499999999999996 2.0312619047619056 7618.5000000000009 7438.5000000000009 1.0276000000000003 -0.0034722222222222233 0.53777548755351201 0.47391107078039935 0.45135816125860379
decision_type=8 8 10 8 10 10 10 10 10 10 10 2 10 8 8 10 8 2 2 10 10 10 8 2 2 10 8 10 10 8
left_child=1 -1 4 6 5 24 -2 8 -8 10 -10 15 21 -14 -15 16 -11 18 19 23 -21 -13 -23 -7 25 -3 -26 28 29 -28
right_child=3 2 -4 -5 -6 17 7 -9 9 11 -12 12 13 14 -16 -17 -18 -19 -20 20 -22 22 -24 -25 26 -27 27 -29 -30 -31
leaf_value=-0.033359263086889079 -0.012394100209901388 0.025825299821004025 -0.028031888028319987 0.020709603121052838 -0.027129229218228721 0.038386136165825681 0.022650740104044272 0.038020207517815617 0.0068721513256016515 -0.024394553755629628 -0.035382367269791798 -0.015656929191033474 0.028340939919315206 -0.030111266800091178 0.013280695808155508 0.022698510051620303 0.013168427095992429 0.019723735451823154 -0.021841382643965707 0.0089134273819274131 -0.020714380180215979 0.0044980126929849784 0.030144025285947638 0.0056221690178502289 0.001679976747674063 -0.016182263398706095 -0.025656273653110826 0.0051234463236296867 -0.029894508402535651 0.015505320059657351
leaf_weight=33.347213745117188 11.84695218503475 5.9376869499683362 30.855570182204247 82.79456090927124 12.168254718184469 7.6335170567035702 22.480097085237503 5.5043808072805396 5.1598418951034528 4.8295520544052097 5.897308737039566 6.040449395775787 4.8670451045036316 15.970383584499357 5.0326080769300523 30.167584478855133 8.4017433375120163 15.211145758628843 11.832708194851874 9.6531897783279437 10.409189522266386 25.996507823467269 11.368467926979056 9.1082066893577558 12.406550601124762 5.4647932797670364 5.7184019237756702 6.4345332384109488 29.111308813095093 5.7236240357160577
leaf_count=134 48 24 124 350 49 31 93 23 21 20 24 25 20 65 21 126 35 62 48 39 42 107 47 37 50 22 23 26 117 23
internal_value=4.19505e-05 -0.0138801 -0.0100578 0.0119747 -0.00611609 -0.00403107 0.0074542 0.00907509 0.00773454 0.00486463 -0.0167296 0.00711228 0.00169945 -0.00984758 -0.0195829 0.0155196 -0.00129315 0.00441525 -0.000673382 0.00652997 -0.00671234 0.00864836 0.0128833 0.0218827 -0.0116038 0.00601112 -0.015029 -0.0193838 -0.0233021 -0.00547477
internal_weight=457.373 211.016 177.669 246.357 146.813 134.645 163.563 151.716 146.212 123.731 11.0572 112.674 69.2755 25.87 21.003 43.3989 13.2313 63.848 48.6368 36.8041 20.0624 43.4054 37.365 16.7417 70.7969 11.4025 59.3944 46.9879 40.5533 11.442
internal_count=1876 851 717 1025 593 544 675 627 604 511 45 466 285 106 86 181 55 259 197 149 81 179 154 68 285 46 239 189 163 46
is_linear=0
shrinkage=0.03


end of trees

feature_importances:
diff_points=44
diff_rest_days=36
diff_avg_player_rating=21
t1_avg_player_rating=20
t1_points=17
t2_points=16
event_prize_pool_usd=14
event_id=13
t2_rank=13
diff_rank=13
diff_ct_wr=12
h2h_n=12
t1_avg_player_adr=11
diff_avg_player_adr=11
t1_ct_wr=10
diff_win_rate=9
t1_t_wr=8
t2_avg_player_rating=8
event_num_attending=8
t2_t_wr=7
diff_t_wr=7
t2_avg_player_adr=7
t1_round_diff=6
t2_rest_days=6
t2_ct_wr=5
t2_round_diff=5
format=4
t1_rest_days=4
t1_rank=4
diff_round_diff=3
h2h_t1_wr=3
t2_win_rate=2
event_has_prize=1

parameters:
[boosting: gbdt]
[objective: binary]
[metric: binary_logloss,auc]
[tree_learner: serial]
[device_type: cpu]
[data_sample_strategy: bagging]
[data: ]
[valid: ]
[num_iterations: 2000]
[learning_rate: 0.03]
[num_leaves: 31]
[num_threads: 0]
[seed: 0]
[deterministic: 0]
[force_col_wise: 0]
[force_row_wise: 0]
[histogram_pool_size: -1]
[max_depth: -1]
[min_data_in_leaf: 20]
[min_sum_hessian_in_leaf: 0.001]
[bagging_fraction: 0.85]
[pos_bagging_fraction: 1]
[neg_bagging_fraction: 1]
[bagging_freq: 5]
[bagging_seed: 3]
[bagging_by_query: 0]
[feature_fraction: 0.85]
[feature_fraction_bynode: 1]
[feature_fraction_seed: 2]
[extra_trees: 0]
[extra_seed: 6]
[early_stopping_round: 0]
[early_stopping_min_delta: 0]
[first_metric_only: 0]
[max_delta_step: 0]
[lambda_l1: 0]
[lambda_l2: 1]
[linear_lambda: 0]
[min_gain_to_split: 0]
[drop_rate: 0.1]
[max_drop: 50]
[skip_drop: 0.5]
[xgboost_dart_mode: 0]
[uniform_drop: 0]
[drop_seed: 4]
[top_rate: 0.2]
[other_rate: 0.1]
[min_data_per_group: 100]
[max_cat_threshold: 32]
[cat_l2: 10]
[cat_smooth: 10]
[max_cat_to_onehot: 4]
[top_k: 20]
[monotone_constraints: ]
[monotone_constraints_method: basic]
[monotone_penalty: 0]
[feature_contri: ]
[forcedsplits_filename: ]
[refit_decay_rate: 0.9]
[cegb_tradeoff: 1]
[cegb_penalty_split: 0]
[cegb_penalty_feature_lazy: ]
[cegb_penalty_feature_coupled: ]
[path_smooth: 0]
[interaction_constraints: ]
[verbosity: -1]
[saved_feature_importance_type: 0]
[use_quantized_grad: 0]
[num_grad_quant_bins: 4]
[quant_train_renew_leaf: 0]
[stochastic_rounding: 1]
[linear_tree: 0]
[max_bin: 255]
[max_bin_by_feature: ]
[min_data_in_bin: 3]
[bin_construct_sample_cnt: 200000]
[data_random_seed: 1]
[is_enable_sparse: 1]
[enable_bundle: 1]
[use_missing: 1]
[zero_as_missing: 0]
[feature_pre_filter: 1]
[pre_partition: 0]
[two_round: 0]
[header: 0]
[label_column: ]
[weight_column: ]
[group_column: ]
[ignore_column: ]
[categorical_feature: 2,49]
[forcedbins_filename: ]
[precise_float_parser: 0]
[parser_config_file: ]
[objective_seed: 5]
[num_class: 1]
[is_unbalance: 0]
[scale_pos_weight: 1]
[sigmoid: 1]
[boost_from_average: 1]
[reg_sqrt: 0]
[alpha: 0.9]
[fair_c: 1]
[poisson_max_delta_step: 0.7]
[tweedie_variance_power: 1.5]
[lambdarank_truncation_level: 30]
[lambdarank_norm: 1]
[label_gain: ]
[lambdarank_position_bias_regularization: 0]
[eval_at: ]
[multi_error_top_k: 1]
[auc_mu_weights: ]
[num_machines: 1]
[local_listen_port: 12400]
[time_out: 120]
[machine_list_filename: ]
[machines: ]
[gpu_platform_id: -1]
[gpu_device_id: -1]
[gpu_use_dp: 0]
[num_gpu: 1]

end of parameters

pandas_categorical:[["bo1", "bo3", "bo5"], ["online"]]
