tree
version=v4
num_class=1
num_tree_per_iteration=1
label_index=0
max_feature_idx=100
objective=poisson
feature_names=map_name event_id stars format t1_rating t1_adr t1_kast t1_win_rate t1_ct_wr t1_t_wr t1_round_diff t1_n t2_rating t2_adr t2_kast t2_win_rate t2_ct_wr t2_t_wr t2_round_diff t2_n t1_onmap_rating t1_onmap_adr t1_onmap_kast t1_onmap_win_rate t1_onmap_ct_wr t1_onmap_t_wr t1_onmap_round_diff t1_onmap_n t2_onmap_rating t2_onmap_adr t2_onmap_kast t2_onmap_win_rate t2_onmap_ct_wr t2_onmap_t_wr t2_onmap_round_diff t2_onmap_n diff_rating diff_onmap_rating diff_adr diff_onmap_adr diff_kast diff_onmap_kast diff_win_rate diff_onmap_win_rate diff_ct_wr diff_onmap_ct_wr diff_t_wr diff_onmap_t_wr diff_round_diff diff_onmap_round_diff t1_avg_player_rating t1_avg_player_adr t1_avg_player_kast t1_onmap_avg_player_rating t1_onmap_avg_player_adr t1_roster_size_hist t1_onmap_roster_size_hist t2_avg_player_rating t2_avg_player_adr t2_avg_player_kast t2_onmap_avg_player_rating t2_onmap_avg_player_adr t2_roster_size_hist t2_onmap_roster_size_hist diff_avg_player_rating diff_avg_player_adr diff_onmap_avg_player_rating diff_onmap_avg_player_adr h2h_n h2h_t1_wr t1_rest_days t2_rest_days diff_rest_days t1_rank t2_rank t1_points t2_points diff_rank diff_points t1_is_ranked t2_is_ranked event_prize_pool_usd event_type event_has_prize event_num_attending map_picked_by t1_picks t1_bans t2_picks t2_bans t1_pistol_wr t2_pistol_wr t1_pistol_n t2_pistol_n diff_pistol_wr t1_avg_rounds_for t1_avg_rounds_against t2_avg_rounds_for t2_avg_rounds_against diff_avg_rounds_for diff_avg_rounds_against
feature_infos=-1:0:5:4:1:3:2:8:6:7 [1040:8648] none -1:1:0:2 none none none [0:1] [0:1] [0.125:0.875] [-12:10] [0:10] none none none [0:1] [0:1] [0:1] [-12:11] [0:10] none none none [0:1] [0:1] [0:1] [-13:13] [0:10] none none none [0:1] [0:1] [0:1] [-12:12] [0:10] none none none none none none [-1:0.90000000000000002] [-1:1] [-0.59999999999999998:0.5641025641025641] [-0.69999999999999996:0.69230769230769229] [-0.45681818181818179:0.51485148514851486] [-0.61682242990654201:0.6310679611650486] [-14.9:14.800000000000001] [-15:17.5] [0.59499999999999997:1.514] [53.853333333333332:89.919999999999987] [44.950000000000003:85.909999999999997] [0.48499999999999999:1.8359999999999999] [44.619999999999997:98.300000000000011] [0:5] [0:5] [0.48499999999999999:1.5720000000000001] [39.926666666666662:93.825000000000003] [41.25333333333333:86.679999999999993] [0.41000000000000003:1.7133333333333332] [38.399999999999999:98] [0:5] [0:5] [-0.49430000000000018:0.64289999999999992] [-24.859000000000009:33.957333333333324] [-0.69777777777777761:0.7320000000000001] [-28.088888888888889:40.676666666666662] [0:5] [0:1] [0.03125:314.70486111111109] [0.03125:430.91262731481481] [-430.2424884259259:312.57986111111109] [1:201] [1:252] [0:1000] [0:1000] [-237:185] [-977:976] [0:1] [0:1] [5354:1250000] -1:0 [0:1] [2:217] -1:1:0 [0:4] [0:6] [0:4] [0:6] [0:1] [0:1] [0:30] [0:30] [-0.59999999999999998:0.56666666666666665] [1:16] [3:16] [1:21] [2:25] [-13.5:11.699999999999999] [-12.6:8.9000000000000004]
tree_sizes=3262 3499 3489 3509 3507 3515 3535 3503 3524 3519 3526 3519 3526 3533 3525 3516 3520 3518 3510 3509 3510 3502 3541 3537 3500 3522 3505 3493 3500 3522 3494 3518 3530 3501 3517 3500 3528 3513 3504 3502 3528 3520 3524 3528 3524 3503 3508 3501 3513 3528 3516 3517 3527 3514 3515 3519 3539 3515 3513 3496 3514 3509 3531 3558 3519 3497 3513 3493 3512

Tree=0
num_leaves=31
num_cat=0
split_feature=65 77 65 45 67 8 8 54 54 71 17 72 60 33 58 77 45 33 59 8 75 52 71 67 34 91 32 70 58 77
split_gain=7.23144 12.8543 8.17051 10.3729 9.3791 7.07906 6.54353 6.36799 8.58748 6.36438 5.9155 5.64637 8.10151 5.57623 5.37475 5.00736 4.82617 7.08928 6.22008 5.75637 5.35406 5.10868 4.82036 5.61184 4.71275 4.61651 6.37055 4.24708 4.00974 4.27393
threshold=-0.21249999999999145 19.500000000000004 -0.71973076923076451 0.047425710727210364 3.3000000000000047 0.55594679186228502 0.41476388168137007 71.535000000000011 73.195000000000022 0.23090277777777782 0.5981725634178906 0.092013888888888964 1.098166666666667 0.55186206896551737 74.905500000000004 -79.499999999999986 -0.0034904970760233907 0.57021168624039442 75.608500000000021 0.52155332590115211 254.50000000000003 69.708500000000015 0.19965277777777782 4.3716666666666706 -8.7499999999999982 0.65833333333333344 0.58523611831863009 9.8072916666666696 67.185076923076934 -74.499999999999986
decision_type=8 8 10 8 8 10 10 10 10 8 10 10 10 8 10 8 8 10 10 10 10 10 8 10 8 10 10 8 8 8
left_child=1 2 5 11 -5 9 22 -3 -9 13 -7 12 -4 14 -1 -8 25 18 -18 -20 21 -19 -2 -24 -17 -11 -27 -10 -26 -30
right_child=6 7 3 4 -6 10 15 8 27 16 -12 -13 -14 -15 -16 24 17 20 19 -21 -22 -23 23 -25 28 26 -28 -29 29 -31
leaf_value=3.0810527911362224 3.0823823571752236 3.0787214630750537 3.0790755545628863 3.0842934726349136 3.0806656348744452 3.0787912084993332 3.0786355440489919 3.0818360034567984 3.0785501852978205 3.0796738453722377 3.0810397394122564 3.0793052001993835 3.0827304063363759 3.0799070963639776 3.0842060274424505 3.0817223334731931 3.0799287264990389 3.0808517742191883 3.0804225861688432 3.0835219642639493 3.0798166332814576 3.0835392077973323 3.079642499423406 3.0819834791436551 3.078925995856078 3.0828457953176067 3.0793491797792427 3.0806621917276216 3.081709197261397 3.079604275174884
leaf_weight=1095.1401710510254 1051.3345642089844 9549.6222915649414 876.11213684082031 1401.7794189453125 1182.7513847351074 6132.7849578857422 5256.6728210449219 1620.8074531555176 2628.3364105224609 22297.053882598877 1270.3625984191895 2540.7251968383789 1445.5850257873535 1270.3625984191895 876.11213684082031 919.91774368286133 14368.239044189453 1138.9457778930664 1401.7794189453125 876.11213684082031 1051.3345642089844 1445.5850257873535 4161.5326499938965 1182.7513847351074 8060.2316589355469 1007.5289573669434 876.11213684082031 1270.3625984191895 876.11213684082031 85070.488487243652
leaf_count=25 24 218 20 32 27 140 120 37 60 509 29 58 33 29 20 21 328 26 32 20 24 33 95 27 184 23 20 29 20 1942
internal_value=3.07976 3.07998 3.08017 3.0811 3.08263 3.08004 3.0796 3.07919 3.08 3.08017 3.07918 3.08028 3.08135 3.08146 3.08246 3.07954 3.08008 3.08042 3.08016 3.08162 3.08162 3.08236 3.08053 3.08016 3.07959 3.07979 3.08122 3.07924 3.07957 3.07963
internal_weight=184203 77623.5 62554.4 7446.95 2584.53 55107.5 106579 15069.1 5519.51 47704.3 7403.15 4862.42 2321.7 3241.61 1971.25 100183 44462.7 20282 16646.1 2277.89 3635.87 2584.53 6395.62 5344.28 94926.8 24180.7 1883.64 3898.7 94006.8 85946.6
internal_count=4205 1772 1428 170 59 1258 2433 344 126 1089 169 111 53 74 45 2287 1015 463 380 52 83 59 146 122 2167 552 43 89 2146 1962
is_linear=0
shrinkage=1


Tree=1
num_leaves=31
num_cat=2
split_feature=64 77 54 1 96 8 71 58 7 54 75 98 18 45 84 43 57 0 42 54 16 58 7 9 58 0 70 54 94 45
split_gain=8.52888 8.96304 9.53272 7.3079 6.28219 6.11435 5.76317 6.31984 5.83513 5.73797 7.43462 5.27467 5.32643 4.9191 4.93445 8.82129 4.85663 5.8167 5.74467 13.8572 9.51188 9.92269 6.48986 5.23745 5.18432 6.21776 5.06233 5.0221 4.85819 4.43325
threshold=0.055366666666666571 19.500000000000004 70.964166666666685 8229.5000000000018 7.8500000000000005 0.57454747538901252 0.66840277777777779 72.247815789473705 0.70714285714285718 73.15000000000002 32.500000000000007 8.1500000000000004 -0.94999999999999984 0.058721675334849989 28.000000000000004 0.20000000000000007 1.0989500000000001 0 -0.20714285714285716 69.292500000000018 0.5345681119836122 74.295500000000018 0.38750000000000007 0.5048081368469719 78.601526315789485 1 2.0017361111111116 75.381666666666689 -0.10119047619047618 0.062513907432131768
decision_type=8 8 10 2 10 10 8 10 8 10 8 8 8 8 2 8 10 1 10 10 10 10 10 10 10 1 10 10 10 8
left_child=1 4 -3 9 -1 13 7 8 -2 10 -4 -7 -13 16 29 -16 17 28 23 20 21 -20 -21 -18 25 26 27 -24 -6 -15
right_child=6 2 3 -5 5 11 -8 -9 -10 -11 -12 12 -14 14 15 -17 18 -19 19 22 -22 -23 24 -25 -26 -27 -28 -29 -30 -31
leaf_value=0.002361208213444245 0.00056217710867622868 -0.0010370177757551998 0.003194940103231454 0.0025100880120041149 0.00261401654442489 0.0016181468477821455 -0.00036036882356210205 -0.0010326650500243771 0.0030552913738823725 -0.00060388676227063635 -0.00052809432067928445 0.0015052625678360256 -0.00089571127379641012 0.0024342808219625848 1.2231629090862372e-05 0.0035284957598687933 -0.00072246564631280768 -0.00028781202315855675 0.0013394842254764562 0.0026997689459121029 0.00059740269473272959 0.0054937613702591547 0.00087471383581592889 0.0013546341286180125 0.0024839000747854194 -0.00020713571871024155 -0.00056079926140629587 0.0033310748395341972 0.00035867431515303037 0.00043935937161413677
leaf_weight=1270.5217323303223 3679.1984710693359 10679.311027526855 964.86419677734375 1183.8182182312012 1051.7263832092285 1008.0333251953125 61751.297523498535 1620.7143478393555 1096.0345611572266 4772.783576965332 964.5820426940918 919.87190628051758 8583.2169876098633 1052.2579193115234 1183.1143836975098 1403.2559776306152 5564.0355033874512 24838.429191589355 920.0357666015625 1009.090705871582 1577.8937110900879 1184.0580139160156 2366.1222190856934 1358.5025177001953 876.65344619750977 13406.848426818848 1270.2005958557129 1095.8950042724609 4687.8964004516602 20861.398086547852
leaf_count=29 84 244 22 27 24 23 1410 37 25 109 22 21 196 24 27 32 127 567 21 23 36 27 54 31 20 306 29 25 107 476
internal_value=-5.18528e-06 0.000151242 -0.000452891 0.000338166 0.000266294 0.000238607 -0.000271579 0.000585591 0.00113493 -4.57787e-05 0.00133439 -0.000444255 -0.00066317 0.000322357 0.00068158 0.00192064 0.000178559 -8.88953e-05 0.00044556 0.000667568 0.00235878 0.00367876 0.0003565 -0.000314712 0.000232017 0.000123053 0.00105656 0.00165301 0.000770983 0.000535259
internal_weight=184202 116054 18565.4 7886.05 97489.1 96218.5 68147.2 6395.95 4775.23 6702.23 1929.45 10511.1 9503.09 85707.4 24500 2586.37 61207.4 30578.1 30629.3 23706.8 3681.99 2104.09 20024.8 6922.54 19015.7 18139.1 4732.22 3462.02 5739.62 21913.7
internal_count=4205 2649 424 180 2225 2196 1556 146 109 153 44 240 217 1956 559 59 1397 698 699 541 84 48 457 158 434 414 108 79 131 500
cat_boundaries=0 1 2
cat_threshold=264 352
is_linear=0
shrinkage=0.03


Tree=2
num_leaves=31
num_cat=2
split_feature=64 77 54 73 27 8 71 58 33 98 16 0 67 49 78 46 65 35 60 24 8 16 0 67 90 98 48 9 46 66
split_gain=8.2775 8.69837 9.27758 7.96106 8.46775 7.0612 5.5929 6.1288 5.42482 4.43816 4.43653 4.76861 5.89202 6.66665 5.03175 9.03385 5.23971 4.88863 4.71697 4.68147 6.6807 7.75869 6.30131 6.72722 4.67784 4.55254 5.39373 5.8233 11.6462 4.43756
threshold=0.055366666666666571 19.500000000000004 71.473000000000013 30.500000000000004 1.5000000000000002 0.39907407407407414 0.66840277777777779 72.247815789473705 0.2682539682539683 7.1500000000000012 0.50704784594004382 0 -0.40666666666666623 -7.2083333333333321 120.50000000000001 0.0037167498578379314 -3.8085000000000018 1.5000000000000002 0.98016666666666674 0.46894290123456794 0.57297518726591767 0.51321611551001411 1 -6.8749999999999991 0.51666666666666672 10.550000000000002 -1.571428571428571 0.49499949994999509 0.014558060674565528 0.07599999999999997
decision_type=8 8 10 10 2 10 8 10 10 8 8 1 8 10 10 10 10 2 8 8 10 8 1 10 10 10 10 10 10 10
left_child=1 3 -3 9 -5 -4 7 8 -2 -1 11 17 13 -13 16 -16 -15 -11 -14 -12 21 -21 23 -23 -17 29 -27 -28 -29 -20
right_child=6 2 5 4 -6 -7 -8 -9 -10 10 19 12 18 14 15 24 -18 -19 25 20 -22 22 -24 -25 -26 26 27 28 -30 -31
leaf_value=0.0020069046524532424 0.0032462952636494241 -0.001001141915540298 0.0023201608391741741 0.0042919670724366086 0.00068433177443771019 -6.6427522130670046e-05 -0.00035512922495987303 -0.0010183486687631344 0.0006370732646083187 0.0018123892913147277 -0.00047336933633882139 0.0025307893491523215 0.00026176040392879009 0.00087548199032715253 0.0031676170033609866 -0.0014028359853609615 -0.00075018920811912172 -0.00034605489581020622 -0.0012880254602678106 -0.0014659270819134236 -0.00062842486672811575 0.0036612534290562325 0.00024743808383448861 0.00090752745779986441 0.001377093210760835 0.0038746891965963023 0.00058554002993585095 0.0051994274602698062 0.0013191642426885891 0.0014195071179559074
leaf_weight=1229.7339630126953 877.80430221557617 11018.739135742188 1360.6726036071777 878.3806266784668 1753.9152450561523 6177.5507469177246 61729.047737121582 1619.041618347168 3902.8513488769531 1051.9594306945801 13231.97188949585 1008.5562286376953 4864.3172225952148 2367.9089393615723 1140.6936950683594 1182.7884750366211 7231.0791282653809 9157.8400459289551 1007.476692199707 1972.3192329406738 7573.0330848693848 921.19788360595703 24459.382545471191 5960.0491828918457 1008.2318649291992 921.89944839477539 3638.7685852050781 920.77488708496094 2848.8295745849609 1183.9493865966797
leaf_count=28 20 252 31 20 40 141 1410 37 89 24 302 23 111 54 26 27 165 209 23 45 173 21 558 136 23 21 83 21 65 27
internal_value=-5.1128e-06 0.00014896 -0.000446356 0.000262251 0.00188935 0.00036461 -0.000267607 0.00057652 0.00111675 0.000217092 0.000193569 0.000435145 0.000629425 0.000182857 -4.56008e-07 0.00100386 -0.000349114 -0.000123385 0.00103437 1.70843e-05 0.000175818 0.00035866 0.000473527 0.0012748 -0.000123564 0.0013915 0.00171154 0.00144187 0.0022681 0.000174738
internal_weight=184201 116072 18557 97515.1 2632.3 7538.22 68128.7 6399.7 4780.66 94882.8 93653 39535.1 29325.3 13939.3 12930.7 3331.71 9598.99 10209.8 15386 54118 40886 33312.9 31340.6 6881.25 2191.02 10521.7 8330.27 7408.37 3769.6 2191.43
internal_count=4205 2649 424 2225 60 172 1556 146 109 2165 2137 902 669 318 295 76 219 233 351 1235 933 760 715 157 50 240 190 169 86 50
cat_boundaries=0 1 2
cat_threshold=18 80
is_linear=0
shrinkage=0.03


Tree=3
num_leaves=31
num_cat=0
split_feature=64 77 1 73 27 53 71 96 98 16 75 25 94 77 49 75 67 42 81 78 65 98 90 44 8 67 60 53 77 26
split_gain=8.03355 8.44145 7.78289 7.70721 8.16082 6.3173 5.42767 6.00245 4.29651 4.30242 4.56716 5.24105 4.60642 4.27039 4.10441 5.84804 5.60979 4.7004 5.0511 4.44134 7.01871 4.86689 4.55059 4.38638 4.28733 4.89772 3.98941 4.15071 4.80942 6.17808
threshold=0.055366666666666571 19.500000000000004 8229.5000000000018 30.500000000000004 1.5000000000000002 1.0707500000000001 0.66840277777777779 12.050000000000002 7.1500000000000012 0.50704784594004382 205.50000000000003 0.38924963924963935 0.16666666666666669 -77.499999999999986 -6.6749999999999989 87.500000000000014 0.21999999999999889 -0.10000000000000001 1125000.0000000002 111.50000000000001 -3.3220555555555502 11.133333333333335 0.46291208791208799 0.029054526184480237 0.45273088381330689 0.74333333333333951 0.98686666666666678 1.2011666666666669 35.500000000000007 -0.61249999999999993
decision_type=8 8 2 10 2 8 8 8 8 8 10 8 10 8 10 10 10 10 8 10 10 8 10 10 10 10 8 8 8 10
left_child=1 3 26 8 -5 -4 7 -2 -1 14 -11 -12 -13 -8 15 -10 19 18 -18 20 23 -21 -23 -16 -19 -26 -3 28 -28 -30
right_child=6 2 5 4 -6 -7 13 -9 9 10 11 12 -14 -15 16 -17 17 24 -20 21 -22 22 -24 -25 25 -27 27 -29 29 -31
leaf_value=0.0019730404914810543 0.00019032086922596514 -0.0017990925487857783 -6.9674850591040443e-05 0.0042098757723067351 0.00067367830801854441 0.0030099173029394253 -0.0011998855400922142 0.0028036299757775909 0.0032151734604408001 -0.00025991030133776883 0.0022057986623754233 0.00011148514578197481 0.0019938880789064947 -0.00027667698985017086 0.00014500207457093938 0.00060298383884788847 0.0031631072023423946 -0.0006791550404453352 0.0005568919472030571 0.0021629805693396459 -0.00081190032856125855 0.0018214584222747987 -0.00035550966441739074 0.002454056122925066 0.0026091022691655985 0.00054184078991590073 -0.0008622861155597152 -0.0015895973987926535 -0.00025360785127133233 0.0019467346595025319
leaf_weight=1232.2043952941895 5479.882625579834 2448.5155754089355 1576.0893249511719 882.15871047973633 1755.115894317627 966.46730041503906 4897.269702911377 923.50839233398438 1097.9450454711914 26946.968547821045 1227.7001190185547 24717.089496612549 1227.1302795410156 56809.860752105713 3157.0325469970703 2589.5478057861328 1361.9008560180664 2278.7845306396484 1316.0896530151367 1448.8309059143066 8847.3541374206543 1141.1064338684082 3550.4181137084961 966.33921051025391 1141.1308174133301 10655.819507598877 5510.4637641906738 2491.1095199584961 3935.4306564331055 1620.6113243103027
leaf_count=28 125 56 36 20 40 22 112 21 25 615 28 564 28 1298 72 59 31 52 30 33 202 26 81 22 26 243 126 57 90 37
internal_value=-5.04084e-06 0.000146713 -0.000439908 0.000258271 0.00185767 0.00110165 -0.000263693 0.000567596 0.000213806 0.000190643 1.68268e-05 0.000291272 0.000200594 -0.000349964 0.000428467 0.00138142 0.000330452 0.00073116 0.00188298 -2.08488e-05 -0.000335511 0.000643782 0.000174264 0.000686608 0.000511902 0.000742013 -0.000684837 -0.000483484 -0.000234373 0.000388433
internal_weight=184200 116089 18548.7 97540.7 2637.27 2542.56 68110.5 6403.39 94903.4 93671.2 54118.9 27171.9 25944.2 61707.1 39552.3 3687.49 35864.8 16753.7 2677.99 19111.1 12970.7 6140.36 4691.52 4123.37 14075.7 11797 16006.1 13557.6 11066.5 5556.04
internal_count=4205 2649 424 2225 60 58 1556 146 2165 2137 1235 620 592 1410 902 84 818 382 61 436 296 140 107 94 321 269 366 310 253 127
is_linear=0
shrinkage=0.03


Tree=4
num_leaves=31
num_cat=0
split_feature=64 77 54 73 27 8 71 96 98 77 34 32 69 98 76 51 95 78 9 32 25 8 45 65 65 61 9 100 54 33
split_gain=7.7968 8.19232 8.93843 7.46173 7.86601 6.73902 5.2674 5.80419 4.15955 4.1518 4.82646 4.29018 5.7253 4.53289 5.53336 7.185 5.63412 5.22671 4.16629 4.61625 4.0782 3.98467 5.08174 6.52043 9.98556 8.31088 6.84031 4.8006 4.74333 6.19178
threshold=0.055366666666666571 19.500000000000004 71.473000000000013 30.500000000000004 1.5000000000000002 0.40313356368402248 0.66840277777777779 12.050000000000002 7.1500000000000012 -77.499999999999986 -8.7499999999999982 0.51123737373737377 0.22500000000000003 11.267857142857144 57.500000000000007 77.214500000000015 10.950000000000001 160.50000000000003 0.60199128194967322 0.54972527472527488 0.49545416976609641 0.56715900079302151 0.049422855370436038 -0.15400000000001055 -0.95649999999999824 68.728333333333339 0.49820143884892093 -2.6833333333333322 79.461666666666687 0.48584779706275039
decision_type=8 8 10 10 2 10 8 8 8 8 8 8 8 10 8 10 8 10 10 8 10 10 8 10 10 10 10 8 8 10
left_child=1 3 -3 8 -5 -4 7 -2 -1 -8 -11 13 -13 -12 -15 16 20 -18 -14 -20 -16 22 -10 24 28 -26 -27 -23 -24 -30
right_child=6 2 5 4 -6 -7 9 -9 21 10 11 12 18 14 15 -17 17 -19 19 -21 -22 27 23 -25 25 26 -28 -29 29 -31
leaf_value=0.0019398138876813964 0.00018745010738134888 -0.00097883330066829617 0.0021639157916385921 0.0041296954740002844 0.00066319781883352651 -8.4297549093166819e-05 -0.00118344338075702 0.0027541254132976991 0.00010696000191575079 0.0018805744451595848 -0.0010664307622264865 0.0016862392262394612 -0.00031229615130233269 -0.00077789921019695855 0.002707617600564718 0.0028570363658306191 -0.0014255342307416278 0.00050332083862608646 0.0021962371390377078 2.9662508273860647e-05 0.00013758399595898809 0.0014252126008511361 0.0003752288618560882 3.0678751115925825e-05 0.00039908414788753204 0.0056090665329550215 0.0020008543667198449 -0.00048331984665246256 0.00047856116692518647 0.0038556215560434175
leaf_weight=1234.6379890441895 5480.9256286621094 11001.077320098877 1496.2268142700195 885.88030624389648 1756.2986793518066 6043.2392807006836 4891.3971214294434 926.1011848449707 55401.301975250244 920.72930145263672 10413.544300079346 1618.9484024047852 22226.566371917725 9318.9765739440918 962.63120651245117 875.10543823242188 2843.7763633728027 2275.1620101928711 1312.628490447998 2713.1620140075684 1312.9148406982422 1315.8656578063965 10094.399620056152 10044.050094604492 1009.9994239807129 927.2315788269043 967.42805099487305 11950.716323852539 1098.4254264831543 879.6451530456543
leaf_count=28 125 252 34 20 40 138 112 21 1264 21 238 37 508 213 22 20 65 52 30 62 30 30 230 229 23 21 22 273 25 20
internal_value=-4.96944e-06 0.000144501 -0.000433558 0.000254354 0.00182658 0.000362094 -0.000259835 0.000558821 0.000210573 -0.000344873 -0.000272631 -0.000308147 -4.4647e-05 -0.000570404 -0.000276681 0.000288165 -1.61947e-05 -0.000568305 -0.000151449 0.000736455 0.0012255 0.000187764 0.000267227 0.000622068 0.00101864 0.00259758 0.00376871 -0.000293926 0.000638562 0.00198152
internal_weight=184199 116106 18540.5 97565.9 2642.18 7539.47 68092.6 6407.03 94923.7 61685.5 56794.1 55873.4 27871.3 28002.1 17588.6 8269.59 7394.48 5118.94 26252.4 4025.79 2275.55 93689.1 80422.5 25021.2 14977.1 2904.66 1894.66 13266.6 12072.5 1978.07
internal_count=4205 2649 424 2225 60 172 1556 146 2165 1410 1298 1277 637 640 402 189 169 117 600 92 52 2137 1834 570 341 66 43 303 275 45
is_linear=0
shrinkage=0.03


Tree=5
num_leaves=31
num_cat=1
split_feature=0 98 55 67 50 51 59 60 16 48 32 81 44 52 34 53 24 58 8 42 60 76 11 98 9 53 1 59 91 48
split_gain=9.84776 8.5082 6.89437 6.47209 6.0205 5.37186 9.88168 5.18353 4.96154 4.93426 6.5092 6.33865 5.9046 11.1648 5.57482 7.47279 7.7735 5.06624 7.02716 5.79052 6.40471 4.83173 4.61044 5.23512 5.3374 4.53709 4.46288 4.53242 4.30012 9.82428
threshold=0 13.050000000000002 4.5000000000000009 -2.948333333333323 0.94663571428571447 68.784000000000006 72.40802941176473 1.1327222222222224 0.5979886800080858 -0.19999999999999982 0.30151515151515157 195000.00000000003 0.011688966275659825 72.95150000000001 -2.2249999999999996 1.0118333333333336 0.49509756800922816 74.622500000000016 0.39323708206686936 -0.10714285714285719 1.1065000000000003 15.500000000000002 9.5000000000000018 13.550000000000002 0.5048081368469719 1.2768333333333335 7455.0000000000009 72.031166666666678 0.51666666666666672 4.0722222222222229
decision_type=1 10 2 10 10 10 10 8 8 10 10 10 10 10 8 10 8 10 10 10 10 10 2 8 10 8 2 10 10 10
left_child=1 2 3 7 -4 6 -6 -1 9 10 -7 -12 17 -14 15 16 -11 18 -13 -19 -21 -2 -23 -24 -25 -10 -17 -28 -16 -30
right_child=21 -3 4 -5 5 8 -8 -9 25 14 11 12 13 -15 28 26 -18 19 -20 20 -22 22 23 24 -26 -27 27 -29 29 -31
leaf_value=-0.00094156012006248451 -0.0010165555476004491 -0.00091390296668865953 -0.0010373936143444743 0.0038542259626538349 0.00014249810137820343 0.0029213051711012832 0.0030949619340149294 0.0022439218532006892 -0.00018549886296112303 0.00075556878575278475 -7.4992734307279104e-06 0.002597671852721231 0.0043438309970481193 0.00014491536205772282 -0.00030596673560960829 0.001863959049963337 0.0044819949358665574 0.00053325644385789333 -0.00028308609098489588 0.00058710481532363865 0.0037003287055752082 -0.00094114581805264212 -0.00016431774921475833 0.0027479281481661349 -0.00021623919278141593 -0.0022484214800813727 -0.00040847590973539942 0.0017164003683930609 3.9360491688621576e-05 0.0024653309583476876
leaf_weight=877.10966491699219 6954.9017601013184 5998.4965705871582 3370.1644859313965 879.71068572998047 2626.9752235412598 1053.7752799987793 1667.187442779541 964.19650650024414 10685.123748779297 1182.4629898071289 11617.146587371826 877.80506896972656 1187.8380966186523 1094.890022277832 23686.948932647705 1358.3576240539551 877.49790191650391 3596.6645202636719 5737.4824752807617 1009.3478889465332 1448.3526229858398 6700.212963104248 66321.465702056885 1138.9456977844238 1050.3289985656738 1053.2139549255371 5120.4349784851074 1095.9629287719727 10512.20495223999 1751.8704795837402
leaf_count=20 159 137 77 20 60 24 38 22 244 27 265 20 27 25 541 31 20 82 131 23 33 153 1514 26 24 24 117 25 240 40
internal_value=-1.60141e-05 0.00018188 0.000250857 0.00173896 0.000207116 0.000254126 0.00128923 0.000726824 0.000201786 0.000293593 0.000609978 0.000518202 0.000926615 0.0023308 0.000101866 0.000742679 0.00234435 0.000673454 9.95063e-05 0.00130046 0.00242252 -0.000260057 -0.000190124 -0.000116663 0.00132639 -0.000370769 0.000306851 -3.36403e-05 -6.98852e-05 0.000386073
internal_weight=183497 101331 95332.7 2721.02 92611.7 89241.5 4294.16 1841.31 84947.4 73209 27623.3 26569.5 14952.4 2282.73 45585.7 9634.72 2059.96 12669.7 6615.29 6054.37 2457.7 82165.9 75211 68510.7 2189.27 11738.3 7574.76 6216.4 35951 12264.1
internal_count=4189 2313 2176 62 2114 2037 98 42 1939 1671 630 606 341 52 1041 220 47 289 151 138 56 1876 1717 1564 50 268 173 142 821 280
cat_boundaries=0 1
cat_threshold=409
is_linear=0
shrinkage=0.03


Tree=6
num_leaves=31
num_cat=1
split_feature=0 70 98 70 46 46 78 69 16 31 77 70 69 54 32 57 10 45 53 81 71 71 51 53 15 77 99 65 98 72
split_gain=9.55723 8.26296 8.17587 5.6825 7.29388 5.34707 5.1875 8.42451 10.5281 13.6915 15.8094 8.12706 13.8279 7.56735 6.32257 5.89284 5.59734 5.27144 5.21828 5.18947 5.00647 4.96656 5.39285 6.94514 4.47453 4.35394 4.54597 4.20277 4.28427 4.17809
threshold=0 81.0295138888889 13.050000000000002 0.86284722222222243 -0.15109228291507468 -0.13770687036817214 -212.49999999999997 0.45000000000000007 0.58554006968641126 0.5277777777777779 -1.4999999999999998 0.91840277777777779 0.63333333333333341 75.27500000000002 0.58292880258899682 1.1904125000000001 2.1214285714285719 -0.04953276441286638 1.051291666666667 625000.00000000012 0.93923611111111127 0.28472222222222227 72.846362745098062 1.1158333333333335 0.68333333333333346 91.000000000000014 -4.1833333333333327 -10.211499999999992 6.4500000000000011 6.0173611111111116
decision_type=1 8 10 10 10 10 10 8 10 8 10 10 10 10 8 10 10 10 8 10 10 10 10 10 10 8 8 10 10 10
left_child=1 2 3 21 -5 -6 14 8 9 17 -11 12 -9 19 -7 16 29 -8 -18 -12 -3 22 -1 -24 -16 26 -2 -28 -29 -13
right_child=25 20 -4 4 5 6 7 11 -10 10 13 15 -14 -15 24 -17 18 -19 -20 -21 -22 -23 23 -25 -26 -27 27 28 -30 -31
leaf_value=-0.00058436736478106334 0.0016265878123053899 0.0036453455152606249 -0.00094933233376012381 -0.00059120656158543434 0.002576856767257666 -0.00070641357818231087 0.0025353582931826237 0.00018349291670628315 -0.0013223275033416653 0.0050477398778426318 0.0018783659153746443 0.00019474277699183822 0.004272300020881907 0.0035766378347429064 0.0020873406625806722 0.0021245974567423997 0.0012011181972452079 2.2286769811703532e-05 -0.00078033461029848453 -0.0012318109758553569 0.00055675230089301492 -0.00075721036615983002 -8.2197297156200863e-05 0.0025215404166781365 -0.00016085799467196896 -0.0016054337395922031 -0.0012651521721003364 0.0018324131623304381 -0.00022655427310931499 0.0011378453836892505
leaf_weight=3286.5195503234863 1179.9927291870117 970.52511215209961 5818.0118980407715 7219.911003112793 1009.3283386230469 7485.7033920288086 922.24750900268555 1883.8086700439453 1268.5840606689453 1711.4284591674805 965.55757522583008 28619.875858306885 1229.833122253418 966.01889801025391 1490.6130180358887 1406.2774810791016 1401.2827644348145 4031.5415000915527 8141.1739807128906 963.81344985961914 920.09555435180664 9239.5710868835449 2061.379451751709 1666.990795135498 1710.0272789001465 2096.8509292602539 3496.9074783325195 919.79636383056641 74450.948749542236 4959.579418182373
leaf_count=75 27 22 133 165 23 171 21 43 29 39 22 653 28 22 34 32 32 92 186 22 21 211 47 38 39 48 80 21 1700 113
internal_value=-1.57803e-05 0.000179131 0.000141791 0.000209593 0.000316698 0.000410125 0.000378465 0.000489542 0.00124481 0.00158554 0.00276262 0.000317844 0.00179935 0.00141064 -0.000229284 0.000214212 0.000151863 0.000490563 -0.000489269 0.00032485 0.00214333 -0.000300317 0.000301496 0.00108232 0.000886506 -0.000256252 -0.000220922 -0.000248584 -0.000201403 0.000334066
internal_weight=183494 101350 99459.1 93641.1 77386.6 70166.7 69157.4 58471 10829.2 9560.61 4606.82 47641.8 3113.64 2895.39 10686.3 44528.2 43121.9 4953.79 9542.46 1929.37 1890.62 16254.5 7014.89 3728.37 3200.64 82144.5 80047.6 78867.7 75370.7 33579.5
internal_count=4189 2313 2270 2137 1766 1601 1578 1334 247 218 105 1087 71 66 244 1016 984 113 218 44 43 371 160 85 73 1876 1828 1801 1721 766
cat_boundaries=0 1
cat_threshold=409
is_linear=0
shrinkage=0.03


Tree=7
num_leaves=31
num_cat=0
split_feature=64 71 78 70 11 1 78 59 64 61 50 69 32 70 43 61 76 47 74 43 100 9 65 72 77 49 74 75 49 45
split_gain=7.22594 6.4991 6.34773 7.97617 6.02197 5.87644 5.46165 12.7834 10.9496 6.50351 4.89262 4.34315 8.56088 8.91242 10.2309 10.2307 4.17829 10.9866 4.24013 10.0293 4.10524 5.20474 4.07996 4.4149 4.07614 3.95716 3.95585 3.88824 3.8749 5.67059
threshold=0.12939999999999993 0.66840277777777779 -218.49999999999997 133.03125000000003 6.5000000000000009 6975.5000000000009 3.5000000000000004 68.284000000000006 0.037050000000000034 81.21250000000002 1.1107500000000001 0.45000000000000007 0.45665593129361248 0.98437500000000011 -0.10000000000000001 74.02500000000002 379.50000000000006 -0.056645299145299137 16.500000000000004 -0.61964285714285705 -0.97777777777777775 0.52683371735791107 3.293382352941173 0.10763888888888902 42.500000000000007 -2.411111111111111 17.500000000000004 20.500000000000004 5.1250000000000009 0.056542663483137225
decision_type=8 8 10 8 2 2 10 10 10 10 10 8 8 10 10 10 10 8 10 10 10 10 10 8 10 10 10 10 8 10
left_child=2 -2 -1 4 24 10 7 8 -7 16 -6 12 -8 -14 15 -15 18 -18 25 -20 21 -21 -13 26 -4 -9 -24 -22 29 -3
right_child=1 28 3 -5 5 6 11 9 -10 -11 -12 22 13 14 -16 -17 17 -19 19 20 27 -23 23 -25 -26 -27 -28 -29 -30 -31
leaf_value=-0.0003839914707930934 0.00086133500633292558 -0.0004276794602589079 -0.00031141956774626727 0.002922812950251335 0.00034471912175364867 0.00055911516997243598 -0.0010922830973216179 -0.00061291861340269957 0.0052978614099813779 0.0027453970715208879 0.0033998077914144018 4.3044751606038715e-05 -0.00057346867835780845 0.0057399007221782617 0.00068614601400809807 0.0015610538399869398 0.0032219086004498343 0.00013824069024168949 0.0031754032109237965 -5.2782356120171997e-05 0.0019069742823089601 0.0031772768727944853 0.00095172737286289819 -0.0011843577365010453 -0.0020280504455627985 0.00019996201836835876 -0.0004514010429400031 -0.00020702037624436203 -0.00032547860565028988 -0.0019045105789928501
leaf_weight=23727.479888916016 3078.2070541381836 5291.0203247070312 4648.2697563171387 925.74258041381836 966.36835861206055 877.25474548339844 2234.0076675415039 8320.8683395385742 877.65946960449219 967.36933135986328 921.25825119018555 51548.11429977417 2364.588062286377 879.19057083129883 3990.6629104614258 1317.7561798095703 1493.243537902832 3419.8288192749023 1231.4984169006348 875.05881500244141 876.43570709228516 920.99440002441406 2320.5491409301758 5598.341495513916 1699.5231590270996 15296.537635803223 8180.0608177185059 7278.1679039001465 17169.84241104126 4195.4668655395508
leaf_count=542 70 121 106 21 22 20 51 190 20 22 21 1176 54 20 91 30 34 78 28 20 20 21 53 128 39 349 187 166 393 96
internal_value=-1.5551e-05 -0.000443645 6.72391e-05 0.000149581 0.000129673 0.000176267 0.00015032 0.000424483 0.0029307 0.000316296 0.00183677 1.98517e-06 0.000561023 0.000992977 0.00159159 0.00323523 0.000257058 0.00107593 0.00014142 0.000622649 0.000306432 0.0016044 -8.71594e-05 -0.000504044 -0.000771268 -8.64454e-05 -0.00014126 2.03923e-05 -0.000594367 -0.00108095
internal_weight=183491 29734.5 153757 130029 129104 122756 120868 42434.9 1754.91 40680 1887.63 78433.3 10786.2 8552.2 6187.61 2196.95 39712.6 4913.07 34799.6 11182.2 9950.66 1796.05 67647.1 16099 6347.79 23617.4 10500.6 8154.6 26656.3 9486.49
internal_count=4189 680 3509 2967 2946 2801 2758 968 40 928 43 1790 246 195 141 50 906 112 794 255 227 41 1544 368 145 539 240 186 610 217
is_linear=0
shrinkage=0.03


Tree=8
num_leaves=31
num_cat=1
split_feature=0 98 48 64 78 78 64 67 53 69 31 42 15 42 17 98 98 25 45 32 17 65 32 1 23 26 76 11 47 78
split_gain=9.25095 7.96478 6.47654 6.23485 8.23008 7.65344 12.1864 8.58233 9.0651 7.55484 11.4067 16.8847 11.3863 7.13659 6.81009 6.32109 6.86684 6.16402 6.88923 5.78014 6.09728 5.49485 5.43341 6.49708 4.9281 4.69187 4.60411 4.40876 5.23148 6.16917
threshold=0 13.050000000000002 -6.0499999999999989 0.12300000000000012 -212.49999999999997 -38.499999999999993 -0.14524696969696979 -10.238500000000007 1.1568333333333336 0.45000000000000007 0.58571428571428574 -1.0000000180025095e-35 0.47222222222222227 0.10000000000000001 0.56276260504201692 12.275000000000002 12.35416666666667 0.64864390928220728 0.19466527432829084 0.58292880258899682 0.59641075164976665 0.35707142857143032 0.47162141432735089 7809.5000000000009 1.0000000180025095e-35 1.6833333333333336 15.500000000000002 9.5000000000000018 0.17961223852240052 673.50000000000011
decision_type=1 10 8 10 10 10 8 8 8 8 8 10 10 10 10 10 10 8 10 8 8 8 8 2 10 10 10 2 8 8
left_child=1 2 -1 4 19 6 -6 -8 -9 10 13 -12 -13 -7 21 17 -17 18 24 -4 -21 -10 23 -5 -11 -23 -2 -28 29 -29
right_child=26 -3 3 22 5 9 7 8 14 15 11 12 -14 -15 -16 16 -18 -19 -20 20 -22 25 -24 -25 -26 -27 27 28 -30 -31
leaf_value=-0.0012017905893866678 -0.00099115412138611921 -0.00088499207370265154 -0.000792351504004687 0.0014439080151124727 0.0039580115612099908 -0.00057184223980997757 0.003706198860255765 0.00023581288091428277 0.00014531953997632975 0.0021107665412325167 0.00014709782479729286 0.0020098858171810935 0.0067762385252139509 0.0024363411759360169 0.0041665975839433357 0.0032938452901848433 0.00059003052508854856 -0.0013649981157612184 0.002294627944764034 0.001419769631067671 -0.0009442438040229012 0.0039211373718705499 -0.00091489904112544988 -0.0010262463754984847 -1.5035041464247738e-05 0.00086062215539255192 -0.0009187750773388179 -0.00015744811666445121 0.0005518467686742107 -0.0018301096922422506
leaf_weight=2711.8742485046387 6942.1961860656738 5986.1183586120605 8309.7530784606934 2450.731990814209 1188.298267364502 3067.9492149353027 880.2680549621582 12106.341156005859 1976.3407859802246 1010.5573883056641 1493.5437240600586 879.9667854309082 927.07444000244141 922.32927322387695 881.01632690429688 1056.9115867614746 4211.0755500793457 2671.4355926513672 1273.7009735107422 2720.946605682373 1535.1867218017578 927.59234619140625 6732.6899147033691 1572.3837013244629 32996.419956207275 877.58474731445312 6689.4887313842773 57190.896171569824 9243.0381278991699 2054.8639221191406
leaf_count=62 159 137 190 56 27 70 20 276 45 23 34 20 21 21 20 24 96 61 29 62 35 21 154 36 753 20 153 1306 211 47
internal_value=-1.53245e-05 0.000176396 0.000243035 0.000285329 0.000374496 0.000502499 0.00101856 0.000820438 0.00066874 0.000310024 0.00120325 0.00250769 0.00445758 0.000123918 0.00179255 0.00015932 0.00113302 2.41387e-05 0.000129359 -0.000331907 0.000567049 0.00123849 -0.000393728 0.000478464 4.81959e-05 0.00243457 -0.000251971 -0.000183734 -0.000111928 -0.000215492
internal_weight=183489 101368 95382 92670.1 81914.3 69348.4 18837.4 17649.1 16768.9 50511 7290.86 3300.58 1807.04 3990.28 4662.53 43220.1 5267.99 37952.1 35280.7 12565.9 4256.13 3781.52 10755.8 4023.12 34007 1805.18 82120.5 75178.3 68488.8 59245.8
internal_count=4189 2313 2176 2114 1868 1581 429 402 382 1152 166 75 41 91 106 986 120 866 805 287 97 86 246 92 776 41 1876 1717 1564 1353
cat_boundaries=0 1
cat_threshold=409
is_linear=0
shrinkage=0.03


Tree=9
num_leaves=31
num_cat=1
split_feature=0 99 70 64 78 69 50 67 58 8 75 43 34 33 25 57 60 77 45 81 78 100 1 42 16 76 45 11 98 9
split_gain=8.97795 7.80044 9.3298 6.88426 8.18636 6.15584 12.5029 6.68789 13.7492 6.5286 7.6048 12.0568 5.57149 5.7957 5.02794 6.31255 4.86993 4.80908 4.57848 6.41718 10.3937 5.7413 4.5299 6.43053 4.87392 4.47441 4.4025 4.28365 5.04133 5.17983
threshold=0 -4.1833333333333327 81.0295138888889 0.12300000000000012 -212.49999999999997 0.45000000000000007 1.1461666666666668 -10.472 73.680500000000009 0.52608892921960082 182.50000000000003 0.059523809523809541 1.7071428571428573 0.52397372742200343 0.64650818530128895 1.1904125000000001 1.0940833333333335 40.500000000000007 0.056542663483137225 225000.00000000003 74.500000000000014 -0.33333333333333298 7821.5000000000009 0.30714285714285722 0.44901816654415633 15.500000000000002 0.0091648094981603995 9.5000000000000018 13.550000000000002 0.5048081368469719
decision_type=1 8 8 10 10 8 10 8 10 10 10 10 8 8 10 10 8 10 10 8 10 10 2 10 10 10 8 2 8 10
left_child=1 -1 3 4 12 6 9 8 -7 10 17 -12 -3 -14 15 18 -4 -6 -9 20 -20 -22 23 -5 -25 -2 -24 -27 -29 -30
right_child=25 2 16 22 5 7 -8 14 -10 -11 11 -13 13 -15 -16 -17 -18 -19 19 -21 21 -23 26 24 -26 27 -28 28 29 -31
leaf_value=-0.0020163726650123163 -0.00097736589207571799 -0.0010439357135877971 0.0007403836551226528 -0.00091323216531088915 0.00022686579712525014 -0.00071313302063545137 0.0039661425582639296 2.7681098944307017e-05 0.0042962330628639111 -0.00036391345310040387 0.0043538487620249523 6.1722631458136854e-05 0.0024577091072398643 -0.00015686991532815232 -0.0010410896249986288 0.0020751927877692088 0.0038523241522827401 0.0026282905223283292 0.0045533272694486702 0.00035727145666085365 -0.0010955571968322424 0.0023343041749845569 0.00047126363803495043 0.00018729194643132629 0.0025680985301098588 -0.00090592773834392328 -0.0016463694864842318 -0.00015709111263308679 0.0027024778935850744 -0.00021582127367745951
leaf_weight=1441.7939147949219 6935.3187599182129 6552.8736343383789 882.42167282104492 3760.7039222717285 5137.3704261779785 920.07340240478516 1146.4363784790039 37512.962272644043 1061.0568046569824 3684.5788726806641 1414.735294342041 1008.7341499328613 877.9779167175293 5784.0007019042969 2801.6545486450195 1673.737117767334 929.40032196044922 877.98149490356445 923.63126373291016 12155.470470428467 876.03926086425781 879.04978561401367 1136.0355339050293 2927.4278144836426 1051.0587272644043 6683.3454360961914 3968.8245162963867 66288.950729370117 1141.8894958496094 1050.2990951538086
leaf_count=33 159 150 20 86 117 21 26 856 24 84 32 23 20 132 64 38 21 20 21 277 20 20 26 67 24 153 91 1514 26 24
internal_value=-1.51022e-05 0.000173729 0.000205361 0.000165963 0.000263474 0.000389328 0.000972947 0.000257612 0.00197061 0.000689595 0.00114957 0.00256808 -0.000422904 0.000188021 0.000197854 0.000262127 0.00233794 0.000577749 0.000204118 0.000650262 0.00197916 0.000622666 -0.000481509 -2.39074e-05 0.000816754 -0.000248283 -0.00117511 -0.000181032 -0.000110274 0.00130483
internal_weight=183486 101386 99944.2 98132.4 85288.4 72073.5 13269.8 58803.7 1981.13 12123.4 8438.82 2423.47 13214.9 6661.98 56822.5 54020.9 1811.82 6015.35 52347.2 14834.2 2678.72 1755.09 12844.1 7739.19 3978.49 82099.8 5104.86 75164.5 68481.1 2192.19
internal_count=4189 2313 2280 2239 1945 1643 302 1341 45 276 192 55 302 152 1296 1232 41 137 1194 338 61 40 294 177 91 1876 117 1717 1564 50
cat_boundaries=0 1
cat_threshold=409
is_linear=0
shrinkage=0.03


Tree=10
num_leaves=31
num_cat=1
split_feature=0 51 70 58 26 53 35 71 100 15 70 32 60 61 51 33 43 10 78 69 1 51 47 61 16 71 33 53 47 72
split_gain=7.041 7.46551 6.4853 6.41987 6.89907 7.24563 8.84792 5.67357 11.2961 5.17721 6.22187 8.24672 4.98634 8.5056 7.41871 5.94406 7.5684 6.60245 4.8796 4.79359 5.8902 8.39886 5.25839 4.88333 5.9727 11.5286 4.78011 5.72514 4.48303 4.09669
threshold=0 66.593333333333348 108.92708333333336 73.055500000000009 -0.8285714285714284 1.0253750000000001 9.5000000000000018 0.68576388888888895 -1.8999999999999992 0.29285714285714287 0.86284722222222243 0.36873433583959908 1.1474166666666668 74.02500000000002 75.739000000000019 0.52966314731020625 -0.10000000000000005 0.61250000000000016 -218.49999999999997 0.70833333333333337 7905.5000000000009 72.672500000000014 -0.013556050846030397 76.838333333333352 0.50500050005000519 0.85937500000000011 0.47487373737373745 0.94508333333333339 0.15607998139967444 0.36284722222222227
decision_type=1 8 8 10 10 10 2 8 10 10 10 8 8 8 10 10 8 10 10 8 2 10 8 10 10 10 8 8 8 10
left_child=1 -1 9 7 26 6 -6 8 -2 -3 -11 -12 18 -14 15 16 -15 -17 -13 20 21 22 -20 24 25 -21 27 -5 -27 -28
right_child=3 2 -4 4 5 -7 -8 -9 -10 10 11 12 13 14 -16 17 -18 -19 19 23 -22 -23 -24 -25 -26 28 29 -29 -30 -31
leaf_value=-0.0013657507506952867 0.0028538294978714346 -0.00032361032954175575 0.0024394430298676235 0.00060082143669924423 0.0036561423643179632 0.00018360643062771182 0.00057598766400575741 -0.00046554231090942754 -0.0001882535133726389 -0.00032226367834614655 0.0026335258761357771 -0.00066221507652362681 0.0036364347457215735 0.0037500348488125387 0.0022754462508697347 0.00065112910698334565 0.00055293872129322122 -0.0013071974105134455 0.001493866954327438 0.0036057101979957533 0.00018002787130415296 0.00067392349144476205 0.0045913334668996894 0.0021836072681819794 -0.00058350425075736007 -0.00013439115051041268 0.00025469584810783482 -0.0019761495754403906 0.0017134006592623454 -0.00086662565436009214
leaf_weight=2536.3473091125488 1407.6164093017578 11716.81925201416 1240.5582122802734 1049.1031112670898 1231.9020957946777 31980.93775177002 2630.9045028686523 51770.343402862549 4990.7310638427734 9818.0049133300781 1584.4636268615723 4630.0716171264648 967.75491333007812 881.41397857666016 2237.6819686889648 3602.1912689208984 2724.1482696533203 2717.4631500244141 924.17255783081055 969.363525390625 5093.6413154602051 3252.0555381774902 1060.3685531616211 965.84835433959961 8542.6934928894043 7406.9559440612793 8717.4975318908691 2974.286678314209 1404.9932556152344 4417.4442558288574
leaf_count=58 32 268 28 24 28 730 60 1184 114 224 36 106 22 20 51 82 62 62 21 22 116 74 24 22 195 169 199 68 32 101
internal_value=7.3377e-06 0.000233468 0.000290058 -0.000143756 9.50594e-05 0.000331867 0.00155898 -0.000361383 0.000481337 0.000252202 0.000366978 0.000505181 0.000433953 0.00093098 0.000715437 0.000363532 0.00133532 -0.000191029 0.000243383 0.00038496 0.000906442 0.00161286 0.00315037 0.000105659 -3.98176e-06 0.000502163 -0.000399623 -0.00130422 0.000160385 -0.000122456
internal_weight=185448 74277 71740.7 111171 53002.1 35843.7 3862.81 58168.7 6398.35 70500.1 58783.3 48965.3 47380.8 13130.7 12162.9 9925.22 3605.56 6319.65 34250.2 29620.1 10330.2 5236.6 1984.54 19289.9 18324 9781.31 17158.3 4023.39 8811.95 13134.9
internal_count=4234 1694 1636 2540 1210 818 88 1330 146 1608 1340 1116 1080 299 277 226 82 144 781 675 235 119 45 440 418 223 392 92 201 300
cat_boundaries=0 1
cat_threshold=393
is_linear=0
shrinkage=0.03


Tree=11
num_leaves=31
num_cat=1
split_feature=50 0 70 58 7 23 71 48 98 74 78 47 73 33 1 45 73 75 99 69 16 31 81 45 44 16 78 8 24 53
split_gain=7.69874 7.76333 6.3459 5.92324 6.65503 6.14728 5.70241 7.31497 5.5065 6.05442 4.27893 5.78244 4.73157 5.52126 6.53119 6.14137 5.43937 4.47533 5.24198 4.76837 7.26812 7.22081 7.36667 14.7636 10.2776 5.51185 4.74503 6.40385 4.70881 4.28788
threshold=0.91089565505014425 0 108.92708333333336 73.055500000000009 0.10555555555555557 0.23611111111111113 0.68576388888888895 3.6166666666666676 13.250000000000002 102.50000000000001 -212.49999999999997 0.20339600470035255 23.500000000000004 0.45495129870129875 7737.0000000000009 -0.16126862304797637 26.500000000000004 104.50000000000001 3.1000000000000005 0.45000000000000007 0.598085028403885 0.5277777777777779 760000.00000000012 -0.070251923592631535 0.010291349745661567 0.51935564435564452 287.50000000000006 0.50187969924812037 0.48896999188969997 1.1158333333333335
decision_type=8 1 8 10 8 8 8 8 10 10 8 8 10 8 2 8 10 10 8 10 10 10 8 10 10 10 8 10 8 10
left_child=-1 2 8 4 -3 -5 7 -6 9 10 11 -2 17 14 -14 -15 -17 18 -12 20 21 25 23 -23 -25 26 -19 -28 -24 -30
right_child=1 3 -4 5 6 -7 -8 -9 -10 -11 12 -13 13 15 -16 16 -18 19 -20 -21 -22 22 28 24 -26 -27 27 -29 29 -31
leaf_value=-0.0013980602954159133 -0.00061687712424396293 0.0020244935733464199 0.0023972358804326562 -0.00093693272224567149 -6.4745806015993606e-06 0.00020747968553376929 -0.00048530274220170928 0.002703539129121251 -0.00094866947456798546 -0.0014722231850637277 -0.00076597669762826519 0.0018626553846204153 0.00042308555971629601 0.0026344263550591319 0.003644399484888981 0.0018601847413709934 -0.00027656346601380194 0.00041806988769760371 0.0017284110209510623 5.9210059755891178e-05 -0.0012704828077508038 -0.00034387830408456123 0.0022529817559780439 0.0020817458455332713 0.0060361448859158401 -0.00064643613524451558 -4.8552359917523775e-05 0.0029651925888506676 -0.001106191857638629 0.0011411745540775709
leaf_weight=3442.4535865783691 6949.2911529541016 1052.9441070556641 1243.5881843566895 4637.3948593139648 4774.6694374084473 47324.591598510742 50171.913787841797 1102.6184997558594 3361.625904083252 1700.6257705688477 5566.3098220825195 962.88370513916016 967.29460906982422 1146.3257064819336 1366.9729423522949 1408.7898597717285 4477.1421928405762 8980.9946670532227 876.83735656738281 18553.468154907227 1578.5682792663574 1053.3653984069824 1325.774341583252 1273.7811241149902 1106.0614929199219 3246.1053581237793 1008.1515121459961 1711.2164688110352 1405.3070945739746 1672.1306915283203
leaf_count=79 159 24 28 106 109 1080 1148 25 77 39 127 22 22 26 31 32 102 205 20 423 36 24 30 29 25 74 23 39 32 38
internal_value=7.22358e-06 3.38105e-05 0.000273367 -0.000126421 -0.00033733 0.000105329 -0.000381735 0.000502316 0.000236535 0.00029485 0.000339969 -0.00031493 0.000428209 0.00104634 0.00231028 0.000626527 0.000235093 0.000310889 -0.000426304 0.000421577 0.000697539 0.000833948 0.0015715 0.002613 0.00392137 0.000447173 0.00075061 0.0018483 0.00075902 0.000114892
internal_weight=185449 182007 72942.6 109064 57102.1 51962 56049.2 5877.29 71699 68337.4 66636.8 7912.17 58724.6 9366.53 2334.27 7032.26 5885.93 49358.1 6443.15 42914.9 24361.5 22782.9 7836.42 3433.21 2379.84 14946.5 11700.4 2719.37 4403.21 3077.44
internal_count=4234 4155 1663 2492 1306 1186 1282 134 1635 1558 1519 181 1338 213 53 160 134 1125 147 978 555 519 178 78 54 341 267 62 100 70
cat_boundaries=0 1
cat_threshold=393
is_linear=0
shrinkage=0.03


Tree=12
num_leaves=31
num_cat=1
split_feature=50 0 70 58 7 23 98 74 53 78 47 69 16 9 51 67 34 8 75 64 51 19 67 1 34 94 7 33 70 34
split_gain=7.48137 7.53209 6.14033 5.75016 6.44981 5.96931 5.3459 5.88042 4.58708 4.15044 5.60625 4.4202 5.28432 6.04323 8.67976 6.76702 6.33016 6.2653 5.77654 5.25117 5.79538 4.82255 4.85882 6.29533 5.02765 5.96115 4.68974 4.22122 4.06211 3.86991
threshold=0.91089565505014425 0 108.92708333333336 73.055500000000009 0.10555555555555557 0.23611111111111113 13.250000000000002 102.50000000000001 0.91343750000000012 -212.49999999999997 0.20339600470035255 0.45000000000000007 0.598085028403885 0.5052088985349974 70.404500000000013 3.7149999999999967 -3.9499999999999997 0.55389414802065418 116.50000000000001 0.071257894736841979 76.317000000000007 7.5000000000000009 0.67249999999999244 7992.5000000000009 -1.2361111111111109 -0.1493589743589743 0.5634920634920636 0.47556711581101829 2.8663194444444451 -0.78888888888888886
decision_type=8 1 8 10 8 8 10 10 8 8 8 10 10 10 10 8 8 10 8 10 10 2 10 2 8 10 10 10 10 8
left_child=-1 2 6 4 -3 -5 7 9 -6 10 -2 12 13 15 -15 17 -16 21 26 20 29 -11 24 -24 -23 -26 -18 28 -21 -13
right_child=1 3 -4 5 8 -7 -8 -9 -10 11 -12 19 -14 14 16 -17 18 -19 -20 27 -22 22 23 -25 25 -27 -28 -29 -30 -31
leaf_value=-0.0013791794883832894 -0.00060806624491990694 0.001990302050762081 0.0023558589513671354 -0.00092384925838631432 -0.0016472124570533098 0.00020434608720595779 -0.00093543426753957715 -0.0014524551609625086 -0.00031821421487348542 -0.0011272629121004693 0.0018314981936957448 0.00099336618198159698 -0.00070785842551849827 0.0039506596907851084 0.0028202740188172071 -0.00040395188963953565 0.00098189406271105908 0.0029457709727152902 0.0011191893773427558 -0.0005072455161187065 0.0027575212002376218 -0.0013255121566704028 0.0039243380271408558 0.00038401324198341627 0.0030860673790510944 0.00037834948854057626 -0.0012074330132498645 -0.0013703704919709927 0.0017809710548755667 -7.3424815862173739e-05
leaf_weight=3437.6441841125488 6945.0056114196777 1055.0779342651367 1246.5729331970215 4633.0519676208496 2443.0792617797852 47334.411457061768 3358.438346862793 1698.1238975524902 53584.733921051025 1315.9577026367188 964.67889785766602 4398.6744155883789 2496.9313049316406 926.13787460327148 1494.9446334838867 6847.1845893859863 1537.7744941711426 1102.7680435180664 10672.508289337158 2537.1585578918457 880.04371643066406 1182.675365447998 927.4344367980957 881.42866897583008 882.29779434204102 4267.4791603088379 2057.7756004333496 3324.5171279907227 962.20823669433594 10053.880409240723
leaf_count=79 159 24 28 106 56 1080 77 39 1226 30 22 100 57 21 34 156 35 25 243 58 20 27 21 20 20 97 47 76 22 229
internal_value=7.11096e-06 3.3301e-05 0.000269212 -0.000124555 -0.000332419 0.000103748 0.000232947 0.000290363 -0.000376193 0.000334781 -0.000310339 0.00042164 0.000624119 0.000721679 0.00112956 0.000330581 0.000963571 0.000806849 0.000768849 8.72163e-05 0.000395322 0.000557154 0.000829527 0.00220036 0.000437663 0.000842765 -0.000271071 -0.000605023 0.000122266 0.000251302
internal_weight=185451 182013 72962.6 109050 57082.9 51967.5 71716 68357.6 56027.8 66659.5 7909.68 58749.8 36593.3 34096.4 16689.1 17407.2 15763 10560 14268.1 22156.5 15332.6 9457.27 8141.32 1808.86 6332.45 5149.78 3595.55 6823.88 3499.37 14452.6
internal_count=4234 4155 1663 2492 1306 1186 1635 1558 1282 1519 181 1338 833 776 380 396 359 240 325 505 349 215 185 41 144 117 82 156 80 329
cat_boundaries=0 1
cat_threshold=393
is_linear=0
shrinkage=0.03


Tree=13
num_leaves=31
num_cat=1
split_feature=50 0 70 58 7 26 54 34 71 100 98 74 33 70 17 1 49 53 60 64 73 25 54 25 96 50 64 46 52 8
split_gain=7.27001 7.30777 5.94172 5.58211 6.25106 6.20022 7.81646 5.66087 5.53995 9.90157 5.18996 5.71138 4.56761 4.00295 6.88986 5.34419 4.70399 3.94403 3.9047 3.90792 3.72555 7.21276 4.43689 3.60741 6.48372 9.16755 5.91352 5.34606 4.80975 8.89427
threshold=0.91089565505014425 0 108.92708333333336 73.055500000000009 0.10555555555555557 -0.8285714285714284 69.292500000000018 0.5277777777777779 0.68576388888888895 -1.8999999999999992 13.250000000000002 102.50000000000001 0.47487373737373745 0.86284722222222243 0.53441695182942894 7520.5000000000009 8.5500000000000025 0.94816666666666694 1.2068333333333336 0.052266666666666579 10.500000000000002 0.43626692456479693 79.016666666666694 0.46306042884990256 11.950000000000001 1.0121541666666667 0.048750000000000078 0.057741306560923113 67.166166666666683 0.397658817086528
decision_type=8 1 8 10 8 10 10 8 8 10 10 10 8 10 8 2 10 8 10 8 8 8 8 10 10 10 8 10 10 10
left_child=-1 2 10 4 -3 12 7 -7 9 -6 11 13 17 14 -2 -16 23 -5 -10 -20 21 -14 -22 24 25 -15 -27 -28 -25 -30
right_child=1 3 -4 5 8 6 -8 -9 18 -11 -12 -13 20 16 15 -17 -18 -19 19 -21 22 -23 -24 28 -26 26 27 -29 29 -31
leaf_value=-0.0013605277597961941 -0.00064613601691916329 0.0019567552492656052 0.0023152926450442967 0.00031620214794182596 0.0027817969230779561 0.00021743425684620161 0.00020437437147103804 0.0031990704227300936 -0.00053883363277551141 -0.00016389001149615147 -0.00092237140771653171 -0.0014329241218563023 0.0026892750836604337 0.0031927837815134102 0.0024594343835055658 -4.0891105557141077e-05 0.0024595699750338783 -0.0018742928352461575 0.001575112570369182 -0.00062916612139615963 -0.00061945292744992756 -0.00040502862398913503 0.0014076388978988591 -0.0019104944421361818 -7.6180787673711553e-05 0.00029153768141308923 0.00074199039361725521 0.0032519622303884936 0.0025485880703882929 0.00019136139190214892
leaf_weight=3432.906322479248 8144.4951362609863 1057.1799621582031 1249.5131530761719 1005.6476860046387 1325.1171569824219 966.57551193237305 33408.953598022461 1407.2676277160645 47201.998519897461 4552.848560333252 3355.2982215881348 1695.6592216491699 1142.7474975585938 1721.1839141845703 1320.3634910583496 1841.6000709533691 1012.6986083984375 2794.3738098144531 1618.9495735168457 1307.8297843933105 8486.4629669189453 1664.3335838317871 1096.4964828491211 917.21345520019531 5531.8793144226074 6377.5818786621094 1666.8803634643555 1409.7753639221191 1501.0449714660645 35237.100505828857
leaf_count=79 186 24 28 23 30 22 762 32 1081 104 77 39 26 39 30 42 23 64 37 30 194 38 25 21 126 145 38 32 34 803
internal_value=7.00026e-06 3.27994e-05 0.000265121 -0.000122716 -0.000327577 0.000102191 0.000322595 0.00198562 -0.00037073 0.00050054 0.000229414 0.000285945 -0.000384929 0.000329675 -0.000184713 0.00100363 0.000434704 -0.00129466 -0.000472901 0.000590253 -0.000105831 0.000855155 -0.000387387 0.000396939 0.000763812 0.00117958 0.00081277 0.00189278 0.000234145 0.00028774
internal_weight=185452 182019 72982.3 109037 57063.9 51972.9 35782.8 2373.84 56006.7 5877.97 71732.8 68377.5 16190.1 66681.8 11306.5 3161.96 55375.4 3800.02 50128.8 2926.78 12390 2807.08 9582.96 54362.7 16707.3 11175.4 9454.24 3076.66 37655.4 36738.1
internal_count=4234 4155 1663 2492 1306 1186 816 54 1282 134 1635 1558 370 1519 258 72 1261 87 1148 67 283 64 219 1238 380 254 215 70 858 837
cat_boundaries=0 1
cat_threshold=393
is_linear=0
shrinkage=0.03


Tree=14
num_leaves=31
num_cat=1
split_feature=50 0 70 58 7 23 71 100 15 70 97 78 45 78 47 50 100 25 1 52 99 66 95 78 52 45 60 48 60 100
split_gain=7.0645 7.09034 5.7498 5.41888 6.05859 5.69457 5.37792 9.57868 4.3957 6.06326 7.18779 4.86807 6.20018 5.72824 5.22306 4.26724 5.39068 5.09712 4.93309 7.01866 4.76051 5.69215 6.58431 4.83563 5.10865 4.52133 4.42981 4.354 3.7908 3.88571
threshold=0.91089565505014425 0 108.92708333333336 73.055500000000009 0.10555555555555557 0.23611111111111113 0.68576388888888895 -1.8999999999999992 0.29285714285714287 0.86284722222222243 8.6125000000000025 -218.49999999999997 0.22401605486711873 -193.49999999999997 0.20339600470035255 1.080084210526316 -3.2499999999999996 0.40991803278688527 8043.5000000000009 70.822500000000005 1.3857142857142855 -0.01566666666666677 10.250000000000002 173.50000000000003 69.560000000000016 0.032766934665375787 1.098166666666667 -0.37499999999999994 1.2068333333333336 -1.366666666666666
decision_type=8 1 8 10 8 8 8 10 10 10 10 10 10 10 8 10 10 8 2 10 10 10 10 10 10 8 10 10 10 8
left_child=-1 2 8 4 -3 -5 7 -6 -2 -10 -11 14 13 -13 -12 18 -17 -18 20 -20 21 23 25 24 26 -23 -15 -24 -8 -30
right_child=1 3 -4 5 6 -7 28 -9 9 10 11 12 -14 15 -16 16 17 -19 19 -21 -22 22 27 -25 -26 -27 -28 -29 29 -31
leaf_value=-0.0013421031222715662 -0.0002963168041210745 0.0019238387779010381 0.0022755177083464504 -0.00090381690790929494 0.0027327218622055761 0.00019881114875790266 -0.00053109474680335025 -0.00016147564060698598 -0.00034462739291373602 0.0027286309002585536 -0.0006138953808152907 0.0027076503297235994 0.0030260036662164516 -0.00042453708100689732 0.0015841745850457309 0.0020503033266334328 0.002066204888168863 -0.00011799772565945135 -0.00076457379736568352 0.0016521858806022678 0.0025934755561218296 0.001638903627362683 -0.00046487190018909324 0.0023156029914045014 -0.00083366802784646968 0.0045703579629858861 0.0019354024173811929 0.0017988926379069229 -0.0010382818154530049 0.0013179883470633433
leaf_weight=3428.2389373779297 12064.747177124023 1059.250617980957 1252.409481048584 4626.4181976318359 1328.8084983825684 47351.766582489014 47176.571346282959 4552.102424621582 9946.4731369018555 1232.1024169921875 6506.7769470214844 1015.4546852111816 881.9102668762207 1272.7421112060547 1142.9875106811523 1226.5823860168457 1014.9831008911133 17953.856109619141 3602.2654342651367 1544.3348426818848 1589.8091239929199 1015.8376235961914 1407.2545547485352 927.06291961669922 3208.2752647399902 888.92044830322266 1634.1785316467285 1672.702766418457 915.70708084106445 2012.8017463684082
leaf_count=79 276 24 28 106 30 1080 1081 104 227 28 149 23 20 29 26 28 23 409 82 35 36 23 32 21 73 20 37 38 21 46
internal_value=6.89129e-06 3.23053e-05 0.000261097 -0.000120906 -0.000322806 0.000100654 -0.000365346 0.00049283 0.000225939 0.000331512 0.000466729 0.000409219 0.000539264 0.000484327 -0.000285307 0.000426309 0.000123661 -1.02283e-06 0.00075203 -3.91992e-05 0.00105106 0.000846979 0.00162262 0.000297807 -8.41903e-06 0.00300865 0.000902355 0.000764747 -0.000466079 0.00058111
internal_weight=185453 182025 73001.7 109023 57045.2 51978.2 55986 5880.91 71749.3 59684.5 49738 48505.9 40856.2 39974.3 7649.76 38958.8 20195.4 18968.8 18763.4 5146.6 13616.8 12027 4984.72 7042.26 6115.2 1904.76 2906.92 3079.96 50105.1 2928.51
internal_count=4234 4155 1663 2492 1306 1186 1282 134 1635 1359 1132 1104 929 909 175 886 460 432 426 117 309 273 113 160 139 43 66 70 1148 67
cat_boundaries=0 1
cat_threshold=393
is_linear=0
shrinkage=0.03


Tree=15
num_leaves=31
num_cat=2
split_feature=33 100 77 47 59 76 15 32 77 54 54 32 57 72 78 42 46 70 8 52 82 45 64 34 45 54 95 52 65 3
split_gain=6.43886 7.04807 6.35595 7.12613 12.4861 5.35657 5.41128 5.70571 5.08841 5.00912 5.89365 4.92793 5.05235 7.88372 6.39758 5.27094 5.54305 4.85764 5.65002 8.29495 4.72337 6.24511 9.9777 4.44042 4.39132 5.11427 4.64072 4.30013 4.63839 4.19689
threshold=0.49590136397231749 -2.6833333333333322 19.500000000000004 0.386281179138322 69.98543137254903 86.500000000000014 0.58571428571428574 0.59562514941429601 -81.499999999999986 72.848333333333343 74.481666666666669 0.61452058232931739 1.1764500000000002 4.9045138888888902 -218.49999999999997 -0.28333333333333321 -0.033994607087827471 40.220486111111121 0.41476388168137007 67.691083333333339 0 0.042434532077995558 0.011666666666666716 2.3166666666666669 0.061472208585610651 73.707500000000024 11.850000000000003 69.276500000000013 -3.4785000000000035 1
decision_type=8 10 8 8 10 10 10 10 10 10 10 10 10 10 10 8 8 8 10 10 9 10 10 8 8 10 10 10 10 1
left_child=1 24 3 5 -5 20 7 27 -2 -4 -11 12 14 15 -10 -14 23 -16 19 -19 21 -3 -23 -17 25 -1 -27 28 -7 -29
right_child=8 2 9 4 -6 6 -8 -9 11 10 -12 -13 13 -15 17 16 -18 18 -20 -21 -22 22 -24 -25 -26 26 -28 29 -30 -31
leaf_value=-0.0014227269219735108 -0.00067379249767899165 -0.00078581832378052353 -0.0014124216746644914 0.0044170480705111098 -0.00016515446713895749 8.6056716562609092e-06 -0.0002411377557420527 0.0024937615310031626 -0.00057218222628644181 0.0021732222254024899 -0.00078250568896758986 -0.0005348937558099739 -0.00060646595878527637 0.0035397963867655432 0.00019787740852795992 0.0039713960559535563 0.00035306850759823802 0.00046870960203791804 6.9234570048298707e-05 0.0044753269742547714 -0.00079238353607459391 0.0036899666443351224 0.00018029230032331884 0.0010876710766556652 -0.0014816249579712253 -0.00031675306472030699 0.0024195657552543441 0.00031902556893752265 0.0028208475039960034 -0.0017787904740473968
leaf_weight=1832.4104042053223 6966.556468963623 4113.6516532897949 5697.4882888793945 880.45191955566406 1362.3142852783203 921.76570129394531 15955.480255126953 1231.5054473876953 9568.3745880126953 876.8097038269043 1968.1670074462891 8321.6124725341797 2233.6014518737793 928.90002822875977 71477.217681884766 882.19133758544922 3074.6044120788574 929.27773284912109 1665.6827926635742 930.45117568969727 13780.104404449463 879.42366409301758 4239.9820861816406 1056.5323219299316 6203.1820373535156 1530.8012924194336 876.44921875 12714.395832061768 1234.1504211425781 919.42918014526367
leaf_count=42 160 94 131 20 31 21 364 28 219 20 45 190 51 21 1631 20 70 21 38 21 315 20 97 24 142 35 20 290 28 21
internal_value=-3.91733e-05 -0.000248374 -0.000135023 -2.29149e-05 0.00163487 -8.9348e-05 0.00015578 0.000527837 0.000110354 -0.000899152 0.000128881 0.00016441 0.00022716 0.000939251 0.000158309 0.000605475 0.00114545 0.000251506 0.00133846 0.00247461 -0.000440596 8.44679e-05 0.000783795 0.00240124 -0.000973097 -0.000228879 0.000680097 0.000374358 0.00161903 0.000177434
internal_weight=185253 77218 66775.1 58232.7 2242.77 55989.9 32976.7 17021.2 108035 8542.47 2844.98 101068 92746.8 8175.83 84571 7246.93 5013.33 75002.6 3525.41 1859.73 23013.2 9233.06 5119.41 1938.72 10442.8 4239.66 2407.25 15789.7 2155.92 13633.8
internal_count=4230 1764 1525 1329 51 1278 752 388 2466 196 65 2306 2116 186 1930 165 114 1711 80 42 526 211 117 44 239 97 55 360 49 311
cat_boundaries=0 1 2
cat_threshold=1 2
is_linear=0
shrinkage=0.03


Tree=16
num_leaves=31
num_cat=0
split_feature=33 100 77 47 73 9 61 32 34 76 15 32 74 58 42 64 47 78 90 46 74 18 53 26 53 69 68 81 95 45
split_gain=6.24975 6.84909 6.17463 6.90466 8.46715 5.87411 9.65789 7.18764 5.87717 5.20015 5.24885 5.51816 4.69054 4.63963 6.75417 7.22718 6.86821 4.75349 6.38966 4.48005 4.5524 4.51206 5.00722 9.11652 6.89531 4.44195 4.92225 4.38294 4.32714 5.12567
threshold=0.49590136397231749 -2.6833333333333322 19.500000000000004 0.386281179138322 11.500000000000002 0.6195238095238097 75.58416666666669 0.55273855370132663 5.3166666666666673 86.500000000000014 0.58571428571428574 0.59562514941429601 30.500000000000004 74.295500000000018 -0.28333333333333321 -0.12155000000000003 -0.06400471850795468 -110.49999999999999 0.56458333333333344 -0.091832797596445762 33.500000000000007 2.1125000000000003 1.0253750000000001 -2.2928571428571423 1.194166666666667 0.55000000000000016 2.5000000000000004 625000.00000000012 11.105555555555556 -0.013037809647979097
decision_type=8 10 8 8 10 8 10 8 10 10 10 10 10 10 10 10 8 10 10 10 8 10 8 10 10 10 2 8 10 10
left_child=1 -1 3 9 -5 8 -7 -8 13 12 11 -11 -3 28 17 16 -16 -15 -19 -17 21 22 23 -21 -24 -14 -27 -23 29 -2
right_child=5 2 -4 4 -6 6 7 -9 -10 10 -12 -13 25 14 15 19 -18 18 -20 20 -22 27 24 -25 -26 26 -28 -29 -30 -31
leaf_value=-0.00095954989994633997 -9.4564062454000574e-05 -0.00086249557172694076 -0.00088656814381159654 -0.00060090396647157038 0.0031425978671056742 0.00017314053797380492 0.0046880126249470681 0.00094741618718437669 -0.0011201087999742792 0.00036863798579922307 -0.00023760334277704443 0.0024504808220000758 -0.00037818154790089003 -0.0010676082099970506 0.0033473810062336728 0.001795371783756785 0.00074981088168397914 -0.00026433078797328559 0.0026374797197268149 7.6747779293999559e-05 -0.0018279538728652586 0.00079974898366670015 -3.8232748246863301e-06 0.0038264854031535259 0.0020378307489789388 0.00017774442186915994 0.0027287327620719847 -0.00079162368090278444 -0.00030100023819165 0.00065539868265572314
leaf_weight=10432.692165374756 21994.879684448242 11504.106288909912 8534.7914619445801 921.23653030395508 1325.2022857666016 3690.5935440063477 929.52670669555664 920.10573577880859 3677.8300323486328 15795.658199310303 15951.633266448975 1234.5803565979004 8219.3866386413574 4147.597354888916 1591.4907073974609 1939.0366325378418 2158.7813377380371 3026.0078887939453 880.94258880615234 1143.9543228149414 876.98348999023438 2415.6498756408691 7023.7585411071777 1190.2435684204102 1888.2330131530762 2316.3594856262207 963.17882919311523 4381.1905860900879 31092.280342102051 13077.856147766113
leaf_count=239 503 263 196 21 30 84 21 21 84 360 364 28 188 95 36 44 49 69 20 26 20 55 160 27 43 53 22 100 711 298
internal_value=-3.85959e-05 -0.000244742 -0.000133036 -2.25795e-05 0.00160785 0.000108695 0.00106008 0.00282876 5.72653e-05 -8.80293e-05 0.000153432 0.000519693 -0.000434229 0.000101091 0.000393636 0.000640429 0.00185273 -0.000360385 0.000390479 0.00042239 0.000281591 0.000384221 0.000753008 0.00198962 0.000428933 -5.73173e-06 0.000927556 -0.000226003 -4.3334e-05 0.000185091
internal_weight=185246 77198.8 66766.1 58231.3 2246.44 108047 5540.23 1849.63 102507 55984.9 32981.9 17030.2 23003 98828.9 32663.9 24609.3 3750.27 8054.55 3906.95 20859.1 18920 18043 11246.2 2334.2 8911.99 11498.9 3279.54 6796.84 66165 35072.7
internal_count=4230 1764 1525 1329 51 2466 126 42 2340 1278 752 388 526 2256 744 560 85 184 89 475 431 411 256 53 203 263 75 155 1512 801
is_linear=0
shrinkage=0.03


Tree=17
num_leaves=31
num_cat=1
split_feature=33 100 9 61 54 34 46 48 8 24 24 46 69 82 26 61 32 71 65 70 49 42 64 46 47 91 74 98 60 47
split_gain=6.06597 6.6555 5.6933 9.334 8.06805 5.70894 5.21883 4.75527 6.27711 5.27391 4.93773 6.80409 5.86221 5.64274 7.65547 5.52019 5.54557 6.65283 4.49884 7.11597 5.5414 5.16725 8.25498 8.26974 7.27367 8.56602 6.44244 6.35313 5.92159 5.50239
threshold=0.49590136397231749 -2.6833333333333322 0.6195238095238097 75.58416666666669 77.01700000000001 5.3166666666666673 -0.12844128171763169 5.4500000000000011 0.54778212654924996 0.53111172566371689 0.44499449944994501 0.090743688227323469 inf 0 1.5277777777777779 77.872500000000016 0.57364995178399236 0.98090277777777779 0.51006060606059844 0.17881944444444448 2.2928571428571431 -0.21825396825396826 -0.12473333333333346 -0.091832797596445762 -0.06400471850795468 0.56458333333333344 13.500000000000002 11.950000000000001 1.1078333333333334 0.0083314402544298078
decision_type=8 10 8 10 8 10 10 10 10 10 8 10 8 9 8 10 10 10 8 10 10 10 10 10 8 10 10 10 10 8
left_child=1 -1 5 -4 -5 18 -3 8 10 -9 -8 12 15 14 -14 16 -12 -18 19 -2 21 -21 24 26 25 -23 -24 28 29 -25
right_child=2 6 3 4 -6 -7 7 9 -10 -11 11 -13 13 -15 -16 -17 17 -19 -20 20 -22 22 23 27 -26 -27 -28 -29 -30 -31
leaf_value=-0.00094617054565310785 -0.0016129531271215373 -0.0014004983614245218 0.00017053213239398657 0.00078680902817880745 0.0047439624598151781 -0.0011046721343726681 -0.00058229440180375056 0.0028832766739275355 -0.00069642227362867086 1.9763818676626359e-05 0.00038136030797939369 -0.00079198779434652049 -4.7686620112226681e-05 -0.000608971119081156 0.0027188566590046395 0.0029316318676653606 4.3928313891462759e-05 0.003486929361674104 -0.00010923417303354121 -0.00027105105032166883 0.0016750428693797809 0.0051223760311682473 0.00055628320510389359 0.0014052332436558972 0.00049993692696209354 0.0012142202293650567 0.0032458245824988378 -0.00084105308765340843 -6.0861906491641271e-05 -0.00019409127575144788
leaf_weight=10422.686305999756 1698.3276023864746 2791.8227005004883 3691.2325859069824 921.88687896728516 932.98556518554688 3673.7127571105957 9394.907096862793 1010.4764976501465 13556.005996704102 1353.4586753845215 17147.130058288574 5506.3910751342773 3329.3247261047363 8444.5439186096191 1232.7865867614746 923.60154342651367 877.41975021362305 1189.4001312255859 47879.669380187988 11381.409049987793 2729.705623626709 928.81808471679688 1848.048095703125 6457.08984375 2158.7601013183594 1105.9477348327637 1415.2130966186523 5000.5912551879883 13470.657081604004 2764.6671333312988
leaf_count=239 39 64 84 21 21 84 215 23 310 31 391 126 76 193 28 21 20 27 1095 260 62 21 42 147 49 25 32 114 307 63
internal_value=-3.80272e-05 -0.00024116 0.000107059 0.00104317 0.00277871 5.64045e-05 -0.000131075 -7.56493e-05 -0.000126328 0.00124449 3.45343e-05 0.00018448 0.000346723 -0.000149713 0.000700329 0.000667359 0.00055837 0.00202601 9.9571e-05 0.000295756 0.000361592 0.000284506 0.000464396 0.000295155 0.00171335 0.00299983 0.00172332 0.000126808 0.000340117 0.000925789
internal_weight=185239 77180 108059 5546.11 1854.87 102513 66757.3 63965.4 61601.5 2363.94 48045.5 38650.6 33144.2 13006.7 4562.11 20137.6 19213.9 2066.82 98838.9 50959.2 49260.9 46531.2 35149.8 30956.3 4193.53 2034.77 3263.26 27693 22692.4 9221.76
internal_count=4230 1764 2466 126 42 2340 1525 1461 1407 54 1097 882 756 297 104 459 438 47 2256 1161 1122 1060 800 705 95 46 74 631 517 210
cat_boundaries=0 1
cat_threshold=1
is_linear=0
shrinkage=0.03


Tree=18
num_leaves=31
num_cat=2
split_feature=33 77 76 8 0 53 9 54 43 34 10 51 54 57 57 1 49 17 78 0 98 91 34 97 84 67 98 75 68 71
split_gain=5.88763 5.72616 6.43656 6.18526 6.07468 8.23109 5.52619 8.63407 12.3932 5.43375 5.30024 6.02627 5.12407 5.58894 4.84351 4.75156 4.73779 4.64327 4.17152 4.15956 5.81497 5.62257 9.83194 5.10128 5.44484 5.43138 5.84007 4.39218 4.32678 7.41132
threshold=0.49590136397231749 19.500000000000004 86.500000000000014 0.54726911618669327 0 0.93600000000000017 0.60199128194967322 77.218333333333348 0.13809523809523819 5.3166666666666673 -1.7071428571428569 70.592542510121476 72.933000000000021 1.0708809523809526 0.92731428571428587 8043.5000000000009 5.9833333333333343 0.44018348623853215 -6.4999999999999991 1 11.788888888888891 0.63961038961038974 2.3541666666666674 12.52777777777778 11.000000000000002 4.501666666666666 11.366666666666669 177.50000000000003 1.5000000000000002 0.99131944444444453
decision_type=8 10 10 8 1 10 8 10 10 10 10 10 10 10 8 2 10 10 8 1 10 10 8 10 2 10 10 10 2 8
left_child=1 2 18 4 5 -4 9 -8 -9 14 11 -7 -3 -14 -2 -12 -6 -5 -1 20 21 23 -23 24 -16 26 28 -25 29 -26
right_child=6 12 3 17 16 10 7 8 -10 -11 15 -13 13 -15 19 -17 -18 -19 -20 -21 -22 22 -24 27 25 -27 -28 -29 -30 -31
leaf_value=-0.0021226707900879722 -0.00092342369869915944 -0.0014530257818463625 0.0036954949612527741 0.001385073821701042 -0.00012739100364379826 0.00039725490538578348 0.0002421576248009735 0.0041540369110784278 -0.00031701729920327512 -0.0011107585213043661 4.8439791913861914e-05 0.0038182146790405268 0.0017714146668297368 -0.0011097093446765913 -0.0002164737571010684 0.0023419960241181093 0.0020849417996381997 -0.00066854182815796867 -0.00039386449465115555 -2.1040959000320397e-05 -0.00037830107520715468 0.0042101391340492768 0.00011826866129264632 -0.0019236190355293122 0.0028368612737561462 -0.00050932183106465413 0.0028482082861988681 0.00045117802287440598 7.2216730613795742e-05 0.00078190464229723931
leaf_weight=1310.5494346618652 4094.0581970214844 5944.5315818786621 887.22940826416016 1096.1749839782715 15038.429183959961 923.81658172607422 5932.7238121032715 1416.9860572814941 919.74064636230469 3538.2473449707031 6716.1754760742188 929.4930534362793 1094.1422500610352 1355.6217994689941 5218.974925994873 923.90192413330078 923.7694091796875 10234.06364440918 29783.472831726074 58749.649833679199 6888.8078460693359 1015.6006088256836 1100.8305397033691 1396.7941398620605 2068.6981735229492 2149.7080421447754 1546.6872215270996 1405.2979431152344 3951.9581680297852 6675.5610961914062
leaf_count=30 94 137 20 25 343 21 135 32 21 81 153 21 25 31 119 21 21 234 682 1342 157 23 25 32 47 49 35 32 90 152
internal_value=-3.74672e-05 -0.00023763 -0.00014733 0.000116352 0.000368449 0.000932882 0.000105448 0.000850664 0.00239484 4.36924e-05 0.000675315 0.00211411 -0.000977275 0.00017729 8.61367e-05 0.000326066 7.63931e-07 -0.000469754 -0.000466796 0.00013099 0.000398137 0.000599903 0.00208287 0.000471264 0.000627417 0.000896086 0.00110823 -0.000732881 0.000896051 0.00126833
internal_weight=185232 77161.4 68767.1 37673.1 26342.8 10380.6 108070 8269.45 2336.73 99800.9 9493.39 1853.31 8394.3 2449.76 96262.6 7640.08 15962.2 11330.2 31094 92168.6 33418.9 26530.1 2116.43 24413.7 21611.6 16392.6 14242.9 2802.09 12696.2 8744.26
internal_count=4230 1764 1571 859 600 236 2466 188 53 2278 216 42 193 56 2197 174 364 259 712 2103 761 604 48 556 492 373 324 64 289 199
cat_boundaries=0 1 2
cat_threshold=216 265
is_linear=0
shrinkage=0.03


Tree=19
num_leaves=31
num_cat=0
split_feature=33 100 77 9 54 26 34 31 78 57 54 57 49 75 57 76 74 57 8 97 26 100 27 52 8 70 17 66 78 75
split_gain=5.71448 6.42288 5.812 5.36169 8.06401 14.4276 5.39614 4.88285 4.63048 4.55067 4.28761 5.57512 4.11187 8.133 10.7301 4.71133 4.87407 5.49827 4.3876 4.27918 5.10412 8.21078 4.65281 3.94276 3.81256 3.7204 4.09576 6.15761 5.05573 4.87796
threshold=0.49590136397231749 -3.1785714285714284 19.500000000000004 0.6195238095238097 77.218333333333348 3.4642857142857149 5.3166666666666673 0.88194444444444453 824.50000000000011 0.92731428571428587 72.933000000000021 1.0708809523809526 8.7250000000000014 222.50000000000003 1.0206125000000001 83.500000000000014 30.500000000000004 1.0958500000000002 0.44142156862745102 10.887500000000001 -0.68333333333333324 -0.70000000000000007 8.5000000000000018 74.95950000000002 0.47120910698496909 0.17881944444444448 0.58172541743970319 -0.017666666666666549 95.500000000000014 395.00000000000006
decision_type=8 10 10 8 10 10 10 8 10 8 10 10 8 8 10 8 10 10 10 10 10 10 2 10 10 10 10 10 10 10
left_child=1 -1 8 6 7 -6 9 -5 12 -2 -4 -12 15 14 -14 16 -3 18 -18 20 21 -17 -23 -22 -20 -11 -27 29 -29 -28
right_child=3 2 10 4 5 -7 -8 -9 -10 25 11 -13 13 -15 -16 19 17 -19 24 -21 23 22 -24 -25 -26 26 27 28 -30 -31
leaf_value=-0.0010913384527795435 -0.00086196609138764152 -0.00087284230723252173 -0.0014202720517245465 -0.00064835910887962726 0.0053692773840778646 2.1047827146975516e-05 -0.0010754014648208122 0.0015745319771805202 -0.0020314299539589439 -0.00084085898286364029 0.0017482987540560369 -0.0011825036151298185 0.0041328544303051717 -0.00060241808002385133 6.8389957831848611e-05 0.0031663196244939027 0.0012442132433920752 0.0021741783445010216 -0.0019209115443135198 -0.00015947963195260285 0.00040203894552053629 0.0022687335949576723 -0.00025376803213677564 -0.0011568181796964426 -0.00018681634246473015 0.00011023059822082141 -0.00027922949714035024 0.0029933851066035349 0.00037557856582510492 0.00162514769980052
leaf_weight=7138.1657638549805 4264.2203979492188 11046.274578094482 5150.99365234375 2288.5950393676758 892.32627868652344 923.00701522827148 3665.9309387207031 1453.271800994873 1044.7611045837402 3357.1777458190918 1052.4090538024902 1310.3251686096191 1147.4194793701172 1838.4290390014648 1190.6983909606934 1496.1810760498047 1618.7042617797852 968.13964080810547 1350.2656059265137 19679.644161224365 8821.7741165161133 924.35400009155273 2278.1159286499023 1748.8981781005859 7337.5075836181641 82441.179775238037 4340.4603004455566 1680.0123176574707 1097.9816131591797 1677.5928535461426
leaf_count=164 98 253 119 52 20 21 84 33 24 77 24 30 26 42 27 34 37 22 31 449 201 21 52 40 168 1881 99 38 25 38
internal_value=-3.69153e-05 -0.00023415 -0.000146731 0.000103862 0.00101135 0.00265148 5.46631e-05 0.000215161 -5.19402e-05 9.65793e-05 -0.000934991 0.000123122 -1.82508e-05 0.00089039 0.00206392 -8.45301e-05 -0.000425 1.38108e-05 -0.000189315 0.000132924 0.00050977 0.00133235 0.000474802 0.000144044 -0.000456522 0.000139798 0.000175891 0.000791216 0.00195922 0.000251817
internal_weight=185225 77143.1 70004.9 108082 5557.2 1815.33 102525 3741.87 62491.2 98858.6 7513.73 2362.73 61446.4 4176.55 2338.12 57269.9 22320.9 11274.6 10306.5 34949 15269.3 4698.65 3202.47 10570.7 8687.77 94594.4 91237.2 8796.05 2777.99 6018.05
internal_count=4230 1764 1600 2466 126 41 2340 85 1427 2256 173 54 1403 95 53 1308 511 258 236 797 348 107 73 241 199 2158 2081 200 63 137
is_linear=0
shrinkage=0.03


Tree=20
num_leaves=31
num_cat=1
split_feature=65 0 97 69 50 32 96 1 67 76 91 65 61 70 74 44 32 50 54 8 57 10 26 34 64 10 72 99 60 67
split_gain=6.4184 4.89781 7.29061 5.83397 8.84337 7.24656 7.5646 5.45126 7.86609 7.28771 5.35995 4.85702 4.73448 4.6719 4.65159 8.79448 7.87304 5.25308 4.78104 6.77546 8.5864 8.3881 4.64943 4.29135 5.06737 4.54263 5.2898 4.53308 3.95571 5.3788
threshold=8.0050000000000043 0 12.52777777777778 0.45000000000000007 1.1927000000000003 0.46798750731992983 9.0500000000000025 8229.5000000000018 8.256000000000002 113.50000000000001 0.31534090909090912 5.0811666666666762 73.570500000000024 4.7309027777777786 13.500000000000002 -0.156593865616422 0.49009803921568634 1.1357681818181822 76.241666666666688 0.48706800445930887 1.0560500000000002 1.5500000000000003 0.95000000000000007 -0.70714285714285696 0.067350000000000035 -2.6333333333333329 3.8767361111111112 1.3857142857142855 1.0135000000000003 7.8583333333333281
decision_type=10 1 10 10 10 8 8 2 8 10 8 10 10 8 10 8 8 10 10 8 8 10 10 10 10 10 10 10 10 10
left_child=1 2 3 4 5 6 -1 11 9 -9 13 14 -4 -3 17 -16 -17 -7 19 -18 -21 -22 -14 -5 25 -25 27 -27 -12 -30
right_child=-2 10 12 23 -6 7 -8 8 -10 -11 28 -13 22 -15 15 16 18 -19 -20 20 21 -23 -24 24 -26 26 -28 -29 29 -31
leaf_value=0.0022824838132606516 -0.00073750694259108274 0.0018547488005251982 -0.0017123991831124836 0.00048694543511826745 0.003277117454736132 1.9209215446056542e-05 -0.00038238587710142936 -0.00087563136547775589 0.0042596539630454068 0.0027645128272085285 -0.00039879065568061662 -0.00095243000563348368 -0.00083548590049558615 -0.00059180859376991982 0.0038335460680653964 0.0029811451180158741 0.00013088988334143014 0.002439917217702584 -0.00043176427760979215 3.2858239922703323e-05 0.004334840108245047 0.00088619996167007653 0.001167914103513871 -0.0019160286754522934 -0.0014257823958429262 0.00028977166809441792 0.0022558302693332648 -0.0014151050645242126 -4.6777977315758686e-05 0.001157904598177473
leaf_weight=1054.5792808532715 9582.643928527832 2320.7635307312012 2498.3930740356445 8560.5300254821777 1056.2346229553223 9124.6292686462402 10443.580646514893 1005.6303176879883 929.9755859375 973.11547088623047 29859.804958343506 1663.0145378112793 2762.809928894043 1006.6295890808105 971.97503280639648 1416.0432739257812 4213.9990119934082 884.07101058959961 2938.6862144470215 1496.9418907165527 1508.1667671203613 1096.6407775878906 1673.080638885498 1051.6414909362793 3146.6841011047363 6413.8795394897461 972.27107238769531 1795.7721214294434 67844.919334411621 3507.1451683044434
leaf_count=24 220 53 57 195 24 208 238 23 21 22 684 38 63 23 22 32 96 20 67 34 34 25 38 24 72 146 22 41 1550 80
internal_value=1.83497e-05 5.99349e-05 0.000254798 0.000356893 0.000569127 0.000497037 -0.000137794 0.000755666 0.00198547 0.000915025 -6.9917e-05 0.000614283 -0.000668163 0.00111464 0.000724481 0.00108482 0.000873679 0.000233253 0.000608275 0.00097582 0.00184363 0.00288384 -7.97725e-05 -3.75559e-05 -0.000373137 -4.93551e-05 0.000164628 -8.32785e-05 -0.000108878 1.24508e-05
internal_weight=183774 174192 69652.3 62718.1 40777.3 39721 11498.2 28222.9 2908.72 1978.75 104539 25314.2 6934.28 3327.39 23651.2 13642.5 12670.5 10008.7 11254.4 8315.75 4101.75 2604.81 4435.89 21940.8 13380.2 10233.6 9181.92 8209.65 101212 71352.1
internal_count=4196 3976 1586 1428 928 904 262 642 66 45 2390 576 158 76 538 310 288 228 256 189 93 59 101 500 305 233 209 187 2314 1630
cat_boundaries=0 1
cat_threshold=393
is_linear=0
shrinkage=0.03


Tree=21
num_leaves=31
num_cat=0
split_feature=65 78 25 32 17 72 78 11 46 61 59 25 17 1 66 53 8 24 67 100 33 46 32 97 31 94 69 97 16 33
split_gain=6.2327 4.2487 5.39775 5.83588 9.1373 7.62435 5.38841 5.0251 6.99887 8.5191 5.48873 8.54245 6.15217 10.2154 4.84809 5.63485 3.84296 4.78347 7.34041 4.08375 5.90074 4.55887 3.82368 8.45786 4.30683 6.24202 5.19279 6.66296 9.70477 9.29328
threshold=8.0050000000000043 -218.49999999999997 0.64864390928220728 0.56773440106773443 0.49130369026013315 -0.041666666666666692 -14.499999999999998 6.5000000000000009 -0.22032231608490385 74.02500000000002 69.854000000000013 0.42615823235923028 0.5981725634178906 7762.0000000000009 0.23300000000000007 1.2141666666666668 0.58113883113883125 0.44499449944994501 -9.6574999999999971 1.3250000000000004 0.49159604519774019 -0.028143499722783596 0.31311274509803927 10.316666666666668 0.58571428571428574 -0.038095238095238092 0.63333333333333341 10.52777777777778 0.58554006968641126 0.57021168624039442
decision_type=10 10 10 8 8 8 10 2 10 8 8 10 10 2 8 10 10 10 8 8 10 10 8 10 8 10 8 10 10 10
left_child=1 2 3 14 -5 -6 7 8 9 -3 11 -9 16 -14 15 -1 17 19 -19 20 -12 -22 23 -8 -24 -26 27 -27 29 -29
right_child=-2 6 -4 4 5 -7 22 10 -10 -11 12 -13 13 -15 -16 -17 -18 18 -20 -21 21 -23 24 -25 25 26 -28 28 -30 -31
leaf_value=-0.00055986998463363055 -0.00072706105007212091 -0.00068571705263412868 -0.0025039610366693402 0.0028701502161412231 0.0024948943391470478 -0.0003600561207534149 -6.2537184426045021e-05 0.0041792614293159848 -0.0010436962078593489 0.0029404470833555426 -0.00074129485426551475 0.00083582365571722756 0.0035301325097801071 -0.0001370979997214362 -0.002403444221477129 0.0017600479489957074 -0.00087662613129567218 0.0030560340258654235 0.00049867855296213204 -0.00096852457207183133 0.0025975517603409894 0.00014262217888254467 -0.0002165808406295966 0.0035258233766915837 -0.00024238593427800001 -0.00024165076710507813 0.00022820532220826174 0.0037634149064307027 -0.00058000729101185102 0.00067812725175065217
leaf_weight=13822.350162506104 9575.579273223877 1272.9303970336914 961.18205642700195 1183.4462966918945 972.69226837158203 6217.7363090515137 1793.7326126098633 885.14858627319336 4525.8888549804688 1074.5068359375 2407.467170715332 3075.5728149414062 1422.6670532226562 1315.0088539123535 1174.3451652526855 1010.2435417175293 2362.2448501586914 1064.240665435791 19549.548885345459 3670.1013412475586 1282.4955787658691 1450.1059989929199 52649.775951385498 880.75434494018555 19264.886123657227 2104.2872924804688 21949.949890136719 2216.7244148254395 1185.9974708557129 1456.072078704834
leaf_count=317 220 29 22 27 22 142 41 20 104 24 55 70 32 30 27 23 54 24 445 84 29 33 1203 20 440 48 501 50 27 33
internal_value=1.80712e-05 5.90337e-05 -0.000300039 -0.000213053 0.000428628 2.64433e-05 0.000120164 0.000392813 -0.00035433 0.000974655 0.000526258 0.00158389 0.00040488 0.00176922 -0.000548748 -0.000401753 0.000287321 0.000380793 0.000630851 -0.00020429 0.00034147 0.00129533 6.77786e-07 0.00112005 -2.90247e-05 0.000175941 0.000454672 0.00116844 0.00177905 0.00254078
internal_weight=183778 174202 25342 24380.8 8373.87 7190.43 148860 45357.9 6873.33 2347.44 38484.6 3960.72 34523.9 2737.68 16006.9 14832.6 31786.2 29424 20613.8 8810.17 5140.07 2732.6 103502 2674.49 100828 48177.9 28913 6963.08 4858.79 3672.8
internal_count=4196 3976 580 558 191 164 3396 1033 157 53 876 90 786 62 367 340 724 670 469 201 117 62 2363 61 2302 1099 659 158 110 83
is_linear=0
shrinkage=0.03


Tree=22
num_leaves=31
num_cat=1
split_feature=65 0 97 17 91 17 60 48 49 72 78 75 47 70 52 71 65 70 71 26 44 9 9 54 67 9 64 53 24 96
split_gain=6.05231 4.7587 7.06424 7.64176 5.18354 5.15378 5.0507 5.76048 4.78111 6.20759 5.76689 4.89559 5.19003 6.96271 6.98467 4.7002 4.66564 4.52684 5.46983 4.11566 9.13607 7.21844 15.7894 6.43175 8.16391 6.01881 4.33534 8.26998 6.77398 6.87829
threshold=8.0050000000000043 0 12.52777777777778 0.61720629047178555 0.31534090909090912 0.43169856459330153 0.95658333333333345 4.5500000000000007 5.3125000000000009 0.022569444444444423 337.50000000000006 243.50000000000003 -0.027777777777777759 1.0642361111111114 74.021500000000017 2.0277777777777781 -7.2627735042735031 4.7309027777777786 1.0225694444444446 -1.4722222222222221 0.053083208313443798 0.50409863602768268 0.53557367829021385 72.321666666666673 -7.6226666666666665 0.48880534670008358 0.042269047619047602 1.1568333333333336 0.55957841852337276 10.242857142857146
decision_type=10 1 10 10 8 10 8 10 10 10 10 8 10 10 8 10 8 8 10 10 8 10 10 10 8 10 8 10 10 10
left_child=1 2 3 16 17 -6 -7 8 10 -10 11 -8 13 14 -13 -15 -1 18 -3 20 23 25 -23 24 -18 -22 -21 -28 29 -29
right_child=-2 4 -4 -5 5 6 7 -9 9 -11 -12 12 -14 15 -16 -17 19 -19 -20 26 21 22 -24 -25 -26 -27 27 28 -30 -31
leaf_value=-0.0011455839011067447 -0.00071675555897953466 -5.1949999015962708e-05 -0.00065869027232235951 0.0030388794106505769 -0.00061214681469550262 -0.00069930520568823999 -0.00012795053574729336 0.001290399968510841 0.0030995523839824923 0.00018379790706046651 -0.00083603262968803013 0.00093055617813799071 5.8454997824593422e-06 -0.00034673758791940436 0.0037070791779483313 0.0014999442374037729 0.0015934239155882075 -0.00058639003370316526 0.0029509729588141115 0.00047304181277715217 0.0016246421387559823 0.0061543912123079589 0.0011831522352983609 0.0018000006525334589 -0.00062366296772226612 -0.0013294150655760815 -0.00059520467899083166 0.0033002764069451529 -9.6347277240332855e-05 0.00041555716375985034
leaf_weight=1919.8075294494629 9568.6197280883789 875.00970458984375 6929.6697540283203 936.47136306762695 15471.069877624512 8770.8460502624512 43658.579399108887 3280.1361351013184 1008.3229446411133 1883.7705421447754 7392.5712089538574 2024.1872749328613 10958.569400787354 3461.6840438842773 1365.5891799926758 1931.9099578857422 1940.9641380310059 1006.2480850219727 1450.3741111755371 24467.457618713379 2126.1316795349121 888.93643569946289 1626.7201271057129 1945.6855049133301 6490.2128105163574 875.67830657958984 12384.016628265381 1407.6783752441406 4157.0985527038574 1577.0522499084473
leaf_count=44 220 20 158 21 355 201 998 75 23 43 169 46 250 79 31 44 44 23 33 556 48 20 37 44 148 20 283 32 95 36
internal_value=1.77964e-05 5.81456e-05 0.00025018 0.000350608 -6.98611e-05 -0.0001082 -1.72574e-05 6.04757e-05 5.70821e-06 0.00120109 -4.31427e-05 4.93209e-05 0.000441337 0.000984615 0.00204986 0.000314873 0.000309828 0.00109428 0.00182148 0.000356503 0.000770245 0.00175651 0.00294154 0.000245723 -0.000113133 0.000762738 0.000207008 -0.000126362 0.000686588 0.00177672
internal_weight=183781 174212 69673.6 62743.9 104539 101207 85736.2 76965.3 73685.2 2892.09 70793.1 63400.5 19741.9 8783.37 3389.78 5393.59 61807.4 3331.63 2325.38 59887.6 15894.3 5517.47 2515.66 10376.9 8431.18 3001.81 43993.3 19525.8 7141.83 2984.73
internal_count=4196 3976 1586 1428 2390 2314 1959 1758 1683 66 1617 1448 450 200 77 123 1407 76 53 1363 361 125 57 236 192 68 1002 446 163 68
cat_boundaries=0 1
cat_threshold=393
is_linear=0
shrinkage=0.03


Tree=23
num_leaves=31
num_cat=1
split_feature=65 0 97 17 50 91 17 60 48 43 90 61 26 70 49 69 17 17 49 78 17 26 18 69 33 77 10 78 94 57
split_gain=5.87709 4.61676 6.85569 7.38834 6.03302 5.02551 5.00507 4.90458 5.58252 5.71199 4.9645 4.59236 4.5036 4.38271 4.96794 4.36781 4.57111 5.00493 5.62352 4.07186 4.04201 5.66963 4.22072 4.02636 3.90338 4.14907 3.89819 4.71424 5.70552 6.80247
threshold=8.0050000000000043 0 12.52777777777778 0.61720629047178555 1.20645 0.31534090909090912 0.43169856459330153 0.95658333333333345 4.5500000000000007 0.40238095238095245 0.62019230769230782 73.570500000000024 0.95000000000000007 4.7309027777777786 0.98333333333333361 1.0000000180025095e-35 0.55801713586291324 0.46836121836121841 -0.24166666666666667 193.50000000000003 0.44274004683840756 -0.78888888888888886 5.0500000000000007 0.63333333333333341 0.44161255411255412 -33.499999999999993 1.9500000000000002 -218.49999999999997 -0.05000000000000001 1.0989500000000001
decision_type=10 1 10 10 8 8 10 8 10 10 10 10 10 8 10 8 10 8 10 10 10 10 10 10 10 10 10 8 8 10
left_child=1 2 3 4 15 13 24 -8 9 10 20 -4 -13 14 -3 16 17 18 -1 -10 21 -9 26 -11 25 -7 27 -22 -29 -30
right_child=-2 5 11 -5 -6 6 7 8 19 23 -12 12 -14 -15 -16 -17 -18 -19 -20 -21 22 -23 -24 -25 -26 -27 -28 28 29 -31
leaf_value=0.003408384023483247 -0.00070658881546357987 0.00066642722816702014 -0.0016793809952647489 0.0029845133348531294 0.0020516755015283251 -0.00078152169726770199 -0.00068937395356866605 0.0031670935678558294 4.3484750991781382e-05 0.00043309010749284803 -0.00073809511877984374 -0.00081478242460698651 0.0011570812320326395 -0.00057800399760507624 0.00349778178865927 0.0001477743478431997 0.0024279852981480294 0.00010165103118538147 0.00025531118300137928 0.0021793505470248825 -0.00057005495138250453 3.3195944797321829e-05 0.001789579909851976 0.0024786155974309619 -0.0011937385576090466 0.00048991906362840496 -0.00052974554206241208 -0.00021767675452550426 9.2586830730823389e-05 0.001157875638109202
leaf_weight=1024.0713348388672 9561.7638244628906 1405.1241874694824 2492.1497535705566 939.3215217590332 1729.1605796813965 5215.4000015258789 8764.7146987915039 878.33588790893555 1399.4976997375488 2545.8521995544434 8451.6432075500488 2758.7467880249023 1674.2102127075195 1005.6581916809082 924.50051879882812 51139.434959411621 1417.9971160888672 5504.2830772399902 1011.6726608276367 1884.8738670349121 8249.9065170288086 1269.8598823547363 1150.4794464111328 1311.9988632202148 6101.3053741455078 4144.8968696594238 11861.966941833496 15664.309242248535 13158.638244628906 9142.6264190673828
leaf_count=23 220 32 57 21 39 120 201 20 32 58 193 63 38 23 21 1165 32 125 23 43 189 29 26 30 140 95 271 358 301 208
internal_value=1.75261e-05 5.72711e-05 0.000246384 0.000345256 0.000305111 -6.88286e-05 -0.000106603 -1.70035e-05 5.95685e-05 5.62064e-06 -5.64706e-05 -0.00064931 -6.99689e-05 0.00107677 0.00179106 0.000254824 0.000865865 0.000571806 0.00184234 0.00126953 3.74013e-05 0.00131543 -8.97436e-06 0.00112921 -0.0006034 -0.000218514 -4.46328e-05 7.98881e-05 0.000221132 0.000529345
internal_weight=183784 174223 69691 62765.9 61826.6 104532 101196 85734.7 76970 73685.6 69827.8 6925.11 4432.96 3335.28 2329.62 60097.5 8958.02 7540.03 2035.74 3284.37 61376.1 2148.2 59227.9 3857.85 15461.6 9360.3 58077.4 46215.5 37965.6 22301.3
internal_count=4196 3976 1586 1428 1407 2390 2314 1959 1758 1683 1595 158 101 76 53 1368 203 171 46 75 1402 49 1353 88 355 215 1327 1056 867 509
cat_boundaries=0 1
cat_threshold=393
is_linear=0
shrinkage=0.03


Tree=24
num_leaves=31
num_cat=1
split_feature=65 0 16 50 25 98 45 73 33 34 50 98 48 50 72 45 73 58 34 91 96 60 60 18 95 34 18 70 71 70
split_gain=5.7069 4.47922 5.22752 7.85587 8.28468 4.92183 8.36631 5.18239 6.6205 7.75678 4.87477 7.12748 6.61502 5.45055 5.25026 6.11353 5.06409 5.33142 5.00216 4.87243 4.84096 4.4587 8.04193 5.18213 4.39114 7.06128 8.12542 4.24338 5.28816 4.01686
threshold=8.0050000000000043 0 0.598085028403885 1.20645 0.61569230769230787 9.4500000000000011 -0.16126862304797637 19.500000000000004 0.50172413793103454 2.0500000000000003 1.080084210526316 13.050000000000002 -3.028571428571428 1.0768844537815128 10.112847222222225 -0.037706229080892155 10.500000000000002 68.200769230769239 -3.464285714285714 0.31534090909090912 11.337500000000002 1.1398333333333335 1.2238333333333336 -0.22499999999999998 9.9500000000000011 -1.7071428571428569 -1.3666666666666665 4.7309027777777786 1.1649305555555558 0.84375000000000011
decision_type=10 1 10 8 8 8 10 8 10 10 10 10 8 10 10 10 8 10 8 8 10 10 10 10 8 10 10 8 10 8
left_child=1 2 3 5 -5 6 -1 8 -8 -10 11 12 -7 14 21 -16 17 -12 -18 27 -19 24 23 -23 25 26 -14 28 -3 -26
right_child=-2 19 -4 4 -6 10 7 -9 9 -11 16 -13 13 -15 15 -17 18 20 -20 -21 -22 22 -24 -25 29 -27 -28 -29 -30 -31
leaf_value=0.0037699422896666779 -0.00069655914210798415 0.00024508655804357163 -0.00066264943962462204 0.0041454221440842196 0.00019297514294714578 -0.00041064957428937378 -0.00075885225943410773 -0.0012049734693992582 0.0040868867172585196 0.00069024685064862071 0.0024705345281805175 -0.0011077711686257197 0.00085452526894796575 0.0028219480914310536 0.0036203287801867224 0.00049852757279446986 0.00096266341591997131 -0.00015587951207657314 -0.00082754658566603983 -0.00010503025723259283 0.0014954635245541918 0.00091034457231166355 -0.00094894660622387697 0.0036612278235054183 -0.0011652901891066312 -9.7898675998466026e-06 0.0044199311379500283 -0.00056973307568654959 0.0031059301072552301 0.00026355200693759195
leaf_weight=890.11537551879883 9555.0099906921387 1097.5463066101074 5302.5038299560547 974.94474411010742 934.34777069091797 5262.0202140808105 1141.6007843017578 1097.7623443603516 977.95391464233398 1585.8107147216797 920.51146697998047 2525.8624649047852 1491.1769676208496 1103.708911895752 1112.7823905944824 1145.7133178710938 1624.7588806152344 10183.38207244873 10336.936603546143 101185.54577255249 1894.0072937011719 1148.1022491455078 879.72541809082031 1331.7863311767578 2145.3967590332031 2643.7815628051758 936.22825241088867 1005.0770874023438 1236.2544631958008 10117.31494140625
leaf_count=20 220 25 121 22 21 120 26 25 22 36 21 58 34 25 25 26 37 232 236 2314 43 26 20 30 49 60 21 23 28 230
internal_value=1.72608e-05 5.64108e-05 0.000242651 0.000317231 0.00221233 0.0002593 0.00110016 0.000604713 0.00114104 0.00198699 0.000175005 0.000421048 0.000552796 0.000763551 0.000664449 0.00203759 -0.000138901 0.000271023 -0.000584322 -6.78122e-05 0.000103191 0.000514493 0.00151459 0.00238854 0.00032058 0.00106299 0.00223092 0.00105958 0.00176121 1.34973e-05
internal_weight=183788 174233 69708.2 64405.7 1909.29 62496.4 5693.24 4803.13 3705.37 2563.76 56803.2 31843.6 29317.7 24055.7 22952 2258.5 24959.6 12997.9 11961.7 104524 12077.4 20693.5 3359.61 2479.89 17333.9 5071.19 2427.41 3338.88 2333.8 12262.7
internal_count=4196 3976 1586 1465 43 1422 129 109 84 58 1293 724 666 546 521 51 569 296 273 2390 275 470 76 56 394 115 55 76 53 279
cat_boundaries=0 1
cat_threshold=393
is_linear=0
shrinkage=0.03


Tree=25
num_leaves=31
num_cat=0
split_feature=51 58 98 23 53 26 26 60 61 70 77 33 8 24 43 94 53 43 49 66 73 25 32 66 49 66 77 48 77 64
split_gain=5.62661 5.66981 4.35135 12.8036 4.12927 4.31169 4.08213 3.46973 12.1882 8.40678 7.44981 7.27106 5.47147 8.01833 5.15822 13.4419 6.03917 5.14981 5.61824 6.15846 5.26607 4.65486 4.7627 4.22692 4.76816 5.78468 3.96587 3.94546 4.05795 5.32445
threshold=62.725416666666668 66.27200000000002 7.6500000000000012 0.47222222222222227 0.86633333333333351 4.9500000000000011 5.1333333333333337 1.1209666666666669 72.085000000000022 52.888888888888893 19.500000000000004 0.55823643410852719 0.52114249955301284 0.48107236684977317 0.65833333333333355 -0.062202380952380946 1.1133666666666668 0.059523809523809541 1.4083333333333337 -0.090266666666666592 15.500000000000002 0.63680926916221037 0.65465367965367982 0.23300000000000007 5.0142857142857151 0.17633333333333331 -2.4999999999999996 3.6166666666666676 -3.4999999999999996 0.069712499999999969
decision_type=8 8 8 10 8 10 8 8 8 8 10 10 8 8 8 8 10 10 10 10 10 10 10 8 10 10 10 10 10 10
left_child=-1 -2 3 -3 -4 7 -7 10 -9 21 12 -11 13 27 17 -16 -17 18 19 -15 -21 22 -10 24 -14 -26 -19 28 -6 -30
right_child=1 2 4 -5 5 6 -8 8 9 11 -12 -13 23 14 15 16 -18 26 -20 20 -22 -23 -24 -25 25 -27 -28 -29 29 -31
leaf_value=-0.0017912216629753248 -0.00071335842338335613 -0.00083292269593923272 -0.00086485614252147076 0.0031731277132858956 -0.00081512444400626456 -0.0020217724554641991 -0.00026864572580434612 0.0033977733836620485 0.00027296547837570142 0.0035482353862293201 -0.00085494635936503229 8.5760450604179721e-05 -0.00019288248213607278 0.0027232331707097213 0.0048243839770016539 -0.00054870150986079602 0.0021806399828676144 -0.00018252219455847519 0.002817309065540272 0.00098237428760594757 -0.0008024000874400927 -0.001158698793868076 -0.00081956297740659991 -0.0009416347693205631 0.0025093021561176194 -0.00011215111121523917 0.00070280565613846466 0.0013785760115425638 -0.0001484474552340711 0.002147497446880379
leaf_weight=1549.768684387207 8944.5091896057129 1401.4463119506836 4406.1977958679199 1470.7148246765137 8304.0197067260742 1570.5465087890625 4995.6047134399414 1100.0949020385742 53901.216178894043 1242.3672943115234 8675.7968139648438 973.07636642456055 28539.913063049316 1147.3534545898438 886.5848388671875 1706.0974044799805 1273.4257965087891 12358.79891204834 1322.4587593078613 4124.0108604431152 2326.3875389099121 2360.5421524047852 3846.4863090515137 5982.4730567932129 1361.3879318237305 1706.419734954834 7209.4017486572266 1314.1093559265137 9293.4511070251465 1006.6175193786621
leaf_count=36 206 32 101 33 190 36 114 25 1229 28 199 22 652 26 20 39 29 282 30 94 53 54 88 137 31 39 164 30 212 23
internal_value=8.29664e-06 2.34013e-05 6.08892e-05 0.0012188 4.16513e-05 6.5357e-05 -0.000688217 9.59118e-05 0.000268987 0.000213706 -1.54884e-05 0.00202816 6.55655e-05 0.000264074 0.000555597 0.00158372 0.000618139 0.000416022 0.00101339 0.000699068 0.000338657 0.000146797 0.000200181 -0.000210478 -7.20652e-05 0.0010516 0.000143673 -0.000209473 -0.000321713 7.61201e-05
internal_weight=186301 184752 175807 2872.16 172935 168529 6566.15 161962 63423.8 62323.7 98538.7 2215.44 89862.9 52272.7 32354.5 3866.11 2979.52 28488.4 8920.21 7597.75 6450.4 60108.2 57747.7 37590.2 31607.7 3067.81 19568.2 19918.2 18604.1 10300.1
internal_count=4254 4218 4012 65 3947 3846 150 3696 1446 1421 2250 50 2051 1192 737 88 68 649 203 173 147 1371 1317 859 722 70 446 455 425 235
is_linear=0
shrinkage=0.03


Tree=26
num_leaves=31
num_cat=0
split_feature=58 50 70 54 17 17 32 57 26 75 32 26 98 43 17 17 26 66 75 74 32 53 65 17 53 78 59 44 54 99
split_gain=5.28009 5.26058 4.23443 8.87167 5.03412 4.24936 5.52577 8.03588 3.99264 4.52398 4.5577 5.54004 5.82937 3.94841 7.43741 10.9354 3.77423 3.37937 7.22377 3.2901 3.29838 3.37989 4.69878 4.30393 3.69826 3.58326 3.68797 7.74113 6.83672 6.0797
threshold=66.27200000000002 0.87796111111111108 108.92708333333336 69.851666666666674 0.52512626262626283 0.6224318658280924 0.58292880258899682 1.2263500000000003 4.9500000000000011 42.500000000000007 0.53306010928961756 -0.64583333333333315 11.267857142857144 0.65833333333333355 0.5052088985349974 0.46258775437661076 5.1333333333333337 0.23300000000000007 89.500000000000014 98.000000000000014 0.71596638655462197 1.2156666666666669 -3.5981558441558472 0.5694365664586879 1.2221666666666668 -441.99999999999994 72.281605042016835 0.15176686059038999 72.236333333333349 0.79999999999999993
decision_type=8 8 8 10 10 10 10 10 10 10 10 8 10 10 10 10 10 10 10 10 10 10 10 10 10 8 8 10 10 10
left_child=-1 -2 5 4 -4 8 7 -7 9 10 -3 -12 -13 17 15 -15 -10 19 -19 20 21 25 -23 24 -24 -11 -27 28 29 -28
right_child=1 2 3 -5 -6 6 -8 -9 16 13 11 12 -14 14 -16 -17 -18 18 -20 -21 -22 22 23 -25 -26 26 27 -29 -30 -31
leaf_value=-0.00070323751097375994 -0.0013605179703002068 -0.0007739513234306405 0.001899201229552712 0.0036721809787607215 -0.00099947460214896001 0.00065583792825935831 -0.00061981859464111993 0.0040785887309083158 -0.0019957308033749311 -0.00061180670692863586 -0.00070849710494461343 0.002595681744826695 -0.00039582392957063852 0.00039715701892151646 -0.0011509151966810865 0.0044431938671107294 -0.00029937068889434514 0.0017655884015880764 -0.00091034969886294968 -0.00077755583925694679 -0.0011428631748964357 0.00269120674201997 0.0022856438365040318 -0.0012249652194078655 0.00043921247373466968 -3.921401526158369e-06 0.00046145623124322277 0.0029317874085274427 -2.7126411916726393e-05 0.0018135820982073689
leaf_weight=8938.1308555603027 2366.9397392272949 10898.828147888184 891.13022613525391 898.03776931762695 1362.1301078796387 1980.8755569458008 1321.6811065673828 896.17353057861328 1567.3744239807129 5859.0272026062012 2306.7563209533691 1404.394100189209 1005.4242172241211 1573.0663261413574 962.50045013427734 972.32806396484375 4773.9005241394043 1053.1164245605469 6548.1904067993164 3650.1958618164062 1790.7442665100098 968.64720153808594 1187.072883605957 1141.058162689209 5480.9162712097168 63457.969219207764 18626.163993835449 1014.4549102783203 27840.482936859131 3565.1775970458984
leaf_count=206 55 250 20 20 31 45 30 20 36 134 53 32 23 36 22 22 109 24 150 84 41 22 27 26 125 1449 424 23 634 81
internal_value=8.16785e-06 4.40222e-05 6.3027e-05 0.0011526 0.000147242 4.304e-05 0.00098558 0.00172304 1.94284e-05 4.84581e-05 -0.000436809 0.000342242 0.00134792 0.000100472 0.00109463 0.00194386 -0.000718909 7.59375e-05 -0.000539431 0.000110698 0.000135467 0.000153202 0.000721494 0.000476854 0.000768218 0.000111752 0.000148781 0.000338608 0.000285971 0.000678756
internal_weight=186303 177365 174998 3151.3 2253.26 171847 4198.73 2877.05 167648 161307 15615.4 4716.57 2409.82 145691 3507.89 2545.39 6341.27 142183 7601.31 134582 130932 129141 8777.69 7809.05 6667.99 120363 114504 51046.3 50031.8 22191.3
internal_count=4254 4048 3993 71 51 3922 95 65 3827 3682 358 108 55 3324 80 58 145 3244 174 3070 2986 2945 200 178 152 2745 2611 1162 1139 505
is_linear=0
shrinkage=0.03


Tree=27
num_leaves=31
num_cat=0
split_feature=51 58 70 54 17 17 53 91 96 75 26 32 26 24 32 34 51 70 26 8 23 24 50 76 59 48 32 50 58 54
split_gain=5.35961 5.34702 4.16838 8.53401 4.87801 3.96233 5.47156 5.00224 4.24351 4.21509 4.60239 4.35437 4.12346 6.8262 3.88113 6.36707 4.8599 3.45023 3.37926 3.20072 4.8841 5.38217 4.6964 3.85912 4.0477 7.20267 8.27745 5.78028 5.91723 5.30032
threshold=62.725416666666668 66.27200000000002 108.92708333333336 69.851666666666674 0.52512626262626283 0.6224318658280924 1.0357500000000004 0.65833333333333344 9.5857142857142872 42.500000000000007 4.9500000000000011 0.53306010928961756 -0.64583333333333315 0.54182569974554717 0.31311274509803927 -5.0499999999999989 65.679750000000027 0.99826388888888895 5.3166666666666673 0.41633333333333339 0.43650793650793657 0.46352549889135258 0.976477777777778 8.5000000000000018 72.281605042016835 3.9833333333333338 0.51835016835016845 1.0374824561403513 73.760593073593085 70.423333333333332
decision_type=8 8 8 10 10 10 10 10 10 10 10 10 8 8 8 10 10 10 10 10 8 10 10 8 8 10 10 10 10 8
left_child=-1 -2 5 4 -4 9 -7 8 -8 11 14 17 -13 -14 15 -11 -16 -3 -12 20 21 -18 -21 -24 27 29 -27 28 -25 -26
right_child=1 2 3 -5 -6 6 7 -9 -10 10 18 12 13 -15 16 -17 19 -19 -20 22 -22 -23 23 24 25 26 -28 -29 -30 -31
