tree
version=v4
num_class=1
num_tree_per_iteration=1
label_index=0
max_feature_idx=100
objective=binary sigmoid:1
feature_names=map_name event_id stars format t1_rating t1_adr t1_kast t1_win_rate t1_ct_wr t1_t_wr t1_round_diff t1_n t2_rating t2_adr t2_kast t2_win_rate t2_ct_wr t2_t_wr t2_round_diff t2_n t1_onmap_rating t1_onmap_adr t1_onmap_kast t1_onmap_win_rate t1_onmap_ct_wr t1_onmap_t_wr t1_onmap_round_diff t1_onmap_n t2_onmap_rating t2_onmap_adr t2_onmap_kast t2_onmap_win_rate t2_onmap_ct_wr t2_onmap_t_wr t2_onmap_round_diff t2_onmap_n diff_rating diff_onmap_rating diff_adr diff_onmap_adr diff_kast diff_onmap_kast diff_win_rate diff_onmap_win_rate diff_ct_wr diff_onmap_ct_wr diff_t_wr diff_onmap_t_wr diff_round_diff diff_onmap_round_diff t1_avg_player_rating t1_avg_player_adr t1_avg_player_kast t1_onmap_avg_player_rating t1_onmap_avg_player_adr t1_roster_size_hist t1_onmap_roster_size_hist t2_avg_player_rating t2_avg_player_adr t2_avg_player_kast t2_onmap_avg_player_rating t2_onmap_avg_player_adr t2_roster_size_hist t2_onmap_roster_size_hist diff_avg_player_rating diff_avg_player_adr diff_onmap_avg_player_rating diff_onmap_avg_player_adr h2h_n h2h_t1_wr t1_rest_days t2_rest_days diff_rest_days t1_rank t2_rank t1_points t2_points diff_rank diff_points t1_is_ranked t2_is_ranked event_prize_pool_usd event_type event_has_prize event_num_attending map_picked_by t1_picks t1_bans t2_picks t2_bans t1_pistol_wr t2_pistol_wr t1_pistol_n t2_pistol_n diff_pistol_wr t1_avg_rounds_for t1_avg_rounds_against t2_avg_rounds_for t2_avg_rounds_against diff_avg_rounds_for diff_avg_rounds_against
feature_infos=-1:0:5:4:1:3:2:8:6:7 [1040:8648] none -1:1:0:2 none none none [0:1] [0:1] [0.125:0.875] [-12:10] [0:10] none none none [0:1] [0:1] [0:1] [-12:11] [0:10] none none none [0:1] [0:1] [0:1] [-13:13] [0:10] none none none [0:1] [0:1] [0:1] [-12:12] [0:10] none none none none none none [-1:0.90000000000000002] [-1:1] [-0.59999999999999998:0.5641025641025641] [-0.69999999999999996:0.69230769230769229] [-0.45681818181818179:0.51485148514851486] [-0.61682242990654201:0.6310679611650486] [-14.9:14.800000000000001] [-15:17.5] [0.59499999999999997:1.514] [53.853333333333332:89.919999999999987] [44.950000000000003:85.909999999999997] [0.48499999999999999:1.8359999999999999] [44.619999999999997:98.300000000000011] [0:5] [0:5] [0.48499999999999999:1.5720000000000001] [39.926666666666662:93.825000000000003] [41.25333333333333:86.679999999999993] [0.41000000000000003:1.7133333333333332] [38.399999999999999:98] [0:5] [0:5] [-0.49430000000000018:0.64289999999999992] [-24.859000000000009:33.957333333333324] [-0.69777777777777761:0.7320000000000001] [-28.088888888888889:40.676666666666662] [0:5] [0:1] [0.03125:314.70486111111109] [0.03125:430.91262731481481] [-430.2424884259259:312.57986111111109] [1:201] [1:252] [0:1000] [0:1000] [-237:185] [-977:976] [0:1] [0:1] [5354:1250000] -1:0 [0:1] [2:217] -1:1:0 [0:4] [0:6] [0:4] [0:6] [0:1] [0:1] [0:30] [0:30] [-0.59999999999999998:0.56666666666666665] [1:16] [3:16] [1:21] [2:25] [-13.5:11.699999999999999] [-12.6:8.9000000000000004]
tree_sizes=3347 3461 3451 3463 3459 3456 3439 3448 3482 3451 3464 3460 3446 3470 3466 3449 3468 3448 3457 3449 3468 3454 3484 3465 3468 3468 3455 3475 3475 3486 3467 3470 3490 3473 3471 3451 3446 3460 3483 3458 3456 3457 3469 3445 3469 3468 3460 3451 3459 3463 3448 3446 3453 3445 3449 3465 3462

Tree=0
num_leaves=31
num_cat=2
split_feature=78 78 76 52 78 60 32 17 66 54 33 51 54 100 10 76 27 59 43 99 33 67 8 16 54 85 3 34 75 47
split_gain=245.002 33.9518 25.3383 24.6889 17.0799 16.4268 15.1423 14.4112 13.4913 11.8079 12.1399 11.4594 11.7258 10.8182 13.2874 10.6938 10.0554 10.034 9.72763 9.68364 9.30135 9.06525 10.8285 10.0238 9.02551 9.96616 8.68367 11.2177 11.9996 10.7295
threshold=1.0000000180025095e-35 227.50000000000003 16.500000000000004 66.676277777777798 -107.49999999999999 1.0478333333333336 0.54972527472527488 0.53302180685358269 -0.070000000000000048 75.52500000000002 0.50854763296317951 71.445000000000022 64.46250000000002 -1.3999999999999992 -0.44999999999999996 88.500000000000014 5.5000000000000009 73.210000000000022 0.050000000000000024 -1.2874999999999994 0.3869446135118686 0.070833333333339979 0.51310068649885598 0.45711846598371425 75.02166666666669 0 1 2.5857142857142863 189.50000000000003 -0.061347901800883474
decision_type=8 10 10 8 10 10 10 10 10 10 10 8 10 8 10 10 2 10 8 8 8 8 10 8 10 9 1 10 10 10
left_child=3 2 7 15 18 -3 11 -2 17 -8 -11 24 -13 -7 -15 -1 -16 -6 26 -20 -10 23 -23 -14 25 -4 27 -5 29 -29
right_child=1 5 6 4 8 13 9 -9 20 10 -12 12 21 14 16 -17 -18 -19 19 -21 -22 22 -24 -25 -26 -27 -28 28 -30 -31
leaf_value=0.15059266417139983 0.17731158745262424 0.18400843721206744 0.13185650071815727 0.11785679990600961 0.14439501567299617 0.17912549265167785 0.17765827291707645 0.13003428171533193 0.12421267488161962 0.17571345951079448 0.13410851852323644 0.12255745607905701 0.12863026513434322 0.18805485740071401 0.12035092570883699 0.10777326241981899 0.15772237300338873 0.12080853032491301 0.15900276461187379 0.13449191173617484 0.15470013063665719 0.1722508123542765 0.15520293303294538 0.15618523053859593 0.1167223518382374 0.15709559905148524 0.14731862964605008 0.14069182146521761 0.11964419401448068 0.18569153978369388
leaf_weight=6.2138173729181281 84.259363576769829 96.686998322606087 22.121189847588539 78.294098898768425 40.762641966342926 38.028562322258949 44.988037779927254 5.4681592881679526 8.9478970170021039 9.9421077966690081 13.918950915336607 7.705133542418479 15.907372474670408 10.68776588141918 6.4623700678348532 36.288693457841873 48.219222813844681 27.092243745923042 19.635662898421288 50.207644373178482 94.201471373438835 56.421461746096611 81.525283932685852 39.271325796842575 9.4450024068355543 35.294482678174973 17.647241339087486 17.15013594925404 16.901583254337311 5.4681592881679526
leaf_count=25 339 389 89 315 164 153 181 22 36 40 56 31 64 43 26 146 194 109 79 202 379 227 328 158 38 142 71 69 68 22
internal_value=0.153086 0.164956 0.16014 0.135346 0.137871 0.175127 0.156334 0.174215 0.144938 0.168773 0.151682 0.153086 0.156669 0.166599 0.15902 0.113846 0.152808 0.134655 0.132049 0.141378 0.15181 0.158177 0.162268 0.147959 0.142418 0.147185 0.127355 0.124433 0.137995 0.152517
internal_weight=1045.16 626.353 426.268 418.811 376.309 200.085 336.54 89.7275 171.004 68.8491 23.8611 267.691 200.831 103.398 65.3694 42.5025 54.6816 67.8549 205.305 69.8433 103.149 193.125 137.947 55.1787 66.8607 57.4157 135.461 117.814 39.5199 22.6183
internal_count=4205 2520 1715 1685 1514 805 1354 361 688 277 96 1077 808 416 263 171 220 273 826 281 415 777 555 222 269 231 545 474 159 91
cat_boundaries=0 1 2
cat_threshold=2 2
is_linear=0
shrinkage=1


Tree=1
num_leaves=31
num_cat=0
split_feature=78 78 76 52 78 60 32 47 17 54 33 50 53 70 17 33 32 96 57 60 54 67 8 47 81 17 76 54 77 84
split_gain=230.701 32.1177 23.9212 23.2518 17.864 15.5449 14.3132 13.8661 13.6546 11.1553 11.484 11.0139 10.8054 13.5447 10.5511 10.2163 10.8467 10.0678 9.36342 9.75296 9.25587 8.92764 10.0743 9.81633 8.87902 8.59809 8.53711 8.533 8.56721 8.50807
threshold=1.0000000180025095e-35 227.50000000000003 16.500000000000004 65.697587301587319 -107.49999999999999 1.0478333333333336 0.54972527472527488 -0.12344987103752388 0.53302180685358269 75.52500000000002 0.50854763296317951 1.0264500000000003 1.0534166666666669 2.6319444444444451 0.47111411315956775 0.61374887488748886 0.54182569974554717 13.133333333333335 1.1259500000000002 0.93008333333333348 64.46250000000002 0.070833333333339979 0.51310068649885598 -0.15363051333830399 225000.00000000003 0.44487847222222227 564.00000000000011 69.798333333333346 -11.499999999999998 15.500000000000002
decision_type=8 10 10 8 10 10 10 8 10 10 10 8 8 10 10 10 10 10 10 8 10 8 10 10 8 10 10 10 10 2
left_child=3 2 8 -1 12 -3 11 14 -2 -8 -11 -4 24 15 -6 16 29 18 19 -9 -13 23 -23 -22 -5 -25 -17 28 -7 -14
right_child=1 5 6 4 7 27 9 17 -10 10 -12 20 13 -15 -16 26 -18 -19 -20 -21 21 22 -24 25 -26 -27 -28 -29 -30 -31
leaf_value=-0.043583559901452837 0.024155912278419865 0.03068481351737307 -0.012007494686821054 -0.0065464132033394556 0.0065764903967293429 0.014348237384404439 0.024500831322301551 -0.024918953713436286 -0.021835649144497139 0.022650963457005131 -0.017823994246985522 -0.025549386189002675 0.007873287375076329 -0.030814002245058966 -0.036767668799050177 0.0017337646008870283 0.010283660718577364 -0.035770723525077881 -0.015308392278334082 0.0052330728923043581 0.021810355068457968 0.017861303715563766 0.0020754508745908029 -0.03215676313986366 -0.033024359902504193 -0.0032810968387352877 -0.045143099716961677 0.016656519060297997 -0.035328519787430464 -0.019472067267546314
leaf_weight=26.16498576104641 84.08735516667366 96.431422561407089 49.729950949549675 14.191246539354323 6.2162025868892696 5.4617464989423752 44.894820258021355 9.7001316100358945 5.4768155217170706 9.9232071638107318 13.937240719795225 8.4666682183742505 13.189906269311903 34.096350595355034 20.902549341320992 4.9781612753868094 28.361184984445572 7.4602089673280707 35.076723247766495 98.454948335886002 9.4477620273828489 62.060079649090767 86.732478499412537 11.194631844758986 71.712336674332619 40.025937780737877 10.20446142554283 92.5975381731987 5.2171812802553159 38.574408754706383
leaf_count=105 339 389 200 57 25 22 181 39 22 40 56 34 53 137 84 20 114 30 141 396 38 250 349 45 288 161 41 373 21 155
internal_value=0.000595062 0.0121271 0.00744328 -0.0166017 -0.0146999 0.0220307 0.00374667 -0.00759984 0.0211335 0.0158503 -0.000757031 0.000590089 -0.0205011 -0.0148295 -0.0269517 -0.00885048 -0.00439977 -0.00396254 -0.00206929 0.00232531 0.00350651 0.0047968 0.00873488 -0.00484658 -0.0287759 -0.010087 -0.0306155 0.0137335 -0.0108682 -0.0124871
internal_weight=1044.97 625.685 425.977 419.284 393.119 199.708 336.413 177.811 89.5642 68.7553 23.8604 267.658 215.308 129.404 27.1188 95.3081 80.1255 150.692 143.232 108.155 217.928 209.461 148.793 60.6683 85.9036 51.2206 15.1826 103.276 10.6789 51.7643
internal_count=4205 2520 1715 1685 1580 805 1354 715 361 277 96 1077 865 520 109 383 322 606 576 435 877 843 599 244 345 206 61 416 43 208
is_linear=0
shrinkage=0.03


Tree=2
num_leaves=31
num_cat=0
split_feature=78 78 74 52 78 50 24 60 66 70 47 53 72 73 76 17 58 81 91 70 72 58 98 18 26 25 9 90 71 59
split_gain=217.388 30.3557 22.6869 22.0093 15.6666 15.2672 15.1658 14.748 12.7824 12.1097 11.4373 10.5672 10.5528 10.2182 9.93034 9.81154 14.4626 12.4025 10.3224 9.69413 9.37524 9.10372 9.02237 9.01147 8.81071 8.77188 8.52123 10.6327 8.38998 11.5284
threshold=1.0000000180025095e-35 227.50000000000003 56.500000000000007 66.676277777777798 -257.99999999999994 1.0325000000000002 0.51293199554069135 1.0478333333333336 -0.046583333333333303 3.0434027777777781 0.18649594248092313 1.2061666666666671 0.039930555555555532 20.500000000000004 88.500000000000014 0.49130369026013315 69.789500000000018 55000.000000000007 0.42261904761904767 2.0225694444444451 0.15277777777777787 73.055500000000009 11.472222222222223 3.8500000000000001 -2.1339285714285707 0.53139076576576583 0.50840395480225997 0.6515151515151516 0.78993055555555569 71.08550000000001
decision_type=8 10 8 8 10 8 8 10 10 10 10 8 8 8 10 10 8 10 8 10 10 10 10 8 10 10 10 10 10 10
left_child=3 2 5 14 -5 19 8 -3 21 -10 11 15 -9 -4 -1 16 17 -7 -18 -2 -14 22 24 28 -6 -15 -13 -28 -17 -30
right_child=1 7 13 4 6 10 -8 12 9 -11 -12 26 20 25 -16 23 18 -19 -20 -21 -22 -23 -24 -25 -26 -27 27 -29 29 -31
leaf_value=-0.0011009122140390112 0.00044063341407806454 0.029865034703329137 0.023957395742647096 -0.024216363309229699 0.0291218541163944 0.033563751639892433 -0.0028603010942931657 0.024995489198369171 0.0016403911834646687 -0.024717101608045404 0.028107149591384401 0.011713910048743345 -0.0077247103130137244 -0.024976630824663951 -0.042197480561129402 -0.0037944946650702869 0.014922147448610215 -0.002034155716198405 -0.011601664049613311 -0.022477931535868138 0.015421504106918924 -0.032085989778900328 -0.031306025760952087 -0.021319949022943225 -0.01426300434091083 0.022368141047476548 -0.030014880621208998 0.015104010547357839 0.00035330974323579198 0.026863003206577491
leaf_weight=6.2258885353803626 39.522582769393921 96.137914165854454 81.71978160738945 95.186973944306374 6.477619305253028 18.114253088831902 135.88214407861233 40.897063255310059 46.27168408036232 22.648039415478706 19.846984520554543 10.440726101398466 27.041349992156029 7.1876640319824201 36.44876691699028 15.141678363084791 15.890541434288023 16.136802345514297 60.591368347406387 27.604943409562111 35.209393590688705 52.581717595458031 9.2123288959264737 5.2092847675085059 8.7122587114572543 5.2114010751247406 18.884949713945392 5.4737704694271079 19.612745583057404 59.051738619804382
leaf_count=25 159 389 330 382 26 73 546 165 186 91 80 42 109 29 146 61 64 65 244 111 142 211 37 21 35 21 76 22 79 238
internal_value=0.000571292 0.0117793 0.0072261 -0.0161077 -0.0137245 0.00350883 -0.0101072 0.0214197 -0.016791 -0.0072507 0.00675179 0.00491122 0.0133371 0.0201452 -0.0363643 0.00745434 0.00129029 0.0172105 -0.00596938 -0.0091758 0.00540376 -0.0251295 -0.00946655 0.014266 0.00489418 -0.00489309 -0.0101971 -0.0196802 0.0164462 0.020341
internal_weight=1044.57 624.927 425.641 419.647 376.973 331.522 281.786 199.286 145.904 68.9197 264.395 244.548 103.148 94.1188 42.6747 209.748 110.733 34.2511 76.4819 67.1275 62.2507 76.9839 24.4022 99.0154 15.1899 12.3991 34.7994 24.3587 93.8062 78.6645
internal_count=4205 2520 1715 1685 1514 1335 1132 805 586 277 1065 985 416 380 171 845 446 138 308 270 251 309 98 399 61 50 140 98 378 317
is_linear=0
shrinkage=0.03


Tree=3
num_leaves=31
num_cat=0
split_feature=78 78 76 52 78 60 32 47 17 96 100 10 53 70 17 33 53 33 32 96 27 57 60 65 58 67 47 52 8 53
split_gain=204.823 28.7086 21.5075 20.8507 16.1582 13.9872 13.4498 12.8239 12.8028 10.666 10.1266 12.5628 9.81917 12.5835 9.81374 9.76141 10.6419 9.51014 10.3151 9.44371 9.30526 8.76699 9.24618 8.52295 9.23582 8.57091 10.2817 9.91432 14.0987 10.222
threshold=1.0000000180025095e-35 227.50000000000003 16.500000000000004 65.697587301587319 -107.49999999999999 1.0478333333333336 0.54972527472527488 -0.12344987103752388 0.53302180685358269 12.894444444444447 -1.3999999999999992 -0.44999999999999996 1.0534166666666669 2.6319444444444451 0.47111411315956775 0.50854763296317951 1.1145333333333336 0.61374887488748886 0.54182569974554717 13.133333333333335 5.5000000000000009 1.1259500000000002 0.93008333333333348 -6.0680000000000112 75.313000000000002 0.070833333333339979 -0.15363051333830399 69.361000000000018 0.51382517838939867 0.96512500000000012
decision_type=8 10 10 8 10 10 10 8 10 10 8 10 8 10 10 10 10 10 10 10 2 10 8 8 10 8 10 8 10 10
left_child=3 2 8 -1 12 -3 9 14 -2 23 -7 -12 -5 17 -6 -8 -17 18 -14 21 -13 22 -9 -4 25 26 -25 -27 29 -29
right_child=1 5 6 4 7 10 15 19 -10 -11 11 20 13 -15 -16 16 -18 -19 -20 -21 -22 -23 -24 24 -26 27 -28 28 -30 -31
leaf_value=-0.04113684204588014 0.022973040568450176 0.02907786572840889 -0.03035980235861846 -0.027207828099998027 0.0066421262720734184 0.025113038461847838 0.029639501139515273 -0.023997494345955338 -0.021524580605891318 -0.026393794015623324 0.033960437434361918 -0.031572071040340405 -0.011769152619644964 -0.029313488857278105 -0.035108224173211557 0.018409898567183905 -0.011233259578769276 -0.0291448510203282 0.010425277969056245 -0.034340270196962647 0.0043678607470005104 -0.014544168478580444 0.0053383855148317677 0.019475001850989548 0.02233522920141022 -0.018389602749351742 -0.012582202353923473 -0.017474867560607055 -0.0014194598090972288 0.020796021233266584
leaf_weight=26.238123327493668 83.722987785935402 95.810269877314568 6.2222265899181366 86.114294826984406 6.216948255896571 37.830338433384895 25.469802483916283 9.7196127623319608 5.4801988601684561 11.687857344746588 10.621412247419356 6.4703442156314841 51.834609821438789 34.185523241758347 20.961103290319443 25.478100895881653 17.653651401400566 15.220501810312269 28.370113134384155 7.4820822626352301 48.092272892594337 35.13075090944767 98.472909212112427 9.684861093759535 18.85980412364006 14.190220057964323 58.716038063168526 6.227085053920745 80.478265151381493 61.432261750102043
leaf_count=105 339 389 25 345 25 153 103 39 22 47 43 26 208 137 84 103 71 61 114 30 194 141 396 39 76 57 236 25 324 248
internal_value=0.000554444 0.0114472 0.00701974 -0.0156232 -0.013823 0.0208354 0.00351729 -0.00707366 0.020031 0.00045888 0.0129635 0.00563946 -0.0193331 -0.0139329 -0.0256611 0.015265 0.00629746 -0.00817598 -0.00388681 -0.00357687 -0.000385619 -0.00174408 0.00250732 0.00178376 0.00270306 0.00100886 -0.00782802 0.00475763 0.00708336 0.0170705
internal_weight=1044.07 624.128 425.303 419.947 393.708 198.825 336.1 177.983 89.2032 267.499 103.014 65.184 215.725 129.611 27.1781 68.6016 43.1318 95.4252 80.2047 150.805 54.5626 143.323 108.193 255.811 249.589 230.729 68.4009 162.328 148.138 67.6593
internal_count=4205 2520 1715 1685 1580 805 1354 715 361 1077 416 263 865 520 109 277 174 383 322 606 220 576 435 1030 1005 929 275 654 597 273
is_linear=0
shrinkage=0.03


Tree=4
num_leaves=31
num_cat=0
split_feature=78 78 74 52 78 50 60 47 47 72 53 73 72 50 76 97 18 17 53 70 33 70 100 32 70 9 81 25 23 67
split_gain=193.081 27.1812 20.3657 19.6645 15.171 13.8017 13.2731 12.072 10.6917 9.85902 9.82388 9.50461 9.48642 9.27712 11.056 9.25437 10.1802 9.25286 9.21543 11.8366 9.05101 9.03004 8.66667 9.41273 8.4942 9.0097 8.42016 8.40525 8.22085 8.10145
threshold=1.0000000180025095e-35 227.50000000000003 56.500000000000007 65.697587301587319 -107.49999999999999 1.0325000000000002 1.0478333333333336 -0.12344987103752388 0.18649594248092313 0.045138888888888874 1.2061666666666671 20.500000000000004 0.15277777777777787 0.99855000000000016 156.50000000000003 11.387500000000001 3.8500000000000001 0.47111411315956775 1.0534166666666669 2.6319444444444451 0.62736185383244225 2.0225694444444451 2.7000000000000006 0.54182569974554717 2.9479166666666674 0.50840395480225997 225000.00000000003 0.53139076576576583 0.68333333333333346 -4.6247499999999979
decision_type=8 10 8 8 10 8 10 8 10 8 8 8 10 10 10 10 10 10 8 10 10 10 8 8 8 10 8 10 10 8
left_child=3 2 5 -1 18 21 -3 17 10 -8 15 -4 28 14 -9 -7 -17 -6 26 20 22 -2 23 -20 25 -12 29 -13 -11 -5
right_child=1 6 11 4 7 8 9 13 -10 12 24 27 -14 -15 -16 16 -18 -19 19 -21 -22 -23 -24 -25 -26 -27 -28 -29 -30 -31
leaf_value=-0.039938488072667068 0.00052601373703707707 0.028320924854410841 0.022778747965068756 0.016966525499819585 0.006473247988939986 0.0028411226730775028 0.023568873736051939 -0.030712839249940782 0.027072920460340707 -0.024690837116857229 0.0092240794482601647 -0.024667401996643537 0.014660945921844597 -2.1449930370415719e-05 0.011771363454147492 0.020102062602449646 -0.020826082488185859 -0.034066105593086309 -0.0090113114564067467 -0.028430480349483766 -0.032071913606530708 -0.021581199606970795 -0.026711324712364284 0.012827652108835829 0.01190780609609955 -0.030198515819706999 -0.03050315804055009 0.021714278286642179 0.0082720437112814953 -0.025493658433132806
leaf_weight=26.244486629962921 39.520980462431908 95.452037185430527 81.327843800187111 6.9910233616828918 6.2139010876417187 145.55200454592705 42.204507723450661 19.181331887841228 19.766628205776215 13.154641807079317 6.6991801559925106 7.1917582452297193 35.109439715743065 124.66421359777451 6.9698388427495948 58.664246469736099 5.2159867435693732 20.98445188999176 43.385772421956062 34.220337450504303 11.239814549684523 27.650430545210838 12.213503912091253 28.612572446465492 10.442658767104147 17.668346717953682 71.956023707985878 5.1950719058513641 12.391040623188017 7.2397101074457151
leaf_count=105 159 389 330 28 25 587 171 77 80 53 27 29 142 501 28 237 21 84 174 137 45 111 49 115 42 71 288 21 50 29
internal_value=0.000533859 0.0111235 0.00681577 -0.0151641 -0.0134164 0.00329648 0.0202726 -0.00687619 0.00638478 0.0126032 0.00460691 0.0190866 0.00471461 -0.00348256 -0.0193734 0.00706304 0.0164907 -0.0249031 -0.0187533 -0.013522 -0.00793785 -0.00875728 -0.00437808 -0.000275544 -0.00995475 -0.019424 -0.0263787 -0.00504585 -0.00899275 -0.00489014
internal_weight=1043.32 623.207 424.895 420.117 393.872 331.18 198.312 178.014 264.009 102.86 244.242 93.7147 60.6551 150.815 26.1512 209.432 63.8802 27.1984 215.859 129.672 95.4517 67.1714 84.2118 71.9983 34.8102 24.3675 86.1868 12.3868 25.5457 14.2307
internal_count=4205 2520 1715 1685 1580 1335 805 715 1065 416 985 380 245 606 105 845 258 109 865 520 383 270 338 289 140 98 345 50 103 57
is_linear=0
shrinkage=0.03


Tree=5
num_leaves=31
num_cat=0
split_feature=78 78 65 52 50 24 24 78 91 97 24 97 33 35 90 32 66 46 43 48 99 8 33 75 44 44 43 43 53 72
split_gain=159.66 30.0621 24.015 23.84 20.3123 11.3885 10.3517 9.59673 9.6496 9.49189 9.89572 13.5551 10.3255 9.82702 9.30947 8.96268 11.6834 9.76359 9.17683 9.1098 11.9936 8.98714 12.8983 13.4685 8.84325 10.8437 12.3074 9.19089 8.33423 14.5894
threshold=51.500000000000007 -93.499999999999986 4.7870714285714238 66.676277777777798 1.0388500000000003 0.33508771929824566 0.51796471600688487 199.50000000000003 0.51666666666666672 11.154761904761907 0.48496155585707829 11.775000000000002 0.55823643410852719 9.5000000000000018 0.53452380952380962 0.56543697848045682 0.17408333333333345 0.018276958057616036 1.0000000180025095e-35 2.2250000000000005 -0.20000000000000015 0.50934661076170518 0.51229590808304792 164.50000000000003 0.086881499115541674 -0.10483876602732069 -1.0000000180025095e-35 -0.36190476190476178 0.94204166666666678 0.75868055555555558
decision_type=8 10 8 8 8 10 8 10 10 10 8 10 8 2 8 8 10 10 8 10 10 10 10 10 10 8 10 8 10 8
left_child=1 3 15 -1 6 -4 28 8 -7 13 -11 -12 14 -5 -13 16 17 21 19 20 -19 22 -2 -24 25 26 -6 -27 29 -3
right_child=2 4 5 9 24 7 -8 -9 -10 10 11 12 -14 -15 -16 -17 -18 18 -20 -21 -22 -23 23 -25 -26 27 -28 -29 -30 -31
leaf_value=-0.04496280627625171 0.026310008982792104 0.022496170709169677 -0.0133814282775049 0.0076952502354770596 -0.04443648310886663 0.019553153910735224 -0.0008861142159545713 0.031300045723909424 -0.0062510379266480379 -0.031552440888531333 -0.03311405724325512 0.011354923581714657 -0.020919404891251686 -0.014719087995351576 -0.018577552785581694 0.014324592197700405 0.017008147613012274 0.017864119113365846 -0.013080467722476903 0.018736171911190168 -0.023441472170207998 -0.0023549562688742398 -0.035702334803204457 0.010669790828049631 -0.015944650151609899 0.033407675810296987 0.011644644370442402 0.0052035755572690861 -0.028740333871840499 -0.034968208545127992
leaf_weight=28.980985209345818 34.849360838532448 8.2306441366672498 8.1531954109668714 24.695142149925232 6.9639792144298553 95.241264879703522 28.399654909968376 60.073666200041771 14.605941921472548 50.450239941477776 25.954327255487442 28.40603743493557 30.445154473185539 56.150205433368683 12.720434904098509 96.743114158511162 47.785245880484581 9.4062595665454882 62.199590846896172 20.738844722509384 15.355592057108877 52.467020943760872 6.46524749696255 22.021187469363213 19.869595661759377 10.674412235617636 5.712125435471533 101.57974435389042 47.090761616826057 5.9906332045793524
leaf_count=116 141 33 33 99 28 386 114 245 59 202 104 114 122 225 51 392 194 38 252 84 62 212 26 89 80 43 23 409 189 24
internal_value=-0.00022431 -0.0126004 0.0109353 -0.019653 -0.00479673 0.0199548 -0.0159295 0.0216233 0.0160966 -0.0162657 -0.0207735 -0.0149338 -0.00797561 -0.007862 0.00187557 0.00652895 0.00370658 0.000799593 -0.00567504 0.00451181 -0.00766639 0.00681823 0.0143357 -0.000708648 0.0021626 0.00514623 -0.0201615 0.00815684 -0.0227715 -0.00241739
internal_weight=1038.42 492.314 546.106 257.803 234.512 178.074 89.7117 169.921 109.847 228.822 147.976 97.526 71.5716 80.8453 41.1265 368.031 271.288 223.503 107.7 45.5007 24.7619 115.803 63.3358 28.4864 144.8 124.93 12.6761 112.254 61.312 14.2213
internal_count=4189 1976 2213 1033 943 723 360 690 445 917 593 391 287 324 165 1490 1098 904 436 184 100 468 256 115 583 503 51 452 246 57
is_linear=0
shrinkage=0.03


Tree=6
num_leaves=31
num_cat=0
split_feature=78 78 65 52 50 54 24 78 97 24 97 33 35 32 66 25 46 64 84 54 42 1 25 97 31 81 33 100 52 100
split_gain=150.521 28.3214 22.7203 22.5589 19.1246 11.0262 9.74365 9.03874 8.94838 9.304 12.7613 9.72101 9.25673 8.45941 11.0357 10.7182 8.40646 11.8803 8.74903 8.19835 8.01416 9.11855 7.41724 7.38009 7.27775 8.82857 7.27348 7.85427 7.61253 7.69441
threshold=51.500000000000007 -93.499999999999986 4.7870714285714238 66.676277777777798 1.0388500000000003 81.588333333333352 0.51796471600688487 231.50000000000003 11.154761904761907 0.48496155585707829 11.775000000000002 0.55823643410852719 9.5000000000000018 0.56543697848045682 0.17408333333333345 0.65133897110641314 0.018276958057616036 0.022250000000000106 23.000000000000004 70.155000000000015 -0.38333333333333325 7440.5000000000009 0.50952467343976793 11.050000000000002 0.58571428571428574 39600.000000000007 0.53468784378437861 -0.97777777777777775 74.1905 -2.5499999999999998
decision_type=8 10 8 8 8 8 8 10 10 8 10 8 2 8 10 8 10 10 2 10 8 2 8 10 8 10 10 8 10 10
left_child=1 3 13 -1 6 7 20 -4 12 -10 -11 22 24 14 15 16 18 23 -2 -13 -3 -22 -12 -18 25 -5 28 -28 29 -19
right_child=2 4 5 8 -6 -7 -8 -9 9 10 11 19 -14 -15 -16 -17 17 26 -20 -21 21 -23 -24 -25 -26 -27 27 -29 -30 -31
leaf_value=-0.043715862124380826 0.010977408014209643 0.0041235578310840513 0.016628625077739996 0.02410353533304525 0.0020964001932390237 -0.0059525572181422818 -0.00086039772088835514 0.032211702315515102 -0.030611713851938487 -0.032131021299095792 -0.0138732288915215 0.0092056673279871121 -0.01427942026245862 0.01392170862480816 0.016542146091413152 -0.028586661726515167 -0.028768308134510156 -0.024488417500324176 -0.014748921515398498 -0.027971565949795323 0.0032979253347727635 -0.031517376561630624 0.011672751346687948 0.00070471083242401339 0.027559216116343592 -0.020307520877181899 0.030859614227017211 -0.0068900078782952873 -0.022370861020099133 0.0098991602827976262
leaf_weight=28.942448511719704 98.107036411762238 8.7326985746622068 113.55268129706383 5.2347754687070873 144.7629636824131 13.811768308281897 28.40091373026371 50.243232652544975 50.470950156450272 25.976158306002617 15.709875702857969 6.2439305335283306 56.173134118318558 96.587814643979073 47.687107399106026 9.6625498086214048 21.062678426504135 6.1682583093643144 12.642197489738463 24.217990174889565 7.7325572073459616 44.895717695355415 25.407601296901703 11.63016329705715 8.9735461920499784 10.479140162467955 13.065290316939352 7.1805027425289181 12.600591048598288 31.34425358474255
leaf_count=116 397 35 461 21 583 56 114 206 202 104 63 25 225 392 194 39 85 25 51 97 31 180 102 47 36 42 53 29 51 127
internal_value=-0.000221238 -0.0122332 0.010626 -0.0190781 -0.00465895 0.019413 -0.0154567 0.0215751 -0.0157861 -0.0201619 -0.0144999 -0.00774699 -0.00762722 0.00634099 0.0035994 0.000776024 0.00222995 -0.00391858 0.007935 -0.0203008 -0.0220904 -0.0264359 0.00181467 -0.0185738 0.00747565 -0.00495592 0.00305597 0.017777 -0.00312279 0.00375571
internal_weight=1037.7 492.354 545.346 257.83 234.525 177.608 89.7619 163.796 228.887 148.027 97.5556 71.5794 80.8606 367.738 271.151 223.464 213.801 103.052 110.749 30.4619 61.361 52.6283 41.1175 32.6928 24.6875 15.7139 70.3589 20.2458 50.1131 37.5125
internal_count=4189 1976 2213 1033 943 723 360 667 917 593 391 287 324 1490 1098 904 865 417 448 122 246 211 165 132 99 63 285 82 203 152
is_linear=0
shrinkage=0.03


Tree=7
num_leaves=31
num_cat=0
split_feature=78 65 52 53 78 77 61 47 64 45 96 77 32 78 67 49 98 70 100 81 99 60 26 45 43 73 26 26 17 10
split_gain=141.932 27.4289 21.9857 13.5488 13.2362 12.7092 11.7871 11.5217 11.0163 10.4603 10.1131 9.69543 9.56549 12.1977 9.28914 7.4403 7.43196 7.37094 8.58609 8.04635 7.7508 8.02215 7.35788 7.24491 7.15723 14.1714 7.57904 8.93911 12.9475 9.96137
threshold=-6.4999999999999991 5.7443333333333451 65.697587301587319 1.1311250000000002 220.50000000000003 -11.499999999999998 69.895000000000024 -0.055688646746443908 0.022250000000000106 0.069042973987664305 9.5357142857142865 10.500000000000002 0.56683848797250869 173.50000000000003 -3.7616666666666627 3.8166666666666673 12.585714285714287 3.8663194444444451 1.5732142857142855 295000.00000000006 0.20714285714285732 1.0535000000000003 -1.0000000180025095e-35 0.090796985852818993 0.32678571428571435 20.500000000000004 -2.5857142857142854 -0.3166666666666666 0.51980392156862754 0.68333333333333346
decision_type=8 8 8 10 10 10 10 8 8 8 8 10 10 10 10 10 10 10 10 10 8 10 8 8 10 8 8 10 10 10
left_child=2 4 -1 9 12 -6 -5 8 -8 16 15 23 13 24 22 -9 -4 18 20 -19 21 -12 -7 -11 26 -26 -2 28 -28 -29
right_child=1 -3 3 6 5 14 7 10 -10 11 17 -13 -14 -15 -16 -17 -18 19 -20 -21 -22 -23 -24 -25 25 -27 27 29 -30 -31
leaf_value=-0.040843061396656596 0.012900486084685685 0.01982020888416601 -0.017356132905084431 -0.02552571871104781 0.019265044609528294 0.0085930462684406187 -0.034647230685087009 0.0025207607664953866 0.014890509600584108 0.038081170547392955 -0.012019980057743327 -0.014573782227492386 0.013359756349233105 -0.0188493444782597 0.0079691718215574164 -0.03866860146186217 -0.042793972088905723 0.012829811739528638 -0.0020522423442172165 -0.031204786750234553 0.050881384639207099 0.030447284502017568 -0.033371902887160285 0.00068116677943127796 0.01944470882214544 -0.019557812860847332 -0.020787387272984972 0.010033648054513546 0.009691346486435902 -0.0080435718303232314
leaf_weight=25.391629710793495 29.012754768133163 147.72608575224876 206.35021077096462 15.953804552555082 93.05189636349678 5.431955024600029 11.735480591654776 10.461704686284063 5.2340942323207882 5.2287259846925735 5.4790598601102891 33.176229894161224 51.480505049228668 28.494473457336426 55.775682479143143 5.231321468949317 10.481549635529516 8.9736120700836164 9.9779065102338773 4.9894848316907874 9.4536940157413429 10.446217358112333 9.1484739631414396 18.677908003330234 40.020383611321449 9.6760914176702482 44.689170658588409 58.693127781152725 16.607661455869675 49.797988206148148
leaf_count=102 117 603 827 64 380 22 47 42 21 21 22 133 209 115 227 21 42 36 40 20 38 42 37 75 162 39 180 237 67 201
internal_value=-0.000218298 0.00852498 -0.014282 -0.0123637 0.00509936 0.0120491 -0.00275113 0.001935 -0.0193895 -0.015778 0.00771048 -0.00426074 0.00161594 -0.000606917 0.00236912 -0.0127038 -0.0187766 0.0143294 0.0214539 -0.00393909 0.030423 0.0159896 -0.0181897 0.0100616 0.00155206 0.0116148 -0.00100898 -0.0034474 -0.0125065 0.00173843
internal_weight=1036.85 639.606 397.243 371.851 491.88 163.408 97.9364 81.9826 16.9696 273.915 65.013 57.0829 328.472 276.992 70.3561 15.693 216.832 49.32 35.3569 13.9631 25.379 15.9253 14.5804 23.9066 248.497 49.6965 198.801 169.788 61.2968 108.491
internal_count=4189 2596 1593 1491 1993 666 393 329 68 1098 261 229 1327 1118 286 63 869 198 142 56 102 64 59 96 1003 201 802 685 247 438
is_linear=0
shrinkage=0.03


Tree=8
num_leaves=31
num_cat=1
split_feature=78 78 52 64 50 72 53 31 1 32 67 25 57 46 85 98 98 26 59 45 90 84 44 44 43 43 35 98 64 46
split_gain=134.284 25.634 20.7004 20.5286 17.5776 9.49972 15.2849 12.4714 9.18105 9.15982 13.6197 11.1239 9.08565 8.77205 8.74768 8.67876 14.1586 9.73239 8.96667 11.2504 9.60507 8.88155 8.35839 10.1925 11.5591 8.72773 8.35486 9.01315 8.25532 17.7761
threshold=51.500000000000007 -93.499999999999986 66.676277777777798 0.13829861111111111 1.0388500000000003 0.079861111111111396 0.94204166666666678 0.76388888888888895 7520.5000000000009 0.56683848797250869 -2.080000000000005 0.55110075526273505 1.0902388888888892 0.031866429017879595 0 9.1125000000000025 9.8785714285714317 2.2928571428571431 71.022500000000022 -0.17058264015815575 0.43095238095238103 11.000000000000002 0.086881499115541674 -0.10483876602732069 -1.0000000180025095e-35 -0.36190476190476178 8.5000000000000018 10.683333333333335 0.020450000000000083 0.024680443800580629
decision_type=8 10 8 8 8 10 10 8 2 8 10 8 10 10 9 10 10 10 10 10 10 2 10 8 10 8 2 10 10 10
left_child=1 2 -1 9 5 6 -3 -7 -8 10 11 12 13 -2 -13 -4 17 21 19 -18 -20 -17 23 24 -6 -25 27 -22 29 -12
right_child=3 4 15 -5 22 7 8 -9 -10 -11 28 14 -14 -15 -16 16 18 -19 20 -21 26 -23 -24 25 -26 -27 -28 -29 -30 -31
leaf_value=-0.041726436634771914 0.0047439131433208419 0.026270195974488073 -0.026613608041114865 0.020513403102121821 -0.042984773019605974 -0.031301019483148819 0.017683586746597053 0.0054252966734107382 -0.022044293377683852 0.014263907333213423 0.0091242079558495615 0.0020327778081473259 0.014710283058088866 -0.022885638465157152 -0.038988214658471895 0.022587966362208115 0.026299298166702813 0.027581237460994442 -0.0057557737974175821 -0.012086013472648456 0.021291129371904395 -0.013020883425821783 -0.015467067221842221 0.032597509384063597 0.01135260399096262 0.0050766289367469878 -0.032691708297431669 -0.023269281079110415 0.011747540212918944 -0.02362720806066216
leaf_weight=28.80595326423645 21.02334052324295 10.219128206372259 45.43756665289402 128.15073981881142 6.977908194065094 38.178428336977959 5.7278965115547207 10.22623987495899 25.438124403357506 108.06883832812309 48.833967447280884 6.9121855795383453 22.980131670832634 18.832571521401405 12.88713586330414 7.2352677434682837 7.4807894974946967 9.9642072170972806 26.21381913125515 35.688861519098282 5.4858181327581397 26.217196211218834 19.887749180197716 10.640671238303183 5.7059953063726407 101.52313247323036 54.932086691260338 10.228072211146353 155.78289297223091 20.286323741078377
leaf_count=116 85 41 182 525 28 153 23 41 102 440 198 28 93 76 52 29 30 40 105 143 22 105 80 43 23 409 220 41 634 82
internal_value=-0.000214159 -0.0115542 -0.0180689 0.0100533 -0.00434972 -0.0146991 -0.00398979 -0.0235892 -0.0144201 0.00678653 0.00412127 -0.00624139 5.24825e-05 -0.00855211 -0.0252581 -0.014923 -0.0118988 0.00301762 -0.0165123 -0.00498947 -0.0215444 -0.00488714 0.00212754 0.00503093 -0.0194972 0.00795244 -0.0272408 -0.00736984 0.00793956 -0.000687974
internal_weight=1035.97 492.215 257.69 543.758 234.525 89.7898 41.3851 48.4047 31.166 415.607 307.539 82.6354 62.836 39.8559 19.7993 228.884 183.446 43.4167 140.029 43.1697 96.8598 33.4525 144.735 124.848 12.6839 112.164 70.646 15.7139 224.903 69.1203
internal_count=4189 1976 1033 2213 943 360 166 194 125 1688 1248 334 254 161 80 917 735 174 561 173 388 134 583 503 51 452 283 63 914 280
cat_boundaries=0 1
cat_threshold=1
is_linear=0
shrinkage=0.03


Tree=9
num_leaves=31
num_cat=0
split_feature=78 78 65 10 10 72 53 54 1 35 94 97 60 54 50 10 97 59 67 78 9 66 72 61 58 26 65 57 73 61
split_gain=126.515 24.1632 19.5745 16.5798 16.4835 11.4454 13.0259 10.4578 9.41988 8.9691 14.859 10.3689 9.23083 9.16265 8.93043 10.736 9.97033 10.3768 8.99414 8.68193 8.09522 8.28091 7.98008 7.58131 7.50465 8.49896 7.48071 9.08064 7.44982 7.36137
threshold=51.500000000000007 -93.499999999999986 4.7870714285714238 -1.1833333333333331 -2.9499999999999997 0.079861111111111396 0.94204166666666678 81.588333333333352 7520.5000000000009 9.5000000000000018 -0.038095238095238092 10.145833333333334 1.0437083333333337 70.625000000000014 1.0200500000000001 1.0000000180025095e-35 9.9500000000000011 73.210000000000022 -5.765416666666666 231.50000000000003 0.45886599488644914 0.17408333333333345 -0.20486111111111097 71.822500000000019 71.627500000000012 0.5277777777777779 -2.3160000000000021 1.0218064327485383 16.500000000000004 72.823333333333352
decision_type=8 10 8 8 8 8 10 8 2 2 8 10 10 10 8 10 8 10 10 10 10 10 8 8 10 8 10 10 8 10
left_child=1 4 20 5 -1 6 -3 19 -8 11 -11 -6 -13 -12 29 18 -17 -18 -16 -4 28 23 -10 -22 -15 -26 -7 -28 -2 -5
right_child=2 3 7 14 9 26 8 -9 22 10 13 12 -14 24 15 16 17 -19 -20 -21 21 -23 -24 -25 25 -27 27 -29 -30 -31
leaf_value=-0.034622026065933835 0.022006064501345755 0.027725990198194168 0.015244298954507376 0.0036872303918919591 0.024414938894566196 -0.035202935329194891 0.018742926886030076 -0.0067252923660797879 -0.045608061295597711 -0.0070344284102369838 -0.040422344445730084 -0.02735296375181864 -0.00052890347132091258 0.00448188246699499 -0.0076569660810992413 -0.021644994699203831 0.012619271236914847 -0.009043171255652311 0.025558648509036924 0.030553358044623374 -0.0065608106050129653 0.01521455790390035 -0.0072108872768457521 0.00484619507890906 -0.038621973102288078 -0.013247847331400626 -0.02965248949046485 0.0063379828480192588 -0.0033166200314783665 -0.035802197036373953
leaf_weight=41.977671653032303 43.496535658836365 8.9658544361591321 112.79887703061104 7.2350240200757971 8.715503975749014 25.187826976180077 5.9716607481241253 13.767594307661055 6.9892316311597824 66.870196789503098 26.95061057806015 16.223578110337257 35.149996697902679 9.9849515259265882 9.1959623396396619 16.38919372856617 45.650336802005768 33.783602446317673 29.00261202454567 49.650115326046944 71.188590377569199 47.709428861737251 13.701541289687158 190.96527664363384 19.721368506550789 31.946451663970947 11.219822302460672 12.450955882668493 13.355078801512716 8.7361137419939023
leaf_count=169 177 36 461 29 35 101 24 56 28 268 108 65 141 40 37 66 184 136 117 206 289 195 55 775 79 128 45 50 54 35
internal_value=-0.000209981 -0.0112164 0.0097666 -0.00422155 -0.0175439 -0.014767 -0.00173096 0.0179611 -0.0122807 -0.0140736 -0.0178611 -0.00414202 -0.00936036 -0.0258625 0.00177688 0.00434379 -0.00105605 0.00340825 0.0175709 0.0200816 0.00579079 0.00385307 -0.0216859 0.00173543 -0.0189543 -0.0234825 -0.0240477 -0.0112318 0.016103 -0.0187501
internal_weight=1034.95 492.02 542.931 234.48 257.54 84.4869 35.6283 176.217 26.6624 215.563 155.474 60.0891 51.3736 88.6034 149.993 134.022 95.8231 79.4339 38.1986 162.449 366.715 309.863 20.6908 262.154 61.6528 51.6678 48.8586 23.6708 56.8516 15.9711
internal_count=4189 1976 2213 943 1033 339 143 723 107 864 623 241 206 355 604 540 386 320 154 667 1490 1259 83 1064 247 207 196 95 231 64
is_linear=0
shrinkage=0.03


Tree=10
num_leaves=31
num_cat=1
split_feature=78 77 64 78 25 96 78 0 70 61 35 64 33 10 27 76 45 59 48 64 72 72 33 68 73 58 34 81 78 61
split_gain=124.237 24.0719 19.0448 14.9084 13.9917 11.9637 11.5061 10.6257 11.5706 10.6657 11.8876 10.0033 9.88248 9.83333 9.67804 9.61974 10.2974 9.61527 8.79461 9.60825 11.9742 9.05482 8.65246 8.60314 8.53097 8.53069 8.48047 8.28781 8.25094 9.17269
threshold=51.500000000000007 11.500000000000002 0.13829861111111111 -257.99999999999994 0.50952467343976793 13.422222222222224 220.50000000000003 0 16.364583333333339 76.015000000000029 4.5000000000000009 0.029933333333333482 0.61374887488748886 3.5500000000000003 1.5000000000000002 116.50000000000001 0.055308319310682259 74.978500000000011 -1.571428571428571 0.038422222222222198 0.064236111111111119 0.1666666666666666 0.60812371134020626 3.5000000000000004 9.5000000000000018 71.553135101010113 3.4142857142857146 1125000.0000000002 173.50000000000003 66.206666666666692
decision_type=8 10 8 10 8 10 10 1 8 8 2 8 10 8 2 10 8 10 8 10 10 10 8 2 8 10 8 10 10 8
left_child=1 3 6 22 12 7 23 8 15 10 -9 -11 -3 27 -4 -5 25 18 -8 21 -21 -20 -1 28 -13 -17 -6 -12 29 -2
right_child=2 4 14 5 26 -7 17 9 -10 11 13 24 -14 -15 -16 16 -18 -19 19 20 -22 -23 -24 -25 -26 -27 -28 -29 -30 -31
leaf_value=-0.012653799851318733 0.0210515932791496 -0.03034067201905857 -0.0053249906684826077 -0.034071628764170962 -0.014462944233742898 -0.040030996269235335 0.036046945217450381 0.022957318741428541 0.027524509627885222 -0.016243250646061774 -0.00039832071075731408 -0.017647887736768338 0.0024608277165722534 -0.03431452499928548 0.022271026928734238 0.017145587530251024 0.015395395830175577 -0.0081831645742386633 -0.005625603755651706 0.029581748191857674 0.0068465619942140602 0.026520130931666899 -0.042290298303457506 0.021173951250956027 0.027702318242107362 -0.022730500622939978 0.011123817446334181 0.020124227799423872 -0.012994982124566576 0.00094376187309373391
leaf_weight=30.199085474014282 22.106733322143555 87.116312384605408 12.231612443923948 18.654694452881813 69.992546617984772 6.7257109582424155 15.80306129157543 28.544783890247345 4.97309286892414 43.566668301820755 88.573460012674332 4.9710284322500202 8.9636177569627744 5.4848303496837607 121.86777132749557 4.9733717590570441 11.18933719396591 16.750978410243988 35.578630104660988 42.492826759815216 41.547903314232826 9.0567183494567853 12.471700951457022 19.737810775637627 9.4372452795505524 29.629238218069077 13.179822847247122 21.124580025672913 31.637019842863083 176.42610780894756
leaf_count=121 90 350 50 75 281 27 65 115 20 175 356 20 36 22 503 20 45 68 145 175 170 37 50 80 38 119 53 85 128 715
internal_value=5.35657e-05 -0.0107395 0.00994818 -0.00578511 -0.0195172 -0.00321147 0.00671653 -0.00215434 -0.0113331 0.0015287 0.00597886 -0.00915894 -0.0272867 0.00160985 0.0197331 -0.016438 -0.00867973 0.0129401 0.0154285 0.0126379 0.0185546 0.00133512 -0.0220859 0.00266578 0.0119261 -0.0166786 -0.0103244 0.0036998 0.000993919 0.00327706
internal_weight=1045.01 499.771 545.237 320.519 179.252 277.848 411.138 271.122 69.4197 201.703 143.728 57.9749 96.0799 115.183 134.099 64.4466 45.7919 161.23 144.479 128.676 84.0407 44.6353 42.6708 249.908 14.4083 34.6026 83.1724 109.698 230.17 198.533
internal_count=4234 2008 2226 1288 720 1117 1673 1090 279 811 578 233 386 463 553 259 184 660 592 527 345 182 171 1013 58 139 334 441 933 805
cat_boundaries=0 1
cat_threshold=18
is_linear=0
shrinkage=0.03


Tree=11
num_leaves=31
num_cat=1
split_feature=78 78 52 64 51 54 57 78 71 25 72 45 31 9 43 3 76 57 53 60 53 68 78 61 58 43 9 53 16 42
split_gain=117.193 22.4446 20.697 18.0265 12.0679 11.2314 11.2064 10.8961 10.3892 10.1599 10.0904 18.3536 11.3956 10.0935 9.43176 9.35619 9.29728 8.73487 8.61263 8.30388 8.16228 8.14139 7.77233 8.68341 10.904 8.591 9.53945 7.72947 7.56738 13.2882
threshold=51.500000000000007 -93.499999999999986 66.676277777777798 0.13829861111111111 71.626468286099865 64.116666666666688 1.0269529411764708 220.50000000000003 20.911458333333336 0.46082693947144077 0.079861111111111396 0.05427224286528471 0.95000000000000007 0.47512376237623766 0.19246031746031747 0 325.50000000000006 1.1311714285714289 0.94204166666666678 1.0478333333333336 1.143979166666667 3.5000000000000004 173.50000000000003 66.206666666666692 73.168000000000021 -1.0000000180025095e-35 0.50187969924812037 1.0433666666666668 0.50193798449612415 -0.16666666666666663
decision_type=8 10 8 8 8 10 10 10 10 8 10 10 8 10 10 1 10 10 10 10 8 2 10 8 10 10 8 10 8 8
left_child=1 2 -1 7 10 -5 9 21 17 -4 11 18 13 -12 27 -8 19 -6 -3 -9 -17 22 23 -2 -25 26 -24 -15 -21 -30
right_child=3 4 6 5 8 -7 15 16 -10 -11 12 -13 -14 14 -16 20 -18 -19 -20 28 -22 -23 25 24 -26 -27 -28 -29 29 -31
leaf_value=-0.039848322259177317 0.020503256940721342 0.013716695646607262 -0.020712259539656851 -0.014652586333110527 0.007346030390490592 0.021361488213871998 -0.017546174900836386 0.024636372886416281 -0.028848900744791565 0.021870691359714488 -0.039484704871088974 0.032445729243938203 0.015756585291563069 -0.015194599216434965 -0.039378235935818379 0.018310432837593961 -0.0036140669761814065 -0.011568887851326965 -0.020728207635522158 0.019529207135293363 -0.017775727044104021 0.020617403653931981 0.032570048693213179 -0.0052978207828380747 0.0097713330363444796 -0.024438737893887973 -0.016982563704976351 0.025413895192571527 0.039615497526791658 -0.0057216643609006631
leaf_weight=29.513743415474892 22.044701486825943 7.9556179493665686 6.7415429800748852 7.6243775337934485 111.39761696755886 126.00390861928463 188.76704628765583 55.223994523286819 8.4476852267980558 13.712839663028715 23.427781090140343 9.9512289166450483 5.9833915382623664 8.7196458131074923 5.981664612889289 12.474378302693369 26.271555855870247 26.370159819722176 24.917333051562309 35.204694166779518 8.7279055416583997 19.69021275639534 5.6697560101747522 103.90538907051086 72.503078922629356 19.574877798557281 6.4303601831197748 6.4654673039913169 5.828594371676445 38.349552676081657
leaf_count=120 90 32 27 31 449 522 757 229 34 55 94 40 24 35 24 50 107 106 100 144 35 80 23 421 294 79 26 26 24 156
internal_value=5.26964e-05 -0.0104291 -0.0165188 0.00967384 -0.00378174 0.0192131 -0.0133714 0.00653093 0.00160634 0.00752458 -0.0121441 -0.00134761 -0.0210822 -0.0262621 -0.010506 -0.015433 0.012596 0.00366824 -0.0122333 0.0157631 0.00332403 0.00259051 0.00096556 0.00318343 0.000915701 -0.0126022 0.00695015 0.00259748 0.00936048 0.00100432
internal_weight=1043.88 499.555 259.937 544.325 239.618 133.628 230.424 410.697 146.215 20.4544 93.4021 42.8242 50.578 44.5946 21.1668 209.969 160.878 137.768 32.873 134.607 21.2023 249.818 230.128 198.453 176.408 31.675 12.1001 15.1851 79.3828 44.1781
internal_count=4234 2008 1044 2226 964 553 924 1673 589 82 375 172 203 179 85 842 660 555 132 553 85 1013 933 805 715 128 49 61 324 180
cat_boundaries=0 1
cat_threshold=2
is_linear=0
shrinkage=0.03


Tree=12
num_leaves=31
num_cat=1
split_feature=78 77 64 57 52 96 78 24 59 90 25 33 48 100 25 54 35 58 8 0 44 1 67 53 61 75 99 1 69 57
split_gain=110.561 21.7305 17.1025 14.9919 14.0795 11.8866 10.0525 9.34343 9.18311 9.05745 9.3806 10.6303 8.75312 9.18011 12.9002 10.9834 9.87541 8.99872 8.57741 8.39115 11.1998 10.2381 8.19129 9.74071 9.12365 10.3655 10.199 9.05046 8.64904 8.02655
threshold=51.500000000000007 11.500000000000002 0.14580000000000018 1.1397000000000002 66.676277777777798 13.422222222222224 220.50000000000003 0.39335052495855599 74.978500000000011 0.33974358974358981 0.51010204081632671 0.62375456249383465 -1.571428571428571 -1.0166666666666664 0.58007633587786267 71.718333333333348 3.5000000000000004 72.102000000000018 0.52262489762489772 0 0.085842987360294568 8353.5000000000018 -5.114999999999994 0.94204166666666678 67.67847222222224 85.500000000000014 -1.05 8033.5000000000009 0.90000000000000013 1.1041500000000004
decision_type=8 10 10 10 8 10 10 8 10 8 8 10 10 10 8 10 2 10 8 1 8 2 8 10 8 10 8 2 8 10
left_child=1 3 6 5 -3 19 7 -2 12 -6 11 -11 -8 15 17 16 -14 -15 -16 20 -1 22 23 -21 -24 -26 -27 28 -28 -19
right_child=2 4 -4 -5 9 -7 8 -9 -10 10 -12 -13 13 14 18 -17 -18 29 -20 21 -22 -23 24 -25 25 26 27 -29 -30 -31
leaf_value=0.009131797278600768 0.030880225966481767 -0.03582452766703547 0.021281259375654418 -0.016799184735479634 0.0078248443283238447 -0.038383525565042674 0.031358371587004413 0.002372177747309032 -0.0080465796142894057 -0.028029245103720842 -0.0082205610031182031 0.012822676268338509 0.028819356685566455 0.024160048589934622 -0.036377579942860734 0.026224396528040518 -0.017336290520253896 -0.013804749617362191 0.0084275486019918956 0.0069995353824083579 -0.017972071023992574 -0.037607128572529479 -0.020036241416716543 -0.033526061789142962 0.022934251958262559 -0.025183899264898238 -0.017618811114746731 0.026323862309799495 0.01258297027895167 0.018694806753315578
leaf_weight=100.12226630747318 9.7729271650314313 33.575690299272537 90.179354026913643 77.738318338990211 14.470384672284125 6.7087675780057898 23.989319488406181 270.49232330918312 16.75606743991375 62.01760396361351 63.094899266958237 5.7358302623033515 5.3255138099193582 23.206902995705605 9.3105518668889964 50.761375442147255 11.266117185354233 16.399310395121578 5.6253749430179605 7.7019037455320385 14.929717272520064 7.7140510380268088 15.429647788405417 14.439824551343916 19.378534123301506 12.186958879232405 17.155083820223808 11.676199048757551 15.149796187877653 10.271858125925062
leaf_count=403 40 137 375 312 58 27 100 1099 68 249 253 23 22 96 38 210 46 67 23 31 60 31 62 58 78 49 69 47 61 42
internal_value=5.15203e-05 -0.01013 0.00940753 -0.00542376 -0.0184801 -0.00172453 0.00700308 0.00347252 0.0126727 -0.0142552 -0.0167379 -0.0244346 0.014933 0.0117386 0.00358791 0.0194148 -0.00172535 0.0109157 -0.0200326 -0.000524277 0.00505457 -0.00577501 -0.00379976 -0.0197361 0.000251227 0.00460237 -0.00201286 0.00482487 -0.00350275 -0.00106493
internal_weight=1042.58 499.225 543.357 320.331 178.894 242.593 453.178 280.265 172.912 145.319 130.848 67.7534 156.156 132.167 64.814 67.353 16.5916 49.8781 14.9359 235.884 115.052 120.832 113.118 22.1417 90.9762 75.5466 56.168 43.9811 32.3049 26.6712
internal_count=4234 2008 2226 1288 720 976 1851 1139 712 583 525 272 644 544 266 278 68 205 61 949 463 486 455 89 366 304 226 177 130 109
cat_boundaries=0 1
cat_threshold=269
is_linear=0
shrinkage=0.03


Tree=13
num_leaves=31
num_cat=1
split_feature=77 64 46 10 100 84 43 69 49 64 25 75 98 50 70 85 17 100 16 25 73 74 64 50 71 34 17 94 8 59
split_gain=103.525 20.63 28.3344 16.2466 15.0628 14.0492 13.779 12.6436 12.1661 11.7307 10.6065 9.84712 11.8411 9.71812 9.5405 9.44261 8.88558 8.83938 11.2143 8.46298 8.2079 10.2176 9.78983 8.19193 8.18773 8.18567 8.16643 7.75506 7.74202 10.9201
threshold=1.0000000180025095e-35 0.021950000000000029 0.015701535331113573 -2.9499999999999997 0.20000000000000021 23.000000000000004 -0.03095238095238095 0.55000000000000016 -0.29999999999999982 0.030712499999999924 0.63349834983498365 204.50000000000003 12.950000000000001 1.1764500000000002 1.7534722222222225 0 0.49609351156686815 -0.20000000000000015 0.51530771633864425 0.41699475065616803 17.500000000000004 16.500000000000004 -0.095233333333333212 1.010575 0.88368055555555569 3.6125000000000003 0.51293199554069135 0.026121794871794866 0.51382517838939867 70.506500000000017
decision_type=10 8 8 8 8 2 8 8 8 10 8 10 8 10 8 9 10 10 10 10 8 10 10 10 10 8 8 10 10 10
left_child=1 2 5 -2 6 10 25 19 9 23 20 12 15 14 17 -9 -8 -10 -19 -3 21 22 -1 -5 -20 -4 -18 -26 -16 -30
right_child=3 7 4 8 -6 -7 16 11 13 -11 -12 -13 -14 -15 28 -17 26 18 24 -21 -22 -23 -24 -25 27 -27 -28 -29 29 -31
leaf_value=-0.026372139150591386 -0.025380223226520476 -0.034941662559241089 0.026568482438898429 -0.0029548545643631381 -0.033465731990830215 -0.015957313948195308 -0.025863615373604355 -0.014127868991799684 0.017239135199776105 0.003553909229349483 -0.023882468837351716 0.018482725728695144 0.016773526813820164 -0.026622378153167398 -0.0016271519575969413 0.0074442930029739816 0.030611719257756818 -0.021429696695947069 0.027877873151028586 0.0027006205632025661 -0.0014940269921018055 0.027676593679889141 0.012976568124479436 -0.021348497960589775 -0.01765598642000292 -0.01576912827429516 -0.016596522111380418 0.019146947767208156 0.012419538570171145 -0.03000719183023335
leaf_weight=5.6507256776094428 63.83177150785923 4.9409518092870703 13.806691914796827 27.083081230521202 23.776276886463165 17.81381618976593 24.245390176773071 26.587494120001793 34.347459882497787 26.629195585846901 6.1602960526943198 192.17198807001114 73.901796773076057 13.968903303146361 54.258241042494774 53.024231404066086 5.1676938831806156 16.933556944131851 10.951923489570619 55.53254933655262 24.294100165367126 47.256164655089378 40.277863457798958 118.51698319613934 12.224017500877382 4.9269850850105312 6.1502602696418771 7.4655932933092108 6.4618234187364605 22.92115506529808
leaf_count=23 259 20 56 109 96 72 98 108 138 107 25 795 305 56 218 216 21 68 44 227 98 193 164 476 49 20 25 30 26 92
internal_value=4.84927e-05 0.00775348 0.000339065 -0.0115423 -0.0140633 0.0083312 -0.00511555 0.0117502 -0.0089664 -0.0146413 0.0119306 0.0139583 0.00821149 -0.00347142 -0.00137003 0.000154068 -0.0159395 0.00587115 -0.00252206 -0.000893292 0.0139943 0.0180052 0.00767658 -0.0179706 0.00827398 0.0151988 0.00569366 -0.00345066 -0.00844799 -0.0205751
internal_weight=1041.28 625.685 219.526 415.594 78.0733 141.453 54.297 406.159 351.762 172.229 123.639 345.686 153.514 179.533 165.564 79.6117 35.5633 81.9226 47.5751 60.4735 117.479 93.1848 45.9286 145.6 30.6415 18.7337 11.318 19.6896 83.6412 29.383
internal_count=4234 2562 891 1672 316 575 220 1671 1413 692 503 1424 629 721 665 324 144 329 191 247 478 380 187 585 123 76 46 79 336 118
cat_boundaries=0 1
cat_threshold=2
is_linear=0
shrinkage=0.03


Tree=14
num_leaves=31
num_cat=1
split_feature=78 77 64 52 78 96 0 70 78 76 45 24 60 1 33 33 94 42 65 60 51 44 97 31 70 33 59 94 68 70
split_gain=98.4446 19.9589 15.91 13.2523 13.0593 10.4042 9.76471 10.7098 9.15253 8.96302 9.29979 8.8235 8.70147 8.55755 8.32827 8.21376 8.02283 7.90646 7.77174 7.5566 9.94009 8.10054 9.19886 9.16641 7.41443 10.7337 10.9116 9.65705 8.9313 13.7752
threshold=51.500000000000007 11.500000000000002 0.14580000000000018 66.676277777777798 -257.99999999999994 13.422222222222224 0 16.364583333333339 220.50000000000003 116.50000000000001 0.055308319310682259 0.39335052495855599 1.0478333333333336 7323.0000000000009 0.63501602564102566 0.60812371134020626 -0.033333333333333347 -0.10000000000000001 2.2649999999999939 1.1701666666666668 73.352000000000018 0.085842987360294568 12.225000000000001 0.64583333333333337 0.99131944444444453 0.52283152627189333 72.50544444444445 -0.033333333333333347 2.5000000000000004 4.0434027777777795
decision_type=8 10 10 8 10 10 1 8 10 10 8 8 10 2 8 8 10 10 10 8 8 8 10 8 8 10 10 8 2 8
left_child=1 4 8 -3 15 6 7 9 11 16 18 -2 -10 -5 -15 17 -6 -1 -11 21 -21 22 23 -8 25 27 -27 -13 29 -26
right_child=2 3 -4 13 5 -7 19 -9 12 10 -12 24 -14 14 -16 -17 -18 -19 -20 20 -22 -23 -24 -25 28 26 -28 -29 -30 -31
leaf_value=0.0044990912780553099 0.02992507968701507 -0.034482033359524586 0.020388238029093262 0.0065569459496325712 -0.0095661693138645171 -0.037077934366748166 0.0068488018882059297 0.026969072622547285 0.020011812886511757 -0.021548023700739521 0.015039789967901732 -0.0041703535213542158 0.0062612422815237411 -0.018023774249390723 0.01282653392929502 -0.040048647112467764 -0.049517310897753936 -0.025513709601852144 0.015301892932659442 -0.022658715521882453 0.0045876295284131069 -0.013929932257547614 -0.010445760973129549 0.028902730363487318 -0.011932917918087234 -0.021777192137976815 0.015449075622637275 0.023101611708184783 0.014066480322477001 0.0060006923390576736
leaf_weight=14.706472769379614 9.7072331756353361 33.29238086938858 89.539807572960854 16.441240683197975 8.6963433325290698 6.6844380199909201 97.127555325627327 4.9621985256671897 70.785283476114273 29.11956824362278 11.159975260496138 15.292029365897177 101.25155992805958 120.97025939822197 7.7282045036554328 12.399398744106291 9.9721502065658552 15.449533700942995 5.4644009172916403 22.149024963378906 24.558004707098007 16.930839374661446 20.880089789628983 19.855233311653137 87.427359625697136 15.812582999467852 11.331192597746847 45.04994598031044 27.757053822278976 67.505402147769928
leaf_count=59 40 137 375 66 35 27 391 20 297 117 45 62 415 486 31 50 40 62 22 89 99 68 84 80 355 64 46 184 113 275
internal_value=4.36387e-05 -0.00956538 0.00889244 -0.0175806 -0.00505688 -0.00265002 -0.00166718 -0.010482 0.00657477 -0.0153378 -0.00785591 0.00320799 0.0120019 -0.0134943 -0.0160866 -0.0203339 -0.0323394 -0.0112025 -0.0154592 0.00183163 -0.00853703 0.00511253 0.00753459 0.0108052 0.00214124 0.00926996 -0.00624029 0.016235 -0.00130441 -0.00413073
internal_weight=1040.01 498.547 541.459 178.432 320.115 277.56 270.875 69.3746 451.92 64.4124 45.7439 279.883 172.037 145.14 128.698 42.5554 18.6685 30.156 34.584 201.501 46.707 154.794 137.863 116.983 270.176 87.4858 27.1438 60.342 182.69 154.933
internal_count=4234 2008 2226 720 1288 1117 1090 279 1851 259 184 1139 712 583 517 171 75 121 139 811 188 623 555 471 1099 356 110 246 743 630
cat_boundaries=0 1
cat_threshold=18
is_linear=0
shrinkage=0.03


Tree=15
num_leaves=31
num_cat=0
split_feature=78 64 52 32 67 95 57 73 61 96 69 49 17 76 78 77 95 16 25 33 98 69 81 32 47 69 35 91 31 71
split_gain=101.145 21.1034 18.8797 11.3591 10.4009 10.0113 9.75576 11.6465 10.2131 9.02355 9.56594 8.48859 8.10542 7.93723 14.0747 9.98295 8.14766 8.23293 8.13822 8.14595 8.0716 8.77799 8.03225 8.97047 8.32618 7.61544 7.47403 8.08678 7.15435 9.49892
threshold=1.0000000180025095e-35 0.13829861111111111 66.676277777777798 0.2834821428571429 -6.6183333333333314 11.105555555555556 1.1424500000000004 44.500000000000007 68.195000000000022 12.275000000000002 0.55000000000000016 -1.0166666666666664 0.47391107078039935 331.50000000000006 220.50000000000003 -17.499999999999996 10.683333333333335 0.58554006968641126 0.63349834983498365 0.44405320813771526 10.775000000000002 0.55000000000000016 295000.00000000006 0.51010204081632671 0.1243264297627837 inf 2.5000000000000004 0.48333333333333339 0.43650793650793657 0.91493055555555569
decision_type=8 8 8 8 10 8 10 10 10 10 10 10 10 10 10 10 10 10 8 10 10 8 10 10 10 8 2 10 10 10
left_child=2 3 -1 5 12 -2 7 8 -6 28 11 -11 -4 14 18 -16 -17 -18 22 -20 21 -15 -5 24 -24 -25 27 -14 -10 -30
right_child=1 -3 4 13 6 -7 -8 -9 9 10 -12 -13 26 20 15 16 17 -19 19 -21 -22 -23 23 25 -26 -27 -28 -29 29 -31
leaf_value=-0.030087962493423898 -0.048618026423667401 0.018241604245201395 0.00036599009908771759 0.0079201811206496379 -0.017674179402975138 0.0068434913499083663 -0.015720052903686273 -0.025337262315046953 0.015864596232805703 -0.0037631656245428816 0.018492615187703947 -0.040888936334256096 0.024337205834266386 -0.021603884648804552 0.024835338797031658 0.027759081471035472 0.0072889653960202883 -0.024487981256432565 0.008441887491827605 -0.030435818341598402 -0.021538906444972913 0.014447801797751876 -0.016395919139133248 -0.00089899979487882806 0.014656790769714953 0.028475313296768216 -0.027444674074203101 -0.022320856432753496 0.013206123814836948 -0.0054726316804353499
leaf_weight=42.220233231782913 5.6509889662265751 135.34690830111504 16.660755053162575 187.76059193909168 27.3940349817276 4.8447213172912607 73.899430781602859 18.417718052864075 37.300137802958488 11.167879074811939 5.7071296572685233 10.460619613528252 5.2227503508329374 7.6386123895645168 53.158062472939491 14.418767496943472 60.007324039936066 7.3567424267530432 7.3853320479393032 11.39481061697006 17.668315395712852 19.641447395086288 42.768775373697281 25.09017725288868 8.6315858364105207 10.583786606788633 55.465262845158577 6.2260323613882065 35.78306545317173 72.410954833030701
leaf_count=174 23 567 67 762 110 20 297 74 150 45 23 42 21 31 222 60 248 30 30 46 72 80 173 102 35 43 223 25 144 291
internal_value=0.000116923 0.00781 -0.0112641 0.00486128 -0.00907693 -0.0246492 -0.00637049 -0.00315321 -0.000996822 0.00173306 -0.0137766 -0.0227325 -0.0183631 0.00556598 0.00682468 0.0148085 0.00806993 0.00351121 0.00311761 -0.0154932 -0.00632229 0.0039461 0.00444089 -0.00306632 -0.0110011 0.00835462 -0.0229631 -0.000790991 0.00472119 0.00076937
internal_weight=1037.68 619.347 418.336 484 376.116 10.4957 292.541 218.642 200.224 172.83 27.3356 21.6285 83.5748 473.504 428.556 134.941 81.7828 67.3641 293.615 18.7801 44.9484 27.2801 274.835 87.0743 51.4004 35.674 66.914 11.4488 145.494 108.194
internal_count=4230 2544 1686 1977 1512 43 1176 879 805 695 110 87 336 1934 1751 560 338 278 1191 76 183 111 1115 353 208 145 269 46 585 435
is_linear=0
shrinkage=0.03


Tree=16
num_leaves=31
num_cat=0
split_feature=78 64 51 72 10 33 73 67 32 25 100 44 24 45 64 67 77 51 72 94 64 34 34 61 73 95 98 98 24 8
split_gain=95.4094 24.1953 16.2137 14.9721 14.2104 13.6956 9.23299 7.86799 7.88619 7.88083 8.66528 7.79919 8.25818 7.97271 10.7081 7.71976 9.48695 9.27564 9.36681 8.67988 8.76483 7.38863 7.35493 7.24414 7.20073 8.84091 9.81752 9.42468 12.1101 11.2411
threshold=-58.499999999999993 0.13829861111111111 71.500500000000017 0.10416666666666666 -2.9499999999999997 0.40958118187033854 13.500000000000002 -0.29499999999999454 0.2834821428571429 0.58366666666666678 -1.2999999999999996 0.1040273935829779 0.42796092796092799 0.033359213250517612 -0.083099999999999938 1.7933333333333297 -26.499999999999996 75.862000000000009 9.2968750000000018 0.097435897435897464 0.09561057422969195 -1.1833333333333331 -0.3166666666666666 74.223333333333343 55.500000000000007 13.050000000000002 8.6500000000000004 10.828571428571431 0.48290473407364121 0.46693989071038261
decision_type=8 8 10 10 8 10 10 10 8 8 8 8 10 10 10 10 10 10 10 10 8 8 10 10 10 8 10 10 8 10
left_child=4 2 3 -2 21 6 -5 11 -9 15 -11 12 23 14 -14 -10 -17 18 19 -18 -21 -1 -23 -4 25 26 -6 -28 -29 -30
right_child=1 -3 7 5 24 -7 -8 8 9 10 -12 -13 13 -15 -16 16 17 -19 -20 20 -22 22 -24 -25 -26 -27 27 28 29 -31
leaf_value=-0.047053376409424717 0.0026188463115522269 0.017461977081187432 0.0034038540269803147 0.035859992251979105 -0.028653508474296558 -0.024769523958806234 -0.013997021035221893 -0.019131172281332487 0.024300592862323181 0.017102896546563693 -0.0070364197096845788 -0.012716782766760132 -0.018661610191812339 -0.0074133127074837912 0.014050760419052852 0.026016640747141724 0.00038364031071928844 -0.009511673053483341 0.040243501606498429 0.029786012464748799 -0.012723472724644778 0.0089774007282383082 -0.025501613506793808 -0.027804453442477211 -0.026812327962537734 0.0094910207913057026 -0.0030405638863712902 -0.030189017822604622 0.014465210853098102 -0.015620249693382169
leaf_weight=12.678809851408003 85.356139406561852 138.54087832570076 14.177563115954401 5.5977655798196775 23.590509563684464 44.045752376317978 5.9667828977108002 7.3016368448734275 46.709007576107979 19.19788059592247 38.68896758556366 27.730326920747757 9.0768244415521604 25.590928167104721 94.928156316280365 26.251160874962807 52.62849460542202 25.357081368565559 7.8256700634956351 20.538874894380569 4.8670893162488964 6.0716879814863196 34.84759609401226 11.365265399217604 21.562564119696617 20.63904333114624 120.59971633553505 32.507678478956223 14.921535238623617 37.095220133662224
leaf_count=52 346 582 58 23 95 178 24 30 191 79 158 113 37 104 387 109 215 104 32 84 20 25 143 46 87 83 485 131 60 149
internal_value=0.000110311 0.00625607 0.00352195 -0.00528665 -0.0133467 -0.0172527 0.0110694 0.0064003 0.00985618 0.0108057 0.00112375 0.00165978 0.00429451 0.00737149 0.0110453 0.0138262 0.0101174 0.00616623 0.0108526 0.00743323 0.0214689 -0.0273695 -0.0202934 -0.0110066 -0.010482 -0.0089684 -0.0106682 -0.00847084 -0.0160926 -0.00687987
internal_weight=1036.26 711.742 573.201 140.966 324.514 55.6103 11.5645 432.235 249.366 242.064 57.8868 182.869 155.139 129.596 104.005 184.177 137.468 111.217 85.8601 78.0345 25.406 53.5981 40.9193 25.5428 270.916 249.354 228.715 205.124 84.5244 52.0168
internal_count=4230 2920 2338 571 1310 225 47 1767 1022 992 237 745 632 528 424 755 564 455 351 319 104 220 168 104 1090 1003 920 825 340 209
is_linear=0
shrinkage=0.03


Tree=17
num_leaves=31
num_cat=0
split_feature=78 99 52 32 78 54 51 24 76 98 32 60 32 98 72 64 53 99 61 33 64 53 91 32 76 50 48 78 32 75
split_gain=90.3364 19.1485 17.4548 11.9267 11.7663 9.4672 9.15804 10.6901 9.68134 8.74683 7.6182 10.2036 7.8474 7.61847 7.56366 7.36136 7.34795 9.27999 9.24039 8.38934 10.9193 7.45275 8.02209 7.68677 7.24118 7.04218 6.9356 6.92423 6.89992 6.85628
threshold=1.0000000180025095e-35 3.3500000000000001 66.676277777777798 0.2834821428571429 781.50000000000011 64.46250000000002 71.500500000000017 0.43913836334625034 368.50000000000006 8.4500000000000011 0.4896896258503402 0.81533333333333347 0.48161665314949992 8.9500000000000011 0.10416666666666666 0.0760855263157897 1.0631666666666668 -3.0888888888888886 70.547000000000011 0.52966314731020625 0.022250000000000106 1.1227000000000003 0.58012820512820518 0.4935886897912215 159.50000000000003 1.078916666666667 -0.39999999999999997 42.500000000000007 0.55705244122965658 452.50000000000006
decision_type=8 10 8 8 10 10 10 10 10 8 8 10 10 8 10 10 10 10 10 10 8 10 10 10 10 10 10 8 10 10
left_child=2 3 -1 15 5 -5 7 26 10 -4 11 -8 29 28 -10 -2 -11 -18 21 24 -21 23 -23 -19 -20 -26 -7 -9 -12 -13
right_child=1 -3 9 4 -6 6 8 27 14 16 13 12 -14 -15 -16 -17 17 18 19 20 -22 22 -24 -25 25 -27 -28 -29 -30 -31
leaf_value=-0.028846086657453137 -0.045715703758923351 0.024558994655579629 -0.023430466845139501 -0.01316004098631942 0.03073611185858614 0.031393541582723006 0.041799364400084631 -0.023418761332462332 -0.023984344718745224 -0.011504838009355737 -0.025656606068199691 0.0014165688754132432 -0.018228541720207731 0.014578303979846923 0.004146182965528258 0.0012833066427123609 0.027939676883745636 0.010969766786520011 0.023883300664609069 -0.016171096064899859 0.011540713434143582 -0.037927870175544769 0.0044435479109499933 -0.030051601241394166 0.01386699360962805 -0.0085177756527111768 -0.0030421903505798544 -0.0019535135885583471 0.012473942828368497 0.019016802073065189
leaf_weight=41.833968535065651 5.4459979832172376 52.502749383449554 31.729383662343025 22.309428557753563 16.347336396574974 11.873194172978403 5.2470664978027335 15.934619486331938 12.783879488706587 171.6049153059721 7.6054423898458463 98.22852785885334 13.65339821577072 219.13282386958599 22.255293637514114 5.5100294500589371 7.4658816754817954 12.181562438607218 16.135043203830719 43.51816925406456 17.133236229419708 16.432912766933445 4.9738709032535544 4.9790163934230796 21.3653644323349 28.129614427685738 8.6294847726821882 68.291990369558334 7.6058685779571533 24.049333691596985
leaf_count=174 22 221 128 91 69 49 22 64 52 691 31 402 56 905 91 23 30 49 65 175 69 66 20 20 86 113 35 279 31 101
internal_value=0.000104874 0.00738908 -0.0106595 0.00575271 0.00638224 0.005586 0.00642152 -0.00148597 0.00843734 -0.00856295 0.00984446 0.00429697 0.00255466 0.013154 -0.00649784 -0.0239485 -0.00712734 -0.00272665 -0.0042756 -0.000309353 -0.00828265 -0.0169263 -0.0283239 -0.00193168 0.00707282 0.00122826 0.0174323 -0.0062416 -0.00699742 0.00500432
internal_weight=1034.89 617.406 417.483 564.904 553.948 537.6 515.291 104.729 410.562 375.649 375.522 141.178 135.931 234.344 35.0392 10.956 343.92 172.315 164.849 126.281 60.6514 38.5674 21.4068 17.1606 65.63 49.495 20.5027 84.2266 15.2113 122.278
internal_count=4230 2544 1686 2323 2278 2209 2118 427 1691 1512 1548 581 559 967 143 45 1384 693 663 508 244 155 86 69 264 199 84 343 62 503
is_linear=0
shrinkage=0.03


Tree=18
num_leaves=31
num_cat=0
split_feature=78 51 52 72 33 57 78 72 25 19 73 60 53 32 32 1 98 18 98 74 53 32 57 24 51 18 17 96 74 59
split_gain=85.4458 21.6892 15.7468 14.2472 13.8861 13.2232 12.3158 9.85268 8.20225 8.18022 7.88128 7.55991 7.05185 8.17453 6.93015 8.9536 8.36436 7.53539 6.98511 9.96542 11.086 8.52472 8.08059 6.88005 11.061 9.26433 10.7502 11.1242 9.01793 7.68376
threshold=-58.499999999999993 71.500500000000017 65.697587301587319 0.11458333333333344 0.40958118187033854 1.0531380952380955 227.50000000000003 9.2968750000000018 0.25707547169811323 5.5000000000000009 13.500000000000002 1.1290833333333337 1.080416666666667 0.48019607843137263 0.47769485903814268 7288.5000000000009 8.5500000000000025 4.3500000000000005 10.725000000000001 11.500000000000002 1.1311250000000002 0.49509756800922816 1.0524500000000001 0.54749373433583981 71.83150000000002 3.683333333333334 0.52331014996739855 9.6500000000000004 28.500000000000004 74.853999999999999
decision_type=8 8 8 10 10 10 10 8 10 2 10 10 10 8 8 2 10 8 10 10 10 10 10 10 10 10 10 10 8 8
left_child=2 3 -1 -2 10 6 11 8 -7 -10 -5 -3 -6 -14 15 -4 17 -16 21 20 -20 -18 -21 24 -11 26 28 -28 29 -26
right_child=1 5 14 4 12 7 -8 -9 9 23 -12 -13 13 -15 16 -17 18 -19 19 22 -22 -23 -24 -25 25 -27 27 -29 -30 -31
leaf_value=-0.035809638115095389 0.0025761354290756073 0.011618415069487679 0.011058149275740288 0.035092348393339363 -0.033073592386253549 -0.029282335080715868 0.023465930522134401 0.02104420597376002 0.027515248273744419 0.029263187742616284 -0.011584784057674102 -0.0060078786524717246 -0.033445590149198456 0.0095351689420432803 -0.036018604745726782 -0.022442891444714286 0.018595697871860578 -0.0061528721017971863 -0.028093533056984001 0.014985238513567469 0.0050388051259326917 -0.0043134556916632648 -0.014041847708779802 0.0084102344998927513 0.0005254219793883136 -0.032887421927363117 -0.012902837936807155 0.018893318575324537 -0.025856406488594386 -0.033358439540385899
leaf_weight=23.613782718777657 106.04357625544071 162.42645579576492 7.4676953107118598 5.5662072449922544 26.956201374530792 6.1730441749095908 78.651122242212296 27.274488791823387 10.931835889816282 8.5608585625886899 5.7197961658239365 24.656392231583595 5.4246436804532978 9.6539376676082611 16.074075952172279 64.012908697128296 16.12167863547802 14.596570432186128 38.830827876925468 16.396731778979301 11.421368747949598 99.077092811465263 16.132335484027863 92.680604577064514 60.036440759897232 8.3877723515033704 13.249792113900183 32.441424906253815 19.159167930483818 5.6913848668336859
leaf_count=100 433 670 30 23 109 25 336 112 45 35 23 101 22 39 65 258 65 59 157 66 46 399 65 380 245 34 54 133 78 23
internal_value=0.000101059 0.00592654 -0.012648 -0.00380113 -0.0162981 0.0087453 0.013548 0.00422906 0.00237213 0.00326325 0.0124187 0.00927578 -0.0241177 -0.00704595 -0.0107128 -0.0188387 -0.00810149 -0.0224482 -0.00577728 -0.0123688 -0.0206118 -0.000974955 0.000600211 0.00205005 -0.00197533 -0.00409507 -0.00200969 0.00959403 -0.00829448 -0.00286454
internal_weight=1033.43 709.685 323.745 159.364 53.3208 550.321 265.734 284.587 257.312 251.139 11.286 187.083 42.0348 15.0786 300.131 71.4806 228.651 30.6706 197.98 82.7813 50.2522 115.199 32.5291 240.207 147.527 138.966 130.578 45.6912 84.887 65.7278
internal_count=4230 2920 1310 649 216 2271 1107 1164 1052 1027 46 771 170 61 1210 288 922 124 798 334 203 464 131 982 602 567 533 187 346 268
is_linear=0
shrinkage=0.03


Tree=19
num_leaves=31
num_cat=0
split_feature=78 64 52 50 60 18 66 10 94 25 24 9 99 76 44 49 75 44 76 64 91 66 45 90 26 53 90 32 100 57
split_gain=80.5903 21.4093 15.0957 13.7518 8.12947 8.57952 7.94611 8.42213 8.15933 8.26976 7.79031 7.66377 7.63602 8.16877 8.34216 7.87305 7.22615 8.22383 8.60412 8.53625 7.21774 7.0909 8.26062 7.00687 6.61553 9.52355 9.26284 6.52559 8.33745 6.73103
threshold=-58.499999999999993 0.13829861111111111 65.697587301587319 1.0355684210526319 1.1200833333333335 2.0500000000000003 -0.065000000000000044 -1.211111111111111 -0.18333333333333335 0.50685446009389679 0.46821976838136287 0.44402673350041771 -2.2999999999999994 372.50000000000006 -0.10483876602732069 0.3928571428571429 317.50000000000006 0.024925757153631049 17.500000000000004 0.10175000000000002 0.56458333333333344 0.13841666666666677 -0.065834580166377346 0.39087301587301593 2.1055555555555561 1.1335000000000004 0.44097222222222227 0.47769485903814268 2.0785714285714287 1.0245944444444446
decision_type=8 8 8 10 10 8 10 10 8 8 10 8 8 10 8 10 10 8 10 10 8 8 10 10 10 8 8 8 10 10
left_child=2 3 -1 4 6 10 7 -2 -8 -10 -6 -11 -5 14 15 -14 17 19 -19 -16 23 22 -22 -20 25 -3 -27 28 -4 -29
right_child=1 24 27 12 5 -7 8 -9 9 11 -12 -13 13 -15 16 -17 -18 18 20 -21 21 -23 -24 -25 -26 26 -28 29 -30 -31
leaf_value=-0.035071579791037075 0.023124767173480276 0.016801318763533468 -0.013628930651846395 0.022691967581195387 -0.044328955480492586 0.012552865434887246 -0.037996980210438368 -0.010757141016809243 -0.014053734457819702 -0.014084436305826318 -0.010748978223516586 0.017139506581705374 -0.024077891365496255 -0.0081497235545626035 0.012938922208965711 0.015060843275792421 0.012834739262511092 0.017679828736395245 -0.025779519540088284 -0.021356713624685636 0.0017113272681182595 0.0050021951672821084 -0.043680842832536426 0.0024476746297684283 0.024881034848919115 -0.0379323891731915 0.0052749294591453288 0.012115641866392074 -0.042203458449672215 -0.0091680436215209448
leaf_weight=23.41150826215744 18.95307341217995 64.335819065570831 61.065314561128616 21.607365921139717 10.611410498619081 5.9406981617212322 5.7316097617149353 9.1466840505599958 30.370985925197601 9.3771680593490618 15.294053941965101 21.808834061026573 14.070428550243379 39.15995791554451 91.51331652700901 5.8748477995395652 128.4574743360281 18.5866359770298 7.6878989934921256 6.1373565196990958 5.1688324958086023 7.5869628489017513 10.415135934948918 87.924479410052299 51.104541659355164 5.0017136484384563 16.722428739070892 13.410225287079809 10.348757669329641 215.06138613820076
leaf_count=100 77 273 246 89 43 24 23 37 123 38 62 89 57 159 373 24 535 77 31 25 21 31 42 358 218 21 70 54 42 868
internal_value=9.46292e-05 0.00575685 -0.0122951 0.00318825 -0.00547719 -0.0183504 -0.00103357 0.0121053 -0.00661728 -0.0031348 -0.0256404 0.00760503 0.00567712 0.0047556 0.00609143 -0.012381 0.00713626 0.0039804 -0.000759815 0.0105888 -0.00376867 -0.0184152 -0.02943 -6.53298e-05 0.0163571 0.0110677 -0.0059045 -0.0104063 -0.0182953 -0.00787144
internal_weight=1031.89 708.59 323.297 571.425 127.235 31.8462 95.3884 28.0998 67.2886 61.557 25.9055 31.186 444.191 422.583 383.423 19.9453 363.478 235.021 137.37 97.6507 118.783 23.1709 15.584 95.6124 137.165 86.06 21.7241 299.886 71.4141 228.472
internal_count=4230 2920 1310 2338 516 129 387 114 273 250 105 127 1822 1733 1574 81 1493 958 560 398 483 94 63 389 582 364 91 1210 288 922
is_linear=0
shrinkage=0.03


Tree=20
num_leaves=31
num_cat=0
split_feature=78 50 57 78 52 64 72 57 98 32 67 91 78 32 16 60 58 24 31 77 72 96 50 53 1 94 95 10 50 24
split_gain=74.8885 17.162 10.4159 11.1488 10.2188 9.93161 9.44615 8.15759 10.3332 9.07061 9.33488 8.70379 8.66484 8.02652 7.47159 9.79888 8.9683 8.17835 9.11398 8.29895 7.41345 8.71333 6.99019 7.06751 6.96459 6.88902 8.00212 7.92805 9.467 9.26301
threshold=-58.499999999999993 1.0355684210526319 1.0504500000000003 222.50000000000003 66.676277777777798 0.081846323529411694 9.2968750000000018 1.1438000000000004 10.950000000000001 0.54772256728778479 -6.6183333333333314 0.51666666666666672 -132.49999999999997 0.47806848787995387 0.59585213840533002 1.1114166666666667 67.940857142857155 0.37075219549446359 0.38750000000000007 -12.499999999999998 0.34722222222222232 9.8500000000000032 1.0177500000000002 1.1021111111111113 7440.5000000000009 -0.093181818181818185 10.250000000000002 -1.0499999999999998 1.0899500000000002 0.55306633291614526
decision_type=8 10 10 10 8 10 10 10 10 8 10 10 10 10 10 10 8 10 8 10 10 8 10 8 2 10 10 10 10 10
left_child=4 5 3 -3 -1 14 25 8 9 10 -6 -12 24 -14 15 16 -2 -18 19 -19 -13 -22 23 -20 -10 27 -27 -4 -29 -30
right_child=1 2 6 -5 7 -7 -8 -9 12 -11 11 20 13 -15 -16 -17 17 18 22 -21 21 -23 -24 -25 -26 26 -28 28 29 -31
leaf_value=-0.027836279193684525 -0.028921525768111217 0.007917865118727203 -0.033737757434953775 0.021321292146325485 -0.027478618652962764 0.02383237690895439 0.021027689909105664 -0.017949826802225122 -0.0024383805007025588 0.013346975082364562 -0.013064038399567088 0.021830344063109301 -0.018955665185640673 0.0067901590755252506 0.024362551315767946 -0.021134289275257585 0.023570542123413512 0.0037536187145373215 -0.0092402916683179664 -0.028477613616350199 -0.031583393341260556 0.011633611252124672 0.022267450823984732 0.026426199995008032 -0.028380170869197002 0.023317893447680763 0.0028282191606235742 0.01580189848958739 -0.020973970229332908 0.0088240210588250764
leaf_weight=32.93071112036705 9.3569594472646695 189.5813887566328 7.378271058201789 79.597842514514923 13.633433163166044 9.8154630362987501 24.946968615055084 86.411695897579193 12.41953209042549 29.825282588601112 27.555193603038788 18.157326802611351 17.646364733576775 25.361946672201157 5.9498147070407859 34.315809801220894 11.051557078957556 11.481041535735132 25.825776129961017 17.337528571486473 5.9525841176509831 9.7058184891939163 13.902172431349753 5.1539332270622245 38.810168400406837 17.967629745602608 184.49181245267391 16.894607111811638 25.268168404698372 13.903888925909994
leaf_count=140 38 783 30 343 55 41 103 349 50 120 111 73 71 102 24 139 45 47 105 70 24 39 57 21 157 74 756 69 103 57
internal_value=-0.000130925 0.0053275 0.00770122 0.0119456 -0.0121821 -0.00388152 0.00374564 -0.0102855 -0.00688542 -0.000383222 -0.00594677 -0.000799635 -0.0140384 -0.00396408 -0.00606699 -0.00765411 -0.00256818 0.000644675 -0.00306263 -0.0159417 0.00928236 -0.00570516 0.00537424 -0.00266584 -0.0222582 0.00205154 0.00475228 -0.00650681 -0.00239486 -0.010441
internal_weight=1022.63 704.221 560.031 269.179 318.41 144.19 290.851 285.479 199.068 104.83 75.0044 61.3709 94.238 43.0083 134.375 128.425 94.109 84.752 73.7005 28.8186 33.8157 15.6584 44.8819 30.9797 51.2297 265.904 202.459 63.4449 56.0667 39.1721
internal_count=4196 2905 2318 1126 1291 587 1192 1151 802 422 302 247 380 173 546 522 383 345 300 117 136 63 183 126 207 1089 830 259 229 160
is_linear=0
shrinkage=0.03


Tree=21
num_leaves=31
num_cat=0
split_feature=78 78 59 33 52 74 68 45 15 32 78 46 81 73 1 100 9 1 31 31 78 90 84 43 54 52 43 24 99 61
split_gain=70.6971 14.9146 15.2173 11.0153 9.87299 9.79341 11.5945 11.362 8.85202 8.68042 11.9695 8.57567 8.33352 8.29975 10.6182 14.4538 7.91057 7.42511 11.2303 7.20478 12.036 10.1167 10.2545 13.8999 6.99375 6.7963 8.52833 7.9974 7.69607 6.79033
threshold=-58.499999999999993 227.50000000000003 71.152132352941194 0.61374887488748886 65.697587301587319 56.500000000000007 3.5000000000000004 -0.084594706368899916 0.5277777777777779 0.56683848797250869 173.50000000000003 -0.040355774493705469 760000.00000000012 16.500000000000004 7552.5000000000009 -0.21666666666666765 0.41702898550724643 7728.0000000000009 0.61250000000000016 0.64583333333333337 -93.499999999999986 0.62916666666666676 13.500000000000002 0.087301587301587338 74.481666666666669 73.427500000000009 -0.10000000000000001 0.46978824388462953 -0.18749999999999997 75.027777777777786
decision_type=8 10 10 10 8 10 2 10 8 8 10 8 10 8 2 8 8 2 8 8 10 10 2 10 10 8 10 8 8 10
left_child=4 5 3 -3 -1 6 9 -8 -4 10 13 -10 -13 -2 15 -15 -11 -14 -19 21 -21 22 23 -6 -17 26 27 28 -18 -22
right_child=1 2 8 -5 19 -7 7 -9 11 16 -12 12 17 14 -16 24 25 18 -20 20 29 -23 -24 -25 -26 -27 -28 -29 -30 -31
leaf_value=-0.031359237939740631 0.0032219440505493716 0.023716897879711998 0.014835451693680149 -0.017731610198129168 -0.011302715149757135 0.013043780158550112 -0.019010454377641865 0.018587171384543754 0.017479679452734407 0.038167443522932089 -0.021952206095992903 -0.021714261957249594 0.025236596834020967 0.029757047938249744 -0.013225177158591749 0.0019078357864970735 -0.012503785319725437 -0.023948008764282186 0.026615870086614871 -0.0084556047073013323 0.03900661808922655 -0.033515230708319375 -0.015822399841287433 0.023989181354929435 -0.036331194840740558 0.015085265438153597 0.020468568029382392 -0.016081682138449606 0.023684039796900015 0.0014521930607791749
leaf_weight=20.992108821868896 141.64332942664623 86.013299942016602 40.549483478069305 5.474728822708129 26.967309027910233 67.511317297816277 7.6109094917774192 49.557481244206429 13.149805948138235 5.6460030376911154 28.072230115532875 22.845907628536224 7.9447970837354687 13.280024379491804 82.858980402350426 13.835884690284731 8.6397645771503431 11.58585272729397 4.8194731771945944 98.106337994337082 6.9538029730320003 20.54191555082798 119.97124946117401 14.676128163933752 5.1894999593496314 32.789850831031799 11.727375179529188 31.553450420498848 10.944094195961954 9.6969525963067991
leaf_count=91 577 371 170 23 109 285 31 202 55 23 114 94 33 54 336 56 35 48 20 397 28 83 485 59 21 135 48 129 45 39
internal_value=-0.000127975 0.00517882 0.0122764 0.0210717 -0.0118466 0.00248722 0.000853978 0.013341 0.00417255 -0.00102422 -0.00370539 -0.00311744 -0.00909983 -0.00163338 -0.00758138 0.00685666 0.00647834 0.00312505 -0.00841787 -0.0103664 -0.00442495 -0.0140649 -0.0114018 0.00140587 -0.00981592 0.00423236 -0.00157602 -0.00692716 0.00788729 0.0184573
internal_weight=1021.15 703.244 192.383 91.488 317.906 510.86 443.349 57.1684 100.895 386.18 284.88 60.3458 47.196 256.808 115.164 32.3054 101.301 24.3501 16.4053 296.914 114.757 182.157 161.615 41.6434 19.0254 95.6545 62.8647 51.1373 19.5839 16.6508
internal_count=4196 2905 814 394 1291 2091 1806 233 420 1573 1158 250 195 1044 467 131 415 101 68 1200 464 736 653 168 77 392 257 209 80 67
is_linear=0
shrinkage=0.03


Tree=22
num_leaves=31
num_cat=1
split_feature=78 64 0 58 9 73 77 78 16 52 57 94 95 78 65 65 74 71 58 70 58 100 31 64 76 23 44 66 99 9
split_gain=66.6825 15.1799 13.3926 10.7928 10.7273 11.0074 10.4349 12.6111 9.5662 9.48722 8.73173 11.7492 8.64365 10.7361 8.54789 7.86028 9.81292 7.77508 9.15735 7.72163 7.68497 7.45508 6.81222 15.7137 12.3699 8.14868 13.4569 7.79607 10.4064 8.97163
threshold=-58.499999999999993 0.022250000000000106 0 71.174000000000007 0.57092555331991968 16.500000000000004 -23.499999999999996 220.50000000000003 0.38119783996072659 65.697587301587319 1.1104500000000002 0.033333333333333361 10.683333333333335 95.500000000000014 -2.9944999999999946 0.046500000000008875 18.500000000000004 1.0225694444444446 75.876333333333349 12.800347222222223 73.48850000000003 0.10000000000000055 0.64583333333333337 0.031696428571428632 432.00000000000006 0.10555555555555557 -0.080545213605098767 -0.035000000000000024 2.3500000000000001 0.58297101449275368
decision_type=8 8 1 10 10 8 10 10 8 8 10 10 10 10 10 8 10 10 10 10 10 8 8 10 10 8 8 10 8 10
left_child=9 2 10 -4 5 12 7 19 -8 -1 11 -2 14 -14 -5 16 -10 18 -12 -3 21 -7 27 24 25 -24 -27 -11 29 -29
right_child=1 6 3 4 -6 20 8 -9 15 22 17 -13 13 -15 -16 -17 -18 -19 -20 -21 -22 -23 23 -25 -26 26 -28 28 -30 -31
leaf_value=-0.030722745133544158 -0.0073213072587006347 0.0055209606523231513 -0.025252786061580101 -0.0031264799604602349 -0.027613493966003856 0.02462039183696357 -0.016903259245130257 0.027239657399538032 0.011320781657484414 -0.020414423836035565 0.019706975638629911 0.019083566331407974 0.016361754472991926 -0.011228507064810083 0.031797286325522582 0.0078722967118220345 -0.033019280210107534 0.028859321104494448 -0.014479638390744521 0.028055127888758247 -0.021733310217513867 -0.01107561641304549 -0.025097389288443094 0.021437706775670782 -0.019225826046142099 0.035213487972679092 -0.003058206269905901 -0.0073551808316432458 0.028405454837048091 -0.039949407494142913
leaf_weight=20.80771966278553 49.979752063751221 93.712485298514366 21.964092597365379 9.2774758189916628 13.336803078651426 7.4014967679977417 15.956749424338339 48.991157159209251 7.5534335970878628 83.013685718178749 15.655014201998712 20.589999735355377 19.638566091656685 31.975574284791946 17.6567312926054 229.16085352003574 8.8346916735172254 23.938103169202805 11.301849737763403 15.208646997809408 26.947824403643608 13.137271761894228 7.3316751122474662 17.126156151294708 50.065396323800087 10.37462557852268 29.781907573342323 85.772324442863464 5.7217450141906729 7.4500921070575705
leaf_count=91 203 393 89 38 54 30 66 214 31 337 64 84 80 131 73 949 36 98 46 64 109 53 30 69 203 42 120 346 23 30
internal_value=-0.000122408 0.00503529 -0.00033771 -0.0058282 -0.00302412 -0.000225228 0.00865032 0.0147212 0.00494224 -0.0115117 0.00685893 0.00054179 0.00664398 -0.000619288 0.0200865 0.00642465 -0.0131068 0.0167606 0.00536876 0.00889401 -0.0114904 0.00233389 -0.0100654 -0.00428676 -0.00897456 0.00200666 0.00744482 -0.0136641 -0.00785307 -0.0103564
internal_weight=1019.66 702.219 282.801 161.336 139.372 126.035 419.418 157.912 261.506 317.445 121.465 70.5698 78.5483 51.6141 26.9342 245.549 16.3881 50.895 26.9569 108.921 47.4866 20.5388 296.638 114.68 97.5536 47.4882 40.1565 181.958 98.9442 93.2224
internal_count=4196 2905 1152 657 568 514 1753 671 1082 1291 495 287 322 211 111 1016 67 208 110 457 192 83 1200 464 395 192 162 736 399 376
cat_boundaries=0 1
cat_threshold=108
is_linear=0
shrinkage=0.03


Tree=23
num_leaves=31
num_cat=1
split_feature=78 51 35 57 78 70 73 10 67 67 52 24 48 61 61 81 85 75 64 26 60 54 18 66 57 98 54 25 60 73
split_gain=62.911 15.2659 11.8203 10.6943 11.4319 9.67633 10.0682 10.8363 9.85032 9.84541 9.16545 8.98172 8.81095 9.73103 9.33156 8.79673 8.40713 8.69817 8.0755 7.78406 10.7556 7.95636 7.75426 8.17668 7.48318 9.71666 8.19759 8.6983 8.17348 10.0213
threshold=-58.499999999999993 71.500500000000017 5.5000000000000009 1.0504500000000003 222.50000000000003 13.79340277777778 16.500000000000004 0.68333333333333346 5.0783333333333269 7.5749999999999895 66.676277777777798 0.43316151202749148 -1.1666666666666663 72.77833333333335 74.283333333333346 117500.00000000001 0 146.50000000000003 0.036116666666666693 -0.78888888888888886 1.0600833333333337 73.77500000000002 -0.74999999999999989 -0.0028333333333333539 1.1438000000000004 10.950000000000001 70.00500000000001 0.38924963924963935 1.0437083333333337 7.5000000000000009
decision_type=8 10 2 10 10 8 10 10 8 8 8 10 10 10 8 10 9 8 10 8 10 10 10 8 10 10 10 10 8 10
left_child=10 2 11 4 -3 6 7 8 -5 -7 -1 15 13 -9 19 -2 -4 -18 -8 -14 21 -21 23 -16 25 26 -12 -28 -29 -30
right_child=1 3 16 5 -6 9 18 12 -10 -11 24 -13 14 -15 22 -17 17 -19 -20 20 -22 -23 -24 -25 -26 -27 27 28 29 -31
leaf_value=-0.026167792620924439 0.029644109802322415 0.0076004270999601841 -0.025650963822444965 0.019196755530814017 0.021650483294120757 0.026325000995887769 -0.020321852524934507 0.01008440556927811 -0.010909178427039048 -0.015953160710889164 -0.011974160623764276 -0.0021402363631870904 0.023031831431341118 -0.034875844651294938 -0.034256973157968773 -0.0070553726165536405 -0.016640657849041143 0.0096731772171623175 0.0082073818761971978 -0.023200200739110943 -0.023970048967467544 0.0084014879276991857 0.015094121623790464 0.013903693999523622 -0.016760503534374797 -0.013100573614205704 0.036562491364984823 -0.01577807465454651 -0.020806461709094476 0.014316378032287559
leaf_weight=32.280303180217743 17.93164157867432 176.67801558971405 25.926282972097397 55.032888427376747 74.176387846469879 26.003542885184288 29.191000983119011 6.0385139435529736 11.165212318301199 5.363101094961169 33.122494474053383 64.729672744870186 6.8263511955738068 11.60134571790695 5.6595355868339539 8.04682609438896 22.774935305118561 20.647284507751465 12.031174197793005 8.3028077781200391 24.219555333256721 30.305580124258995 53.300587028264999 5.2658922970294935 86.069995775818825 93.942992433905602 6.4548816680908194 15.903871357440947 7.9233590811491004 41.2259751111269
leaf_count=140 74 733 105 227 325 108 118 25 46 22 134 266 28 47 23 33 92 84 49 34 99 126 219 22 349 380 26 64 32 166
internal_value=-0.00011905 0.00489386 -0.00322999 0.00729814 0.0118244 0.00335981 0.00142102 0.00400499 0.0140322 0.0188267 -0.011191 0.00388958 -0.000439106 -0.0197696 0.00223554 0.0184363 -0.0124653 -0.00419233 -0.0119981 -0.00533686 -0.00873172 0.00119132 0.0104039 -0.0118249 -0.00940688 -0.00615151 0.0001527 0.00585753 0.00230343 0.00835224
internal_weight=1018.14 701.218 160.057 541.161 250.854 290.307 258.94 217.718 66.1981 31.3666 316.924 90.7081 151.52 17.6399 133.88 25.9785 69.3485 43.4222 41.2222 69.6543 62.8279 38.6084 64.226 10.9254 284.644 198.574 104.631 71.5081 65.0532 49.1493
internal_count=4196 2905 654 2251 1058 1193 1063 896 273 130 1291 373 623 72 551 107 281 176 167 287 259 160 264 45 1151 802 422 288 262 198
cat_boundaries=0 1
cat_threshold=2
is_linear=0
shrinkage=0.03


Tree=24
num_leaves=31
num_cat=0
split_feature=78 50 35 100 76 52 52 75 25 58 48 58 78 75 100 54 69 52 45 75 94 66 99 8 18 69 90 96 71 25
split_gain=59.3256 14.3933 9.65472 9.91722 9.62502 10.0548 8.84924 8.46254 10.9785 9.77446 13.4735 9.61025 9.15109 8.66341 7.64401 7.59164 7.42061 7.56966 7.35466 7.26691 7.83929 7.46767 7.09846 8.94454 7.24131 7.02369 7.37063 9.27979 8.71092 7.413
threshold=-58.499999999999993 1.0167750000000002 5.5000000000000009 -0.84999999999999953 17.500000000000004 77.456000000000017 65.697587301587319 189.50000000000003 0.57286610032362473 71.468958333333347 0.70000000000000007 75.938333333333347 581.50000000000011 567.50000000000011 -0.79999999999999927 71.782500000000013 0.45000000000000007 71.376000000000019 0.002448390209632501 156.50000000000003 -0.097916666666666638 0.05541666666666651 2.5833333333333335 0.53622305529522041 -2.6833333333333331 0.77500000000000013 0.54006410256410264 11.788888888888891 1.7256944444444449 0.42615823235923028
decision_type=8 10 2 10 8 10 8 10 8 8 10 10 10 10 10 10 8 10 8 8 8 10 10 10 8 10 10 10 10 8
left_child=6 2 15 -4 -3 7 -1 19 9 -9 11 -11 13 16 -12 -2 -10 -18 -5 20 21 -6 24 -24 -22 26 28 -28 29 -8
right_child=1 4 3 18 5 -7 25 8 12 10 14 -13 -14 -15 -16 -17 17 -19 -20 -21 22 -23 23 -25 -26 -27 27 -29 -30 -31
leaf_value=-0.029587924631225282 0.0093299327239741662 0.016954319623715422 0.010527414065856827 -0.038611213201463768 -0.021249397262608067 0.025433221616880459 -0.017196070662861208 0.019705250505011582 -0.023670927344318596 0.019212616086956919 0.0018749458129438887 -0.0055809353407251794 0.017182654437190886 -0.020239578352913911 -0.022001856985433436 -0.014625997161126383 -0.0168052194440622 0.013465044596421045 -0.0086899499448119689 -0.0093695493611207926 0.028124601183627411 0.0077581470388044006 0.014869196084788667 -0.027065713719782326 0.0061098573164874775 0.0034955989973941151 -0.013453160585382547 -0.040431664867009019 -0.019050349481595636 -0.00079204596832322836
leaf_weight=20.453974232077599 37.864951565861702 68.549514934420586 8.378728047013281 16.047053754329681 19.276479288935665 20.012478172779083 30.632268115878105 74.72322028875351 7.8341065049171439 66.96245875954628 47.410092830657959 17.256960421800613 17.933472365140915 24.75307685136795 15.127179026603697 16.177872255444527 8.7268696874380094 31.419299215078354 14.364728897809984 58.188558414578438 15.243999511003492 12.492871806025503 6.7863533347845104 10.47715440392494 84.118187367916107 32.866225838661194 55.531071677803993 14.212812155485151 47.55299574136734 115.17501790821552
leaf_count=91 155 295 34 65 78 85 125 318 32 278 197 71 77 102 62 66 36 130 58 238 63 51 28 43 343 133 225 58 193 466
internal_value=-0.000117619 0.00475411 -0.00619853 -0.017416 0.00643582 0.00506852 -0.0108779 0.00423543 0.00734473 0.010931 0.00636035 0.0141264 -0.00143946 -0.00620178 -0.00415601 0.00202322 0.0013057 0.00663647 -0.0252048 -0.000475461 0.00305145 -0.00995391 0.00664868 -0.0106694 0.0097339 -0.00948962 -0.0111188 -0.0194448 -0.00803106 -0.00433198
internal_weight=1016.55 700.126 92.8333 38.7905 607.292 538.743 316.424 518.73 312.147 221.48 146.757 84.2194 90.6668 72.7334 62.5373 54.0428 47.9803 40.1462 30.4118 206.584 148.395 31.7694 116.626 17.2635 99.3622 295.97 263.104 69.7439 193.36 145.807
internal_count=4196 2905 378 157 2527 2232 1291 2147 1303 926 608 349 377 300 259 221 198 166 123 844 606 129 477 71 406 1200 1067 283 784 591
is_linear=0
shrinkage=0.03


Tree=25
num_leaves=31
num_cat=0
split_feature=78 65 74 54 32 66 72 35 44 77 69 45 78 72 81 32 64 97 51 78 68 33 49 69 54 60 32 33 15 61
split_gain=45.5259 14.3265 11.0887 11.1847 9.90216 11.5493 10.9564 10.1801 9.54183 9.18238 8.12317 8.09629 7.63086 8.01091 7.66628 9.6296 10.4966 7.81849 7.65359 7.61082 10.9786 10.4186 14.2194 9.77649 15.2573 9.42202 9.24173 8.4139 7.91835 15.1147
threshold=56.500000000000007 -1.7931666666666712 61.500000000000007 65.180625000000006 0.47769485903814268 0.023449999999999974 0.050347222222222217 2.5000000000000004 0.089983314897919567 9.5000000000000018 0.90000000000000013 -0.10412964980708599 -85.499999999999986 -8.9774305555555536 462500.00000000006 0.50182481751824837 -0.019886276223776141 12.950000000000001 71.808000000000007 227.50000000000003 2.5000000000000004 0.40316329082270569 4.0166666666666675 0.45000000000000007 73.808333333333351 1.0478333333333336 0.43523965141612203 0.4600884955752213 0.5634920634920636 74.283333333333346
decision_type=8 8 10 10 10 10 8 2 10 10 10 8 10 8 10 10 10 10 8 10 2 8 10 10 10 8 8 10 10 8
left_child=1 4 3 -2 6 7 9 -6 11 -1 -9 -3 14 -14 15 -13 -17 -16 -15 20 21 -5 23 -23 27 -21 -27 -25 -28 -30
right_child=2 8 -4 19 5 -7 -8 10 -10 -11 -12 12 13 18 17 16 -18 -19 -20 25 -22 22 -24 24 -26 26 28 -29 29 -31
leaf_value=0.0099601961534597078 -0.017212019913060636 -0.015311853523665007 0.016469401826046559 0.016233682461166066 0.021499268685995002 0.0090532605614260069 -0.032304287752258021 -0.016787667599538817 -0.016140703334983131 -0.02776287777058601 0.0069418801241769188 0.015546164246486294 -0.024505131997097539 -0.004315721452314035 -0.018758215040467006 -0.028440859597281022 0.007427082246992834 0.0098188219972160443 0.013314296285450051 0.019144534431404955 0.015751374439430813 0.0048736290342649207 -0.024911988617828167 0.0042169388983058984 0.006587173389973674 -0.030015008357768529 0.01479244172566734 -0.03502893376453986 -0.023791278667403774 0.010018952120798582
leaf_weight=13.402130395174028 19.777410089969635 26.54898276925087 78.922982424497604 26.798995211720467 6.8494891971349707 27.899481892585754 37.406160175800323 108.3242347240448 36.660554200410843 8.7895525842905027 14.179804831743239 28.463822945952415 5.9175065010786057 29.207017004489899 38.257716163992882 12.336458027362825 15.632671341300009 10.354099392890928 85.83389475941658 64.659928664565086 42.145210489630699 107.8397948294878 23.173167526721954 6.1178000569343594 23.251044780015945 5.5275419056415549 53.234447538852692 20.470843002200127 17.165918186306953 33.519838929176331
leaf_count=54 81 108 340 111 28 113 154 447 148 37 58 115 24 118 155 50 63 42 349 283 174 444 95 25 95 23 227 83 71 139
internal_value=-3.12362e-05 -0.00643831 0.00617349 0.00430911 -0.0122494 -0.00821172 -0.0225919 -0.0119764 -0.00205394 -0.0055338 -0.014007 4.64885e-05 0.00191016 0.00702086 -0.00398548 0.00352204 -0.00882899 -0.0125962 0.0088397 0.00535134 0.00198081 -0.00087618 -0.00348687 -0.000201001 -0.011061 0.0101482 0.00470809 -0.0261733 0.00682349 -0.00167044
internal_weight=1028.67 506.064 522.605 443.682 216.851 157.253 59.5978 129.354 289.213 22.1917 122.504 252.552 226.003 120.958 105.045 56.433 27.9691 48.6118 115.041 423.905 249.797 207.652 180.853 157.679 49.8397 174.108 109.448 26.5886 103.92 50.6858
internal_count=4254 2063 2191 1851 891 646 245 533 1172 91 505 1024 916 491 425 228 113 197 467 1770 1027 853 742 647 203 743 460 108 437 210
is_linear=0
shrinkage=0.03


Tree=26
num_leaves=31
num_cat=2
split_feature=78 65 74 54 1 44 32 85 23 70 1 59 45 0 25 56 33 50 99 9 8 58 8 46 33 57 78 71 81 32
split_gain=42.9361 13.514 10.5199 10.5433 10.3145 8.98562 8.91845 12.0876 9.62124 7.88697 7.70484 8.04586 7.63406 7.55166 7.95428 8.01371 8.24209 7.95954 10.217 7.93154 8.41461 7.61425 7.43479 7.42684 10.9275 8.18889 7.18731 8.55211 7.2229 9.11989
threshold=56.500000000000007 -1.7931666666666712 61.500000000000007 65.180625000000006 7762.0000000000009 0.089983314897919567 0.47387914230019496 0 0.47222222222222227 54.993055555555564 7551.5000000000009 71.34950000000002 -0.10412964980708599 1 0.38307814674885671 4.5000000000000009 0.41421356421356431 1.0282238095238097 -1.9857142857142855 0.65132967496834115 0.45972972972972981 77.848000000000013 0.45176799007444174 -0.017583011009632606 0.49159604519774019 0.99596111111111119 -85.499999999999986 20.911458333333336 462500.00000000006 0.49536997342021788
decision_type=8 8 10 10 2 10 10 9 8 8 2 8 8 1 8 2 8 10 8 10 8 10 10 10 10 10 10 10 10 10
left_child=1 4 3 -2 6 12 10 8 -8 -6 11 -1 -3 -5 -15 -16 -17 23 -19 20 -20 -22 -4 24 -18 -25 28 -28 29 -14
right_child=2 5 22 13 9 -7 7 -9 -10 -11 -12 -13 26 14 15 16 17 18 19 -21 21 -23 -24 25 -26 -27 27 -29 -30 -31
leaf_value=0.01606773301820735 -0.016691986704914508 -0.014877858846337725 -0.005998501445537323 0.015417818419039189 -0.021533586922233835 -0.01566945922985738 -0.0075428555936605923 -0.008517759037704355 0.028160155154766026 0.0076376765439201341 -0.040863186102129329 -0.020096197915670529 0.016816402044967982 0.029098281086534832 -0.019523335921519679 0.01527614772849443 0.02444779056031245 0.024114425390551024 0.02080029951597917 0.035990821048434818 0.00042785941105270207 -0.030902260709711346 0.01979616475320925 -0.0013800460840026048 -0.022026187158268463 -0.047354497722115606 0.0091075083347036175 -0.020065094957889076 -0.012236312362214475 -0.0070967294029863973
leaf_weight=7.1809946745634106 19.812369003891945 26.533134832978249 11.323632791638373 47.234304770827293 91.167543590068817 36.660259887576103 10.126840740442278 55.823796197772026 17.667593613266945 8.679055303335188 9.0799871832132322 16.717024981975555 24.53462740778923 9.602090969681738 13.046691715717314 46.134899020195007 8.0670183598995262 18.882621124386787 16.920319706201553 4.962372586131095 230.54291151463985 6.1987822055816642 67.260493770241737 6.0351235121488553 8.1496901363134366 7.4628826677799225 111.94814077019691 8.8952885121107084 48.562191545963287 31.884331345558167
leaf_count=30 81 108 48 199 375 148 42 230 72 36 38 68 99 40 54 196 33 79 71 21 964 25 292 25 33 30 455 36 197 129
internal_value=-3.3438e-05 -0.00625829 0.00599882 0.00418381 -0.011909 -0.00200006 -0.00577189 -0.000499387 0.0153417 -0.0189473 -0.0187326 -0.00902059 3.97187e-05 0.00519807 0.0033782 0.00271875 0.00359276 0.00179441 0.00338737 0.001787 0.000979169 -0.000519012 0.0160506 -0.0127082 0.00116955 -0.0283118 0.00185032 0.00681306 -0.00387266 0.00341402
internal_weight=1027.1 505.461 521.636 443.052 216.443 289.018 116.596 83.6182 27.7944 99.8466 32.978 23.898 252.358 423.24 376.005 366.403 353.357 307.222 277.507 258.624 253.662 236.742 78.5841 29.7147 16.2167 13.498 225.825 120.843 104.981 56.419
internal_count=4254 2063 2191 1851 891 1172 480 344 114 411 136 98 1024 1770 1571 1531 1477 1281 1160 1081 1060 989 340 121 66 55 916 491 425 228
cat_boundaries=0 1 2
cat_threshold=1 4
is_linear=0
shrinkage=0.03


Tree=27
num_leaves=31
num_cat=1
split_feature=78 64 53 47 78 76 95 24 97 64 0 33 94 76 72 71 90 48 72 32 72 72 26 71 16 1 52 60 72 90
split_gain=40.9834 16.4019 10.4156 9.99721 9.06999 9.63939 10.7548 8.63311 8.5672 11.1622 10.0091 8.73305 9.8584 8.54479 8.2382 8.22994 8.2251 8.0193 7.99574 9.85135 8.4076 7.94682 8.83324 8.43068 7.71689 7.678 7.58872 12.7234 8.19307 7.96772
threshold=-108.49999999999999 0.057727540106951809 1.0161666666666669 0.0014322807440650955 227.50000000000003 16.500000000000004 9.9500000000000011 0.59763106251752185 10.85416666666667 -0.021428571428571349 0 0.42347641759406468 -0.097916666666666638 166.50000000000003 15.128472222222225 2.7274305555555558 0.59545454545454557 -5.2499999999999991 -0.012511574074074048 0.62728682170542649 -0.12673611111111113 0.064236111111111119 2.5857142857142863 1.0711805555555558 0.40405073649754503 7659.5000000000009 73.450500000000019 1.0515000000000003 0.08680555555555558 0.53452380952380962
decision_type=8 8 8 8 8 10 10 8 10 10 1 10 8 8 10 10 10 8 8 10 10 10 10 10 8 2 10 10 8 8
left_child=2 8 -1 25 5 6 -3 -7 14 10 -10 -11 15 -14 18 -13 -8 -5 20 -20 -2 24 -23 -24 -6 -4 29 -28 -29 -19
right_child=1 4 3 17 21 7 16 -9 9 11 -12 12 13 -15 -16 -17 -18 26 19 -21 -22 22 23 -25 -26 -27 27 28 -30 -31
leaf_value=-0.02137091950014602 -0.0043459604541252637 -0.016376440965369159 -0.0057144322459570978 -0.028122348517119412 0.0027716288428534493 0.0042059429258332606 0.030385603344254688 -0.013254450510066611 0.0055264369331002169 0.028012144409439027 -0.009039095633299573 5.213683578768097e-05 0.019905464131146716 -4.1321738769625471e-05 0.016244820694057624 -0.040118488277603781 0.0025109686025411083 0.016488338383214448 -0.014252442315919232 0.02536910681093011 0.020552303556018385 -0.0062527653000985358 -0.0044837319631070797 0.031766998076538766 0.026662939098413139 -0.025324593055726801 -0.04100453113691245 0.030437681375118864 -0.010489281435043542 -0.0083963525908058046
leaf_weight=65.284411728382111 61.46371778845787 7.2193047404289237 38.032168164849281 7.3545601069927216 15.986888274550436 136.61683702468872 28.986174747347832 30.283351883292198 70.639301627874374 18.934234857559204 79.750844970345497 15.888876155018808 42.730567902326584 34.630855455994606 13.94390796124935 5.4533391445875159 14.245772317051886 37.647922188043594 102.64381481707096 5.077886998653411 14.17126853764057 26.600913688540459 8.7913652062416094 14.667149543762205 53.493717968463898 34.406644076108932 7.3970126658678081 5.7020778357982609 11.894448488950733 15.803966969251631
leaf_count=274 252 31 155 32 71 563 126 124 289 79 326 65 177 142 57 22 62 153 418 21 58 114 37 63 237 141 30 23 48 64
internal_value=-2.9237e-05 0.00313814 -0.0113602 -0.00712189 0.00816904 0.00448356 0.0158369 0.000977753 -0.000513864 0.00297462 -0.00243828 0.00985678 0.00612803 0.0110897 -0.00524399 -0.0115484 0.0214648 -0.000165613 -0.00695742 -0.0121686 0.000526387 0.0147773 0.00550759 0.0185537 0.0212831 -0.0152468 0.00277643 -0.0106016 0.00369651 0.00911168
internal_weight=1025.74 802.22 223.523 158.239 336.891 217.351 50.4513 166.9 465.329 268.028 150.39 117.638 98.7036 77.3614 197.301 21.3422 43.2319 85.8 183.357 107.722 75.635 119.54 50.0594 23.4585 69.4806 72.4388 78.4454 24.9935 17.5965 53.4519
