tree
version=v4
num_class=1
num_tree_per_iteration=1
label_index=0
max_feature_idx=100
objective=poisson
feature_names=map_name event_id stars format t1_rating t1_adr t1_kast t1_win_rate t1_ct_wr t1_t_wr t1_round_diff t1_n t2_rating t2_adr t2_kast t2_win_rate t2_ct_wr t2_t_wr t2_round_diff t2_n t1_onmap_rating t1_onmap_adr t1_onmap_kast t1_onmap_win_rate t1_onmap_ct_wr t1_onmap_t_wr t1_onmap_round_diff t1_onmap_n t2_onmap_rating t2_onmap_adr t2_onmap_kast t2_onmap_win_rate t2_onmap_ct_wr t2_onmap_t_wr t2_onmap_round_diff t2_onmap_n diff_rating diff_onmap_rating diff_adr diff_onmap_adr diff_kast diff_onmap_kast diff_win_rate diff_onmap_win_rate diff_ct_wr diff_onmap_ct_wr diff_t_wr diff_onmap_t_wr diff_round_diff diff_onmap_round_diff t1_avg_player_rating t1_avg_player_adr t1_avg_player_kast t1_onmap_avg_player_rating t1_onmap_avg_player_adr t1_roster_size_hist t1_onmap_roster_size_hist t2_avg_player_rating t2_avg_player_adr t2_avg_player_kast t2_onmap_avg_player_rating t2_onmap_avg_player_adr t2_roster_size_hist t2_onmap_roster_size_hist diff_avg_player_rating diff_avg_player_adr diff_onmap_avg_player_rating diff_onmap_avg_player_adr h2h_n h2h_t1_wr t1_rest_days t2_rest_days diff_rest_days t1_rank t2_rank t1_points t2_points diff_rank diff_points t1_is_ranked t2_is_ranked event_prize_pool_usd event_type event_has_prize event_num_attending map_picked_by t1_picks t1_bans t2_picks t2_bans t1_pistol_wr t2_pistol_wr t1_pistol_n t2_pistol_n diff_pistol_wr t1_avg_rounds_for t1_avg_rounds_against t2_avg_rounds_for t2_avg_rounds_against diff_avg_rounds_for diff_avg_rounds_against
feature_infos=-1:0:5:4:1:3:2:8:6:7 [1040:8648] none -1:1:0:2 none none none [0:1] [0:1] [0.125:0.875] [-12:10] [0:10] none none none [0:1] [0:1] [0:1] [-12:11] [0:10] none none none [0:1] [0:1] [0:1] [-13:13] [0:10] none none none [0:1] [0:1] [0:1] [-12:12] [0:10] none none none none none none [-1:0.90000000000000002] [-1:1] [-0.59999999999999998:0.5641025641025641] [-0.69999999999999996:0.69230769230769229] [-0.45681818181818179:0.51485148514851486] [-0.61682242990654201:0.6310679611650486] [-14.9:14.800000000000001] [-15:17.5] [0.59499999999999997:1.514] [53.853333333333332:89.919999999999987] [44.950000000000003:85.909999999999997] [0.48499999999999999:1.8359999999999999] [44.619999999999997:98.300000000000011] [0:5] [0:5] [0.48499999999999999:1.5720000000000001] [39.926666666666662:93.825000000000003] [41.25333333333333:86.679999999999993] [0.41000000000000003:1.7133333333333332] [38.399999999999999:98] [0:5] [0:5] [-0.49430000000000018:0.64289999999999992] [-24.859000000000009:33.957333333333324] [-0.69777777777777761:0.7320000000000001] [-28.088888888888889:40.676666666666662] [0:5] [0:1] [0.03125:314.70486111111109] [0.03125:430.91262731481481] [-430.2424884259259:312.57986111111109] [1:201] [1:252] [0:1000] [0:1000] [-237:185] [-977:976] [0:1] [0:1] [5354:1250000] -1:0 [0:1] [2:217] -1:1:0 [0:4] [0:6] [0:4] [0:6] [0:1] [0:1] [0:30] [0:30] [-0.59999999999999998:0.56666666666666665] [1:16] [3:16] [1:21] [2:25] [-13.5:11.699999999999999] [-12.6:8.9000000000000004]
tree_sizes=3263 3506 3501 3509 3497 3521 3513 3512 3520 3537 3527 3509 3516 3550 3514 3505 3510 3516 3527 3531 3485 3500 3491 3498 3487 3519 3527 3510 3530 3515 3522 3518 3502 3511 3524 3515 3537 3521 3498 3514 3498 3532 3510 3521 3503 3522 3539 3526 3532 3526 3502 3486 3543 3538 3524 3530 3529 3530 3509 3500 3511 3522 3496 3511 3511 3514 3505 3507 3517 3503 3515

Tree=0
num_leaves=31
num_cat=2
split_feature=78 52 78 43 78 85 96 51 34 44 76 81 78 60 51 75 67 17 78 71 32 59 0 9 60 26 47 66 47 9
split_gain=95.4181 31.2773 23.3002 11.7637 10.5055 10.6192 10.321 7.89016 6.6256 6.90188 6.5233 6.79695 6.77601 6.31603 6.07973 5.96809 5.80964 7.43059 7.81407 7.05564 5.68997 5.66281 5.60772 7.34194 5.5481 5.39458 5.76405 6.09337 5.26232 6.85174
threshold=-85.499999999999986 66.676277777777798 81.500000000000014 0.33630952380952389 -231.49999999999997 0 13.422222222222224 66.95450000000001 1.7071428571428573 0.0066478742068478433 331.50000000000006 347500.00000000006 227.50000000000003 1.0281666666666669 76.194500000000019 17.500000000000004 -1.9299999999999995 0.50970965309200611 141.50000000000003 0.92187500000000011 0.56543697848045682 75.416000000000011 1 0.5551215277777779 1.0891000000000002 3.6125000000000003 0.17961223852240052 0.23808333333333329 0.020259339931471085 0.46442632170978632
decision_type=8 8 8 8 10 9 10 10 10 8 10 10 10 8 10 10 8 8 10 10 8 10 1 10 8 10 10 10 10 10
left_child=1 15 3 6 5 13 7 -2 9 -7 12 -12 16 -3 -5 -1 17 18 -4 -19 -20 -14 23 -6 -17 -18 27 -27 -24 -30
right_child=2 4 10 14 22 8 -8 -9 -10 -11 11 -13 21 -15 -16 24 25 19 20 -21 -22 -23 28 -25 -26 26 -28 -29 29 -31
leaf_value=2.4053712180926814 2.4083594726541895 2.4089796311604275 2.4123489153655315 2.4132579471574602 2.4097883915343252 2.4090676090751835 2.4078874109673203 2.4117156830529671 2.4099660168390553 2.4054646979363783 2.408906467663543 2.4123421663591484 2.4136823574879447 2.4118775610006802 2.4102491523729723 2.4067608715975339 2.4131748087893694 2.4106607760522309 2.4080774051311287 2.4148472532191909 2.4120189912375607 2.411202856529485 2.4112280080841662 2.4137152325844085 2.4101011995151507 2.4118492835187797 2.4144448354494221 2.4077186568485991 2.4158260943745309 2.412062828806754
leaf_weight=921.03247451782227 651.46199417114258 876.10406112670898 1752.208122253418 5795.7653274536133 3189.917350769043 1437.709228515625 696.39040756225586 18667.755764007568 3616.7372779846191 718.8546142578125 628.99778747558594 2920.3468704223633 15253.196346282959 2965.2752838134766 673.92620086669922 943.49668121337891 16241.621440887451 539.14096069335938 988.42509460449219 1100.7461280822754 494.21254730224609 876.10406112670898 6334.9062881469727 494.21254730224609 853.63985443115234 1123.210334777832 471.74834060668945 449.28413391113281 539.14096069335938 2246.4206695556641
leaf_count=41 29 39 78 258 142 64 31 831 161 32 28 130 679 132 30 42 723 24 44 49 22 39 282 22 38 50 21 20 24 100
internal_value=2.41196 2.41037 2.41253 2.41183 2.41074 2.40999 2.41147 2.4116 2.40918 2.40786 2.41296 2.41173 2.41308 2.41122 2.41294 2.40734 2.41275 2.41183 2.41099 2.41347 2.40939 2.41355 2.41131 2.41032 2.40835 2.41299 2.41154 2.41067 2.41171 2.41279
internal_weight=94462 25137.4 69324.5 26485.3 22419.3 9614.68 20015.6 19319.2 5773.3 2156.56 42839.2 3549.34 39289.9 3841.38 6469.69 2718.17 23160.6 4874.73 3234.85 1639.89 1482.64 16129.3 12804.6 3684.13 1797.14 18285.9 2044.24 1572.49 9120.47 2785.56
internal_count=4205 1119 3086 1179 998 428 891 860 257 96 1907 158 1749 171 288 121 1031 217 144 73 66 718 570 164 80 814 91 70 406 124
cat_boundaries=0 1 2
cat_threshold=1 18
is_linear=0
shrinkage=1


Tree=1
num_leaves=31
num_cat=2
split_feature=78 52 78 43 78 85 96 51 94 68 76 81 78 67 1 60 23 75 61 67 78 32 17 81 59 0 95 57 58 58
split_gain=92.6838 30.5787 22.5756 11.4103 10.2337 10.3614 10.0651 7.68898 6.70005 8.23355 6.31775 6.61488 6.552 6.21601 6.97208 6.15666 5.90495 5.87837 5.95583 5.628 7.20802 7.45155 5.87567 5.49834 5.48072 5.4554 10.7527 5.9169 5.91412 5.41749
threshold=-85.499999999999986 66.676277777777798 81.500000000000014 0.33630952380952389 -231.49999999999997 0 13.422222222222224 66.95450000000001 0.068750000000000019 1.5000000000000002 331.50000000000006 347500.00000000006 227.50000000000003 -1.9958333333333369 7438.5000000000009 1.0268333333333335 0.95000000000000007 17.500000000000004 74.108333333333334 -1.9299999999999995 141.50000000000003 0.56543697848045682 0.47844667409884806 1125000.0000000002 75.416000000000011 1 12.275000000000002 1.1438000000000004 74.251000000000019 75.809500000000014
decision_type=8 8 8 8 10 9 10 10 8 2 10 10 10 8 2 8 10 10 8 8 10 8 10 8 10 1 10 10 10 10
left_child=1 17 3 6 5 15 7 -2 13 -10 12 -12 19 14 -7 -3 -5 -1 -19 20 -4 22 -22 -17 -14 26 27 28 -6 -25
right_child=2 4 10 16 25 8 -8 -9 9 -11 11 -13 24 -15 -16 23 -18 18 -20 -21 21 -23 -24 29 -26 -27 -28 -29 -30 -31
leaf_value=-0.0064971767964695261 -0.0035233217179924704 -0.0030252825815310891 0.00084722262110489333 0.001389478147965167 -0.0025476123847920883 -0.00072865548781195482 -0.0039919228113888252 -0.00020446324358721436 -0.0072533340281548909 -0.0018396103014631337 -0.0029808889467618665 0.00041255787709748999 0.0017298885467537388 -0.00086549842184610744 -0.0040140767988133272 0.00094955512864044924 -0.0011277812759632343 -0.0049877671115878385 -0.0014720249533381681 0.0010517513858589074 -0.0047712861043030293 0.00080319700782011854 -0.00048913819522411884 0.00010750374946213855 -0.00071013382043117954 -0.00021394435660089319 0.0020610120681755295 -0.0049030144663347588 0.00075546009176604757 -0.0039734539134981522
leaf_weight=915.01762199401855 649.14448547363281 806.33441162109375 2922.8194313049316 5487.1003646850586 1771.0640850067139 806.7475700378418 693.58556175231934 18663.882007598877 581.77945709228516 448.14385604858398 627.10311126708984 2921.5705299377441 15280.052621841431 1836.5702381134033 2084.2606430053711 1841.9158020019531 989.20458984375 1050.9794654846191 739.7450065612793 18305.427612304688 693.71735763549805 764.24325561523438 493.49538612365723 673.76541137695312 875.47318840026855 9118.4873237609863 606.65128898620605 627.83279418945312 672.6653938293457 516.65315246582031
leaf_count=41 29 36 130 244 79 36 31 831 26 20 28 130 679 82 93 82 44 47 33 814 31 34 22 30 39 406 27 28 30 23
internal_value=3.39341e-05 -0.00152823 0.000599179 -8.95193e-05 -0.00116412 -0.00190468 -0.000443815 -0.000316193 -0.00270951 -0.00490176 0.00102448 -0.000187785 0.00113384 -0.00223098 -0.00309784 -0.000697142 0.00100487 -0.00454013 -0.00353705 0.000810545 -9.53392e-05 -0.00150678 -0.00299321 -7.72684e-05 0.00159763 -0.000608672 -0.00158202 -0.00230712 -0.00163847 -0.00166552
internal_weight=94465.4 25098.6 69366.8 26482.9 22392.9 9596.17 20006.6 19313 5757.5 1029.92 42883.9 3548.67 39335.2 4727.58 2891.01 3838.67 6476.3 2705.74 1790.72 23179.7 4874.28 1951.46 1187.21 3032.33 16155.5 12796.7 3678.21 3071.56 2443.73 1190.42
internal_count=4205 1119 3086 1179 998 428 891 860 257 46 1907 158 1749 211 129 171 288 121 80 1031 217 87 53 135 718 570 164 137 109 53
cat_boundaries=0 1 2
cat_threshold=1 18
is_linear=0
shrinkage=0.03


Tree=2
num_leaves=31
num_cat=2
split_feature=78 52 78 96 78 85 24 67 57 57 64 24 94 68 76 81 78 96 9 67 60 75 61 72 67 17 78 71 27 0
split_gain=90.0285 29.8929 21.8742 11.115 9.9687 10.1091 8.79263 9.42774 6.64926 7.61165 7.11793 7.79503 6.56741 8.1039 6.11891 6.43748 6.33565 6.08227 6.86797 6.07017 6.00333 5.78917 5.8384 5.6884 5.45224 7.10425 7.40175 6.82469 5.42117 5.30736
threshold=-85.499999999999986 66.676277777777798 81.500000000000014 13.422222222222224 -231.49999999999997 0 0.30825791855203627 -12.02833333333332 1.1259500000000002 1.1156500000000003 -0.040683333333333398 0.49832214765100674 0.068750000000000019 1.5000000000000002 331.50000000000006 347500.00000000006 227.50000000000003 12.15 0.45965673702899984 -1.9958333333333369 1.0281666666666669 17.500000000000004 74.108333333333334 -0.1649305555555555 -1.9299999999999995 0.50970965309200611 141.50000000000003 0.92187500000000011 9.5000000000000018 1
decision_type=8 8 8 10 10 9 10 8 10 10 8 10 8 2 10 10 10 10 10 8 8 10 8 10 8 8 10 10 2 1
left_child=1 21 3 6 5 20 -2 -8 9 10 11 23 19 -14 16 -16 24 18 -10 28 -3 -1 -23 -9 25 26 -4 -27 -7 -6
right_child=2 4 14 -5 29 12 7 8 17 -11 -12 -13 13 -15 15 -17 -18 -19 -20 -21 -22 22 -24 -25 -26 27 -28 -29 -30 -31
leaf_value=-0.0064424808465625375 0.0019010265937561962 -0.0028752393285707478 0.00040623848516396478 -0.003721241249351295 -0.0015609901197754508 -0.0011548083997292209 -0.0042468623487475392 -0.0050098375518428185 -0.0041273720320853533 0.0025131536540159735 0.00031843597036054186 0.00097581228882558091 -0.0071977821808654986 -0.0018156202076396691 -0.0029453704170162459 0.00040624514841378003 0.0015712936906448268 0.0012467899221725173 -0.00094517221278697119 -0.00085335507025785637 -4.3690973886423752e-05 -0.0049382634066532744 -0.0014522744065914219 -0.0013996971600972084 0.0010349864369725036 -0.001255151477749502 -0.0024758680699847415 0.0028605477264426046 -0.0039497639703910898 -0.00021080637140287413
leaf_weight=909.09184074401855 2048.2736129760742 871.1193733215332 1754.4400177001953 735.81668472290039 3672.3965435028076 916.93103790283203 493.32423210144043 516.29788208007812 763.60113143920898 1190.5018844604492 14266.544839859009 965.70687484741211 577.57489776611328 447.32021331787109 625.23657989501953 2922.7760887145996 16181.359107971191 830.55394744873047 3031.8069458007812 1834.9814186096191 2964.8872756958008 1045.7504482269287 738.65687370300293 1638.1408538818359 18324.690120697021 538.85322189331055 1475.8437900543213 1104.6864395141602 1965.1399040222168 9116.5364952087402
leaf_count=41 91 39 78 33 164 41 22 23 34 53 635 43 26 20 28 130 718 37 135 82 132 47 33 73 814 24 66 49 88 406
internal_value=3.33952e-05 -0.00150784 0.000589883 -8.82066e-05 -0.00114817 -0.00187997 1.57705e-05 -0.00014726 -5.99191e-05 0.000193516 3.455e-05 -0.00126318 -0.0026765 -0.00485277 0.00100816 -0.000185046 0.00111567 -0.0010775 -0.00158632 -0.00220272 -0.00068729 -0.00449307 -0.00349686 -0.00226677 0.000797808 -9.39669e-05 -0.00091089 0.00151123 -0.00306126 -0.000599994
internal_weight=94468.8 25060.4 69408.5 26480.6 22366.9 9577.95 25744.8 23696.5 23203.2 18577.2 17386.7 3120.15 5741.95 1024.9 42927.9 3548.01 39379.9 4625.96 3795.41 4717.05 3836.01 2693.5 1784.41 2154.44 23198.5 4873.82 3230.28 1643.54 2882.07 12788.9
internal_count=4205 1119 3086 1179 998 428 1146 1055 1033 827 774 139 257 46 1907 158 1749 206 169 211 171 121 80 96 1031 217 144 73 129 570
cat_boundaries=0 1 2
cat_threshold=1 18
is_linear=0
shrinkage=0.03


Tree=3
num_leaves=31
num_cat=0
split_feature=78 52 78 43 10 78 70 66 96 76 81 78 51 69 24 75 61 17 32 59 67 17 78 71 24 26 47 66 95 8
split_gain=87.4477 29.2201 21.1957 10.874 9.78258 9.70983 8.01993 6.5943 6.22907 5.92654 6.26463 6.12682 5.87709 5.84874 5.89394 5.70051 5.72265 5.63368 5.42366 5.29637 5.28204 6.89067 7.21324 6.60237 5.42872 5.21429 5.57748 5.93412 5.03983 5.79723
threshold=-85.499999999999986 66.676277777777798 81.500000000000014 0.33630952380952389 -3.8944444444444439 -231.49999999999997 4.1232638888888902 -0.2638333333333332 13.366666666666669 331.50000000000006 347500.00000000006 227.50000000000003 76.194500000000019 0.22500000000000003 0.49431744801756433 17.500000000000004 74.108333333333334 0.53647450110864758 0.4663841807909605 75.416000000000011 -1.9299999999999995 0.50970965309200611 143.50000000000003 0.92187500000000011 0.4896896258503402 3.6125000000000003 0.17961223852240052 0.23808333333333329 11.950000000000001 0.44549954995499558
decision_type=8 8 8 8 10 10 8 8 10 10 10 10 10 8 8 10 8 10 8 10 8 8 10 10 10 10 10 10 10 8
left_child=1 15 3 4 -2 6 7 -3 -6 11 -11 20 -5 14 -9 -1 -17 -8 -15 -13 21 22 -4 -23 -24 -22 27 -27 29 -7
right_child=2 5 9 12 8 28 17 13 -10 10 -12 19 -14 18 -16 16 -18 -19 -20 -21 25 23 24 -25 -26 26 -28 -29 -30 -31
leaf_value=-0.0063878936432248722 -0.002929400572139433 -0.0043822222470941289 0.00034733373177489368 0.0012877850430073683 -0.00017109230071841802 0.00022594439776294579 -0.0025644320842278883 -0.0022322025722948248 -0.0037604220473817442 -0.0029101714476172853 0.00040003141355680297 0.0016750923763751244 -0.001670353312397965 -0.0044784074211654161 0.00052451077606029562 -0.0048890073929631931 -0.0014327604225008207 -0.0068150530489785597 -0.0015447529919158339 -0.00072233236795160691 0.0011977956405581189 -0.0012380492936498958 -0.0047368317045595083 0.0028098682025445624 -0.0009489262329038608 -0.00010369222550939043 0.0024417197742391452 -0.0041819188012989783 0.00060549650357783868 -0.0013450597099425702
leaf_weight=903.25387954711914 1318.7433624267578 668.01302337646484 1822.2267990112305 5812.5864906311035 18228.416532516479 2981.4371395111084 759.13954544067383 1004.4906387329102 444.79660034179688 623.39771270751953 2923.963794708252 15330.57795715332 673.73794937133789 668.43046379089355 2281.7608757019043 1040.5989894866943 737.58496856689453 446.24958610534668 3731.9155521392822 876.22739410400391 16295.931112289429 538.17728424072266 579.16490745544434 1107.8509559631348 825.95541381835938 1125.4734039306641 473.92733573913574 448.33362579345703 2536.8802032470703 7262.9663391113281
leaf_count=41 59 30 81 258 812 133 34 45 20 28 130 679 30 30 102 47 33 20 167 39 723 24 26 49 37 50 21 20 113 324
internal_value=3.28629e-05 -0.00148769 0.000580732 -8.69266e-05 -0.00043322 -0.00113241 -0.00185552 -0.00152512 -0.000256787 0.000992127 -0.000182345 0.00109781 0.000980312 -0.00127628 -0.000318542 -0.00444628 -0.00345698 -0.00414241 -0.0019913 0.00154544 0.000785284 -9.26063e-05 -0.000898167 0.00148643 -0.00251249 0.00101851 -0.000408176 -0.00126738 -0.000591438 -0.000887872
internal_weight=94472.2 25022.7 69449.5 26478.3 19992 22341.3 9560 8354.61 18673.2 42971.2 3547.36 39423.8 6486.32 7686.6 3286.25 2681.44 1778.18 1205.39 4400.35 16206.8 23217 4873.38 3227.35 1646.03 1405.12 18343.7 2047.73 1573.81 12781.3 10244.4
internal_count=4205 1119 3086 1179 891 998 428 374 832 1907 158 1749 288 344 147 121 80 54 197 718 1031 217 144 73 63 814 91 70 570 457
is_linear=0
shrinkage=0.03


Tree=4
num_leaves=31
num_cat=2
split_feature=78 52 78 96 78 85 24 67 34 61 44 57 57 64 24 96 9 60 76 81 78 73 72 81 0 95 57 59 17 27
split_gain=84.9395 28.5601 20.538 10.5935 9.45753 9.83859 8.40272 9.18272 6.45839 7.02338 6.7453 6.43611 7.38354 6.86808 7.55744 5.94379 6.70683 5.85871 5.74034 6.09623 5.92532 5.61789 5.57868 5.2894 5.16583 10.3737 5.80613 5.12691 5.12042 7.61312
threshold=-85.499999999999986 66.676277777777798 81.500000000000014 13.422222222222224 -231.49999999999997 0 0.30825791855203627 -12.02833333333332 1.7071428571428573 80.48833333333333 0.0066478742068478433 1.1259500000000002 1.1156500000000003 -0.040683333333333398 0.49832214765100674 12.15 0.45965673702899984 1.0268333333333335 331.50000000000006 347500.00000000006 227.50000000000003 81.000000000000014 -0.1649305555555555 1125000.0000000002 1 12.275000000000002 1.1438000000000004 75.416000000000011 0.58482571154461149 8.5000000000000018
decision_type=8 8 8 10 10 9 10 8 10 10 8 10 10 8 10 10 10 8 10 10 10 10 10 8 1 10 10 10 8 2
left_child=1 21 3 6 5 17 -2 -8 10 -10 -7 12 13 14 22 16 -13 -3 20 -20 -4 -1 -9 -19 25 26 -6 -22 29 -18
right_child=2 4 18 -5 24 8 7 11 9 -11 -12 15 -14 -15 -16 -17 28 23 19 -21 27 -23 -24 -25 -26 -27 -28 -29 -30 -31
leaf_value=-0.0035756528281037513 0.0018558059213901867 -0.0029350086797455687 0.00077295560829983962 -0.0036448636015721844 -0.0015850154444333091 -0.0027344097658302301 -0.0041992754204619124 -0.004957189341077548 -0.0012581460950992387 -0.0048678569186077839 -0.0063212130324379577 -0.004081148700855043 0.0024729172300249763 0.00031296646486987499 0.00096070218496273948 0.0012364813486210372 -0.0039327864160752608 0.00095617200677935944 -0.0028752915072250448 0.00039391523378615244 0.0016473568744901402 -0.006707990446686911 -0.0013740123740635952 -0.0016120878043103931 -0.00019907085574853063 0.0020423051932237394 -0.0048295761797159439 -0.00071210110033261063 0.0014786630645206448 -0.00035814580243490334
leaf_weight=1969.0655860900879 2053.8049545288086 800.24196243286133 23235.306930541992 730.81556510925293 2433.91383934021 1423.3759765625 491.12544059753418 513.55807685852051 3006.819860458374 577.77068138122559 707.3316707611084 760.33370018005371 1193.2618942260742 14271.675363540649 966.62799263000488 831.08526611328125 807.48892974853516 1841.1466331481934 621.58618927001953 2925.1336479187012 15356.279012680054 700.4896240234375 1635.0277042388916 1185.6269149780273 9109.2488460540771 607.32232475280762 623.24595832824707 875.59473609924316 628.25974464416504 1592.9361953735352
leaf_count=89 91 36 1031 33 109 64 22 23 135 26 32 34 53 635 43 37 36 82 28 130 679 32 73 53 406 27 28 39 28 71
internal_value=3.23426e-05 -0.00146776 0.000571731 -8.56514e-05 -0.00111684 -0.00183135 1.55198e-05 -0.000144086 -0.00261953 -0.00184116 -0.00392753 -5.80647e-05 0.000191113 3.43795e-05 -0.0012416 -0.00105998 -0.00156388 -0.000653913 0.000976356 -0.000179684 0.00108025 -0.00439978 -0.00223238 -5.00492e-05 -0.00058298 -0.00153227 -0.00224783 0.00152004 -0.000930794 -0.00156177
internal_weight=94475.5 24985.6 69489.9 26476 22316 9542.31 25745.2 23691.4 5715.3 3584.59 2130.71 23200.3 18580.2 17386.9 3115.21 4620.1 3789.02 3827.02 43013.9 3546.72 39467.2 2669.56 2148.59 3026.77 12773.7 3664.48 3057.16 16231.9 3028.68 2400.43
internal_count=4205 1119 3086 1179 998 428 1146 1055 257 161 96 1033 827 774 139 206 169 171 1907 158 1749 121 96 135 570 164 137 718 135 107
cat_boundaries=0 1 2
cat_threshold=1 18
is_linear=0
shrinkage=0.03


Tree=5
num_leaves=31
num_cat=1
split_feature=78 52 65 35 53 76 75 59 78 78 74 43 52 57 1 45 24 59 65 46 45 52 50 91 91 81 67 23 0 98
split_gain=83.681 32.3601 13.0365 9.96728 9.35037 11.7313 9.20823 8.54094 7.90403 7.7981 7.18301 6.97928 7.19229 6.89692 6.75109 6.73811 6.72105 6.42911 6.34819 6.24995 7.46924 6.19147 5.779 5.72951 7.06702 5.86667 5.67024 5.95796 5.55872 5.52034
threshold=-91.499999999999986 66.676277777777798 -3.4785000000000035 3.5000000000000004 1.1311250000000002 550.50000000000011 170.50000000000003 74.853999999999999 227.50000000000003 63.500000000000007 2.5000000000000004 0.35277777777777786 71.329999999999998 1.1791222222222226 7387.5000000000009 0.13480113925520923 0.48804761904761912 73.501000000000019 -4.4891282051282166 0.093333102994318615 -0.15100577388712974 69.780500000000018 1.0826131221719459 0.51666666666666672 0.56458333333333344 412500.00000000006 0.29216666666665964 0.35416666666666669 0 9.9500000000000011
decision_type=8 8 8 2 10 10 10 10 8 10 10 8 10 10 2 10 8 10 10 10 10 8 10 8 10 10 10 8 1 8
left_child=1 -1 3 -2 5 6 21 8 11 -5 -7 12 17 14 -9 28 -8 -4 -12 20 -14 29 -11 -16 -25 -26 27 -23 -6 -3
right_child=2 4 7 9 15 10 16 13 -10 22 18 -13 19 -15 23 -17 -18 -19 -20 -21 -22 26 -24 24 25 -27 -28 -29 -30 -31
leaf_value=-0.0046858814112721364 0.0008866373039282669 0.0014476320523821083 -0.00024723526764554402 -0.00227362999573337 0.0014204246430514753 -0.0018886663679704534 -0.0017757382445994219 -0.00362579678872551 0.0012688595659117029 0.0014636932766660333 -0.0015442049106195923 0.0010521315626688512 0.0042789431229003135 0.0017992256460550914 0.00085606694849549791 -0.0022529339374350067 0.0024700553044629762 -0.0033468555641934599 -0.0056104639613823752 -0.0004194466228967372 0.00074953616735788035 -0.0029829808964683679 -0.0022560962710674866 -0.0049372185705715338 -0.0029347849763318805 0.0015572624265085871 -0.0037212579217203905 -0.00065521622566888096 -0.00066951805963424136 -0.0011202983479255493
leaf_weight=2635.6771068572998 2476.4715633392334 1005.7118492126465 8107.0049648284912 3355.712272644043 2306.312816619873 2559.9325771331787 491.68296241760254 785.46954345703125 18074.425880432129 1127.5748291015625 489.88022232055664 14076.696210861206 562.96612358093262 876.70776557922363 1439.614221572876 1072.5705757141113 1051.8157234191895 649.60086441040039 1179.659538269043 4274.7575035095215 12552.44171333313 1538.7018184661865 562.61338424682617 449.27553367614746 471.7078800201416 585.1441650390625 1339.7743167877197 2772.0618476867676 2256.6257953643799 2994.1452827453613
leaf_count=120 110 45 361 150 103 115 22 35 799 50 22 624 25 39 64 48 47 29 53 190 558 69 25 20 21 26 60 124 101 134
internal_value=-1.05077e-05 -0.00155265 0.00050834 -0.000671904 -0.0011603 -0.0015424 -0.00103366 0.000649484 0.000747762 -0.00143684 -0.00288829 0.000513581 0.000223611 -0.000593794 -0.0011564 -0.000114491 0.00111728 -0.000477534 -0.00441897 0.000576671 0.000901347 -0.00137776 0.000224884 -0.000496943 -0.00178991 -0.000448565 -0.00201701 -0.0014866 0.000388557 -0.000474425
internal_weight=94122.7 23694.6 70428.2 7522.37 21058.9 15423.4 11193.9 62905.8 58297.9 5045.9 4229.47 40223.5 26146.8 4607.92 3731.21 5635.51 1543.5 8756.61 1669.54 17390.2 13115.4 9650.4 1690.19 2945.74 1506.13 1056.85 5650.54 4310.76 4562.94 3999.86
internal_count=4189 1063 3126 335 943 691 501 2791 2586 225 190 1787 1163 205 166 252 69 390 75 773 583 432 75 131 67 47 253 193 204 179
cat_boundaries=0 1
cat_threshold=271
is_linear=0
shrinkage=0.03


Tree=6
num_leaves=31
num_cat=1
split_feature=78 52 64 53 25 33 78 45 95 78 46 50 47 65 64 78 98 15 61 67 69 95 47 53 45 0 77 1 54 33
split_gain=81.2955 31.6387 13.2393 9.10019 9.06353 7.26488 7.16924 6.55222 6.52112 7.7725 7.07637 8.40654 6.61722 9.19959 8.672 6.51495 6.43361 7.29691 6.24509 6.15111 5.9029 5.80346 5.90496 5.671 6.24305 5.38895 5.31501 6.21012 6.6432 5.30957
threshold=-91.499999999999986 66.676277777777798 0.021950000000000029 1.1311250000000002 0.63680926916221037 0.52397372742200343 -218.49999999999997 0.13480113925520923 14.15 39.500000000000007 0.0099787022246915231 1.1346500000000004 0.055613474191455854 -4.3195866910866973 -0.13311428571428577 227.50000000000003 10.450000000000001 0.68333333333333346 76.790416666666673 -10.238500000000007 0.63333333333333341 10.763888888888891 -0.11060980686884476 1.0471666666666668 -0.08568010936431987 0 67.000000000000014 7684.5000000000009 68.115000000000009 0.52888588684043236
decision_type=8 8 8 10 10 8 10 10 8 8 8 10 8 10 10 8 10 10 10 8 8 10 8 10 8 1 10 2 8 10
left_child=1 26 4 6 8 -6 16 25 9 12 11 -11 13 14 18 -4 17 -3 -2 -8 -18 -19 -23 24 -12 -5 27 28 -1 -16
right_child=2 3 15 7 5 -7 19 -9 -10 10 23 -13 -14 -15 29 -17 20 21 -20 -21 -22 22 -24 -25 -26 -27 -28 -29 -30 -31
leaf_value=-2.5759552079991019e-05 0.0014377578687906581 -1.66788685559125e-05 0.0005641173104291166 0.0013973723818946709 -0.00035163645810351173 -0.0051345814237557883 0.0021092427790150364 -0.0022244409633605158 0.0036921023228798197 0.0012470049218164924 0.0017347686869100579 -0.0019029489617888396 0.00061304699627401469 -0.00043888837742376646 -0.0072478874650411468 0.0013505612986087858 -0.0020105600089509248 -0.0045732783982987066 -0.0034133505879285885 -0.0011458104911788898 -0.0048898004354011506 -0.003539769307644399 -0.00014585171920894108 0.00045328165210587054 -0.0020770229211102293 -0.00066003517763447679 -0.0070472763490428934 -0.0057651909050423908 -0.0046500386618033834 -0.0027128700126950946
leaf_weight=546.67398071289062 514.13524627685547 1733.7695198059082 26255.848482131958 2309.591100692749 608.44209289550781 538.27168655395508 559.06400680541992 1070.1568813323975 451.66545295715332 9112.5874652862549 472.4693489074707 831.26025009155273 3260.9548873901367 6411.4080772399902 444.10376358032227 14839.171394348145 1308.4512825012207 843.11667251586914 444.38528823852539 7805.6361770629883 1259.5117530822754 798.00207328796387 1092.0868625640869 3675.9905853271484 2113.1781444549561 2255.1154747009277 627.62674522399902 877.73129653930664 571.32358932495117 490.18180274963379
leaf_count=25 23 78 1165 103 27 24 25 48 20 404 21 37 145 286 20 655 59 38 20 349 57 36 49 163 94 101 29 40 26 22
internal_value=-1.03774e-05 -0.00153196 0.000500497 -0.00114439 1.40645e-05 -0.00259929 -0.00152182 -0.000112797 0.000120337 6.21146e-05 0.00048609 0.000983518 -0.000531964 -0.000981615 -0.00281876 0.000848124 -0.00222762 -0.00153918 -0.000812506 -0.000928029 -0.0034241 -0.0025046 -0.00157989 -0.000303885 -0.0013801 0.000382638 -0.00463794 -0.00387709 -0.00239092 -0.00487399
internal_weight=94121.9 23657.9 70464.1 21034.5 29369 1146.71 15399.6 5634.86 28222.3 27770.7 16205.5 9943.85 11565.2 8304.21 1892.81 41095 7034.94 4466.98 958.521 8364.7 2567.96 2733.21 1890.09 6261.64 2585.65 4564.71 2623.36 1995.73 1118 934.286
internal_count=4189 1063 3126 943 1306 51 691 252 1255 1235 719 441 516 371 85 1820 317 201 43 374 116 123 85 278 115 204 120 91 51 42
cat_boundaries=0 1
cat_threshold=271
is_linear=0
shrinkage=0.03


Tree=7
num_leaves=31
num_cat=0
split_feature=78 52 64 53 76 75 59 78 46 24 97 74 24 78 45 65 7 18 52 75 98 50 61 61 67 23 98 43 77 77
split_gain=78.9774 30.9326 12.8585 8.85626 11.3022 8.91729 8.77038 7.70285 9.66535 7.88733 7.60962 7.03679 6.52272 6.51527 6.37131 6.23983 6.15742 6.01804 6.00434 5.84656 8.19681 5.74563 5.59402 6.17759 5.55168 5.82122 5.31795 6.20066 9.39144 5.23963
threshold=-91.499999999999986 66.676277777777798 -0.044650000000000072 1.1311250000000002 550.50000000000011 170.50000000000003 74.978500000000011 34.500000000000007 0.012715088115545782 0.37075219549446359 11.816666666666668 2.5000000000000004 0.48804761904761912 227.50000000000003 0.13480113925520923 -4.4891282051282166 0.68333333333333346 2.683333333333334 69.780500000000018 148.50000000000003 11.788888888888891 1.0573115384615386 78.911333333333346 75.968333333333348 0.29216666666665964 0.35416666666666669 9.9500000000000011 -0.26904761904761892 20.500000000000004 67.000000000000014
decision_type=8 8 8 10 10 10 10 10 10 10 8 10 8 8 10 10 10 8 8 10 10 10 10 10 10 8 10 10 10 10
left_child=1 29 7 4 5 18 13 9 10 -2 -9 22 -7 -4 -5 -13 17 -8 26 20 -11 -10 23 -6 25 -20 -3 -28 -29 -1
right_child=2 3 6 14 11 12 16 8 21 19 -12 15 -14 -15 -16 -17 -18 -19 24 -21 -22 -23 -24 -25 -26 -27 27 28 -30 -31
leaf_value=-0.0038343651822203822 0.0010536748071385898 0.0014332269934794017 0.00054023881033267863 0.00037681164089749204 -0.002585489502679914 -0.0017416408737662868 -0.00056778632882082054 0.0024711927283641217 -0.0042357386168808391 -0.0014998023463831667 5.2472542334744461e-06 -0.0014938256923259844 0.0024437406423444101 0.0012388048398707958 -0.0021962453776788599 -0.0055352763797628718 0.00010289179730395416 -0.0052004330407948891 -0.0029303577343207229 0.0001688462826478792 -0.0049674326610080234 -0.00021641389862892395 -0.0045777581471723207 0.00075517876630453308 -0.0036636375376784673 -0.0006253493634590854 0.00062883989213063528 -0.00032315561488714868 -0.0046712862948807251 -0.0069918468578225893
leaf_weight=1988.018533706665 1260.0245475769043 1006.5998497009277 37478.107788085938 4566.4482040405273 1130.8078880310059 490.40602493286133 517.14481544494629 1963.7294082641602 537.82895660400391 3307.3820095062256 2639.0999050140381 488.03521537780762 1053.4133167266846 17687.922914505005 1067.7790126800537 1170.1777763366699 1775.9397468566895 492.43459892272949 1531.9312763214111 1298.2413959503174 752.75652503967285 788.78154563903809 529.5235652923584 889.25304985046387 1332.8972930908203 2766.2587432861328 1159.2753238677979 1049.8078498840332 777.86614608764648 623.21923065185547
leaf_count=91 56 45 1663 204 51 22 23 87 24 148 117 22 47 780 48 53 79 22 69 58 34 35 24 40 60 124 52 47 35 29
internal_value=-1.0251e-05 -0.00151151 0.000492779 -0.00112866 -0.00150148 -0.00100208 0.000681305 -0.000377903 0.000407359 -0.00108138 0.00105761 -0.00282644 0.00111396 0.000764239 -0.000111128 -0.00434744 -0.000960853 -0.00283033 -0.00134158 -0.00158354 -0.00214377 -0.00184788 -0.00183589 -0.00111524 -0.00197253 -0.00144738 -0.000451649 -0.00108712 -0.00217528 -0.00459034
internal_weight=94121.1 23621.7 70499.4 21010.5 15376.3 11168.5 57951.5 12547.8 5929.44 6618.4 4602.83 4207.8 1543.82 55166 5634.23 1658.21 2785.52 1009.58 9624.64 5358.38 4060.14 1326.61 2549.58 2020.06 5631.09 4298.19 3993.55 2986.95 1827.67 2611.24
internal_count=4189 1063 3126 943 691 501 2567 559 263 296 204 190 69 2443 252 75 124 45 432 240 182 59 115 91 253 193 179 134 82 120
is_linear=0
shrinkage=0.03


Tree=8
num_leaves=31
num_cat=0
split_feature=78 52 64 25 53 76 75 43 74 24 95 78 46 18 44 76 47 45 65 78 44 33 44 65 64 53 8 43 52 46
split_gain=76.7256 30.2384 12.5221 8.77715 8.61871 11.0276 8.66439 7.51323 6.89116 6.31856 6.27679 7.33211 6.73902 8.97084 7.40022 6.38404 8.1627 6.19515 6.12524 6.12217 6.04968 6.12082 6.49087 5.9183 8.44516 6.64555 5.70646 6.42007 8.10093 6.27512
threshold=-91.499999999999986 66.676277777777798 0.021950000000000029 0.63680926916221037 1.1311250000000002 550.50000000000011 170.50000000000003 0.24126984126984127 2.5000000000000004 0.48804761904761912 14.15 39.500000000000007 0.0099787022246915231 3.0500000000000003 -0.040351553465422844 254.50000000000003 0.051841892312480549 0.13480113925520923 -4.4891282051282166 227.50000000000003 -0.08618117629933407 0.64104052342760676 -0.078305946891245079 -4.3195866910866973 -0.13311428571428577 0.9251666666666668 0.52062074829931981 -0.13333333333333333 73.280500000000018 -0.045025563211550011
decision_type=8 8 8 10 10 10 10 10 10 8 8 8 8 10 10 10 8 10 10 8 8 8 8 10 10 10 10 10 10 8
left_child=1 -1 3 10 5 6 20 -5 -7 -8 11 15 13 -13 -15 16 23 -6 -10 26 -3 22 -22 24 -2 -25 -4 28 -28 -29
right_child=2 4 19 7 17 8 9 -9 18 -11 -12 12 -14 14 -16 -17 -18 -19 -20 -21 21 -23 -24 25 -26 -27 27 29 -30 -31
leaf_value=-0.0045429734181956409 -0.00078549445974796092 -5.1664136908545687e-06 0.0010101281553961353 -0.0049574267094142635 0.00037105844058235663 -0.0018119455950296082 -0.001718754788515496 -9.5110557853288183e-05 -0.0014738289707566699 0.002401454794619113 0.0036130481058915948 0.0013682284175052218 -0.00030077027516842359 0.0001532640646648711 -0.0043193676318854001 0.0014028079658301217 0.00055360731490514212 -0.0021683457150298191 -0.0054833544697119917 0.0013091527431593928 -0.0053099597460993823 0.0015612800528176215 -0.0017229454423256139 0.0024301797063614487 -0.0048025966613473069 -0.0011544659180247666 -0.00044698196221967486 -0.0032949136824439807 0.0020327424098063574 -0.00013907284750067236
leaf_weight=2599.287296295166 956.68392753601074 2362.9517154693604 12544.814716339111 579.96788024902344 4568.1692295074463 2544.917896270752 489.55266761779785 563.42672729492188 487.30671691894531 1055.9907379150391 453.59868431091309 8229.4589900970459 6260.3016376495361 1283.6405334472656 448.50004577636719 1371.048698425293 2947.3144550323486 1065.4364910125732 1163.7184181213379 14877.088918685913 488.68437194824219 468.34643745422363 6291.7763423919678 514.06418037414551 927.67086982727051 4837.4229602813721 2032.4756908416748 607.90402793884277 2843.8930492401123 8254.9210395812988
leaf_count=120 43 106 556 26 204 115 22 25 22 47 20 364 278 57 20 61 131 48 53 655 22 21 283 23 42 216 90 27 126 366
internal_value=-1.0128e-05 -0.00149132 0.000485185 1.20008e-05 -0.00111316 -0.00148141 -0.000988194 -0.00256362 -0.00279234 0.00109611 0.000116409 5.91787e-05 0.000470524 0.000955221 -0.00100665 -0.000518334 -0.000777107 -0.000109497 -0.00430154 0.000822847 -0.00132342 -0.00175309 -0.00198222 -0.00131914 -0.00276462 -0.000809735 0.000547553 0.000125147 0.000999311 -0.00035588
internal_weight=94120.3 23586.1 70534.2 29373.1 20986.9 15353.2 11157.3 1143.39 4195.94 1545.54 28229.7 27776.1 16221.9 9961.6 1732.14 11554.2 10183.2 5633.61 1651.03 41161.1 9611.76 7248.81 6780.46 7235.84 1884.35 5351.49 26284 13739.2 4876.37 8862.83
internal_count=4189 1063 3126 1306 943 691 501 51 190 69 1255 1235 719 441 77 516 455 252 75 1820 432 326 305 324 85 239 1165 609 216 393
is_linear=0
shrinkage=0.03


Tree=9
num_leaves=31
num_cat=1
split_feature=78 50 64 25 59 53 76 75 1 78 43 46 76 0 25 90 90 78 7 58 94 97 24 16 72 8 10 49 95 64
split_gain=74.5354 20.4651 12.155 10.3445 8.43436 7.80386 10.6557 7.80419 7.22526 7.17038 7.72428 7.09289 7.04492 6.76894 6.48373 6.41959 6.22264 6.10903 5.99677 5.90538 5.76624 5.7227 5.6297 5.60057 5.45501 5.40397 8.4469 5.93396 5.69407 6.05064
threshold=-91.499999999999986 0.96465396825396843 -0.044650000000000072 0.63680926916221037 74.978500000000011 1.1311250000000002 550.50000000000011 170.50000000000003 7684.5000000000009 34.500000000000007 -0.7321428571428571 0.012715088115545782 816.50000000000011 0 0.41198922317018416 0.59545454545454557 0.48333333333333339 227.50000000000003 0.68333333333333346 77.207000000000008 0.10892857142857142 11.154761904761907 0.32643442622950825 0.58212284706370621 0.097222222222222279 0.52062074829931981 -1.3666666666666665 0.08174603174603183 10.050000000000002 0.017666666666666612
decision_type=8 8 8 10 10 10 10 10 2 10 10 10 10 1 10 10 10 8 10 10 10 10 10 8 10 10 8 8 10 10
left_child=1 8 3 9 17 6 7 19 -1 10 -2 15 -8 -7 -12 -11 -16 25 23 -3 21 -15 -10 -6 -14 26 27 28 29 -4
right_child=2 5 4 -5 18 13 12 -9 22 11 14 -13 24 20 16 -17 -18 -19 -20 -21 -22 -23 -24 -25 -26 -27 -28 -29 -30 -31
leaf_value=-0.0024000521950888381 0.0014766096205367008 -0.0015471172111434668 0.0019101337427762856 -0.0047439619968591296 -0.00030992314915139076 0.00079615259782234702 -0.0040692204069245437 0.0009434001945907045 -0.0082394183009379431 0.0015067234932860571 -0.0034417753062160133 -0.0014597383003929448 -0.0041231871207512635 0.0016839944050528286 -0.0019264865076416512 -0.0022630697836094316 0.00036289395507787815 0.0012008180542947727 9.8294411219897534e-05 0.0013791313236473054 -0.004222527236271539 -0.0016334133183998772 -0.0040998882674610692 -0.0048086409802574294 -0.0007256508798839798 0.00013721167307937613 0.0012494393789470577 0.00058368019858249989 -0.0032877620950171925 -0.0025191182743850805
leaf_weight=1546.1003570556641 1038.7411880493164 8473.9927349090576 629.95498657226562 467.29684638977051 450.40265274047852 2973.8816947937012 1995.1416397094727 1590.7531986236572 429.28489685058594 4025.0765724182129 1066.1375980377197 1212.3587455749512 573.96599960327148 671.12626075744629 2225.0994491577148 451.32516479492188 2054.3057899475098 17729.662929534912 1776.4845199584961 668.9701976776123 489.3870735168457 1540.3655662536621 961.69812393188477 556.53228378295898 1636.3869533538818 17367.731664657593 14356.151008605957 3813.6104393005371 853.01127815246582 494.61148643493652
leaf_count=71 46 382 28 21 20 133 91 71 20 178 48 54 26 30 100 20 92 780 79 30 22 69 44 25 74 770 636 169 38 22
internal_value=-1.00036e-05 -0.00147135 0.000477709 -0.000369217 0.00066074 -0.00113742 -0.00149715 -0.000995478 -0.00381384 -0.00019951 -0.000889584 0.000574955 -0.00277704 -0.000190297 -0.00134957 0.00112622 -0.000827654 0.000741927 -0.000950344 -0.00133288 -0.00127458 -0.000626366 -0.00538243 -0.00279867 -0.00160936 0.000525029 0.000859318 -0.00010783 -0.00144098 -3.84656e-05
internal_weight=94119.5 23551.1 70568.5 12540.3 58028.2 20614 14939.2 10733.7 2937.08 12073 6384.28 5688.76 4205.49 5674.76 5345.54 4476.4 4279.41 55244.7 2783.42 9142.96 2700.88 2211.49 1390.98 1006.93 2210.35 37515.1 20147.3 5791.19 1977.58 1124.57
internal_count=4189 1063 3126 559 2567 928 674 483 135 538 286 252 191 254 240 198 192 2443 124 412 121 99 64 45 100 1663 893 257 88 50
cat_boundaries=0 1
cat_threshold=281
is_linear=0
shrinkage=0.03


Tree=10
num_leaves=31
num_cat=1
split_feature=78 8 64 25 75 0 77 33 26 90 76 45 25 78 61 33 33 96 10 72 53 16 44 47 100 61 48 25 66 76
split_gain=74.2839 18.967 15.3224 8.50091 8.03077 8.37705 7.93111 9.96374 7.73715 7.26766 9.39398 8.73133 7.21635 7.14928 6.74174 6.72984 6.53201 6.46185 6.4119 6.14588 6.13826 6.70594 6.63889 5.9807 5.86833 5.68775 5.64281 5.59111 5.47731 5.99525
threshold=-91.499999999999986 0.34975728155339808 0.020812500000000126 0.63680926916221037 229.50000000000003 0 19.500000000000004 0.57712133227597151 1.3166666666666669 0.62019230769230782 168.50000000000003 -0.045198885705662016 0.36067226890756304 227.50000000000003 66.71894444444446 0.49280538302277438 0.52397372742200343 10.950000000000001 -2.8374999999999995 0.19791666666666671 0.95283333333333353 0.52193151212004629 -0.037293637499540032 -0.10471087236551153 1.9375000000000002 68.195000000000022 0.97638888888888908 0.62791819991554576 0.12843333333333343 147.50000000000003
decision_type=8 8 8 10 10 1 10 8 8 8 10 8 8 8 10 10 8 8 10 10 10 8 10 8 10 10 10 10 10 10
left_child=1 -1 3 4 5 12 23 9 -7 10 11 -8 -2 14 -4 -13 -5 -10 24 -19 -6 25 -23 26 -12 -22 -3 -25 29 -14
right_child=2 6 13 16 20 8 7 -9 17 -11 18 15 28 -15 -16 -17 -18 19 -20 -21 21 22 -24 27 -26 -27 -28 -29 -30 -31
leaf_value=-0.0056009874861476126 -0.0033389516177784653 -0.001475930507770207 0.0012561790637501933 -0.00048748300118644426 -0.001745421218412467 -0.0016979095866487958 -0.0028293287033268775 1.9104634374786925e-05 -0.0017631465743787112 -0.0051828782562364454 -0.0074540103391180562 -0.00090198165402337446 0.00053055876039104027 0.0013852482233167554 0.00024351998915048232 0.0041324509076125938 -0.0053379375015202629 0.0035994615916945067 -0.0022234548661657643 -0.00062741117031338235 -0.0012981616000542792 0.0010651769768089438 -0.0011885716663504982 -0.00033762990359589748 -0.0029745286245682762 0.0022651294683433266 -0.0050421058549290172 -0.0027843235632528823 0.0022394870959860321 -0.0013548191761786688
leaf_weight=942.88533020019531 488.2369270324707 2872.3396472930908 8780.5522441864014 539.23985862731934 812.16799354553223 5263.9047622680664 706.22030258178711 1681.3398208618164 721.90234375 837.41121864318848 476.58100891113281 486.64672088623047 7192.6770572662354 15345.548559188843 18139.377853393555 467.99069213867188 465.01190757751465 723.16513633728027 2646.5162982940674 540.33268928527832 452.32137870788574 3228.7030658721924 1849.2386035919189 10654.607929229736 591.54210662841797 3665.3776626586914 463.19961357116699 911.62961959838867 1263.7977561950684 1922.901496887207
leaf_count=44 22 130 388 24 36 235 32 76 32 38 22 22 320 674 804 21 21 32 120 24 20 143 82 479 27 162 21 41 56 86
internal_value=2.02348e-05 -0.00143353 0.000503629 -2.577e-05 7.11171e-05 -0.000305656 -0.00126092 -0.00202971 -0.00109458 -0.00258407 -0.00217833 -0.000302509 0.000221452 0.000868478 0.000573856 0.00156778 -0.00273653 0.000499589 -0.00301672 0.00179278 0.000753144 0.000973986 0.000244355 -0.000853539 -0.00497831 0.00187349 -0.00197252 -0.000530698 0.000389449 0.000132739
internal_weight=95133.4 23738.9 71394.5 29129 28124.7 18116.9 22796 7894.25 7249.3 6212.91 5375.5 1660.86 10867.6 42265.5 26919.9 954.637 1004.25 1985.4 3714.64 1263.5 10007.8 9195.64 5077.94 14901.8 1068.12 4117.7 3335.54 11566.2 10379.4 9115.58
internal_count=4234 1073 3161 1295 1250 807 1029 358 323 282 244 75 484 1866 1192 43 45 88 169 56 443 407 225 671 49 182 151 520 462 406
cat_boundaries=0 1
cat_threshold=361
is_linear=0
shrinkage=0.03


Tree=11
num_leaves=31
num_cat=0
split_feature=78 52 50 34 60 98 78 90 18 43 74 17 72 75 32 17 64 1 53 57 58 64 73 73 25 25 75 76 74 45
split_gain=72.1562 33.0264 14.855 8.97291 8.49642 8.47473 7.73314 6.96489 7.00268 7.5299 6.68642 6.97468 6.503 6.26214 6.23993 7.99729 8.27036 6.2366 7.57881 6.2209 8.5396 10.1583 8.97103 6.12884 6.07445 6.39695 6.37489 5.79582 6.77376 5.72191
threshold=-91.499999999999986 66.676277777777798 1.0633500000000002 -2.7321428571428568 1.0855833333333338 12.050000000000002 -231.49999999999997 0.63484848484848488 4.0500000000000007 0.20000000000000007 17.500000000000004 0.50885025062656652 0.14583333333333318 227.50000000000003 0.52966314731020625 0.51010204081632671 -0.036274999999999884 7551.5000000000009 1.0715833333333336 1.0284307692307695 73.45650000000002 -0.069494047619047525 40.500000000000007 11.500000000000002 0.63680926916221037 0.48744747899159668 42.500000000000007 157.50000000000003 16.500000000000004 0.066666666666666693
decision_type=8 8 8 10 10 8 10 8 10 8 8 10 10 10 10 10 10 2 8 10 8 8 10 8 10 8 8 10 8 10
left_child=1 -1 4 -4 24 10 7 8 9 -3 11 -6 -11 -13 15 16 -12 -7 -19 -8 21 -21 29 -5 25 26 -2 28 -25 -23
right_child=2 6 3 23 5 17 19 -9 -10 12 14 13 -14 -15 -16 -17 -18 18 -20 20 -22 22 -24 27 -26 -27 -28 -29 -30 -31
leaf_value=-0.0045652256199092472 -0.0031954698123523419 -0.0022160186067029311 0.0014447867680330718 0.00085458622200550855 8.7302794013294891e-05 -0.00021027971734740962 0.00125827422901887 -0.0052566797498940212 0.00088854487386546069 0.0021057949234590178 -0.0052804792473762378 -0.0049772742080729133 -0.0020039682643405959 -0.00058078683360071061 0.0014817757558835342 0.00089140238031697281 -0.00029560899689173029 -0.0020283878700603211 -0.0071487672061565305 0.0014820212502712757 -9.8050118378153496e-05 -0.0025003086918836174 -0.0056826587641817207 0.0022190482765488784 -0.0030483577845080516 0.0010072976567950444 3.2768263388459123e-05 -0.0015237339059814023 3.0437957985262007e-07 0.00098781531922083983
leaf_weight=2657.1505088806152 600.16595458984375 6389.7770137786865 13822.896390914917 20987.563091278076 1009.0124797821045 539.2564582824707 1557.8733139038086 461.08414649963379 997.65663528442383 753.25692558288574 537.09447860717773 753.50429534912109 640.00820350646973 475.70643615722656 2021.9696655273438 1282.4851512908936 675.95736122131348 624.90646934509277 446.15326118469238 668.42481231689453 6354.9471874237061 2025.6507930755615 664.75843048095703 1419.5442123413086 471.17507743835449 7707.0164241790771 6536.3581390380859 1861.9597225189209 9657.7606716156006 534.39169311523438
leaf_count=124 27 290 609 926 45 24 70 21 45 34 24 34 29 21 90 57 30 28 20 30 285 91 30 63 21 341 290 83 428 24
internal_value=1.99059e-05 -0.00141426 0.000495861 0.000800525 -0.000118469 -0.00088725 -0.00101627 -0.00166617 -0.00147705 -0.00178035 -0.000420897 -0.00176135 0.000217857 -0.00327768 0.000243483 -0.000760017 -0.00250526 -0.00284226 -0.00416598 -0.000507432 -0.000775942 -0.00188216 -0.00257972 0.000537997 0.000301528 0.000408061 -0.000239129 2.44617e-05 0.000284809 -0.00177208
internal_weight=95135.5 23705 71430.5 47749.7 23680.8 8366.05 21047.8 9241.78 8780.7 7783.04 6755.73 2238.22 1393.27 1229.21 4517.51 2495.54 1213.05 1610.32 1071.06 11806 10248.2 3893.23 3224.8 33926.8 15314.7 14843.5 7136.52 12939.3 11077.3 2560.04
internal_count=4234 1073 3161 2109 1052 373 949 419 398 353 301 100 63 55 201 111 54 72 48 530 460 175 145 1500 679 658 317 574 491 115
is_linear=0
shrinkage=0.03


Tree=12
num_leaves=31
num_cat=2
split_feature=78 52 64 25 0 78 75 8 78 90 18 61 45 8 33 67 57 58 64 77 95 46 25 45 31 0 54 98 67 75
split_gain=70.0879 32.2771 14.5322 8.18575 7.70198 7.52868 7.04735 7.59285 6.82142 6.817 6.81194 6.41638 6.37508 8.24152 6.33289 6.07072 6.03729 8.31073 9.8879 9.3831 5.55085 6.56403 5.53426 5.40694 5.3416 6.18003 7.43971 7.05262 6.27023 5.88613
threshold=-91.499999999999986 66.676277777777798 0.020812500000000126 0.63680926916221037 0 -231.49999999999997 290.50000000000006 0.54587542087542096 227.50000000000003 0.63484848484848488 4.0500000000000007 66.71894444444446 0.12880720470006182 0.43183885640025993 0.52397372742200343 -1.6716666666666737 1.0284307692307695 73.48850000000003 -0.069494047619047525 27.500000000000004 9.4642857142857171 -0.078225546975546997 0.36067226890756304 0.066666666666666693 0.41428571428571431 1 73.085000000000022 9.9500000000000011 -1.8693333333333368 52.500000000000007
decision_type=8 8 8 10 1 10 8 10 8 8 10 10 8 10 8 8 10 10 8 10 10 8 8 10 10 1 8 10 10 10
left_child=1 20 3 4 22 9 12 15 11 10 -3 -4 13 -6 -5 -8 -7 18 -18 23 21 -1 -2 -20 29 27 -27 28 -26 -19
right_child=2 5 8 14 6 16 7 -9 -10 -11 -12 -13 -14 -15 -16 -17 17 24 19 -21 -22 -23 -24 -25 25 26 -28 -29 -30 -31
leaf_value=-0.003821229766948128 -0.0022354361807099777 -0.0017569916188053239 0.0012201101111366797 -0.00048167762076202253 -0.0038006537138030256 0.0012379715648335443 0.0029301922194154319 -0.0018425997140997775 0.0013471722466486221 -0.0052059778390016256 0.00087453844136131307 0.00023304393565697285 0.00058316490543609725 -0.00095650718586621803 -0.0052675040346399004 9.0392090270316963e-05 0.0014578005021651968 -0.0045776488621779646 -0.0024220662818709325 -0.0056662234390187213 -0.0020376712944062611 -0.0072909563122838684 0.00059848368374547758 0.00097216052117789209 0.00066646636568350735 0.00092160797067440551 -0.002529640259515231 -0.00031302853052861656 0.0046427644849782925 -0.00042630409210334472
leaf_weight=1173.1161670684814 644.61824226379395 7769.2045726776123 8800.2041454315186 539.02230453491211 1111.4630680084229 1559.8347835540771 1223.2092208862305 880.26643371582031 15381.51943397522 458.66673469543457 998.54350090026855 18151.937898635864 1763.4457321166992 5224.9253978729248 461.60353660583496 1517.2126770019531 669.41617393493652 442.30788040161133 1998.5119953155518 683.07193374633789 623.02547454833984 848.90600204467773 15766.567264556885 534.91983795166016 670.73480033874512 1135.9054718017578 1111.1432628631592 1228.03493309021 762.7999210357666 1003.3978652954102
leaf_count=55 29 353 388 24 50 70 54 39 674 21 45 804 78 233 21 67 30 20 90 31 29 40 700 24 30 51 50 55 34 45
internal_value=1.95811e-05 -0.00139521 0.000488213 -2.74829e-05 6.74025e-05 -0.00100218 -0.000519726 0.000580001 0.000843086 -0.00164413 -0.00145723 0.000555366 -0.00101196 -0.00145592 -0.00269251 0.00135857 -0.000500155 -0.000765009 -0.0018577 -0.00254796 -0.00451797 -0.00528081 0.000486744 -0.00170529 -9.65992e-05 0.000375501 -0.000781888 0.00135043 0.00278406 -0.00169868
internal_weight=95137.5 23671.5 71466 29132.3 28131.7 21026.5 11720.5 3620.69 42333.7 9226.41 8767.75 26952.1 8099.83 6336.39 1000.63 2740.42 11800.1 10240.2 3885.92 3216.5 2645.05 2022.02 16411.2 2533.43 6354.32 4908.62 2247.05 2661.57 1433.53 1445.71
internal_count=4234 1073 3161 1295 1250 949 521 160 1866 419 398 1192 361 283 45 121 530 460 175 145 124 95 729 114 285 220 101 119 64 65
cat_boundaries=0 1 2
cat_threshold=361 297
is_linear=0
shrinkage=0.03


Tree=13
num_leaves=31
num_cat=1
split_feature=77 50 26 98 64 17 59 25 47 64 75 0 52 52 96 45 53 74 7 46 26 98 18 17 9 72 59 50 31 95
split_gain=57.0365 30.6259 11.5398 11.5803 9.78598 9.49428 7.71758 6.25301 10.411 9.0855 6.26313 7.24655 6.03639 6.01471 7.25447 5.75555 5.66479 5.56753 8.88493 6.11594 6.77372 5.81994 5.68685 7.20116 5.34646 5.32716 5.67928 5.28013 7.40705 7.37331
threshold=1.5000000000000002 0.91089565505014425 -0.21111111111111108 12.585714285714287 0.15529747474747493 0.46258775437661076 70.561764705882368 0.63680926916221037 0.22198067632850241 -0.001987499999999975 290.50000000000006 0 66.450285714285727 69.95516666666667 11.337500000000002 -0.23094510870003074 0.95283333333333353 10.500000000000002 0.31666666666666671 -0.030102583586626121 0.35416666666666669 8.6500000000000004 2.0500000000000003 0.52788888888888896 0.42731157731157737 0.15277777777777787 66.878676470588246 1.0355684210526319 0.5277777777777779 9.6333333333333346
decision_type=10 8 8 10 8 10 10 10 10 10 10 1 10 10 10 10 10 10 10 10 8 10 10 10 8 10 10 10 10 10
left_child=4 24 3 5 7 -3 -7 10 9 -9 11 -1 -8 -13 25 -14 -12 18 -4 -20 -21 -22 23 -23 -2 26 -15 28 -17 -30
right_child=1 2 17 -5 -6 6 12 8 -10 -11 16 13 15 14 -16 27 -18 -19 19 20 21 22 -24 -25 -26 -27 -28 -29 29 -31
leaf_value=0.00059642264310387169 -0.0039932193319711191 0.00065654951123251138 -0.0037733434213910928 -0.0048360156018601051 0.0013578186234844409 0.00028815576115005396 -0.0048550368316089129 -0.0059653673745476759 0.0015259571506750511 -0.0011127831146827774 -0.0012084186018323491 -0.0018204189108251203 0.0016339668419434045 -0.0032562716132398073 0.0012212180334662509 -0.0025084312264002889 0.00099963175081672125 0.0002713352667323608 0.00049121856953861915 -0.004693729208916142 -0.004000172554169637 -0.00030724497557616952 0.0013569508480385432 -0.0035075928107474773 -0.0079490624557187976 -0.0021749866231925694 0.00019308782169123205 -0.0025496779023680004 -0.0019003354650519875 0.0017674862044585854
leaf_weight=15402.331218719482 1131.1086597442627 2083.0086936950684 812.08181381225586 838.32426071166992 11445.97481918335 1730.5548095703125 580.01912879943848 440.64945602416992 1042.9236869812012 1627.9635581970215 1106.8049449920654 2174.9266262054443 442.69149971008301 474.45407867431641 2756.3368015289307 1658.9148635864258 18703.241670608521 8767.2657794952393 3450.5345287322998 438.53080749511719 465.61623382568359 2576.3877868652344 1134.9861106872559 837.88725662231445 424.25708961486816 1511.6577301025391 4453.076623916626 4613.9535064697266 861.09930801391602 1152.0060176849365
leaf_count=682 53 94 37 38 503 78 27 20 46 72 49 97 20 21 122 75 823 392 155 20 21 116 51 38 20 67 197 209 39 52
internal_value=1.92625e-05 -0.000965744 -0.000768515 -0.0014195 0.000567017 -0.00120088 -0.00155139 0.00038485 -0.000917034 -0.00214885 0.000471828 0.00017259 -0.00189337 -0.000401704 -6.64252e-05 -0.00169603 0.000876211 -0.000276771 -0.000771332 -0.000497141 -0.00112248 -0.000809317 -0.000481926 -0.00109343 -0.00507667 -0.000617713 -0.000139632 -0.00187412 -0.00102481 0.000198423
internal_weight=95139.6 33999.2 32443.9 13960.6 61140.3 13122.2 11039.2 49694.4 3111.54 2068.61 46582.8 26772.8 9308.68 11370.5 9195.53 8728.67 19810 18483.3 9716.02 8903.94 5453.41 5014.88 4549.26 3414.28 1555.37 6439.19 4927.53 8285.97 3672.02 2013.11
internal_count=4234 1535 1462 632 2699 594 500 2196 138 92 2058 1186 422 504 407 395 872 830 438 401 246 226 205 154 73 285 218 375 166 91
cat_boundaries=0 1
cat_threshold=425
is_linear=0
shrinkage=0.03


Tree=14
num_leaves=31
num_cat=3
split_feature=78 52 50 64 60 78 76 25 0 47 85 94 53 65 75 25 96 75 72 15 0 46 81 1 99 95 46 95 47 47
split_gain=66.4696 31.0879 13.8252 8.48037 8.13715 7.23964 7.23859 8.47446 8.37138 7.54502 6.71573 7.80425 6.20869 6.0403 7.43127 6.51236 5.76203 6.51151 7.77706 5.64729 5.60948 5.74086 5.54071 5.50779 5.47691 5.3419 6.48327 5.32129 5.20639 6.69091
threshold=-91.499999999999986 66.676277777777798 1.0633500000000002 0.16071228070175439 1.0855833333333338 -231.49999999999997 126.50000000000001 0.41588539384911943 0 0.047175994744717238 1 0.068750000000000019 1.1365000000000003 -4.1104999999999938 63.500000000000007 0.63003220611916277 11.337500000000002 210.50000000000003 0.12152777777777775 0.68333333333333346 2 -0.016670846822210313 90000.000000000015 7438.5000000000009 0.29999999999999988 9.4642857142857171 -0.078225546975546997 11.950000000000001 -0.016438479553233683 -0.15363051333830399
decision_type=8 8 8 8 10 10 10 10 1 10 9 8 8 8 8 10 8 10 10 8 1 8 10 2 10 10 8 8 10 10
left_child=1 25 4 16 13 10 8 -8 -6 -10 -3 12 23 14 -2 -15 17 19 -19 22 27 28 -4 -12 -18 26 -1 -7 29 -22
right_child=2 5 3 -5 6 20 7 -9 9 -11 11 -13 -14 15 -16 -17 24 18 -20 -21 21 -23 -24 -25 -26 -27 -28 -29 -30 -31
leaf_value=-0.0037379701538775428 -0.0042541903063702457 -0.00063637137745752709 -0.00043297461160906074 0.0015861005695341447 0.0010255104794139188 -0.0022767027529789494 -0.0054000424249822567 -0.0012692046740242181 -0.00061322834095957725 -0.0043819771857296517 -0.00042407071541162265 -0.0048593725856616986 0.00025266100988100991 0.00066589526347720946 -0.00018876787249464229 -0.0030144295059846295 0.0024614467964410212 0.0012858010077360814 9.0609065910454448e-05 -0.0015614654517968048 0.0018440572165713161 -0.00085260442716046094 0.0010246361911146128 -0.0031097827490067635 0.00071908095146385527 -0.002004055491864751 -0.0072030700133343256 0.00064498640021995088 0.0023773318268630775 -0.0010358149792994173
leaf_weight=1164.356315612793 527.48845291137695 3782.3382740020752 5873.6863708496094 9207.2037086486816 2495.6695117950439 2360.5590553283691 575.45569229125977 1994.4645080566406 2711.4055290222168 579.5572681427002 941.06022071838379 885.10602378845215 1041.552339553833 12621.833759307861 1727.5511245727539 447.10564994812012 2543.7826766967773 10621.942098617554 9095.1681213378906 2110.1802501678467 1159.2761116027832 4404.4892978668213 3907.6882381439209 2550.3630809783936 4489.3959636688232 621.39851951599121 839.19841194152832 735.35927581787109 1187.7135791778564 1939.224645614624
leaf_count=55 24 171 260 404 111 107 26 89 121 26 43 41 47 558 77 20 112 467 401 94 52 198 173 117 198 29 40 33 53 87
internal_value=1.89481e-05 -0.00136116 0.000474536 0.00076794 -0.000118325 -0.000976065 -0.000871336 -0.00219592 -0.000282792 -0.00127419 -0.00160669 -0.00228382 -0.00177996 0.000292341 -0.0011412 0.000539765 0.000572961 0.000400132 0.000734512 -0.00015431 -0.000483719 -9.19672e-05 0.00014939 -0.00238622 0.00134953 -0.00443854 -0.00519221 -0.00157765 0.000689461 4.19106e-05
internal_weight=95141.6 23612 71529.6 47849 23680.5 20987 8356.55 2569.92 5786.63 3290.96 9200.42 5418.08 4532.98 15324 2255.04 13068.9 38641.8 31608.7 19717.1 11891.6 11786.6 8690.7 9781.37 3491.42 7033.18 2624.95 2003.55 3095.92 4286.21 3098.5
internal_count=4234 1073 3161 2109 1052 949 373 115 258 147 419 248 207 679 101 578 1705 1395 868 527 530 390 433 160 310 124 95 140 192 139
cat_boundaries=0 1 2 3
cat_threshold=105 1 18
is_linear=0
shrinkage=0.03


Tree=15
num_leaves=31
num_cat=0
split_feature=78 73 77 50 26 45 77 33 67 66 76 8 95 32 45 61 47 52 52 1 70 44 72 91 96 32 26 59 77 25
split_gain=68.6288 25.8176 17.5889 14.5059 12.1521 7.73022 7.36647 8.63021 7.06553 6.43477 6.34189 10.367 8.16388 6.3129 7.35928 6.32065 6.00076 5.65874 7.05839 6.38058 5.52101 5.5088 5.24976 7.81339 4.85906 4.84964 4.6825 4.67546 7.69213 5.84686
threshold=-107.49999999999999 81.000000000000014 -6.4999999999999991 0.98387500000000017 0.31666666666666671 -0.10412964980708599 19.500000000000004 0.57712133227597151 -1.9299999999999995 0.051625000000000039 222.50000000000003 0.48164983164983172 11.225000000000001 0.5345681119836122 0.079181666035114298 80.853333333333339 -0.06549716215169081 71.915000000000006 72.627000000000024 7436.5000000000009 1.8263888888888891 0.007276603633667029 37.715277777777779 0.48333333333333339 13.316666666666668 0.47512376237623766 4.8166666666666673 75.112166666666681 2.5000000000000004 0.52851335656213716
decision_type=8 10 10 8 8 8 10 10 8 10 10 10 8 8 10 10 8 10 10 2 8 10 8 8 10 10 10 10 10 8
left_child=1 4 8 9 6 -6 17 -8 13 24 12 20 -7 14 16 -15 21 -1 -19 -20 25 -2 27 -24 -4 -12 -13 -5 29 -29
right_child=2 -3 3 22 5 10 7 -9 -10 -11 11 26 -14 15 -16 -17 -18 18 19 -21 -22 -23 23 -25 -26 -27 -28 28 -30 -31
leaf_value=-0.00056402240382695317 0.0025868281167020328 -0.006290538035307454 -0.0007865123810027844 0.00013063909228940303 0.0032842275150641678 0.0029753750389345372 -0.0038527821924026163 -0.00028471204793578469 0.0010156021059244172 -0.0050096593227512125 -0.0043296277968990953 -0.00022396936002525711 -0.0014689423089852029 0.0015383575019395966 0.0020763703515248423 -0.00099131001960351566 -0.0019582976311005164 -0.0054790298526107761 0.0015545004091799255 -0.0025020632231400959 -0.0050241582042564745 -0.0012255460943654023 0.0038266755866308583 -0.00020830108692934408 -0.0040857844472440849 -0.00042676891846174373 -0.0033625379354527995 0.0012476186840639889 -0.003584070096570567 -0.0015632261582778824
leaf_weight=3191.854528427124 610.68271827697754 987.13486671447754 2034.631950378418 24074.733657836914 443.67013740539551 844.12690734863281 2971.8891468048096 767.83700180053711 32652.153509140015 552.69670486450195 434.7425708770752 5456.7577152252197 663.6177864074707 3425.9398422241211 747.49477958679199 1199.5320281982422 2777.7441749572754 545.25275802612305 441.18765068054199 1658.062105178833 738.85627174377441 770.27614784240723 812.11187553405762 921.09541702270508 499.83337020874023 837.57878303527832 463.22953987121582 1237.4439392089844 819.69266510009766 1440.00927734375
leaf_count=145 27 47 92 1070 20 38 137 35 1434 25 20 246 30 151 33 53 123 25 20 76 34 34 36 41 23 38 21 55 37 64
internal_value=-2.00365e-05 -0.00155978 0.000402115 -0.000123651 -0.00131948 -0.0005814 -0.00208104 -0.00312046 0.000805835 -0.00207929 -0.00076343 -0.00110247 0.00101958 8.72145e-05 -0.000662368 0.000882262 -0.00115502 -0.00141459 -0.00244061 -0.00164918 -0.00296278 0.000461 8.24312e-05 0.00168344 -0.00143853 -0.0017627 -0.000470084 -1.82682e-05 -0.00104311 -0.000264152
internal_weight=95021.9 20445.8 74576.1 32392.2 19458.7 9882.58 9576.08 3739.73 42183.8 3087.16 9438.91 7931.16 1507.74 9531.67 4906.2 4625.47 4158.7 5836.36 2644.5 2099.25 2011.18 1380.96 29305.1 1733.21 2534.47 1272.32 5919.99 27571.9 3497.15 2677.45
internal_count=4230 932 3298 1443 885 447 438 172 1855 140 427 359 68 421 217 204 184 266 121 96 92 61 1303 77 115 58 267 1226 156 119
is_linear=0
shrinkage=0.03


Tree=16
num_leaves=31
num_cat=0
split_feature=78 73 64 26 64 45 98 77 33 77 96 25 72 76 10 95 45 9 74 90 50 95 73 86 81 47 96 96 25 60
split_gain=66.6819 25.2878 17.1202 11.8401 7.64225 7.48742 7.26593 7.19647 8.43655 6.80946 8.83974 7.75063 7.87239 6.15969 11.567 7.90263 5.47517 5.18936 5.82531 5.81704 5.12143 5.07091 4.90855 5.45229 5.35745 5.43754 4.7652 4.9547 4.7106 4.63909
threshold=-107.49999999999999 81.000000000000014 -0.044650000000000072 0.31666666666666671 0.14065000000000014 -0.10412964980708599 11.788888888888891 19.500000000000004 0.57712133227597151 -2.4999999999999996 10.683333333333335 0.41588539384911943 51.493055555555564 222.50000000000003 -2.6833333333333331 11.225000000000001 0.025722599146238593 0.49479110146500277 6.5000000000000009 0.43541666666666673 1.0167750000000002 11.316666666666668 36.500000000000007 1.0000000180025095e-35 259000.00000000003 -0.023679390661272056 11.050000000000002 11.866666666666669 0.43263412666397744 1.0838333333333336
decision_type=8 10 8 8 8 8 10 10 10 8 10 8 8 10 10 8 8 10 10 10 10 10 10 2 8 10 10 10 10 10
left_child=1 3 6 7 -4 -5 9 26 17 10 21 -11 22 15 -15 -7 -8 18 -9 -20 -12 -2 23 -13 25 -25 -1 -28 -29 -3
right_child=2 29 4 5 -6 13 16 8 -10 11 20 12 -14 14 -16 -17 -18 -19 19 -21 -22 -23 -24 24 -26 -27 27 28 -30 -31
leaf_value=-0.0021927595091424949 0.00032210421837022927 -0.0042110998022540881 0.00043422114672139414 0.0032247460200134428 0.0012429842687394412 0.002922338044237346 -0.003347951382074311 -0.0068730144481538059 -0.00028055642492120098 -0.0028465633383716201 -0.00019725258062023456 0.0026619081153217887 0.003342997850614714 -0.0051721858128791764 -0.00076553851362123231 -0.0014492317144423853 -0.00039368674042251732 -0.0015427350020370276 -0.0023104961660447981 -0.0062237654452003757 0.0022136692582534383 -0.0031586252578706783 -0.0035740315237357588 -0.00061521527369210241 -4.4757976053685553e-05 -0.0047941906155938904 0.00088376685025715453 0.00079815271833767103 -0.002884225157804632 -0.008353510939474262
leaf_weight=3126.5501270294189 790.40368461608887 502.89913368225098 46953.423109054565 445.12964820861816 13549.652645111084 846.64224243164062 1319.8152198791504 662.57629776000977 767.6184253692627 1409.2484035491943 1193.8660697937012 469.68042755126953 473.48647499084473 577.37342643737793 7345.0760231018066 662.6436824798584 986.66020393371582 696.49309730529785 1106.080940246582 495.31081581115723 2359.7245826721191 718.39221572875977 482.49753189086914 623.89026069641113 2767.1578140258789 508.22596168518066 1277.4031963348389 462.49586486816406 961.67177963256836 478.04561042785645
leaf_count=143 35 24 2073 20 594 38 60 31 35 64 53 21 21 27 332 30 44 32 51 23 104 32 22 28 124 23 58 21 44 23
internal_value=-1.97648e-05 -0.00153901 0.000395952 -0.00130159 0.000615361 -0.000573118 -0.000545305 -0.00205437 -0.00308368 -0.000244131 0.000587116 -0.00086901 -0.000345213 -0.00075268 -0.0010873 0.00100334 -0.0020849 -0.00381016 -0.00450673 -0.003524 0.00140387 -0.00133619 -0.000705786 -0.000388278 -0.000756271 -0.0024938 -0.00139554 -0.000472443 -0.00168866 -0.00623628
internal_weight=95020.1 20414 74606.1 19433.1 60503.1 9876.87 14103 9556.2 3728.08 11796.6 5062.39 6734.19 5324.94 9431.74 7922.45 1509.29 2306.48 2960.46 2263.97 1601.39 3553.59 1508.8 4851.45 4368.95 3899.27 1132.12 5828.12 2701.57 1424.17 980.945
internal_count=4230 932 3298 885 2667 447 631 438 172 527 224 303 239 427 359 68 104 137 105 74 157 67 218 196 175 51 266 123 65 47
is_linear=0
shrinkage=0.03


Tree=17
num_leaves=31
num_cat=2
split_feature=78 73 64 26 64 45 98 73 0 54 0 54 25 64 18 34 52 98 47 1 34 1 32 8 7 15 98 54 47 99
split_gain=64.7898 24.7676 16.6075 11.5362 7.39909 7.25248 7.08993 6.42813 7.23428 7.53504 6.21394 7.99883 6.11258 11.653 7.06355 6.53079 5.91513 8.12763 12.2842 6.49491 5.58943 5.58018 5.50858 5.92588 5.42129 5.10665 7.84841 6.00329 4.9573 4.71129
threshold=-107.49999999999999 81.000000000000014 -0.044650000000000072 0.31666666666666671 0.14065000000000014 -0.10412964980708599 12.050000000000002 16.500000000000004 0 69.400416666666686 1 72.519166666666692 0.53052351375332762 0.00096176470588238427 2.0500000000000003 1.0000000180025095e-35 66.676277777777798 11.788888888888891 -0.090876956200392003 7801.5000000000009 1.0000000180025095e-35 7671.5000000000009 0.50568255198243584 0.45729483282674777 0.68333333333333346 0.68333333333333346 10.550000000000002 68.994166666666686 -0.18046828596182907 -2.2833333333333319
decision_type=8 10 8 8 8 8 10 8 1 8 1 10 10 10 10 10 10 10 10 2 8 2 10 10 10 10 10 10 10 10
left_child=1 3 6 16 -4 -5 7 24 22 20 11 -7 13 -12 15 -14 19 25 -19 -1 -10 -16 -9 -24 -2 26 -18 -27 -28 -22
right_child=2 -3 4 5 -6 10 -8 8 9 -11 12 -13 14 -15 21 -17 17 18 -20 -21 29 -23 23 -25 -26 27 28 -29 -30 -31
leaf_value=-0.00237728421490071 0.00095749801939410491 -0.006182227374860556 0.00042756535022229624 0.0031665306529071909 0.0012229357627699035 -0.0022802565378613692 -0.0023244990015181786 -0.00075306665926032617 -0.0041338485993416786 0.001191341641902704 -0.0013336244445263303 0.0017438956179302129 -0.0012794411610860283 0.0026736611334063649 0.0011920366326198704 -0.0045005284447206407 0.00064939031746453569 -0.0076328326081718965 -0.0011819659529751511 -0.0070058287918994379 0.0020413246445649619 -0.0022591349459168222 -0.0015974684379242148 -0.005330325555273129 -0.0015255061945011696 8.3749389849601237e-05 0.00065833560261498983 -0.0032043235058717076 -0.002556014599959174 -0.0020745416081119536
leaf_weight=783.718994140625 4336.7262477874756 974.85470771789551 46973.815801620483 446.5673942565918 13566.505201339722 611.24636650085449 1749.1624412536621 1804.996057510376 507.64407539367676 2146.1260204315186 2306.951078414917 1622.3495140075684 1035.4793167114258 909.85862731933594 866.94583320617676 1252.7134952545166 1981.6974925994873 496.59582138061523 570.96925163269043 419.04699516296387 442.64774513244629 819.10995864868164 902.36960029602051 665.32612991333008 967.05611038208008 658.81536674499512 549.58855628967285 2068.1362457275391 2008.059534072876 573.34980010986328
leaf_count=37 192 47 2073 20 594 28 79 81 23 96 105 73 47 41 39 57 90 23 26 20 20 37 41 30 43 30 25 95 92 26
internal_value=-1.94978e-05 -0.00151849 0.000389887 -0.00128393 0.000605817 -0.000564929 -0.000537521 -0.000284182 -0.000878184 4.60283e-05 -0.000742054 0.000639257 -0.00117039 -0.000199705 -0.00195877 -0.00304408 -0.00202802 -0.00174378 -0.00418703 -0.00399436 -0.00156662 -0.000484937 -0.00187809 -0.00318407 0.000504561 -0.0013843 -0.0007676 -0.00241021 -0.00186533 -0.000281105
internal_weight=95018.4 20382.7 74635.7 19407.8 60540.3 9871.22 14095.4 12346.2 7042.46 3669.77 9424.65 2233.6 7191.06 3216.81 3974.25 2288.19 9536.63 8333.86 1067.57 1202.77 1523.64 1686.06 3372.69 1567.7 5303.78 7266.3 4539.35 2726.95 2557.65 1016
internal_count=4230 932 3298 885 2667 447 631 552 317 165 427 101 326 146 180 104 438 381 49 57 69 76 152 71 235 332 207 125 117 46
cat_boundaries=0 1 2
cat_threshold=263 257
is_linear=0
shrinkage=0.03


Tree=18
num_leaves=31
num_cat=1
split_feature=77 52 78 77 24 66 46 54 1 52 77 10 85 43 77 70 96 45 72 25 46 34 52 32 67 32 61 45 8 25
split_gain=63.0133 30.3735 10.4749 9.00455 7.59469 7.35847 7.65934 7.29838 7.69624 6.86945 6.76505 6.56996 6.40977 6.41497 6.27688 7.95906 5.34168 5.40698 5.32481 5.32941 8.67347 5.14812 5.07027 5.0437 4.96653 6.08732 6.17191 5.45673 6.29165 6.4441
threshold=2.5000000000000004 66.676277777777798 -206.99999999999997 -6.4999999999999991 0.5054354247902636 -0.22936666666666664 -0.16314454707502832 65.180625000000006 7413.5000000000009 69.884764705882361 67.000000000000014 -1.211111111111111 0 -0.45634920634920634 34.500000000000007 44.845486111111121 9.6500000000000004 0.072609755314108584 27.375000000000004 0.63680926916221037 0.037289280897794964 2.0500000000000003 72.175500000000014 0.56773440106773443 -1.9299999999999995 0.5345681119836122 80.853333333333339 0.079181666035114298 0.51935564435564452 0.49065338923829499
decision_type=10 8 10 8 8 8 10 8 2 10 10 10 9 10 10 8 10 8 8 8 10 10 10 10 8 8 10 10 10 8
left_child=3 10 5 7 -4 -3 -7 -1 -9 21 -2 -11 22 -14 15 16 17 -6 19 -5 -21 -8 -13 -24 25 27 -27 28 29 -10
right_child=1 2 4 18 14 6 9 8 24 11 -12 12 13 -15 -16 -17 -18 -19 -20 20 -22 -23 23 -25 -26 26 -28 -29 -30 -31
leaf_value=-0.0020952769980493741 -0.0030998019334842323 -0.0040810306273750662 -0.00099200092267809153 0.00011106547286961859 -0.0035823892369442572 -0.0052129062956687193 -0.00065609489373040747 0.0020742675976677069 0.0011487796657500516 -0.004393590562775415 -0.0063882738680888142 0.002260382589967498 0.0010571497205090921 -0.0027092513065878 -0.0017705106015648731 0.0035336998818333706 0.00061962904662045371 0.00027288777903121489 0.0022728025963412199 -0.003097099064822867 0.00080070493477753582 0.0026592102469827918 -0.0020662027060810665 0.0013301655169501595 0.00089959978069724562 0.001613372285710847 -0.0012021164771499188 0.0017293364601520926 -0.0028734850154757807 -0.0020651855426590858
leaf_weight=771.11996459960938 2744.004581451416 968.34035301208496 9054.7240238189697 20506.202077865601 602.16350936889648 431.11642265319824 1228.1501274108887 4136.1443729400635 1288.0727138519287 671.59317016601562 709.38840293884277 618.82361602783203 479.41601371765137 2675.7372512817383 1222.8011913299561 724.12125015258789 5970.113883972168 715.84754180908203 934.61788940429688 1230.722957611084 880.93812370300293 640.62701797485352 1143.4540309906006 598.8929500579834 27314.348281860352 2865.2766609191895 926.67337799072266 681.92348480224609 1287.6562004089355 993.74173355102539
leaf_count=34 129 45 408 910 27 20 56 181 57 31 35 28 22 123 55 32 267 32 41 55 39 29 52 27 1197 126 41 30 57 44
internal_value=-1.92353e-05 -0.00112414 -0.000793836 0.000520946 -0.000374667 -0.00160445 -0.00132146 0.000793485 0.00084994 -0.00111261 -0.00377697 -0.00159396 -0.00125238 -0.0021368 0.000230655 0.000536248 0.000237989 -0.00148986 5.50034e-05 -3.67372e-05 -0.00147141 0.000481224 -7.01383e-05 -0.000898683 0.000706663 5.14404e-05 0.00092519 -0.000727918 -0.00119771 -0.00025121
internal_weight=95016.8 31199.3 27745.9 63817.4 18289.8 9456.15 8487.81 40265 39493.8 8056.69 3453.39 6187.92 5516.32 3155.15 9235.05 8012.25 7288.12 1318.01 23552.5 22617.9 2111.66 1868.78 2361.17 1742.35 35357.7 8043.34 3791.95 4251.39 3569.47 2281.81
internal_count=4230 1418 1254 2812 821 433 388 1767 1733 368 164 283 252 145 413 358 326 59 1045 1004 94 85 107 79 1552 355 167 188 158 101
cat_boundaries=0 1
cat_threshold=1
is_linear=0
shrinkage=0.03


Tree=19
num_leaves=31
num_cat=1
split_feature=78 52 77 50 10 77 34 0 84 34 53 9 67 66 54 78 65 64 96 32 45 99 46 44 33 58 8 72 91 54
split_gain=61.2858 21.9677 15.9842 13.3865 8.2222 7.11415 11.9911 9.94981 8.25945 11.3098 7.31296 6.68043 6.49738 6.36465 6.36226 6.09137 7.42673 6.7221 6.61085 5.89752 6.90709 5.91214 5.80674 6.07533 5.10636 5.01143 4.95428 4.91652 7.46233 4.86616
threshold=-107.49999999999999 66.676277777777798 -6.4999999999999991 0.98387500000000017 -2.6333333333333329 19.500000000000004 3.4142857142857146 0 28.000000000000004 -1.1547619047619044 1.0471666666666668 0.38564300659906653 -1.9299999999999995 0.051625000000000039 73.27500000000002 -193.49999999999997 -1.4044583333333234 0.048750000000000078 11.788888888888891 0.5345681119836122 0.079181666035114298 1.8499999999999999 -0.065903755188165172 0.0048833248168966012 0.62736185383244225 78.257777777777804 0.54038521279900598 37.715277777777779 0.48333333333333339 75.321666666666687
decision_type=8 8 10 8 10 10 8 1 2 10 10 8 8 10 8 10 10 10 10 8 10 10 10 10 10 10 10 8 8 10
left_child=1 4 12 13 11 7 8 10 9 14 -3 -1 19 -4 -7 24 18 22 -17 20 21 26 -18 -24 -9 -14 -2 -5 -29 -21
right_child=2 5 3 27 -6 6 -8 15 -10 -11 -12 -13 25 -15 -16 16 17 -19 -20 29 -22 -23 23 -25 -26 -27 -28 28 -30 -31
leaf_value=-0.0029405884940431472 4.2251998168634467e-06 -0.0012882113467723318 -0.0013693213632512882 -2.3279606233622108e-05 -0.00058864671507796609 -0.0068815250076041286 0.0020243335123281718 -0.0013819818040597912 -0.0052063480980443456 -0.00094775950214290154 0.0020430209718760319 -0.0065170219875627013 0.001009088787490313 -0.0049336760032560592 -0.0021216009492008758 0.0024834633530602802 0.00011423555278213665 0.00099184608399413305 -0.0017361532824064418 0.0011945697577887783 0.001993547629815687 -0.0037027184201364762 -0.0018077135183180079 -0.0064210801904974095 -0.0037482834095421734 -0.0020314023089607544 -0.0026451876763246302 0.0037058754366551747 -0.00022929979908604254 -0.0018232935284457834
leaf_weight=808.14287185668945 2643.3073425292969 899.47647857666016 2521.493932723999 27581.169366836548 465.48531723022461 539.77833557128906 576.05705833435059 5123.0798568725586 864.20637321472168 2733.4405422210693 1737.1280479431152 1131.9700546264648 32265.691314697266 548.47428321838379 476.84263038635254 1180.4551048278809 531.57440185546875 755.15779495239258 465.12783241271973 4093.8526954650879 751.16489791870117 672.9620304107666 618.93838119506836 439.61899375915527 977.08125114440918 494.47799682617188 835.15629577636719 817.39176368713379 922.41547012329102 543.95585060119629
leaf_count=39 117 41 115 1226 22 25 26 234 40 125 78 55 1412 25 22 53 24 34 21 180 33 30 28 20 45 22 37 36 41 24
internal_value=-1.89725e-05 -0.00147956 0.000378469 -0.000123056 -0.00417084 -0.00111803 -0.00205404 -0.000736194 -0.00256352 -0.00195325 0.000903091 -0.00502956 0.000762496 -0.00200752 -0.00465318 -0.0011643 -0.000254081 -0.0013379 0.00129045 7.35049e-05 -0.000651896 -0.00113093 -0.00244422 -0.0037279 -0.00176155 0.000963135 -0.000632459 7.43134e-05 0.00162058 0.000840296
internal_weight=95015.1 20323.6 74691.5 32390.9 2405.6 17918 5190.32 12727.6 4614.27 3750.06 2636.6 1940.11 42300.6 3069.97 1016.62 10091 3990.87 2345.29 1645.58 9540.4 4902.59 4151.43 1590.13 1058.56 6100.16 32760.2 3478.46 29321 1739.81 4637.81
internal_count=4230 932 3298 1443 116 816 238 578 212 172 119 94 1855 140 47 459 180 106 74 421 217 184 72 48 279 1434 154 1303 77 204
cat_boundaries=0 1
cat_threshold=257
is_linear=0
shrinkage=0.03


Tree=20
num_leaves=31
num_cat=0
split_feature=78 52 78 34 72 9 50 51 54 58 70 67 35 66 54 8 26 51 68 57 99 70 1 51 76 72 25 66 91 1
split_gain=61.2939 19.8324 11.0932 9.07622 9.26244 7.31269 7.09295 9.64496 6.19286 7.6038 7.39743 6.13771 5.86804 8.28943 9.05535 7.47991 6.4931 6.29736 6.09459 5.78305 5.72125 5.56992 6.09305 5.29735 6.61251 6.98808 8.81145 5.20693 5.18695 5.07698
threshold=-107.49999999999999 65.697587301587319 106.50000000000001 0.70714285714285718 0.18923611111111113 0.37303889963464437 1.0296205882352945 74.88600000000001 74.015833333333347 72.652500000000018 9.5642361111111125 -10.472 3.5000000000000004 0.028458333333333256 75.761666666666684 0.59605672105672114 -3.5499999999999994 72.361000000000004 2.5000000000000004 1.1716125000000004 -2.1999999999999997 3.9045138888888893 7619.5000000000009 76.421388888888899 228.00000000000003 9.2968750000000018 0.61569230769230787 -0.19918750000000005 0.48333333333333339 7690.0000000000009
decision_type=8 8 8 8 8 10 10 10 10 10 10 10 2 10 8 10 10 10 2 10 8 10 2 8 8 8 8 10 10 2
left_child=1 5 12 4 -3 -1 20 -8 9 -6 -11 -7 -2 14 17 16 -15 19 -18 -14 -5 22 27 24 -4 26 -26 -22 -16 -30
right_child=2 3 23 6 8 11 7 -9 -10 10 -12 -13 13 15 28 -17 18 -19 -20 -21 21 -23 -24 -25 25 -27 -28 -29 29 -31
leaf_value=-0.0022979835852821456 0.00069056444227135329 -0.0011216164131513683 0.00079281598294301712 -0.001660575883187289 -0.001829072095700827 -0.009331933403107855 -0.0018974633312249314 0.00020889737450664752 -0.001347425452652646 -0.0071467237089646385 -0.0023498429747879162 -0.0041207230224687254 -0.0011774478377106538 0.0041645563976696661 -0.00039906668393618048 -0.002454201624411722 1.4367778560381692e-05 0.00035539086554561269 0.0016800369821622775 0.0023523474760566371 -0.00055849353543964994 0.0041413591955637638 -0.0017695268999450822 0.0014452654560436434 -0.00025708016685652629 0.0025073718955665593 -0.0040226064494284655 0.0037084642816493001 -0.0013885638649782559 -0.0049519196696764002
leaf_weight=576.39228057861328 9131.9079437255859 4645.1355876922607 24806.239688873291 736.6981086730957 782.93906402587891 405.94391632080078 5100.1084060668945 3173.4636764526367 1049.5355854034424 879.53703689575195 432.93534851074219 412.37713432312012 6590.4113712310791 453.03657150268555 767.69353866577148 745.17302513122559 6874.3621406555176 6236.8030300140381 2774.1247692108154 445.08343505859375 437.30594062805176 508.73995971679688 630.84621810913086 8236.5538349151611 4022.426944732666 663.46098327636719 648.64858245849609 623.79216003417969 626.35217666625977 848.10553932189941
leaf_count=28 404 212 1086 34 36 20 233 144 48 41 20 20 297 20 34 33 305 277 123 20 20 23 29 360 177 29 29 28 28 38
internal_value=1.55377e-05 -0.00144027 0.000417504 -0.00118667 -0.00197318 -0.004892 -0.000640018 -0.00108961 -0.0032302 -0.00417214 -0.00556741 -0.00671408 3.5221e-05 -0.000191818 -0.000636619 0.000444398 0.000658445 -0.000338638 0.000493404 -0.000953841 0.000626253 0.0013922 0.000563609 0.000771046 0.00058676 -0.000371392 -0.000780729 0.00195107 -0.00239956 -0.00344017
internal_weight=94266.1 20395.8 73870.4 19001 7790.08 1394.71 11211 8273.57 3144.95 2095.41 1312.47 818.321 35493.1 26361.1 15514.4 10846.7 10101.5 13272.3 9648.49 7035.49 2937.38 2200.68 1691.94 38377.3 30140.8 5334.54 4671.08 1061.1 2242.15 1474.46
internal_count=4196 936 3260 868 357 68 511 377 145 97 61 40 1579 1175 694 481 448 594 428 317 134 100 77 1681 1321 235 206 48 100 66
is_linear=0
shrinkage=0.03


Tree=21
num_leaves=31
num_cat=0
split_feature=78 52 78 34 72 9 1 33 67 54 58 70 78 66 8 52 54 52 60 23 97 26 100 48 59 47 31 17 78 32
split_gain=59.545 19.3944 10.7521 8.84205 9.04685 7.19717 6.30502 8.08369 6.07895 6.06337 7.46587 7.28866 6.04284 5.43518 10.7391 6.98702 6.33061 9.27624 6.65093 6.00304 5.15486 6.87283 6.22522 6.0497 4.93084 4.86164 4.77354 5.68586 4.60487 4.94701
threshold=-107.49999999999999 65.697587301587319 106.50000000000001 0.70714285714285718 0.18923611111111113 0.37303889963464437 7659.5000000000009 0.50172413793103454 -10.472 74.015833333333347 72.652500000000018 9.5642361111111125 -725.49999999999989 0.028458333333333256 0.60995670995671014 68.259315789473703 75.761666666666684 70.279111111111121 1.258016666666667 0.21111111111111114 11.261111111111113 -0.29285714285714276 0.48333333333333345 -1.0000000180025095e-35 73.919000000000011 -0.18046828596182907 0.61250000000000016 0.5791562238930662 -193.49999999999997 0.55705244122965658
decision_type=8 8 8 8 8 10 2 10 10 10 10 10 10 10 10 10 10 10 8 10 10 8 10 10 10 8 8 10 10 10
left_child=1 5 13 4 -3 -1 20 -8 -7 10 -6 -12 -9 16 15 -15 26 -18 24 -17 22 25 -5 28 -19 -22 -2 -28 29 -23
right_child=2 3 -4 6 9 8 7 12 -10 -11 11 -13 -14 14 -16 19 17 18 -20 -21 21 23 -24 -25 -26 -27 27 -29 -30 -31
leaf_value=-0.0022690469682462053 -0.00048650705589333587 -0.0011061597233455102 0.00075896448075025112 -0.0002022687766402005 -0.0018051775923038269 -0.0092798817388578762 0.001873647823966203 -0.0047472358196999536 -0.0040763312375187693 -0.001329172761284105 -0.0070911958240579718 -0.0023203912970029047 -0.0014298324383922585 -0.0017534690177982279 -0.0029067675540717869 0.0037664612951830226 -0.0052201299616602623 -0.00044351585612101464 0.0022334335691267175 0.00072969497198109242 -6.8274626702393665e-05 0.0021897777311578786 0.0034535549881650313 -0.0021384963782403259 -0.0042180667452272102 -0.0036416235534280353 0.00021515922825626077 0.002936109618392903 0.0027244816624192145 -0.0014541445914202449
leaf_weight=575.06925773620605 11064.458436965942 4639.9284496307373 38406.945041656494 943.1730899810791 781.50832176208496 402.17329406738281 593.76324844360352 564.98172569274902 410.68134117126465 1048.1223697662354 873.27363777160645 431.91921424865723 3913.9070014953613 976.99828147888184 790.84910583496094 615.42118453979492 530.63888740539551 855.15473365783691 498.96504783630371 11848.484020233154 566.45135307312012 549.40160179138184 753.44452476501465 703.19730377197266 489.18225479125977 866.53318405151367 7058.9408397674561 765.24151992797852 891.91006278991699 857.03332710266113
leaf_count=28 495 212 1681 43 36 20 27 26 20 48 41 20 179 44 35 27 24 38 22 524 26 25 34 32 22 40 314 34 40 39
internal_value=1.52818e-05 -0.00142093 0.000411101 -0.00117042 -0.0019477 -0.00484309 -0.00063091 -0.00141321 -0.00665911 -0.00319253 -0.00412739 -0.00551541 -0.00184927 3.46822e-05 0.000488424 0.000688395 -0.000269031 -0.00172885 -0.00072152 0.000879929 1.64565e-05 -0.000521612 0.00142231 0.000294533 -0.00181913 -0.00223013 -8.54777e-05 0.000481622 0.00103954 -3.01594e-05
internal_weight=94267.8 20366.5 73901.3 18978.5 7774.75 1387.92 11203.8 5072.65 812.855 3134.82 2086.7 1305.19 4478.89 35494.3 14231.8 13440.9 21262.6 2373.94 1843.3 12463.9 6131.14 4434.53 1696.62 3001.54 1344.34 1432.98 18888.6 7824.18 2298.34 1406.43
internal_count=4196 936 3260 868 357 68 511 232 40 145 97 61 205 1579 630 595 949 106 82 551 279 202 77 136 60 66 843 348 104 64
is_linear=0
shrinkage=0.03


Tree=22
num_leaves=31
num_cat=0
split_feature=78 52 78 34 72 9 1 78 73 67 54 58 70 67 35 66 54 8 26 98 81 68 66 91 97 44 26 26 46 75
split_gain=57.846 18.9643 10.4219 8.61323 8.83557 7.08253 6.13102 7.62404 7.17076 6.01983 5.93599 7.32955 7.1805 5.689 5.6577 7.83854 8.64139 7.09908 6.14974 6.026 7.03522 5.89059 5.16374 5.03325 4.99804 6.76182 6.68633 5.91087 5.84637 6.49403
threshold=-107.49999999999999 65.697587301587319 106.50000000000001 0.70714285714285718 0.18923611111111113 0.37303889963464437 7659.5000000000009 -585.99999999999989 11.500000000000002 -10.472 74.015833333333347 72.652500000000018 9.5642361111111125 -8.2283333333333299 3.5000000000000004 0.028458333333333256 75.761666666666684 0.59605672105672114 -3.5499999999999994 12.585714285714287 760000.00000000012 2.5000000000000004 0.0060000000000000617 0.48333333333333339 11.261111111111113 0.063909969082382931 -0.29285714285714276 0.95000000000000007 -0.030102583586626121 168.50000000000003
decision_type=8 8 8 8 8 10 2 10 10 10 10 10 10 10 2 10 8 10 10 10 8 2 10 10 10 10 8 8 10 10
left_child=1 5 14 4 -3 -1 24 8 -8 -7 11 -6 -13 -9 -2 16 19 18 -17 -16 -21 -20 -15 -18 25 -5 -26 -28 -29 -30
right_child=2 3 -4 6 10 9 7 13 -10 -11 -12 12 -14 22 15 17 23 -19 21 20 -22 -23 -24 -25 26 -27 27 28 29 -31
leaf_value=-0.002240409747193502 0.00067727936966373661 -0.0010908991085299216 0.00074708655266081186 0.0025475864511942344 -0.0017815523964238252 -0.0092276388120279516 -0.0010367655683624786 0.0015697608734325484 -0.0063191876193077643 -0.0040322380922507128 -0.0013111432761424972 -0.0070357066568030426 -0.0022912412443724427 -0.0020805791084375683 -0.00014244811565080042 0.0040373722187537096 -0.00037732798902867509 -0.002401185656517204 5.0075984422078858e-06 0.00025905072291849106 -0.0046573132972659251 0.0016410408909841735 0.00052146635281605214 -0.0033772969490987936 -0.0022019006017235821 -0.0017155932789426713 0.002468673147104469 0.00097416886942118996 0.00042007795713519969 -0.0042993824576727747
leaf_weight=573.765869140625 9139.6981735229492 4634.7987728118896 38436.105619430542 1241.4601173400879 780.09883689880371 398.45843887329102 435.11482620239258 724.97712135314941 493.83723068237305 409.01066398620605 1046.730152130127 867.10298156738281 430.91814804077148 2460.1802062988281 12203.238752365112 456.08629417419434 766.54270935058594 742.00736427307129 6878.680492401123 467.10583877563477 595.16709327697754 2780.6681938171387 951.38817405700684 1466.4056262969971 1429.7960071563721 457.57329368591309 815.23333358764648 1132.1404857635498 485.68718147277832 569.3714656829834
leaf_count=28 404 212 1681 56 36 20 20 33 23 20 48 41 20 113 546 20 34 33 305 21 27 123 43 66 66 21 37 51 22 26
internal_value=1.5029e-05 -0.00140183 0.000404801 -0.00115439 -0.0019225 -0.00479443 -0.000621945 -0.00139417 -0.00384871 -0.00660423 -0.00315519 -0.00408294 -0.00546361 -0.000842149 3.41495e-05 -0.000188892 -0.000621907 0.000429215 0.000637053 -0.000331191 -0.00249726 0.000476099 -0.001355 -0.00234808 1.61708e-05 0.00139912 -0.000514159 0.00029003 -0.000522772 -0.00212848
internal_weight=94269.3 20337.6 73931.7 18956.4 7759.65 1381.23 11196.8 5065.5 928.952 807.469 3124.85 2078.12 1298.02 4136.55 35495.6 26355.9 15498.5 10857.4 10115.4 13265.5 1062.27 9659.35 3411.57 2232.95 6131.26 1699.03 4432.23 3002.43 2187.2 1055.06
internal_count=4196 936 3260 868 357 68 511 232 43 40 145 97 61 189 1579 1175 694 481 448 594 48 428 156 100 279 77 202 136 99 48
is_linear=0
shrinkage=0.03


Tree=23
num_leaves=31
num_cat=0
split_feature=78 52 78 34 77 9 76 34 50 50 18 67 35 66 54 26 51 57 54 77 100 51 18 48 74 73 25 49 18 91
split_gain=56.1953 18.5422 10.102 8.38975 7.13021 6.96879 6.89179 6.77069 6.65517 9.37218 7.43088 5.96038 5.4877 7.60983 8.41411 6.66673 6.08354 5.57937 5.38652 8.14279 5.28704 5.11859 6.60102 6.38915 7.85997 5.96758 5.78246 5.04151 4.9766 4.91464
threshold=-107.49999999999999 65.697587301587319 106.50000000000001 0.70714285714285718 19.500000000000004 0.37303889963464437 315.00000000000006 0.58571428571428574 1.0296205882352945 1.1044500000000002 2.2750000000000004 -10.472 3.5000000000000004 0.028458333333333256 75.761666666666684 -3.5499999999999994 72.361000000000004 1.1716125000000004 72.385000000000019 28.500000000000004 0.85833333333333262 76.421388888888899 3.0500000000000003 -0.59999999999999964 9.5000000000000018 13.500000000000002 0.58883696780893058 -4.083333333333333 1.267857142857143 0.48333333333333339
decision_type=8 8 8 8 10 10 10 10 10 10 10 10 2 10 8 10 10 10 10 10 8 8 10 10 10 8 8 8 10 10
left_child=1 5 12 4 7 -1 18 -3 10 -10 20 -7 -2 14 16 -15 17 -14 19 -6 -5 22 23 25 26 -4 -25 -18 -26 -16
right_child=2 3 21 8 6 11 -8 -9 9 -11 -12 -13 13 15 29 -17 27 -19 -20 -21 -22 -23 -24 24 28 -27 -28 -29 -30 -31
leaf_value=-0.002212070169950875 0.00066673559450706121 -0.00074332565923572924 0.0020400054458945831 -0.00020355217990260268 -0.0066046473491018533 -0.0091752096042618282 -0.0052543019971747935 -0.0042323481255576037 -0.0020904513753442896 -6.740202064287485e-05 -0.0017530066147079604 -0.0039884455519790044 -0.0011520497468447651 0.0039612451302870177 -0.0003718552211334105 0.00026651586432864966 0.0023728998171060017 0.0023113696273258915 -0.00024509708229116688 -0.0016096582459797454 0.002853312451535864 0.0013971095393510605 -0.0014087626702502134 -0.00027595719189904279 0.00071581812239431973 0.00043254301411493391 -0.0033145891797578425 -5.0496508110566848e-06 -0.001741573365451709 -0.00333835043738399
leaf_weight=572.48184394836426 9145.8903770446777 4137.3305969238281 4815.8021507263184 875.88114547729492 445.75472831726074 394.79851531982422 887.17475700378418 568.59937477111816 4005.751443862915 4244.0593891143799 849.1542797088623 407.36475944519043 6578.2321872711182 457.9314079284668 766.25352668762207 10404.177888870239 944.82880592346191 446.14564514160156 845.60840606689453 860.30214309692383 1214.9908657073975 8260.8984546661377 1465.7652244567871 2119.4856700897217 16603.02451133728 3657.4816665649414 766.92891120910645 5291.922435760498 775.44486045837402 1461.4614887237549
leaf_count=28 404 189 210 40 21 20 42 26 184 193 39 20 297 20 34 461 42 20 39 40 55 360 65 93 725 160 34 235 34 66
internal_value=1.47794e-05 -0.00138296 0.000398601 -0.00113857 -0.00189757 -0.00474603 -0.00303019 -0.0011657 -0.000613114 -0.00104984 0.000612298 -0.00654945 3.36266e-05 -0.00018613 -0.000613045 0.000422631 -0.000326377 -0.000931777 -0.00211113 -0.00331819 0.00157328 0.000735403 0.000554384 0.000654558 0.000365279 0.00134628 -0.0010842 0.000355517 0.000606073 -0.00231861
internal_weight=94270.9 20309.3 73961.7 18934.6 7744.77 1374.65 3038.84 4705.93 11189.8 8249.81 2940.03 802.163 35496.8 26351 15488.8 10862.1 13261.1 7024.38 2151.67 1306.06 2090.87 38464.8 30203.9 28738.2 20264.9 8473.28 2886.41 6236.75 17378.5 2227.72
internal_count=4196 936 3260 868 357 68 142 215 511 377 134 40 1579 1175 694 481 594 317 100 61 95 1681 1321 1256 886 370 127 277 759 100
is_linear=0
shrinkage=0.03


Tree=24
num_leaves=31
num_cat=0
split_feature=78 52 78 75 34 72 50 18 9 10 67 67 58 35 66 54 8 43 98 81 68 100 81 46 54 76 91 1 81 16
split_gain=54.5902 18.1281 9.79165 8.17668 7.12366 9.35731 8.09508 7.20818 6.85598 6.80065 5.90062 5.62369 5.75815 5.32276 7.38779 8.1925 6.88501 6.17642 5.84281 6.87534 5.30974 5.109 5.10888 6.4265 5.03818 7.93157 4.79847 4.9766 4.71586 5.35527
threshold=-107.49999999999999 65.697587301587319 106.50000000000001 614.00000000000011 0.70714285714285718 0.18923611111111113 1.0296205882352945 2.2750000000000004 0.37303889963464437 -0.54999999999999993 -10.472 -1.9958333333333369 73.733500000000006 3.5000000000000004 0.028458333333333256 75.761666666666684 0.59605672105672114 0.46904761904761916 12.585714285714287 760000.00000000012 2.5000000000000004 0.85833333333333262 462500.00000000006 0.028528611356281267 74.015833333333347 272.50000000000006 0.48333333333333339 7690.0000000000009 625000.00000000012 0.55453864714202528
decision_type=8 8 8 10 8 8 10 10 10 10 10 8 10 2 10 8 10 8 10 8 2 8 8 10 10 10 10 2 8 10
left_child=1 8 13 4 5 -3 7 21 -1 -8 -10 22 -13 -2 15 18 17 20 -15 -20 28 -6 -11 -24 25 -7 -17 -28 -16 -30
right_child=2 3 -4 -5 6 24 9 -9 10 11 -12 12 -14 14 16 26 -18 -19 19 -21 -22 -23 23 -25 -26 -27 27 -29 29 -31
leaf_value=-0.0021840270783280934 0.00065636289403388725 -0.0010779369870147347 0.00072390234221625513 0.0023231532454317484 -0.00020056430215603359 -0.0023038374119589144 -0.0031501940109423775 -0.0017299710497168635 -0.0091225985270255786 0.0001832460245281701 -0.0039449554849615379 -0.0020681759253064771 0.00083860202622954992 -0.00013596461573917981 -0.0014249312847939937 -0.00036645981461179281 -0.0023745175274359873 0.0027029710264683282 0.00026412652529633421 -0.0046022349560941719 0.0014773755727014086 0.00280277730491984 -0.0033121513608994515 0.0004649943275710709 -0.0014797127098210524 -0.0060512091408020576 -0.001261283975905232 -0.0048092116117358684 0.00079313946314090605 -0.0022799516931572331
leaf_weight=571.21687316894531 9151.9903125762939 4556.6425189971924 38493.151149749756 599.14344215393066 875.70287132263184 1074.5277805328369 1384.4083290100098 847.6670093536377 391.1927318572998 919.03691864013672 405.74324417114258 832.62522888183594 2320.0805511474609 12197.878486633301 1781.495433807373 765.9686450958252 740.42511367797852 1136.7439994812012 466.94912910461426 591.97769355773926 2672.8975448608398 1218.4625625610352 1794.78466796875 523.32023239135742 999.52550315856934 967.18433952331543 620.49651908874512 836.09423637390137 3950.0603809356689 585.07763481140137
leaf_count=28 404 209 1681 27 40 50 64 39 20 42 20 38 105 546 79 34 33 50 21 27 118 55 83 24 46 46 28 38 175 26
internal_value=1.45353e-05 -0.00136431 0.000392496 -0.00112293 -0.00123579 -0.00193843 -0.000737473 0.000602779 -0.0046979 -0.00124465 -0.00649476 -0.000831366 7.05136e-05 3.31171e-05 -0.0001834 -0.000604298 0.000416159 0.000620426 -0.000321625 -0.00245812 0.000356812 0.00154739 -0.00170947 -0.00245961 -0.00322691 -0.00408111 -0.00228944 -0.00329972 -0.000117516 0.000396265
internal_weight=94272.5 20281.3 73991.2 18913.1 18314 7597.88 10716.1 2941.83 1368.15 7774.26 796.936 6389.85 3152.71 35498.1 26346.1 15479.4 10866.7 10126.3 13256.8 1058.93 8989.53 2094.17 3237.14 2318.1 3041.24 2041.71 2222.56 1456.59 6316.63 4535.14
internal_count=4196 936 3260 868 841 351 490 134 68 356 40 292 143 1579 1175 694 481 448 594 48 398 95 149 107 142 96 100 66 280 201
is_linear=0
shrinkage=0.03


Tree=25
num_leaves=31
num_cat=0
split_feature=78 52 52 59 45 94 35 78 78 66 72 67 33 94 75 54 54 100 94 91 16 31 53 32 43 94 34 53 57 70
split_gain=48.1194 28.8283 11.4662 7.97203 6.90153 6.8627 7.26073 7.93947 6.66259 7.7504 6.07716 6.03318 5.89032 8.92246 8.16147 5.67834 6.10569 7.28205 4.95734 5.42383 5.18748 5.11778 4.95357 6.46119 4.76642 4.57847 5.61018 5.88119 6.98278 7.13702
threshold=-93.499999999999986 66.676277777777798 71.376000000000019 74.806000000000012 -0.12474146043753002 -0.30833333333333318 3.5000000000000004 231.50000000000003 -231.49999999999997 -0.25483333333333319 0.10763888888888902 -0.85833333333331996 0.44721362229102174 -0.14305555555555552 20.500000000000004 65.470000000000013 77.820000000000007 2.2333333333333338 0.068750000000000019 0.48333333333333339 0.54580419580419581 0.64583333333333337 1.1465000000000003 0.60352593973283641 0.033333333333333347 0.22083333333333335 0.95000000000000007 1.0137500000000002 1.0372773524720895 0.84375000000000011
decision_type=8 8 8 10 8 8 2 10 10 8 8 8 10 8 10 8 10 10 8 10 10 10 10 10 8 10 10 8 10 8
left_child=1 12 5 -4 -5 -2 15 25 9 -3 11 -6 -1 -14 -15 -7 17 -17 19 21 -20 24 23 -10 -11 26 -8 -28 -29 -30
right_child=2 8 3 4 10 6 7 -9 22 18 -12 -13 13 14 -16 16 -18 -19 20 -21 -22 -23 -24 -25 -26 -27 27 28 29 -31
leaf_value=-0.0016076964131286663 -0.0033652306201591917 -0.0042371490999170086 0.00080771315343338974 -0.0035230576377575 0.0036637023388971721 -0.0019315530721132424 -0.00013191925456659386 0.0013426269612302512 -0.0008756945668172677 -0.0025296207779119794 -0.00093356823179294981 1.0800813770227051e-05 -0.0030169099786119366 -0.010240317277160049 -0.0045975424094181344 0.00085459599981619922 -0.0019247263333106496 0.0047737164894803615 -0.0042192526644125932 -0.0012609442962504614 -0.00062228103001952628 0.0029442086732309092 0.00088645279345744995 0.0021099894619266311 0.0014507428625138345 -0.0033304361935248788 -1.6032029086020913e-05 -0.0053722822894131678 -0.0045143979473823113 -0.0005629986681657405
leaf_weight=634.43904113769531 572.59600448608398 785.54549217224121 43032.631345748901 580.55493927001953 633.38024139404297 717.4091625213623 8104.6357021331787 1932.161190032959 8040.3626308441162 536.26800346374512 2747.8486480712891 1134.9329719543457 1045.6513500213623 408.01839828491211 536.36782646179199 7189.4381618499756 656.90545845031738 452.7020263671875 851.65370178222656 5174.3971748352051 626.30109214782715 591.7045841217041 2474.5998516082764 708.97284126281738 544.9219913482666 576.05772018432617 1578.4681129455566 539.13103294372559 549.40054130554199 1630.3648204803467
leaf_count=31 26 37 1883 26 28 32 361 84 366 25 122 50 51 21 26 315 29 20 40 238 29 27 111 32 25 26 71 24 25 73
internal_value=2.7459e-05 -0.00116968 0.000405907 0.000674838 -0.000446992 -0.00012242 -4.4678e-05 -0.000451061 -0.000787668 -0.00139035 -5.08701e-05 0.00132054 -0.00412812 -0.00493045 -0.00704373 0.00062732 0.000848727 0.00108735 -0.00112126 -0.000780915 -0.00269644 0.000703721 -0.000298375 -0.000633546 -0.000524022 -0.000718187 -0.000596592 -0.00147271 -0.00231807 -0.00156055
internal_weight=95587.8 22959.2 72628.6 48129.3 5096.72 24499.3 23926.7 14910.2 20334.7 9110.79 4516.16 1768.31 2624.48 1990.04 944.386 9016.45 8299.05 7642.14 8325.25 6847.29 1477.95 1672.89 11223.9 8749.34 1081.19 12978.1 12402 4297.36 2718.9 2179.77
internal_count=4254 1059 3195 2109 226 1086 1060 664 930 421 200 78 129 98 47 396 364 335 384 315 69 77 509 398 50 580 554 193 122 98
is_linear=0
shrinkage=0.03


Tree=26
num_leaves=31
num_cat=0
split_feature=78 52 52 59 45 94 35 78 78 66 67 33 94 75 90 32 54 26 100 70 45 42 50 43 96 66 53 32 94 34
split_gain=46.7332 28.1506 11.117 7.72858 6.72504 6.68387 7.0453 7.70358 6.48213 7.5729 5.91014 5.77834 8.79125 8.09732 5.70324 7.25615 5.51316 5.94131 6.82741 5.24094 6.00617 5.42901 6.942 7.83169 5.08649 4.89041 4.80733 6.26644 4.46417 5.45692
threshold=-93.499999999999986 66.676277777777798 71.376000000000019 74.806000000000012 -0.12474146043753002 -0.30833333333333318 3.5000000000000004 231.50000000000003 -231.49999999999997 -0.25483333333333319 -1.0185000000000028 0.44721362229102174 -0.14305555555555552 20.500000000000004 0.53452380952380962 0.53777548755351201 65.470000000000013 2.6125000000000003 2.2333333333333338 3.0017361111111116 -0.061430564735257397 -0.10714285714285719 1.0200500000000001 -0.054563492063492057 10.950000000000001 1.0000000180025095e-35 1.1465000000000003 0.60352593973283641 0.22083333333333335 0.95000000000000007
decision_type=8 8 8 10 8 8 2 10 10 8 8 10 8 10 8 8 8 10 10 8 10 10 10 8 10 10 10 10 10 10
left_child=1 11 5 -4 -5 -2 16 28 9 -3 -6 -1 -13 -14 19 25 -7 18 -18 21 -21 24 -23 -24 -11 -16 27 -10 29 -8
right_child=2 8 3 4 10 6 7 -9 26 14 -12 12 13 -15 15 -17 17 -19 -20 20 -22 22 23 -25 -26 -27 -28 -29 -30 -31
leaf_value=-0.0015863468702485293 -0.0033264243134844842 -0.0041919412281860823 0.00079503322365811167 -0.0034829831676631987 0.0014932506049825172 -0.0019065193253743197 -0.0001299714922815041 0.0013208483579471939 -0.00086341183470106501 0.0034416859552735949 -0.00081295096849289699 -0.0029810474096328326 -0.010192499167616789 -0.0045501674484790438 -0.0064776484820061936 -0.00067391865040991442 0.00088911330725987235 -0.0013922219613624904 0.0046802406764805292 0.00025867952408522215 -0.0041888852847103298 0.0021427417387019417 -0.0032967622040023081 6.7677958843932241e-05 -7.7379576927470192e-06 -0.0025326648250686198 0.00087247287376506725 0.0020741919298234521 -0.0032919156101206639 -0.0014529847665833617
leaf_weight=633.41987419128418 570.67232322692871 782.22407150268555 43067.403358459473 578.51321601867676 1493.4287700653076 716.02478790283203 8103.5666027069092 1934.75710105896 8033.3248062133789 593.62085151672363 3022.5060176849365 1042.5014705657959 403.86147308349609 533.90751266479492 439.01625633239746 1217.035400390625 6898.167501449585 953.05967330932617 454.86825942993164 453.26162528991699 686.75066757202148 547.39980125427246 1223.4760227203369 1266.9316444396973 1090.0069026947021 798.43243789672852 2476.7944450378418 710.4703426361084 574.14238357543945 4291.0583381652832
leaf_count=31 26 37 1883 26 66 32 361 84 366 27 134 51 21 26 21 56 302 42 20 21 32 25 57 58 50 37 111 32 26 193
internal_value=2.70246e-05 -0.00115366 0.000399683 0.000664329 -0.000440558 -0.000120639 -4.4039e-05 -0.000444572 -0.00077657 -0.00137159 -5.01237e-05 -0.0040837 -0.00488131 -0.00698837 -0.00110583 -0.00231963 0.000617572 0.000835364 0.00112424 -0.000597235 -0.00242188 -0.000156246 -0.000913489 -0.00158585 0.0012098 -0.00393635 -0.000294022 -0.000624509 -0.00070803 -0.000588083
internal_weight=95590.6 22932.4 72658.2 48161.9 5094.45 24496.3 23925.6 14903.5 20318.7 9098.16 4515.93 2613.69 1980.27 937.769 8315.93 2454.48 9022.12 8306.1 7353.04 5861.45 1140.01 4721.44 3037.81 2490.41 1683.63 1237.45 11220.6 8743.8 12968.8 12394.6
internal_count=4254 1059 3195 2109 226 1086 1060 664 930 421 200 129 98 47 384 114 396 364 322 270 53 217 140 115 77 58 509 398 580 554
is_linear=0
shrinkage=0.03


Tree=27
num_leaves=31
num_cat=2
split_feature=78 52 52 59 45 94 35 78 75 76 72 32 98 16 33 18 78 43 0 72 95 9 85 43 60 67 100 75 54 54
split_gain=45.3875 27.4865 10.7784 7.49265 6.55277 6.50948 6.83607 7.4746 6.37907 9.20597 6.25592 8.72258 6.62622 7.80525 7.06641 6.46362 6.40761 8.70109 6.32795 5.89097 5.84568 6.24772 5.80873 7.14144 6.18237 5.70559 5.63447 5.50034 5.35278 5.84091
threshold=-93.499999999999986 66.676277777777798 71.376000000000019 74.806000000000012 -0.12474146043753002 -0.30833333333333318 3.5000000000000004 231.50000000000003 668.50000000000011 558.00000000000011 0.18923611111111113 0.58637267904509294 12.050000000000002 0.47316628264208915 0.50438630242400928 -1.0499999999999998 -218.49999999999997 -0.10000000000000001 0 0.10763888888888902 9.4642857142857171 0.41702898550724643 1 0.066666666666666693 1.0344166666666668 -0.85833333333331996 1.3999999999999992 184.50000000000003 65.470000000000013 77.820000000000007
decision_type=8 8 8 10 8 8 2 10 10 10 8 8 10 10 10 10 10 8 1 8 10 8 9 8 10 8 8 10 8 10
left_child=1 20 5 -4 -5 -2 28 -8 9 10 15 12 13 -12 26 -3 -16 -18 27 25 21 -1 23 -11 -25 -6 -15 -17 -7 -30
right_child=2 8 3 4 19 6 7 -9 -10 22 11 -13 -14 14 16 18 17 -19 -20 -21 -22 -23 -24 24 -26 -27 -28 -29 29 -31
